{"learner":{"attributes":{"scikit_learn":"{\"_estimator_type\": \"classifier\"}"},"feature_names":["dead_fuel_moisture_1000hr","dead_fuel_moisture_100hr","pdsi","max_air_temperature","max_relative_humidity","min_air_temperature","min_relative_humidity","precipitation_amount","specific_humidity","surface_downwelling_shortwave_flux_in_air","wind_speed","SWE","Band1","LAI","slope_avg","slope_max","road_density_km_km2","wind_direction_category_N","wind_direction_category_NE","wind_direction_category_E","wind_direction_category_SE","wind_direction_category_S","wind_direction_category_SW","wind_direction_category_W","wind_direction_category_NW","veg_Agriculture ","veg_Barren ","veg_Native Chapparal ","veg_Native Coastal Sage Scrub ","veg_Native Conifer Alpine ","veg_Native Conifer Forest ","veg_Native Desert ","veg_Native Grassland ","veg_Native Inland Scrub ","veg_Native Oak Woodland ","veg_Native Wetland ","veg_Non-native forest ","veg_Non-native grassland ","veg_Non-native shrub ","veg_Riparian ","veg_Urban ","veg_Water "],"feature_types":["float","float","float","float","float","float","float","float","float","float","float","float","float","float","float","float","float","i","i","i","i","i","i","i","i","i","i","i","i","i","i","i","i","i","i","i","i","i","i","i","i","i"],"gradient_booster":{"model":{"gbtree_model_param":{"num_parallel_tree":"1","num_trees":"100"},"iteration_indptr":[0,1,2,3,4,5,6,7,8,9,10,11,12,13,14,15,16,17,18,19,20,21,22,23,24,25,26,27,28,29,30,31,32,33,34,35,36,37,38,39,40,41,42,43,44,45,46,47,48,49,50,51,52,53,54,55,56,57,58,59,60,61,62,63,64,65,66,67,68,69,70,71,72,73,74,75,76,77,78,79,80,81,82,83,84,85,86,87,88,89,90,91,92,93,94,95,96,97,98,99,100],"tree_info":[0,0,0,0,0,0,0,0,0,0,0,0,0,0,0,0,0,0,0,0,0,0,0,0,0,0,0,0,0,0,0,0,0,0,0,0,0,0,0,0,0,0,0,0,0,0,0,0,0,0,0,0,0,0,0,0,0,0,0,0,0,0,0,0,0,0,0,0,0,0,0,0,0,0,0,0,0,0,0,0,0,0,0,0,0,0,0,0,0,0,0,0,0,0,0,0,0,0,0,0],"trees":[{"base_weights":[-1.0617659E0,-1.0987382E0,-8.8926286E-1,-1.1218884E0,-1.046166E0,-1.0170265E0,-6.9812226E-1,-1.1295148E0,-1.1019219E0,-1.075438E0,-9.393976E-1,-9.28037E-1,-1.0833552E0,-5.746363E-1,-8.016815E-1,-1.1318882E0,-1.1090982E0,-1.120848E0,-1.0780227E0,-1.107406E0,-1.0280812E0,-9.5010006E-1,-7.2762036E-1,-7.555374E-1,-9.415074E-1,-1.0939323E0,-9.984722E-1,-7.1230173E-1,-3.9564177E-1,-8.1121635E-1,-4.9478494E-2,-1.1229833E0,-1.1348888E0,-1.0643743E0,-1.1226405E0,-1.1238525E0,-1.0904262E0,-1.090366E0,-1.0398324E0,-1.1114475E0,-1.0616963E0,-1.0619885E0,-1.0000101E0,-9.903891E-1,-9.129559E-1,-7.8322196E-1,2.4205983E-1,-5.4223776E-1,-8.173411E-1,-9.653739E-1,-8.3771884E-1,-1.0474086E0,-1.107341E0,-1.0192788E0,-9.164671E-1,-7.3652804E-1,4.5024613E-1,-4.1394576E-1,2.52367E0,-8.6470425E-1,-6.7923E-1,-6.911928E-1,1.9961743E0,-3.3912146E-1,-3.2871622E-1,-3.4107682E-1,-3.3868444E-1,-3.2124186E-1,-2.7819252E-1,-2.5941473E-1,-3.369286E-1,-3.3716312E-1,-8.6007744E-2,-3.3050784E-1,-3.0811372E-1,-3.2176563E-1,-3.3200648E-1,-2.996706E-1,-3.230591E-1,-3.3678108E-1,-3.3198646E-1,-3.225985E-1,-3.0350122E-1,-3.226934E-1,-3.128751E-1,-3.1934693E-1,-2.9538772E-1,-2.8876904E-1,-3.1192207E-1,-2.7855924E-1,-2.3730329E-1,-2.416391E-1,1.06810816E-1,2.8678E-1,-1.9228677E-1,-1.8740326E-1,-2.8544609E-2,-2.5558633E-1,-1.481119E-1,-2.7848467E-1,-3.0232972E-1,-2.6459554E-1,-1.8815753E-1,-2.9920503E-1,-3.1936783E-1,-3.257662E-1,-3.3555532E-1,-3.189899E-1,-2.9834986E-1,1.16686024E-1,-2.768426E-1,-2.3249525E-1,-1.410195E-1,1.0158366E0,-6.64135E-2,-1.7221144E-1,-6.2502354E-2,-2.4763706E-1,2.1176066E0,-2.5151417E-1,-3.0031073E-1,-2.4446242E-1,-1.6756766E-1,-2.5164488E-1,-7.541194E-2,1.921896E-1,2.0741858E0],"categories":[],"categories_nodes":[],"categories_segments":[],"categories_sizes":[],"default_left":[0,0,0,0,0,0,0,0,0,0,0,0,0,0,0,1,0,0,0,0,0,0,0,0,0,0,0,0,1,0,1,0,0,0,0,0,0,0,0,1,0,0,0,0,0,0,0,0,0,0,0,0,0,0,0,0,0,0,0,0,0,1,0,0,0,0,0,0,0,0,0,0,0,0,0,0,0,0,0,0,0,0,0,0,0,0,0,0,0,0,0,0,0,0,0,0,0,0,0,0,0,0,0,0,0,0,0,0,0,0,0,0,0,0,0,0,0,0,0,0,0,0,0,0,0,0,0],"id":0,"left_children":[1,3,5,7,9,11,13,15,17,19,21,23,25,27,29,31,33,35,37,39,41,43,45,47,49,51,53,55,57,59,61,63,65,67,69,71,73,75,77,79,81,83,85,87,89,91,93,95,97,99,101,103,105,107,109,111,113,115,117,119,121,123,125,-1,-1,-1,-1,-1,-1,-1,-1,-1,-1,-1,-1,-1,-1,-1,-1,-1,-1,-1,-1,-1,-1,-1,-1,-1,-1,-1,-1,-1,-1,-1,-1,-1,-1,-1,-1,-1,-1,-1,-1,-1,-1,-1,-1,-1,-1,-1,-1,-1,-1,-1,-1,-1,-1,-1,-1,-1,-1,-1,-1,-1,-1,-1,-1],"loss_changes":[3.1575E3,4.95125E2,2.1339688E3,4.190625E1,3.8870312E2,3.0823047E2,4.4742188E2,8.65625E0,3.4203125E1,1.4700781E2,6.013867E1,5.1291016E1,2.5851562E1,3.934463E2,1.365625E2,3.640625E0,1.1755859E1,2.7617188E0,1.5191406E1,9.6015625E0,3.648828E1,3.7322266E1,7.0029236E1,2.099347E1,5.0603516E1,1.5482422E1,4.759033E0,2.5467285E2,3.7234937E2,1.321875E2,3.1573706E2,8.128906E0,3.75E-1,3.4042969E0,9.511719E-1,4.9609375E-1,1.6953125E0,6.4160156E0,1.1775391E1,1.6484375E0,2.1625977E0,3.5273438E0,2.0376953E1,1.580957E1,2.4532227E1,3.1335632E1,4.5375515E1,1.3514969E1,1.3680908E1,2.5586914E1,3.5679443E1,4.0776367E0,3.7460938E0,1.8361816E0,6.031067E0,9.0288574E1,3.65471E2,2.2720532E2,6.6557263E2,4.717871E1,8.8400635E1,1.1672813E1,3.7847977E2,0E0,0E0,0E0,0E0,0E0,0E0,0E0,0E0,0E0,0E0,0E0,0E0,0E0,0E0,0E0,0E0,0E0,0E0,0E0,0E0,0E0,0E0,0E0,0E0,0E0,0E0,0E0,0E0,0E0,0E0,0E0,0E0,0E0,0E0,0E0,0E0,0E0,0E0,0E0,0E0,0E0,0E0,0E0,0E0,0E0,0E0,0E0,0E0,0E0,0E0,0E0,0E0,0E0,0E0,0E0,0E0,0E0,0E0,0E0,0E0,0E0,0E0,0E0,0E0],"parents":[2147483647,0,0,1,1,2,2,3,3,4,4,5,5,6,6,7,7,8,8,9,9,10,10,11,11,12,12,13,13,14,14,15,15,16,16,17,17,18,18,19,19,20,20,21,21,22,22,23,23,24,24,25,25,26,26,27,27,28,28,29,29,30,30,31,31,32,32,33,33,34,34,35,35,36,36,37,37,38,38,39,39,40,40,41,41,42,42,43,43,44,44,45,45,46,46,47,47,48,48,49,49,50,50,51,51,52,52,53,53,54,54,55,55,56,56,57,57,58,58,59,59,60,60,61,61,62,62],"right_children":[2,4,6,8,10,12,14,16,18,20,22,24,26,28,30,32,34,36,38,40,42,44,46,48,50,52,54,56,58,60,62,64,66,68,70,72,74,76,78,80,82,84,86,88,90,92,94,96,98,100,102,104,106,108,110,112,114,116,118,120,122,124,126,-1,-1,-1,-1,-1,-1,-1,-1,-1,-1,-1,-1,-1,-1,-1,-1,-1,-1,-1,-1,-1,-1,-1,-1,-1,-1,-1,-1,-1,-1,-1,-1,-1,-1,-1,-1,-1,-1,-1,-1,-1,-1,-1,-1,-1,-1,-1,-1,-1,-1,-1,-1,-1,-1,-1,-1,-1,-1,-1,-1,-1,-1,-1,-1],"split_conditions":[1.0696273E1,2.983E2,2.981E2,2.923E2,1.7024413E0,1.64E1,9.400001E0,2.5950446E0,9.49509E-2,9.49509E-2,4.6180353E0,1.37E1,2.741E2,5.8209457E1,4E1,1.35E1,1.43E1,1.2750368E0,2.6923163E0,6.432409E-1,2.856E2,3.179E2,1E0,1.4250045E-1,3.054E2,3.88E1,5.7000003E0,1.90756E1,3.2522655E0,3.359E2,2.9424975E0,9.49509E-2,2.881E2,4.290268E0,-3.9400005E0,2.921E2,1E0,1.38E1,1.5E1,3.4055144E-1,3.076E2,2.22315E-1,6.042857E-1,1E0,1E0,1.89068E1,7.5E0,1E0,5.4E0,1.4E1,2.6800003E0,1.31E1,1.97E1,4.1079967E1,2.249929E-2,3.6324997E0,1.93572E1,3.286E2,3.8E1,1.57E1,3.3955536E0,1.6495535E0,1.1175766E2,-3.3912146E-1,-3.2871622E-1,-3.4107682E-1,-3.3868444E-1,-3.2124186E-1,-2.7819252E-1,-2.5941473E-1,-3.369286E-1,-3.3716312E-1,-8.6007744E-2,-3.3050784E-1,-3.0811372E-1,-3.2176563E-1,-3.3200648E-1,-2.996706E-1,-3.230591E-1,-3.3678108E-1,-3.3198646E-1,-3.225985E-1,-3.0350122E-1,-3.226934E-1,-3.128751E-1,-3.1934693E-1,-2.9538772E-1,-2.8876904E-1,-3.1192207E-1,-2.7855924E-1,-2.3730329E-1,-2.416391E-1,1.06810816E-1,2.8678E-1,-1.9228677E-1,-1.8740326E-1,-2.8544609E-2,-2.5558633E-1,-1.481119E-1,-2.7848467E-1,-3.0232972E-1,-2.6459554E-1,-1.8815753E-1,-2.9920503E-1,-3.1936783E-1,-3.257662E-1,-3.3555532E-1,-3.189899E-1,-2.9834986E-1,1.16686024E-1,-2.768426E-1,-2.3249525E-1,-1.410195E-1,1.0158366E0,-6.64135E-2,-1.7221144E-1,-6.2502354E-2,-2.4763706E-1,2.1176066E0,-2.5151417E-1,-3.0031073E-1,-2.4446242E-1,-1.6756766E-1,-2.5164488E-1,-7.541194E-2,1.921896E-1,2.0741858E0],"split_indices":[12,3,3,3,12,0,1,12,16,16,16,6,9,12,15,0,1,12,12,12,5,9,28,13,9,6,10,14,13,9,13,16,3,16,2,5,30,0,0,13,3,12,14,25,36,14,1,28,10,0,2,1,0,12,13,16,14,9,15,0,16,13,12,0,0,0,0,0,0,0,0,0,0,0,0,0,0,0,0,0,0,0,0,0,0,0,0,0,0,0,0,0,0,0,0,0,0,0,0,0,0,0,0,0,0,0,0,0,0,0,0,0,0,0,0,0,0,0,0,0,0,0,0,0,0,0,0],"split_type":[0,0,0,0,0,0,0,0,0,0,0,0,0,0,0,0,0,0,0,0,0,0,0,0,0,0,0,0,0,0,0,0,0,0,0,0,0,0,0,0,0,0,0,0,0,0,0,0,0,0,0,0,0,0,0,0,0,0,0,0,0,0,0,0,0,0,0,0,0,0,0,0,0,0,0,0,0,0,0,0,0,0,0,0,0,0,0,0,0,0,0,0,0,0,0,0,0,0,0,0,0,0,0,0,0,0,0,0,0,0,0,0,0,0,0,0,0,0,0,0,0,0,0,0,0,0,0],"sum_hessian":[4.952253E5,4.0781403E5,8.741129E4,2.8312128E5,1.2469275E5,5.238883E4,3.5022465E4,2.0482889E5,7.829237E4,9.785526E4,2.6837494E4,2.2379066E4,3.0009762E4,1.5977338E4,1.9045127E4,1.8344862E5,2.1380273E4,4.3666492E4,3.462588E4,5.8406137E4,3.9449117E4,2.5543146E4,1.2943478E3,1.6251244E3,2.0753941E4,2.66741E4,3.3356626E3,9.02963E3,6.9477085E3,1.8806656E4,2.3846935E2,4.6329723E4,1.371189E5,4.9877144E3,1.6392559E4,3.970881E4,3.9576863E3,2.6147398E4,8.478479E3,5.36402E4,4.76594E3,1.7850518E4,2.1598602E4,1.2240564E4,1.3302582E4,1.2243364E3,7.001132E1,3.6729016E2,1.2578342E3,1.686702E4,3.886921E3,5.985537E3,2.068856E4,2.6514905E3,6.841722E2,8.845661E3,1.8396822E2,6.9052705E3,4.2437634E1,1.3379164E4,5.427493E3,1.8202943E2,5.64399E1,3.6384562E4,9.945162E3,1.0200456E5,3.511434E4,4.7576465E3,2.3006798E2,3.2205208E1,1.6360354E4,3.97073E4,1.5079362E0,3.3464336E3,6.112527E2,1.2534289E4,1.3613109E4,4.0405151E3,4.437964E3,1.6127378E4,3.751282E4,3.729234E3,1.0367062E3,1.0369861E4,7.4806562E3,4.1474707E3,1.745113E4,7.8404067E3,4.4001577E3,1.1790122E4,1.51246E3,1.2011788E3,2.315759E1,3.8667793E1,3.134353E1,3.097732E2,5.7516994E1,1.1348297E3,1.2300451E2,9.008088E3,7.8589326E3,3.2089958E3,6.7792505E2,1.542511E3,4.4430264E3,7.119936E3,1.3568625E4,9.3987506E2,1.7116152E3,3.0158725E0,6.811563E2,7.728388E3,1.1172731E3,3.3497726E1,1.5047049E2,3.88132E3,3.0239507E3,2.4880947E1,1.7556686E1,1.1219907E4,2.1592568E3,2.5525051E3,2.874988E3,1.3560655E2,4.6422894E1,4.5130375E1,1.1309522E1],"tree_param":{"num_deleted":"0","num_feature":"42","num_nodes":"127","size_leaf_vector":"1"}},{"base_weights":[-1.0018119E0,-1.0492619E0,-8.0873895E-1,-1.0771959E0,-9.8657864E-1,-6.434592E-1,-9.8301035E-1,-1.0879973E0,-1.0560127E0,-1.0480393E0,-9.2032677E-1,-7.439876E-1,-4.9050373E-1,-8.9213413E-1,-1.0344768E0,-1.0938689E0,-1.0776337E0,-1.0768003E0,-1.0293562E0,-1.0629905E0,-9.7015524E-1,-9.551064E-1,-8.100093E-1,-7.937954E-1,-6.104027E-1,-6.721684E-1,-3.8005203E-1,-9.373897E-1,-7.784813E-1,-1.046822E0,-9.359732E-1,-1.0865138E0,-1.0961742E0,-1.0787362E0,-5.52411E-1,-1.0800169E0,-1.0477217E0,-1.0081758E0,-1.0583142E0,-3.2318804E-1,-1.0568616E0,-9.7669154E-1,-7.261226E-1,-9.9746174E-1,-9.211111E-1,-8.306796E-1,-4.863362E-1,-7.278086E-1,-8.607816E-1,-8.1065077E-1,-5.10998E-1,-6.834044E-1,6.566825E-1,-2.6002166E-1,-5.942475E-1,-9.5341444E-1,-8.2933563E-1,-8.360685E-1,-6.152916E-1,-9.889338E-1,-1.0628948E0,-9.849056E-1,-8.9804214E-1,-3.274521E-1,-3.2045493E-1,-3.2885662E-1,-1.3465631E-1,-3.1350803E-1,-3.2567006E-1,-2.162149E-1,5.9252296E-2,-3.2401276E-1,-6.22582E-2,-3.1717274E-1,-2.9811233E-1,-3.0701017E-1,-2.8196368E-1,2.3868698E-1,-3.1756043E-1,-3.143675E-1,-3.200381E-1,-2.9668385E-1,-2.6195902E-1,3.5423785E-1,-2.7081326E-1,-2.993594E-1,3.6267705E-2,-3.026021E-1,-2.715984E-1,-2.5130546E-1,-2.776214E-3,2.5078592E-1,-1.7121322E-1,-2.4859227E-1,-1.9629247E-1,-2.6060665E-1,-5.2241713E-2,-2.694293E-1,-2.0427467E-1,-1.955112E-1,-1.2660545E-1,-2.1707846E-1,-1.4055097E-1,-1.4902616E-1,1.0357769E0,-9.3957044E-2,7.432311E-2,-1.9864447E-1,-9.039896E-2,-2.731993E-1,-3.005921E-1,-2.9162598E-1,-2.2361866E-1,-2.1911608E-1,-2.740174E-1,-2.3509371E-1,-1.12734534E-1,-2.773975E-1,-3.035765E-1,-3.113503E-1,-3.2205498E-1,-2.0559806E-1,-2.9768926E-1,-2.7887693E-1,-2.3866095E-1],"categories":[],"categories_nodes":[],"categories_segments":[],"categories_sizes":[],"default_left":[0,0,0,0,0,0,0,0,0,0,0,0,0,0,0,0,0,0,0,1,1,0,0,0,0,1,0,0,0,0,0,1,1,0,0,0,0,0,0,0,0,0,0,0,0,0,0,0,1,0,0,0,0,0,0,0,0,0,0,0,0,0,0,0,0,0,0,0,0,0,0,0,0,0,0,0,0,0,0,0,0,0,0,0,0,0,0,0,0,0,0,0,0,0,0,0,0,0,0,0,0,0,0,0,0,0,0,0,0,0,0,0,0,0,0,0,0,0,0,0,0,0,0,0,0],"id":1,"left_children":[1,3,5,7,9,11,13,15,17,19,21,23,25,27,29,31,33,35,37,39,41,43,45,47,49,51,53,55,57,59,61,63,65,67,69,71,73,75,77,-1,79,81,83,85,87,89,91,93,95,97,99,101,103,105,107,109,111,113,115,117,119,121,123,-1,-1,-1,-1,-1,-1,-1,-1,-1,-1,-1,-1,-1,-1,-1,-1,-1,-1,-1,-1,-1,-1,-1,-1,-1,-1,-1,-1,-1,-1,-1,-1,-1,-1,-1,-1,-1,-1,-1,-1,-1,-1,-1,-1,-1,-1,-1,-1,-1,-1,-1,-1,-1,-1,-1,-1,-1,-1,-1,-1,-1,-1],"loss_changes":[3.5325938E3,5.4103125E2,2.1911367E3,4.784375E1,3.8770312E2,6.001914E2,1.7230469E2,7.46875E0,3.8992188E1,5.6621094E1,1.755E2,1.563125E2,3.1060474E2,6.818555E1,2.7769531E1,3.359375E-1,2.9136719E1,2.6679688E0,1.8390625E1,2.5E0,1.2027344E1,4.9367188E1,7.331885E1,7.5234375E1,1.27072266E2,8.789331E1,2.4761182E2,1.5793945E1,3.540088E1,1.8486328E1,4.0195312E0,8.203125E-1,1.5625E-1,1.06640625E1,1.3975952E1,5.8984375E-1,1.0478516E0,1.8070312E1,6.314453E0,0E0,1.4765625E0,8.996094E0,7.251871E1,7.123047E0,2.5882812E1,5.958496E1,7.454346E1,6.357959E1,4.6058594E1,2.3472534E1,5.3343994E1,4.9823975E1,1.617175E2,1.668612E2,6.862048E1,1.6388672E1,1.4189941E1,2.239392E1,4.0054016E1,5.828125E0,3.2597656E0,1.8520508E0,4.1104736E0,0E0,0E0,0E0,0E0,0E0,0E0,0E0,0E0,0E0,0E0,0E0,0E0,0E0,0E0,0E0,0E0,0E0,0E0,0E0,0E0,0E0,0E0,0E0,0E0,0E0,0E0,0E0,0E0,0E0,0E0,0E0,0E0,0E0,0E0,0E0,0E0,0E0,0E0,0E0,0E0,0E0,0E0,0E0,0E0,0E0,0E0,0E0,0E0,0E0,0E0,0E0,0E0,0E0,0E0,0E0,0E0,0E0,0E0,0E0,0E0,0E0,0E0],"parents":[2147483647,0,0,1,1,2,2,3,3,4,4,5,5,6,6,7,7,8,8,9,9,10,10,11,11,12,12,13,13,14,14,15,15,16,16,17,17,18,18,19,19,20,20,21,21,22,22,23,23,24,24,25,25,26,26,27,27,28,28,29,29,30,30,31,31,32,32,33,33,34,34,35,35,36,36,37,37,38,38,40,40,41,41,42,42,43,43,44,44,45,45,46,46,47,47,48,48,49,49,50,50,51,51,52,52,53,53,54,54,55,55,56,56,57,57,58,58,59,59,60,60,61,61,62,62],"right_children":[2,4,6,8,10,12,14,16,18,20,22,24,26,28,30,32,34,36,38,40,42,44,46,48,50,52,54,56,58,60,62,64,66,68,70,72,74,76,78,-1,80,82,84,86,88,90,92,94,96,98,100,102,104,106,108,110,112,114,116,118,120,122,124,-1,-1,-1,-1,-1,-1,-1,-1,-1,-1,-1,-1,-1,-1,-1,-1,-1,-1,-1,-1,-1,-1,-1,-1,-1,-1,-1,-1,-1,-1,-1,-1,-1,-1,-1,-1,-1,-1,-1,-1,-1,-1,-1,-1,-1,-1,-1,-1,-1,-1,-1,-1,-1,-1,-1,-1,-1,-1,-1,-1,-1,-1],"split_conditions":[8.745961E0,2.983E2,1.4400001E1,2.911E2,9.49509E-2,3.179E2,1.71E1,9.49509E-2,9.49509E-2,6.9082946E-1,2.6923163E0,3.041E2,3.0034622E1,3.041E2,2.771E2,1.35E1,3.9600002E1,1.0385647E0,1.56E1,3.4055144E-1,3.5425043E0,2.856E2,4.6180353E0,2.59E1,9.068E-1,3.6633294E0,1.07E1,2.4400005E0,2.4400005E0,3.8600002E1,3.882036E1,8.2991546E-1,1.13699995E-2,1.41E1,1.5377564E0,2.921E2,1E0,2.8908937E0,1.54E-3,-3.2318804E-1,1.40748E1,1E0,1.2604E1,6.8E1,5.016E-1,2.15972E1,1.044457E-1,2.2739797E0,3.087229E0,3.3444192E0,3.391437E1,3.0715914E0,4.3E1,1E0,2.119999E0,3.84E1,1.6390001E2,3.88E1,1.447363E2,1.31E1,1.97E1,9.400001E0,3.394E2,-3.274521E-1,-3.2045493E-1,-3.2885662E-1,-1.3465631E-1,-3.1350803E-1,-3.2567006E-1,-2.162149E-1,5.9252296E-2,-3.2401276E-1,-6.22582E-2,-3.1717274E-1,-2.9811233E-1,-3.0701017E-1,-2.8196368E-1,2.3868698E-1,-3.1756043E-1,-3.143675E-1,-3.200381E-1,-2.9668385E-1,-2.6195902E-1,3.5423785E-1,-2.7081326E-1,-2.993594E-1,3.6267705E-2,-3.026021E-1,-2.715984E-1,-2.5130546E-1,-2.776214E-3,2.5078592E-1,-1.7121322E-1,-2.4859227E-1,-1.9629247E-1,-2.6060665E-1,-5.2241713E-2,-2.694293E-1,-2.0427467E-1,-1.955112E-1,-1.2660545E-1,-2.1707846E-1,-1.4055097E-1,-1.4902616E-1,1.0357769E0,-9.3957044E-2,7.432311E-2,-1.9864447E-1,-9.039896E-2,-2.731993E-1,-3.005921E-1,-2.9162598E-1,-2.2361866E-1,-2.1911608E-1,-2.740174E-1,-2.3509371E-1,-1.12734534E-1,-2.773975E-1,-3.035765E-1,-3.113503E-1,-3.2205498E-1,-2.0559806E-1,-2.9768926E-1,-2.7887693E-1,-2.3866095E-1],"split_indices":[12,3,0,3,16,9,0,16,16,12,12,3,12,9,9,0,0,12,0,13,13,5,16,6,14,13,1,2,2,6,12,13,8,0,16,5,30,12,8,0,14,33,14,15,14,14,13,16,13,16,12,16,15,33,2,6,9,6,12,1,0,1,9,0,0,0,0,0,0,0,0,0,0,0,0,0,0,0,0,0,0,0,0,0,0,0,0,0,0,0,0,0,0,0,0,0,0,0,0,0,0,0,0,0,0,0,0,0,0,0,0,0,0,0,0,0,0,0,0,0,0,0,0,0,0],"split_type":[0,0,0,0,0,0,0,0,0,0,0,0,0,0,0,0,0,0,0,0,0,0,0,0,0,0,0,0,0,0,0,0,0,0,0,0,0,0,0,0,0,0,0,0,0,0,0,0,0,0,0,0,0,0,0,0,0,0,0,0,0,0,0,0,0,0,0,0,0,0,0,0,0,0,0,0,0,0,0,0,0,0,0,0,0,0,0,0,0,0,0,0,0,0,0,0,0,0,0,0,0,0,0,0,0,0,0,0,0,0,0,0,0,0,0,0,0,0,0,0,0,0,0,0,0],"sum_hessian":[3.856941E5,3.0960138E5,7.609272E4,2.1415147E5,9.544992E4,3.9056266E4,3.703645E4,1.4179723E5,7.2354234E4,4.950772E4,4.59422E4,2.3564727E4,1.5491541E4,1.339779E4,2.363866E4,9.044831E4,5.134892E4,4.063013E4,3.17241E4,4.152382E4,7.983899E3,3.492408E4,1.1018122E4,1.7161158E4,6.403567E3,5.8555615E3,9.6359795E3,9.57705E3,3.8207402E3,2.0997475E4,2.641185E3,2.1696688E4,6.8751625E4,5.1240316E4,1.0860329E2,3.6550965E4,4.079167E3,1.8343283E4,1.3380817E4,1.2403338E4,2.9120482E4,7.7727085E3,2.1119048E2,1.553739E4,1.938669E4,1.0355252E4,6.6287036E2,8.651045E3,8.510114E3,2.1219006E3,4.2816665E3,5.806947E3,4.861468E1,6.1768335E3,3.4591458E3,8.333361E3,1.2436885E3,2.8210945E3,9.9964575E2,4.576657E3,1.6420818E4,1.1424375E3,1.4987476E3,1.7005818E4,4.690869E3,6.87494E4,2.2260807E0,8.659652E3,4.2580664E4,8.872872E1,1.9874569E1,3.6549652E4,1.3112327E0,3.45212E3,6.270471E2,1.4994137E4,3.3491462E3,1.1625186E0,1.3379654E4,1.5357114E4,1.3763369E4,6.942146E3,8.305622E2,1.7417562E1,1.9377292E2,1.5531901E4,5.4881086E0,2.9511616E3,1.6435527E4,1.0267668E4,8.758403E1,3.922599E1,6.2364435E2,3.6430352E3,5.00801E3,8.412969E3,9.714563E1,1.2639941E3,8.579065E2,1.6562595E3,2.6254067E3,4.8900513E3,9.1689557E2,3.4998547E1,1.3616134E1,5.5917056E3,5.851283E2,2.8071624E3,6.5198334E2,4.442268E3,3.891093E3,4.5660046E2,7.8708795E2,1.1963792E3,1.6247153E3,5.856876E2,4.1395816E2,1.2164904E3,3.3601667E3,4.917484E3,1.1503334E4,2.9766787E1,1.1126707E3,1.1398682E3,3.5887933E2],"tree_param":{"num_deleted":"0","num_feature":"42","num_nodes":"125","size_leaf_vector":"1"}},{"base_weights":[-9.472868E-1,-1.0090737E0,-7.2960883E-1,-1.0433463E0,-9.3341076E-1,-5.6751645E-1,-9.4325733E-1,-1.0577769E0,-1.0181317E0,-1.005869E0,-8.554403E-1,-7.002459E-1,-4.5006737E-1,-8.4868324E-1,-9.9753946E-1,-1.0647207E0,-1.0451022E0,-1.0428768E0,-9.8583806E-1,-1.0241207E0,-9.0923196E-1,-8.9016086E-1,-7.346178E-1,-8.1871015E-1,-6.476611E-1,-5.9218675E-1,-3.173863E-1,-8.811721E-1,-6.8610847E-1,-1.0162193E0,-9.1410315E-1,-1.0563477E0,-3.203617E-1,-1.0466249E0,-4.6055493E-1,-1.0464816E0,-1.0027881E0,-9.565173E-1,-1.0171274E0,-1.0425991E0,-1.0162472E0,-9.1972226E-1,-6.866735E-1,-9.4204384E-1,-8.4930384E-1,-7.575794E-1,-4.6331322E-1,-8.307753E-1,-3.271482E-1,-7.4810135E-1,-5.8211297E-1,-6.1395425E-1,3.1553745E-1,-1.271255E-1,-4.509301E-1,-9.4573945E-1,-8.276264E-1,-7.2241807E-1,-8.627307E-2,-8.822583E-1,-1.0248164E0,-9.40495E-1,-8.1378436E-1,-3.1844038E-1,-3.083229E-1,-3.0244425E-1,-3.166156E-1,1.14342734E-1,-2.0154166E-1,-3.1224078E-1,-3.17998E-1,-3.0582502E-1,-2.730593E-1,-2.9199338E-1,-2.61597E-1,-3.0707029E-1,-2.7258906E-1,-3.1344247E-1,-2.9721674E-1,-3.014665E-1,-3.0866602E-1,-2.8092504E-1,-2.3582901E-1,8.502824E-2,-2.5038895E-1,-2.9057884E-1,-2.738765E-1,-2.9534444E-1,-2.503675E-1,-2.2937006E-1,-1.8577566E-2,1.5518922E-1,-1.4613211E-1,-2.7050868E-1,-2.3141167E-1,5.301954E-1,-1.829103E-1,-1.1985541E-1,-2.3098856E-1,-1.4679876E-1,-1.9632342E-1,-1.5160123E-1,-2.2687037E-1,-4.3664172E-2,4.749259E-1,-1.0517797E-1,-7.282704E-3,-1.5468933E-1,-2.6190376E-2,-2.6144418E-1,-3.00354E-1,-2.745095E-1,-2.3530008E-1,-2.5317672E-1,-1.8121554E-1,-7.93226E-2,5.7398176E-1,-2.6943836E-1,-1.7688996E-1,-2.962284E-1,-3.115047E-1,-2.670063E-1,-2.937337E-1,1.972842E-1,-2.4597342E-1],"categories":[],"categories_nodes":[],"categories_segments":[],"categories_sizes":[],"default_left":[0,0,0,0,0,0,0,0,0,0,0,0,0,0,0,0,0,0,0,1,1,0,0,0,0,0,0,0,0,0,0,1,0,0,0,0,0,0,0,0,0,0,0,0,0,0,0,0,0,0,0,0,0,0,0,0,1,0,0,0,0,0,0,0,0,0,0,0,0,0,0,0,0,0,0,0,0,0,0,0,0,0,0,0,0,0,0,0,0,0,0,0,0,0,0,0,0,0,0,0,0,0,0,0,0,0,0,0,0,0,0,0,0,0,0,0,0,0,0,0,0,0,0,0,0],"id":2,"left_children":[1,3,5,7,9,11,13,15,17,19,21,23,25,27,29,31,33,35,37,39,41,43,45,47,49,51,53,55,57,59,61,63,-1,65,67,69,71,73,75,77,79,81,83,85,87,89,91,93,95,97,99,101,103,105,107,109,111,113,115,117,119,121,123,-1,-1,-1,-1,-1,-1,-1,-1,-1,-1,-1,-1,-1,-1,-1,-1,-1,-1,-1,-1,-1,-1,-1,-1,-1,-1,-1,-1,-1,-1,-1,-1,-1,-1,-1,-1,-1,-1,-1,-1,-1,-1,-1,-1,-1,-1,-1,-1,-1,-1,-1,-1,-1,-1,-1,-1,-1,-1,-1,-1,-1,-1],"loss_changes":[4.03375E3,6.048906E2,2.2963125E3,5.74375E1,4.1071094E2,5.8761523E2,1.4602734E2,7.8828125E0,4.576172E1,6.565625E1,1.4657617E2,1.0975391E2,3.771665E2,5.453662E1,2.7394531E1,6.09375E-1,3.178125E1,3.7382812E0,2.234961E1,3.5585938E0,1.3391602E1,5.698047E1,4.8489258E1,3.1984375E1,8.0319824E1,1.9108594E2,2.629613E2,2.928711E1,3.7906494E1,1.618457E1,8.061523E0,1.5644531E0,0E0,1.1121094E1,1.7315844E1,1.2265625E0,3.317871E0,1.780664E1,7.651367E0,4.7851562E-2,2.1699219E0,1.2054199E1,3.961058E1,8.394531E0,2.959375E1,3.5080566E1,1.4585785E1,2.1665527E1,7.916167E1,3.657617E1,4.9498535E1,1.4542993E2,1.3284795E2,9.814686E1,1.4304895E2,1.5331299E1,1.7303955E1,2.3129456E1,3.6352627E1,3.6593628E0,6.026367E0,4.2609863E0,6.8664856E0,0E0,0E0,0E0,0E0,0E0,0E0,0E0,0E0,0E0,0E0,0E0,0E0,0E0,0E0,0E0,0E0,0E0,0E0,0E0,0E0,0E0,0E0,0E0,0E0,0E0,0E0,0E0,0E0,0E0,0E0,0E0,0E0,0E0,0E0,0E0,0E0,0E0,0E0,0E0,0E0,0E0,0E0,0E0,0E0,0E0,0E0,0E0,0E0,0E0,0E0,0E0,0E0,0E0,0E0,0E0,0E0,0E0,0E0,0E0,0E0,0E0,0E0],"parents":[2147483647,0,0,1,1,2,2,3,3,4,4,5,5,6,6,7,7,8,8,9,9,10,10,11,11,12,12,13,13,14,14,15,15,16,16,17,17,18,18,19,19,20,20,21,21,22,22,23,23,24,24,25,25,26,26,27,27,28,28,29,29,30,30,31,31,33,33,34,34,35,35,36,36,37,37,38,38,39,39,40,40,41,41,42,42,43,43,44,44,45,45,46,46,47,47,48,48,49,49,50,50,51,51,52,52,53,53,54,54,55,55,56,56,57,57,58,58,59,59,60,60,61,61,62,62],"right_children":[2,4,6,8,10,12,14,16,18,20,22,24,26,28,30,32,34,36,38,40,42,44,46,48,50,52,54,56,58,60,62,64,-1,66,68,70,72,74,76,78,80,82,84,86,88,90,92,94,96,98,100,102,104,106,108,110,112,114,116,118,120,122,124,-1,-1,-1,-1,-1,-1,-1,-1,-1,-1,-1,-1,-1,-1,-1,-1,-1,-1,-1,-1,-1,-1,-1,-1,-1,-1,-1,-1,-1,-1,-1,-1,-1,-1,-1,-1,-1,-1,-1,-1,-1,-1,-1,-1,-1,-1,-1,-1,-1,-1,-1,-1,-1,-1,-1,-1,-1,-1,-1,-1,-1,-1],"split_conditions":[7.279511E0,2.983E2,1.4900001E1,2.906E2,9.49509E-2,3.013E2,1.75E1,9.49509E-2,9.49509E-2,6.9082946E-1,2.5950446E0,2.337227E1,2.4397056E0,2.3999996E0,2.352E2,1.43E1,3.9600002E1,1.2750368E0,1.5E1,3.4055144E-1,3.3445222E0,2.856E2,3.6130002E2,4.4E1,2.948E2,1.8748E1,8.5E0,2.8008E0,1E0,1.31E1,3.314E2,1.0550027E0,-3.203617E-1,1.45E1,2.044E-1,1.55E1,1E0,2.6923163E0,5.751497E0,3.582E2,1.40748E1,1E0,1.2604E1,2.22315E-1,4.152E-1,2.15972E1,2.6666933E-1,2.953E2,4.5E1,1.13E1,6.42E-3,1E0,3.5425043E0,6E0,3.0499992E0,3.68E1,4.8165902E-1,7.680422E1,4.886E3,5.3E0,4.3600002E1,1.9300001E1,1.979402E-2,-3.1844038E-1,-3.083229E-1,-3.0244425E-1,-3.166156E-1,1.14342734E-1,-2.0154166E-1,-3.1224078E-1,-3.17998E-1,-3.0582502E-1,-2.730593E-1,-2.9199338E-1,-2.61597E-1,-3.0707029E-1,-2.7258906E-1,-3.1344247E-1,-2.9721674E-1,-3.014665E-1,-3.0866602E-1,-2.8092504E-1,-2.3582901E-1,8.502824E-2,-2.5038895E-1,-2.9057884E-1,-2.738765E-1,-2.9534444E-1,-2.503675E-1,-2.2937006E-1,-1.8577566E-2,1.5518922E-1,-1.4613211E-1,-2.7050868E-1,-2.3141167E-1,5.301954E-1,-1.829103E-1,-1.1985541E-1,-2.3098856E-1,-1.4679876E-1,-1.9632342E-1,-1.5160123E-1,-2.2687037E-1,-4.3664172E-2,4.749259E-1,-1.0517797E-1,-7.282704E-3,-1.5468933E-1,-2.6190376E-2,-2.6144418E-1,-3.00354E-1,-2.745095E-1,-2.3530008E-1,-2.5317672E-1,-1.8121554E-1,-7.93226E-2,5.7398176E-1,-2.6943836E-1,-1.7688996E-1,-2.962284E-1,-3.115047E-1,-2.670063E-1,-2.937337E-1,1.972842E-1,-2.4597342E-1],"split_indices":[12,3,0,3,16,3,0,16,16,12,12,12,16,2,9,0,0,12,0,13,13,5,9,15,3,14,1,14,39,1,9,13,0,0,14,0,30,12,12,9,14,33,14,12,14,14,13,3,15,6,8,25,13,15,2,6,13,12,12,10,6,0,13,0,0,0,0,0,0,0,0,0,0,0,0,0,0,0,0,0,0,0,0,0,0,0,0,0,0,0,0,0,0,0,0,0,0,0,0,0,0,0,0,0,0,0,0,0,0,0,0,0,0,0,0,0,0,0,0,0,0,0,0,0,0],"split_type":[0,0,0,0,0,0,0,0,0,0,0,0,0,0,0,0,0,0,0,0,0,0,0,0,0,0,0,0,0,0,0,0,0,0,0,0,0,0,0,0,0,0,0,0,0,0,0,0,0,0,0,0,0,0,0,0,0,0,0,0,0,0,0,0,0,0,0,0,0,0,0,0,0,0,0,0,0,0,0,0,0,0,0,0,0,0,0,0,0,0,0,0,0,0,0,0,0,0,0,0,0,0,0,0,0,0,0,0,0,0,0,0,0,0,0,0,0,0,0,0,0,0,0,0,0],"sum_hessian":[2.9996756E5,2.3364484E5,6.632272E4,1.6079692E5,7.284793E4,3.771357E4,2.8609146E4,1.02241664E5,5.8555254E4,3.7752484E4,3.5095445E4,1.7702723E4,2.0010848E4,1.0438722E4,1.8170426E4,6.600025E4,3.6241414E4,3.3134582E4,2.5420674E4,3.1746924E4,6.005558E3,2.7256445E4,7.838998E3,5.437791E3,1.2264932E4,9.660105E3,1.0350741E4,8.696415E3,1.7423071E3,1.4837434E4,3.332992E3,1.8140883E4,4.785937E4,3.614647E4,9.4944435E1,3.0377908E4,2.7566733E3,1.313945E4,1.2281224E4,9.446164E3,2.2300762E4,5.7322373E3,2.7332126E2,1.1998233E4,1.5258212E4,7.225669E3,6.1332916E2,5.306847E3,1.3094406E2,4.8392563E3,7.4256753E3,9.434194E3,2.2591098E2,4.2696675E3,6.0810737E3,3.934902E3,4.7615127E3,1.6426678E3,9.963931E1,9.010343E2,1.3936399E4,2.6321504E3,7.0084155E2,1.5356099E4,2.7847842E3,6.725039E3,2.9421428E4,1.888714E1,7.60573E1,2.144316E4,8.934748E3,2.3284832E3,4.281903E2,1.0952816E4,2.1866333E3,1.1585117E4,6.961063E2,9.041995E3,4.0416882E2,1.1787866E4,1.0512895E4,5.0902754E3,6.419615E2,3.604835E1,2.3727289E2,6.259162E3,5.7390713E3,1.4942338E3,1.3763979E4,7.153715E3,7.195406E1,1.4038099E1,5.992911E2,2.4124685E3,2.8943787E3,1.4940497E1,1.1600356E2,2.8670993E2,4.5525464E3,3.2555059E3,4.17017E3,5.3525825E3,4.0816118E3,1.66302E2,5.9608986E1,1.3449685E3,2.924699E3,5.1621475E3,9.189262E2,1.6891365E3,2.2457656E3,1.5705485E3,3.190964E3,8.0756464E2,8.351032E2,9.228554E1,7.353772E0,8.5272076E2,4.831354E1,3.7233472E3,1.0213052E4,1.1513464E3,1.480804E3,2.4653285E0,6.983762E2],"tree_param":{"num_deleted":"0","num_feature":"42","num_nodes":"125","size_leaf_vector":"1"}},{"base_weights":[-8.9314014E-1,-9.7035456E-1,-6.41982E-1,-1.0146948E0,-8.7549865E-1,-4.8064798E-1,-8.9802164E-1,-1.0326166E0,-9.800207E-1,-9.6588945E-1,-7.817151E-1,-5.7087183E-1,-2.8006688E-1,-9.387454E-1,-7.265669E-1,-1.0422137E0,-1.0154414E0,-1.013209E0,-9.3741596E-1,-9.89708E-1,-8.451294E-1,-8.2280034E-1,-6.4429325E-1,-4.7768047E-1,-6.76963E-1,-4.7846586E-1,-1.496607E-1,-8.439244E-1,-9.798188E-1,-8.860268E-1,-6.788361E-1,-1.0296181E0,-1.0461922E0,-1.0173112E0,-3.7698346E-1,-1.0183418E0,-9.653057E-1,-9.0557086E-1,-9.8275286E-1,-1.013805E0,-9.7950757E-1,-8.528674E-1,-3.671261E-1,-8.8601613E-1,-7.7430564E-1,-7.4545294E-1,-5.608601E-1,-5.987317E-1,-3.7104392E-1,-7.8429866E-1,-6.201733E-1,-6.3308376E-1,-4.1382068E-1,-2.2912554E-2,-3.430978E-1,-7.9828984E-1,-8.9765936E-1,-9.339612E-1,-1.0109941E0,-7.6808894E-1,-9.2434126E-1,-7.3556775E-1,-5.300333E-1,-3.1095368E-1,-2.9752403E-1,-3.1386513E-1,-7.25908E-2,-2.900286E-1,-3.0882323E-1,-1.7227527E-1,1.09155156E-1,-2.9918468E-1,-3.0743945E-1,-2.944089E-1,-2.6318228E-1,-2.7759892E-1,-2.4134192E-1,-2.9738483E-1,-2.4696256E-1,-3.049952E-1,-2.8440183E-1,-2.8949794E-1,-2.9873404E-1,-2.6693884E-1,-2.3286973E-1,1.162819E0,-1.423839E-1,-2.7556738E-1,-2.5526857E-1,-2.7109167E-1,-2.2564583E-1,-2.262604E-1,4.4623567E-3,-1.2458555E-1,-2.000445E-1,-1.8239437E-1,7.3617E-2,-7.826318E-2,-1.4741963E-1,-2.3787592E-1,1.1795512E-1,-1.8962441E-1,7.3533356E-2,-2.0767732E-1,-5.7884715E-2,-1.5888992E-1,-9.8143525E-2,1.197845E-1,-2.6341448E-2,-1.1293075E-1,2.320914E-1,-2.4326119E-1,-1.2810539E-1,-2.4202666E-1,-2.780175E-1,-2.8455356E-1,-2.3722097E-1,-8.753391E-2,-3.0341697E-1,-2.4265607E-1,-6.999009E-2,-2.8429124E-1,-2.0708938E-1,-1.8516673E-1,-2.4508895E-1,-1.02324516E-1,-2.1398263E-1],"categories":[],"categories_nodes":[],"categories_segments":[],"categories_sizes":[],"default_left":[0,0,0,0,0,0,0,0,0,0,0,0,0,0,0,0,0,0,0,1,0,0,0,0,0,0,0,0,0,0,0,1,1,0,0,0,0,0,0,0,0,0,0,0,0,0,0,1,0,0,0,0,0,0,0,1,0,1,0,0,0,0,0,0,0,0,0,0,0,0,0,0,0,0,0,0,0,0,0,0,0,0,0,0,0,0,0,0,0,0,0,0,0,0,0,0,0,0,0,0,0,0,0,0,0,0,0,0,0,0,0,0,0,0,0,0,0,0,0,0,0,0,0,0,0,0,0],"id":3,"left_children":[1,3,5,7,9,11,13,15,17,19,21,23,25,27,29,31,33,35,37,39,41,43,45,47,49,51,53,55,57,59,61,63,65,67,69,71,73,75,77,79,81,83,85,87,89,91,93,95,97,99,101,103,105,107,109,111,113,115,117,119,121,123,125,-1,-1,-1,-1,-1,-1,-1,-1,-1,-1,-1,-1,-1,-1,-1,-1,-1,-1,-1,-1,-1,-1,-1,-1,-1,-1,-1,-1,-1,-1,-1,-1,-1,-1,-1,-1,-1,-1,-1,-1,-1,-1,-1,-1,-1,-1,-1,-1,-1,-1,-1,-1,-1,-1,-1,-1,-1,-1,-1,-1,-1,-1,-1,-1],"loss_changes":[4.5379688E3,7.519844E2,2.2729082E3,7.477344E1,4.8267188E2,6.10855E2,1.478457E2,1.21953125E1,5.7847656E1,8.267969E1,1.5752148E2,2.2990869E2,2.70997E2,6.610449E1,3.0506592E1,1.5078125E0,3.4064453E1,4.7617188E0,2.5418945E1,4.9648438E0,1.7404785E1,6.5368164E1,5.4000244E1,1.5984985E2,6.587842E1,4.1266907E1,1.5502505E2,1.2038574E1,1.6191406E1,3.5299072E0,2.6200928E1,2.21875E0,5.2734375E-1,1.6603516E1,1.2755217E1,1.8457031E0,2.3618164E0,2.065918E1,9.398926E0,3.8085938E-1,3.071289E0,1.2647461E1,3.744371E1,9.901367E0,3.4277344E1,1.9375122E1,5.42854E1,4.548169E1,8.7321106E1,3.8514404E1,7.356909E1,3.1720947E1,2.9266022E1,1.04725746E2,9.347934E1,1.2833984E1,5.5428467E0,9.385742E0,1.7319336E0,4.9560394E0,3.180481E0,2.1438232E1,2.998381E1,0E0,0E0,0E0,0E0,0E0,0E0,0E0,0E0,0E0,0E0,0E0,0E0,0E0,0E0,0E0,0E0,0E0,0E0,0E0,0E0,0E0,0E0,0E0,0E0,0E0,0E0,0E0,0E0,0E0,0E0,0E0,0E0,0E0,0E0,0E0,0E0,0E0,0E0,0E0,0E0,0E0,0E0,0E0,0E0,0E0,0E0,0E0,0E0,0E0,0E0,0E0,0E0,0E0,0E0,0E0,0E0,0E0,0E0,0E0,0E0,0E0,0E0,0E0,0E0],"parents":[2147483647,0,0,1,1,2,2,3,3,4,4,5,5,6,6,7,7,8,8,9,9,10,10,11,11,12,12,13,13,14,14,15,15,16,16,17,17,18,18,19,19,20,20,21,21,22,22,23,23,24,24,25,25,26,26,27,27,28,28,29,29,30,30,31,31,32,32,33,33,34,34,35,35,36,36,37,37,38,38,39,39,40,40,41,41,42,42,43,43,44,44,45,45,46,46,47,47,48,48,49,49,50,50,51,51,52,52,53,53,54,54,55,55,56,56,57,57,58,58,59,59,60,60,61,61,62,62],"right_children":[2,4,6,8,10,12,14,16,18,20,22,24,26,28,30,32,34,36,38,40,42,44,46,48,50,52,54,56,58,60,62,64,66,68,70,72,74,76,78,80,82,84,86,88,90,92,94,96,98,100,102,104,106,108,110,112,114,116,118,120,122,124,126,-1,-1,-1,-1,-1,-1,-1,-1,-1,-1,-1,-1,-1,-1,-1,-1,-1,-1,-1,-1,-1,-1,-1,-1,-1,-1,-1,-1,-1,-1,-1,-1,-1,-1,-1,-1,-1,-1,-1,-1,-1,-1,-1,-1,-1,-1,-1,-1,-1,-1,-1,-1,-1,-1,-1,-1,-1,-1,-1,-1,-1,-1,-1,-1],"split_conditions":[7.279511E0,2.983E2,1.52E1,2.911E2,1.7029005E-1,3.3330002E2,2.741E2,9.49509E-2,9.49509E-2,6.9082946E-1,2.5950446E0,1.0900001E1,3.0034622E1,3.9E1,1.6419373E1,1.35E1,3.9600002E1,1.0385647E0,1.56E1,3.4055144E-1,2.23144E1,2.856E2,3.147E2,2.4519563E0,3.1831863E1,7.036E-1,2.67E1,1.79E1,1.97E1,-1.5900002E0,2.3999996E0,1.0550027E0,1.13699995E-2,1.45E1,1.5377564E0,8.8E0,1E0,2.8908937E0,5.903419E0,3.582E2,1.40748E1,3.063E2,-3.8500004E0,2.22315E-1,5.016E-1,2.15972E1,8.375143E-1,3.5425043E0,1.01E1,2.18004E1,4E1,3.848846E0,2.858E2,-3.71E0,3.8E1,1.937927E0,1.31E1,1.58527E0,1.251963E-3,3.018E2,1.47444E1,-1.4800005E0,1.69E1,-3.1095368E-1,-2.9752403E-1,-3.1386513E-1,-7.25908E-2,-2.900286E-1,-3.0882323E-1,-1.7227527E-1,1.09155156E-1,-2.9918468E-1,-3.0743945E-1,-2.944089E-1,-2.6318228E-1,-2.7759892E-1,-2.4134192E-1,-2.9738483E-1,-2.4696256E-1,-3.049952E-1,-2.8440183E-1,-2.8949794E-1,-2.9873404E-1,-2.6693884E-1,-2.3286973E-1,1.162819E0,-1.423839E-1,-2.7556738E-1,-2.5526857E-1,-2.7109167E-1,-2.2564583E-1,-2.262604E-1,4.4623567E-3,-1.2458555E-1,-2.000445E-1,-1.8239437E-1,7.3617E-2,-7.826318E-2,-1.4741963E-1,-2.3787592E-1,1.1795512E-1,-1.8962441E-1,7.3533356E-2,-2.0767732E-1,-5.7884715E-2,-1.5888992E-1,-9.8143525E-2,1.197845E-1,-2.6341448E-2,-1.1293075E-1,2.320914E-1,-2.4326119E-1,-1.2810539E-1,-2.4202666E-1,-2.780175E-1,-2.8455356E-1,-2.3722097E-1,-8.753391E-2,-3.0341697E-1,-2.4265607E-1,-6.999009E-2,-2.8429124E-1,-2.0708938E-1,-1.8516673E-1,-2.4508895E-1,-1.02324516E-1,-2.1398263E-1],"split_indices":[12,3,0,3,16,9,9,16,16,12,12,1,12,6,12,0,0,12,0,13,14,5,9,16,12,14,6,0,0,2,2,13,8,0,16,0,30,12,12,9,14,3,2,12,14,14,13,13,0,14,15,16,5,2,15,13,1,13,13,3,14,2,0,0,0,0,0,0,0,0,0,0,0,0,0,0,0,0,0,0,0,0,0,0,0,0,0,0,0,0,0,0,0,0,0,0,0,0,0,0,0,0,0,0,0,0,0,0,0,0,0,0,0,0,0,0,0,0,0,0,0,0,0,0,0,0,0],"split_type":[0,0,0,0,0,0,0,0,0,0,0,0,0,0,0,0,0,0,0,0,0,0,0,0,0,0,0,0,0,0,0,0,0,0,0,0,0,0,0,0,0,0,0,0,0,0,0,0,0,0,0,0,0,0,0,0,0,0,0,0,0,0,0,0,0,0,0,0,0,0,0,0,0,0,0,0,0,0,0,0,0,0,0,0,0,0,0,0,0,0,0,0,0,0,0,0,0,0,0,0,0,0,0,0,0,0,0,0,0,0,0,0,0,0,0,0,0,0,0,0,0,0,0,0,0,0,0],"sum_hessian":[2.3403156E5,1.7899856E5,5.503299E4,1.21972805E5,5.702576E4,3.3761984E4,2.1271002E4,8.039226E4,4.1580555E4,2.9033393E4,2.799237E4,2.328587E4,1.0476116E4,1.7184812E4,4.086191E3,5.153569E4,2.8856564E4,2.3360451E4,1.8220102E4,2.4244285E4,4.7891074E3,2.1545797E4,6.4465723E3,1.2399522E4,1.0886347E4,4.1538345E3,6.3222817E3,5.2005415E3,1.19842705E4,9.37295E2,3.148896E3,1.2433397E4,3.9102293E4,2.8771715E4,8.4849655E1,2.1081316E4,2.2791357E3,1.0714849E4,7.5052524E3,7.1812427E3,1.7063043E4,4.712043E3,7.7064186E1,9.345755E3,1.2200042E4,2.910165E3,3.5364072E3,5.8051E3,6.5944224E3,3.7623955E3,7.1239507E3,1.2220791E3,2.9317551E3,3.8202266E3,2.5020552E3,2.8208145E3,2.3797268E3,4.862574E3,7.121696E3,2.3499388E2,7.0230115E2,2.2768828E3,8.720133E2,1.0496289E4,1.937108E3,3.910078E4,1.5121033E0,5.572384E3,2.319933E4,6.718473E1,1.7664925E1,4.983018E3,1.6098298E4,1.9189644E3,3.601715E2,8.95626E3,1.7585897E3,7.119408E3,3.8584415E2,6.8696953E3,3.115476E2,9.050606E3,8.0124355E3,3.1726204E3,1.5394227E3,1.037727E0,7.602646E1,4.837935E3,4.5078193E3,1.7782825E3,1.042176E4,2.8770696E3,3.309558E1,1.4917546E3,2.0446526E3,5.7424565E3,6.2643723E1,3.4445896E3,3.1498328E3,3.7353733E3,2.7022158E1,7.027508E3,9.644301E1,1.0767434E3,1.4533571E2,1.2527594E3,1.6789957E3,5.082646E2,3.3119622E3,2.4301702E3,7.188518E1,2.7272173E3,9.3597275E1,5.8351495E2,1.7962119E3,4.409026E3,4.5354834E2,4.32271E0,7.117373E3,2.1787387E2,1.7120014E1,6.3595087E2,6.635026E1,9.313391E2,1.3455436E3,4.3072696E2,4.4128632E2],"tree_param":{"num_deleted":"0","num_feature":"42","num_nodes":"127","size_leaf_vector":"1"}},{"base_weights":[-8.3587843E-1,-9.472263E-1,-5.906354E-1,-1.0016423E0,-8.550644E-1,-4.2732814E-1,-8.548488E-1,-1.0191085E0,-9.710233E-1,-9.404385E-1,-7.548568E-1,-5.7817966E-1,-3.2207713E-1,-7.407506E-1,-9.3336564E-1,-9.970008E-1,-1.0269349E0,-9.973766E-1,-9.2975026E-1,-9.5986724E-1,-8.091352E-1,-8.267324E-1,-6.865547E-1,-6.865209E-1,-4.7098938E-1,-4.3388528E-1,-1.4966002E-1,-7.949643E-1,-5.811605E-1,-9.456102E-1,-7.075389E-1,-1.0158828E0,-9.295906E-1,-3.09116E-1,-1.0108703E0,-9.845711E-1,-1.0137635E0,-8.714251E-1,-9.58125E-1,-9.8935586E-1,-9.4808495E-1,-8.201199E-1,-3.6937827E-1,-8.0166405E-1,-9.0654E-1,-7.759282E-1,-6.3831204E-1,-7.897931E-1,-6.2492186E-1,-4.854231E-1,5.1157105E-1,-4.8846516E-1,-2.2531357E-1,-3.5222542E-1,-9.702042E-3,-8.97754E-1,-7.467336E-1,-7.396413E-1,-4.7927433E-1,-8.0806184E-1,-9.61625E-1,-8.1352615E-1,-5.496297E-1,-3.068214E-1,-2.9056957E-1,-9.1125235E-2,-2.8405115E-1,-2.8901383E-1,-3.0519137E-1,-3.0191553E-1,-2.889104E-1,-1.3699777E-1,-3.04203E-1,-2.6289913E-1,-1.0492516E-1,-2.8125685E-1,-2.9928303E-1,-2.9784757E-1,-2.713535E-1,-2.7892914E-1,-2.9050046E-1,-2.5334862E-1,-1.8094733E-1,9.2231166E-1,-2.481928E-1,-2.573593E-1,-2.2280706E-1,-2.721834E-1,1.23639144E-1,-2.2654356E-1,-2.783919E-1,-2.4893846E-1,-1.8278651E-1,-2.4022742E-1,-8.4188804E-2,-1.933459E-1,-8.117186E-2,-1.5710501E-1,-2.5321513E-2,-1.5422973E-1,4.5225707E-1,-8.3234824E-2,-1.605529E-1,-8.079783E-2,1.0657034E-1,3.1963646E-2,-1.2900016E-1,-3.941175E-2,5.3213853E-2,-2.7317017E-1,-1.9226366E-1,-2.2922313E-1,-1.2526394E-1,-2.2743525E-1,-1.09776944E-1,-1.7411616E-1,-7.2969556E-2,-2.4824224E-1,-1.5893751E-1,-2.7297533E-1,-2.9395565E-1,-2.542103E-1,-9.993842E-2,1.2867053E-2,-1.8471889E-1],"categories":[],"categories_nodes":[],"categories_segments":[],"categories_sizes":[],"default_left":[0,0,0,0,0,0,0,1,0,0,0,0,0,0,0,0,0,0,0,1,1,0,0,0,1,0,0,0,0,0,0,1,1,0,0,1,0,0,0,0,0,0,0,0,0,0,0,0,1,0,0,0,0,0,0,0,0,0,0,0,0,0,0,0,0,0,0,0,0,0,0,0,0,0,0,0,0,0,0,0,0,0,0,0,0,0,0,0,0,0,0,0,0,0,0,0,0,0,0,0,0,0,0,0,0,0,0,0,0,0,0,0,0,0,0,0,0,0,0,0,0,0,0,0,0],"id":4,"left_children":[1,3,5,7,9,11,13,15,17,19,21,23,25,27,29,31,33,35,37,39,41,43,45,47,49,51,53,55,57,59,61,63,65,-1,67,69,71,73,75,77,79,81,83,85,87,89,91,93,95,97,99,101,103,105,107,109,111,113,115,117,119,121,123,-1,-1,-1,-1,-1,-1,-1,-1,-1,-1,-1,-1,-1,-1,-1,-1,-1,-1,-1,-1,-1,-1,-1,-1,-1,-1,-1,-1,-1,-1,-1,-1,-1,-1,-1,-1,-1,-1,-1,-1,-1,-1,-1,-1,-1,-1,-1,-1,-1,-1,-1,-1,-1,-1,-1,-1,-1,-1,-1,-1,-1,-1],"loss_changes":[5.0213594E3,6.334453E2,2.477537E3,4.1539062E1,4.0104297E2,5.633511E2,1.9582422E2,7.7304688E0,3.0511719E1,6.390039E1,1.05515625E2,1.6906006E2,4.0300732E2,7.6944336E1,3.5249023E1,1.5942383E1,1.0273438E0,2.6992188E0,1.7831055E1,6.734375E0,1.5513916E1,2.0327637E1,4.730127E1,4.5637207E1,1.0427173E2,1.4427295E2,2.3322597E2,3.242383E1,3.6336304E1,2.6359375E1,1.0801056E1,2.3671875E0,3.1174316E1,0E0,1.0541992E0,3.696289E0,5.9472656E-1,9.167969E0,5.2280273E0,9.506836E-1,4.9609375E0,1.6380615E1,1.3124991E2,2.593457E1,2.814209E0,1.1564941E1,3.9536865E1,1.4880371E1,3.1348755E1,1.108739E2,1.0974637E2,9.892944E1,6.735858E1,1.1998486E2,1.1078848E2,6.416992E0,2.5654785E1,5.8496094E0,3.2937164E1,6.5353394E0,9.503906E0,6.2218933E0,1.0718895E1,0E0,0E0,0E0,0E0,0E0,0E0,0E0,0E0,0E0,0E0,0E0,0E0,0E0,0E0,0E0,0E0,0E0,0E0,0E0,0E0,0E0,0E0,0E0,0E0,0E0,0E0,0E0,0E0,0E0,0E0,0E0,0E0,0E0,0E0,0E0,0E0,0E0,0E0,0E0,0E0,0E0,0E0,0E0,0E0,0E0,0E0,0E0,0E0,0E0,0E0,0E0,0E0,0E0,0E0,0E0,0E0,0E0,0E0,0E0,0E0,0E0,0E0],"parents":[2147483647,0,0,1,1,2,2,3,3,4,4,5,5,6,6,7,7,8,8,9,9,10,10,11,11,12,12,13,13,14,14,15,15,16,16,17,17,18,18,19,19,20,20,21,21,22,22,23,23,24,24,25,25,26,26,27,27,28,28,29,29,30,30,31,31,32,32,34,34,35,35,36,36,37,37,38,38,39,39,40,40,41,41,42,42,43,43,44,44,45,45,46,46,47,47,48,48,49,49,50,50,51,51,52,52,53,53,54,54,55,55,56,56,57,57,58,58,59,59,60,60,61,61,62,62],"right_children":[2,4,6,8,10,12,14,16,18,20,22,24,26,28,30,32,34,36,38,40,42,44,46,48,50,52,54,56,58,60,62,64,66,-1,68,70,72,74,76,78,80,82,84,86,88,90,92,94,96,98,100,102,104,106,108,110,112,114,116,118,120,122,124,-1,-1,-1,-1,-1,-1,-1,-1,-1,-1,-1,-1,-1,-1,-1,-1,-1,-1,-1,-1,-1,-1,-1,-1,-1,-1,-1,-1,-1,-1,-1,-1,-1,-1,-1,-1,-1,-1,-1,-1,-1,-1,-1,-1,-1,-1,-1,-1,-1,-1,-1,-1,-1,-1,-1,-1,-1,-1,-1,-1,-1,-1],"split_conditions":[3.4831839E0,2.965E2,1.5E1,2.896E2,9.49509E-2,2.129952E1,1.79E1,1.42E1,3.929901E-1,6.9082946E-1,2.856E2,3.026E2,3.041E2,3.041E2,3.21E2,9.49509E-2,5.542907E-1,1.4400001E1,1.32E1,3.4055144E-1,3.6633294E0,1.38E1,6.461671E-2,2.951E2,3.5425043E0,3.3680002E2,9E0,1.2654128E1,2.337227E1,1.41E1,3.1831863E1,1.0449758E0,7E-1,-3.09116E-1,3.23E1,5.762517E-1,3.9E1,1E0,1.8800001E1,3.582E2,1.40748E1,1E0,1.2604E1,2.22315E-1,1.13699995E-2,1.2900001E1,4.62E-1,7.938476E0,2.875821E0,3.9101648E0,2.15972E1,1.61E1,4.34E0,-3.4900007E0,3.081E2,4E1,1E0,4E1,2.3999996E0,5.4E0,1.97E1,4E1,-1.4800005E0,-3.068214E-1,-2.9056957E-1,-9.1125235E-2,-2.8405115E-1,-2.8901383E-1,-3.0519137E-1,-3.0191553E-1,-2.889104E-1,-1.3699777E-1,-3.04203E-1,-2.6289913E-1,-1.0492516E-1,-2.8125685E-1,-2.9928303E-1,-2.9784757E-1,-2.713535E-1,-2.7892914E-1,-2.9050046E-1,-2.5334862E-1,-1.8094733E-1,9.2231166E-1,-2.481928E-1,-2.573593E-1,-2.2280706E-1,-2.721834E-1,1.23639144E-1,-2.2654356E-1,-2.783919E-1,-2.4893846E-1,-1.8278651E-1,-2.4022742E-1,-8.4188804E-2,-1.933459E-1,-8.117186E-2,-1.5710501E-1,-2.5321513E-2,-1.5422973E-1,4.5225707E-1,-8.3234824E-2,-1.605529E-1,-8.079783E-2,1.0657034E-1,3.1963646E-2,-1.2900016E-1,-3.941175E-2,5.3213853E-2,-2.7317017E-1,-1.9226366E-1,-2.2922313E-1,-1.2526394E-1,-2.2743525E-1,-1.09776944E-1,-1.7411616E-1,-7.2969556E-2,-2.4824224E-1,-1.5893751E-1,-2.7297533E-1,-2.9395565E-1,-2.542103E-1,-9.993842E-2,1.2867053E-2,-1.8471889E-1],"split_indices":[12,3,0,3,16,12,0,0,16,12,5,3,3,9,9,16,12,0,0,13,13,0,12,3,13,9,15,12,12,1,12,13,10,0,6,13,9,39,0,9,14,33,14,12,8,0,14,16,13,16,14,6,2,2,3,15,29,15,2,10,0,15,2,0,0,0,0,0,0,0,0,0,0,0,0,0,0,0,0,0,0,0,0,0,0,0,0,0,0,0,0,0,0,0,0,0,0,0,0,0,0,0,0,0,0,0,0,0,0,0,0,0,0,0,0,0,0,0,0,0,0,0,0,0,0],"split_type":[0,0,0,0,0,0,0,0,0,0,0,0,0,0,0,0,0,0,0,0,0,0,0,0,0,0,0,0,0,0,0,0,0,0,0,0,0,0,0,0,0,0,0,0,0,0,0,0,0,0,0,0,0,0,0,0,0,0,0,0,0,0,0,0,0,0,0,0,0,0,0,0,0,0,0,0,0,0,0,0,0,0,0,0,0,0,0,0,0,0,0,0,0,0,0,0,0,0,0,0,0,0,0,0,0,0,0,0,0,0,0,0,0,0,0,0,0,0,0,0,0,0,0,0,0],"sum_hessian":[1.8390356E5,1.26476516E5,5.7427055E4,7.951677E4,4.695974E4,3.5492293E4,2.1934762E4,5.0612863E4,2.8903908E4,2.5352082E4,2.1607658E4,1.4584501E4,2.0907791E4,8.945655E3,1.2989106E4,1.32663955E4,3.734647E4,1.7626219E4,1.1277689E4,2.2078812E4,3.273269E3,1.0523008E4,1.108465E4,7.250621E3,7.33388E3,1.2682191E4,8.2256E3,6.6743574E3,2.2712976E3,1.2318024E4,6.710823E2,1.0352517E4,2.9138792E3,3.0689207E4,6.657262E3,9.92863E3,7.69759E3,3.7012837E3,7.576406E3,6.2795034E3,1.5799309E4,3.1926543E3,8.061474E1,8.0161143E3,2.506894E3,3.8805378E3,7.2041123E3,2.7045525E3,4.546069E3,7.228204E3,1.0567582E2,1.0050733E4,2.631458E3,3.3604307E3,4.865169E3,2.1259338E3,4.5484233E3,8.863489E2,1.3849486E3,1.2899868E3,1.1028038E4,3.9907498E2,2.7200732E2,9.024499E3,1.3280175E3,7.864455E1,2.8352346E3,8.123152E2,5.8449473E3,4.9098276E3,5.0188022E3,4.223911E0,7.6933657E3,3.6661309E3,3.5152718E1,4.9949316E3,2.5814746E3,6.022538E3,2.5696536E2,8.319287E3,7.4800215E3,2.8675918E3,3.2506238E2,8.790967E0,7.182377E1,4.097641E3,3.918473E3,2.5058037E3,1.0903345E0,3.4191416E3,4.6139615E2,9.4459436E2,6.259518E3,2.6469766E3,5.7575832E1,4.307427E3,2.3864198E2,6.598363E3,6.298414E2,5.229955E1,5.3376274E1,1.8228822E3,8.227852E3,2.4465186E3,1.8493936E2,4.8705798E2,2.8733726E3,2.9481235E3,1.9170453E3,2.0225052E3,1.0342862E2,4.3195244E3,2.2889893E2,8.436131E2,4.273579E1,9.6858136E2,4.1636734E2,1.2040203E3,8.5966606E1,2.8875308E3,8.140507E3,3.7209872E2,2.6976257E1,2.733425E1,2.4467308E2],"tree_param":{"num_deleted":"0","num_feature":"42","num_nodes":"125","size_leaf_vector":"1"}},{"base_weights":[-7.7334905E-1,-9.1361314E-1,-5.1152134E-1,-9.807729E-1,-8.03452E-1,-3.5581687E-1,-8.0917823E-1,-1.0032415E0,-9.4165874E-1,-9.0509015E-1,-6.864529E-1,-4.6413428E-1,-2.142226E-1,-6.782197E-1,-8.95647E-1,-9.739953E-1,-1.0137882E0,-9.743001E-1,-8.9011323E-1,-9.2588973E-1,-7.6617235E-1,-7.662101E-1,-6.134979E-1,-6.080322E-1,-3.7245807E-1,-3.541206E-1,-7.97887E-2,-7.4365604E-1,-5.1932013E-1,-8.10897E-1,-9.457856E-1,-9.984281E-1,-8.8757867E-1,-1.0200098E0,-1.0005721E0,-9.5788807E-1,-9.9564E-1,-8.4057283E-1,-9.431659E-1,-9.6348405E-1,-9.10971E-1,-7.995191E-1,-5.812167E-1,-7.356468E-1,-8.5727024E-1,-5.912408E-1,-8.3503425E-1,-5.062366E-1,-7.0527285E-1,-2.7995387E-1,-5.128531E-1,-2.582704E-1,-5.194458E-1,1.9383792E-2,-2.7581984E-1,-8.5077685E-1,-6.808728E-1,-6.835068E-1,-4.2767113E-1,-8.702708E-1,-7.3100597E-1,-9.5130265E-1,-6.1012655E-1,-3.0227095E-1,-2.8086808E-1,-2.729003E-1,-7.113458E-2,-3.0642885E-1,-2.903654E-1,-2.933377E-1,-3.0402008E-1,-2.9564E-1,-2.7904934E-1,-2.997726E-1,-2.7657738E-1,-2.165731E-1,-2.5773185E-1,-2.8589314E-1,-2.5066623E-1,-2.9040346E-1,-2.5678855E-1,-2.66575E-1,-2.8079167E-1,-2.5912857E-1,-2.0319965E-1,-2.5080228E-1,-6.604092E-2,-2.3909664E-1,-2.0016193E-1,-2.5744638E-1,1.03143215E-1,-2.3092835E-1,-1.6868187E-1,-2.276636E-1,-2.7733415E-1,-1.6166142E-1,-2.195222E-2,-2.1505484E-1,6.025375E-2,-1.3736099E-1,-6.4632334E-2,-1.6954608E-1,-4.040457E-2,-9.07121E-2,4.8016634E-2,-1.7736632E-1,-8.68926E-2,-4.5152605E-2,3.1154659E-2,-1.08740605E-1,3.71573E-2,-2.6276118E-1,-1.9458003E-1,-2.1474017E-1,-1.2869924E-1,-2.1392775E-1,-4.097843E-2,-1.5443903E-1,-7.036302E-2,-2.644124E-1,-1.901655E-1,-1.5317415E-1,-2.3437004E-1,-2.6346293E-1,-2.8969672E-1,-2.3950346E-1,-7.382676E-2],"categories":[],"categories_nodes":[],"categories_segments":[],"categories_sizes":[],"default_left":[0,0,0,0,0,0,0,1,0,0,0,0,0,0,0,0,0,0,0,1,0,0,0,0,0,0,0,0,0,0,0,1,0,0,0,1,0,0,0,0,0,0,0,0,0,0,0,0,0,0,0,0,0,0,0,1,1,0,0,0,0,0,0,0,0,0,0,0,0,0,0,0,0,0,0,0,0,0,0,0,0,0,0,0,0,0,0,0,0,0,0,0,0,0,0,0,0,0,0,0,0,0,0,0,0,0,0,0,0,0,0,0,0,0,0,0,0,0,0,0,0,0,0,0,0,0,0],"id":5,"left_children":[1,3,5,7,9,11,13,15,17,19,21,23,25,27,29,31,33,35,37,39,41,43,45,47,49,51,53,55,57,59,61,63,65,67,69,71,73,75,77,79,81,83,85,87,89,91,93,95,97,99,101,103,105,107,109,111,113,115,117,119,121,123,125,-1,-1,-1,-1,-1,-1,-1,-1,-1,-1,-1,-1,-1,-1,-1,-1,-1,-1,-1,-1,-1,-1,-1,-1,-1,-1,-1,-1,-1,-1,-1,-1,-1,-1,-1,-1,-1,-1,-1,-1,-1,-1,-1,-1,-1,-1,-1,-1,-1,-1,-1,-1,-1,-1,-1,-1,-1,-1,-1,-1,-1,-1,-1,-1],"loss_changes":[5.3655547E3,7.031172E2,2.3620781E3,5.0996094E1,4.2795312E2,5.1319775E2,1.9761816E2,1.05859375E1,3.544336E1,5.5006836E1,9.7041504E1,2.4990942E2,2.7281458E2,7.204297E1,4.4021484E1,2.0166016E1,1.2460938E0,3.6689453E0,2.1228516E1,8.526367E0,1.5059326E1,2.1639648E1,4.268701E1,7.266919E1,1.5030945E2,1.12517944E2,1.4385857E2,3.2587646E1,3.0331726E1,1.7981445E1,1.1672852E1,3.4716797E0,3.1490234E1,3.9453125E-1,1.6015625E0,4.8095703E0,5.966797E-1,8.928955E0,3.4667969E0,1.4819336E0,5.897461E0,1.6133545E1,3.552533E1,2.4649658E1,2.4246826E0,4.0738037E1,4.726013E0,5.094928E1,3.9695923E1,8.008197E1,9.090747E1,8.3108185E1,4.2845337E1,7.054021E1,8.6135666E1,8.656982E0,2.7090698E1,1.1672333E1,2.1901031E1,5.3375244E0,1.8196594E1,5.979004E0,7.325672E0,0E0,0E0,0E0,0E0,0E0,0E0,0E0,0E0,0E0,0E0,0E0,0E0,0E0,0E0,0E0,0E0,0E0,0E0,0E0,0E0,0E0,0E0,0E0,0E0,0E0,0E0,0E0,0E0,0E0,0E0,0E0,0E0,0E0,0E0,0E0,0E0,0E0,0E0,0E0,0E0,0E0,0E0,0E0,0E0,0E0,0E0,0E0,0E0,0E0,0E0,0E0,0E0,0E0,0E0,0E0,0E0,0E0,0E0,0E0,0E0,0E0,0E0,0E0,0E0],"parents":[2147483647,0,0,1,1,2,2,3,3,4,4,5,5,6,6,7,7,8,8,9,9,10,10,11,11,12,12,13,13,14,14,15,15,16,16,17,17,18,18,19,19,20,20,21,21,22,22,23,23,24,24,25,25,26,26,27,27,28,28,29,29,30,30,31,31,32,32,33,33,34,34,35,35,36,36,37,37,38,38,39,39,40,40,41,41,42,42,43,43,44,44,45,45,46,46,47,47,48,48,49,49,50,50,51,51,52,52,53,53,54,54,55,55,56,56,57,57,58,58,59,59,60,60,61,61,62,62],"right_children":[2,4,6,8,10,12,14,16,18,20,22,24,26,28,30,32,34,36,38,40,42,44,46,48,50,52,54,56,58,60,62,64,66,68,70,72,74,76,78,80,82,84,86,88,90,92,94,96,98,100,102,104,106,108,110,112,114,116,118,120,122,124,126,-1,-1,-1,-1,-1,-1,-1,-1,-1,-1,-1,-1,-1,-1,-1,-1,-1,-1,-1,-1,-1,-1,-1,-1,-1,-1,-1,-1,-1,-1,-1,-1,-1,-1,-1,-1,-1,-1,-1,-1,-1,-1,-1,-1,-1,-1,-1,-1,-1,-1,-1,-1,-1,-1,-1,-1,-1,-1,-1,-1,-1,-1,-1,-1],"split_conditions":[2.994887E0,2.965E2,1.52E1,2.896E2,9.49509E-2,3.179E2,1.79E1,1.42E1,3.929901E-1,6.432409E-1,2.856E2,1.820911E1,2.2739797E0,2.924E2,1.75E1,9.49509E-2,6.0358864E-1,1.4400001E1,1.55E1,3.4055144E-1,1E0,1.35E1,1.33E1,1.07E1,2.64E1,1E0,1.0900001E1,1.4496499E1,1.820911E1,2.8536749E1,3.21E2,1.0449758E0,3.6580002E2,1.7481539E0,1.9E1,5.884789E-1,1.7481539E0,7.4E0,3.8E1,3.582E2,1.40748E1,3.056E2,2.391229E0,2.22315E-1,1.13699995E-2,5.016E-1,1.5E1,4.6180353E0,2.15972E1,9E0,3.0499992E0,3.622E2,1E0,6E0,3E0,1.7193667E0,1.3254044E0,4E1,2.3999996E0,3.499E2,1.3E1,1.95E1,5.314904E1,-3.0227095E-1,-2.8086808E-1,-2.729003E-1,-7.113458E-2,-3.0642885E-1,-2.903654E-1,-2.933377E-1,-3.0402008E-1,-2.9564E-1,-2.7904934E-1,-2.997726E-1,-2.7657738E-1,-2.165731E-1,-2.5773185E-1,-2.8589314E-1,-2.5066623E-1,-2.9040346E-1,-2.5678855E-1,-2.66575E-1,-2.8079167E-1,-2.5912857E-1,-2.0319965E-1,-2.5080228E-1,-6.604092E-2,-2.3909664E-1,-2.0016193E-1,-2.5744638E-1,1.03143215E-1,-2.3092835E-1,-1.6868187E-1,-2.276636E-1,-2.7733415E-1,-1.6166142E-1,-2.195222E-2,-2.1505484E-1,6.025375E-2,-1.3736099E-1,-6.4632334E-2,-1.6954608E-1,-4.040457E-2,-9.07121E-2,4.8016634E-2,-1.7736632E-1,-8.68926E-2,-4.5152605E-2,3.1154659E-2,-1.08740605E-1,3.71573E-2,-2.6276118E-1,-1.9458003E-1,-2.1474017E-1,-1.2869924E-1,-2.1392775E-1,-4.097843E-2,-1.5443903E-1,-7.036302E-2,-2.644124E-1,-1.901655E-1,-1.5317415E-1,-2.3437004E-1,-2.6346293E-1,-2.8969672E-1,-2.3950346E-1,-7.382676E-2],"split_indices":[12,3,0,3,16,9,0,0,16,12,5,12,16,9,1,16,16,0,0,13,30,0,0,0,6,25,1,12,12,12,9,13,9,12,0,13,12,1,15,9,14,3,13,12,8,14,0,16,14,15,2,9,24,15,2,13,13,15,2,9,1,0,12,0,0,0,0,0,0,0,0,0,0,0,0,0,0,0,0,0,0,0,0,0,0,0,0,0,0,0,0,0,0,0,0,0,0,0,0,0,0,0,0,0,0,0,0,0,0,0,0,0,0,0,0,0,0,0,0,0,0,0,0,0,0,0,0],"split_type":[0,0,0,0,0,0,0,0,0,0,0,0,0,0,0,0,0,0,0,0,0,0,0,0,0,0,0,0,0,0,0,0,0,0,0,0,0,0,0,0,0,0,0,0,0,0,0,0,0,0,0,0,0,0,0,0,0,0,0,0,0,0,0,0,0,0,0,0,0,0,0,0,0,0,0,0,0,0,0,0,0,0,0,0,0,0,0,0,0,0,0,0,0,0,0,0,0,0,0,0,0,0,0,0,0,0,0,0,0,0,0,0,0,0,0,0,0,0,0,0,0,0,0,0,0,0,0],"sum_hessian":[1.461123E5,9.5141445E4,5.0970848E4,5.9101992E4,3.6039453E4,3.3466633E4,1.7504217E4,3.7522824E4,2.1579166E4,1.9282148E4,1.6757305E4,1.896014E4,1.4506491E4,6.9647764E3,1.0539439E4,9.969779E3,2.7553047E4,1.3201426E4,8.377739E3,1.6766156E4,2.5159937E3,8.0009097E3,8.7563955E3,7.376349E3,1.1583792E4,7.1079756E3,7.3985156E3,4.93062E3,2.0341559E3,3.9239321E3,6.615508E3,7.7640713E3,2.2057083E3,1.8682277E4,8.870769E3,7.4882705E3,5.713156E3,4.340986E3,4.0367537E3,4.7451265E3,1.2021029E4,2.1288481E3,3.8714545E2,5.9971216E3,2.0037878E3,7.9603145E3,7.960811E2,3.6068013E3,3.7695476E3,6.9846816E3,4.599111E3,4.501002E3,2.6069736E3,4.9136123E3,2.4849036E3,1.8173341E3,3.1132864E3,7.2638995E2,1.307766E3,2.2453372E3,1.6785951E3,6.506725E3,1.08782585E2,6.7559473E3,1.008124E3,2.1328796E3,7.2828766E1,1.8168822E4,5.1345514E2,3.2236096E3,5.647159E3,3.7366455E3,3.7516248E3,5.435027E3,2.781287E2,5.918073E2,3.7491782E3,3.6922668E3,3.4448676E2,4.545716E3,1.9941066E2,6.3612734E3,5.6597554E3,1.3912798E3,7.3756836E2,2.2620912E2,1.6093633E2,3.156953E3,2.840169E3,2.0025988E3,1.1890432E0,1.1077876E3,6.852527E3,4.350358E2,3.6104532E2,3.3538193E3,2.5298187E2,3.7222017E3,4.734595E1,1.8570717E3,5.12761E3,4.0399036E3,5.5920715E2,4.0719785E3,4.2902325E2,1.9853202E3,6.2165356E2,1.6314144E3,3.2821978E3,2.0422446E3,4.42659E2,1.6137115E3,2.0362251E2,2.732523E3,3.807633E2,6.888236E2,3.7566345E1,9.0005786E2,4.0770807E2,2.1419922E3,1.03344826E2,3.1358365E2,1.3650115E3,1.078195E3,5.4285303E3,7.092117E1,3.7861416E1],"tree_param":{"num_deleted":"0","num_feature":"42","num_nodes":"127","size_leaf_vector":"1"}},{"base_weights":[-7.0447737E-1,-8.7196916E-1,-4.2739105E-1,-9.5799166E-1,-7.382025E-1,-7.114605E-1,-2.613727E-1,-9.876067E-1,-9.073792E-1,-8.6116904E-1,-6.055486E-1,-5.5824465E-1,-8.5233104E-1,-4.0429127E-1,-1.6837089E-1,-9.4915956E-1,-1.001641E0,-9.4952834E-1,-8.424787E-1,-8.8734686E-1,-6.9471866E-1,-6.947206E-1,-5.275929E-1,-6.843803E-1,-4.617808E-1,-7.647112E-1,-9.1457605E-1,-3.1606707E-1,-5.500847E-1,-8.4962554E-2,-3.3666912E-1,-9.812503E-1,-8.394265E-1,-1.0099652E0,-9.840625E-1,-9.282866E-1,-9.774586E-1,-7.82984E-1,-9.104567E-1,-9.3549097E-1,-8.6853683E-1,-7.433368E-1,-5.326362E-1,-7.166862E-1,-5.0465846E-1,-5.7846326E-1,-3.9652202E-1,-5.53907E-1,-7.252981E-1,-5.0192773E-1,-1.3435465E-1,-8.088808E-1,-5.4647076E-1,-5.809368E-1,-9.244267E-1,-3.561135E-1,5.3180538E-2,-5.621213E-1,4.9579078E-1,-1.129182E-1,3.5308328E-1,-4.116253E-1,-1.2432316E-1,-2.980095E-1,-2.7017298E-1,-7.037667E-2,-2.609001E-1,-3.0355704E-1,-2.8249094E-1,-2.8629202E-1,-3.002982E-1,-2.8920573E-1,-2.6788288E-1,-2.946612E-1,-2.6479796E-1,-1.9364353E-1,-2.4147691E-1,-2.7703667E-1,-2.319297E-1,-2.824034E-1,-2.403646E-1,-2.6692456E-1,-2.4765903E-1,-2.3358403E-1,-1.665591E-1,-1.6814697E-1,3.9839074E-2,-2.1559975E-1,4.2107943E-1,-1.8171087E-1,-1.0338589E-1,-1.8316099E-1,-1.1940398E-1,-7.836657E-2,-1.5318182E-1,-1.7258471E-1,1.3620761E-1,-2.2406805E-1,-1.2807664E-1,-1.3828312E-1,-2.3442702E-1,-7.16747E-2,3.7388873E-1,-2.6039988E-1,-2.1899335E-1,-2.0582981E-1,-7.2313584E-2,-2.3729089E-1,-9.492183E-2,-2.8462756E-1,-2.5959417E-1,-1.1149989E-1,1.13729045E-1,1.808262E-1,-1.348505E-2,-1.8181437E-1,-1.1966189E-1,4.1164973E-1,-1.5718788E-1,-4.105836E-2,1.20409764E-1,2.0341046E-2,4.7859448E-1,4.6174735E-2,-1.3600525E-1,-1.3684875E-1,-3.9327806E-3],"categories":[],"categories_nodes":[],"categories_segments":[],"categories_sizes":[],"default_left":[0,0,0,0,0,0,0,1,0,0,0,0,0,0,0,0,0,0,0,1,0,0,0,0,1,1,0,0,0,0,0,1,1,0,0,1,0,0,0,0,0,0,0,0,0,0,0,0,1,0,0,0,0,0,0,1,0,0,0,0,0,0,0,0,0,0,0,0,0,0,0,0,0,0,0,0,0,0,0,0,0,0,0,0,0,0,0,0,0,0,0,0,0,0,0,0,0,0,0,0,0,0,0,0,0,0,0,0,0,0,0,0,0,0,0,0,0,0,0,0,0,0,0,0,0,0,0],"id":6,"left_children":[1,3,5,7,9,11,13,15,17,19,21,23,25,27,29,31,33,35,37,39,41,43,45,47,49,51,53,55,57,59,61,63,65,67,69,71,73,75,77,79,81,83,85,87,89,91,93,95,97,99,101,103,105,107,109,111,113,115,117,119,121,123,125,-1,-1,-1,-1,-1,-1,-1,-1,-1,-1,-1,-1,-1,-1,-1,-1,-1,-1,-1,-1,-1,-1,-1,-1,-1,-1,-1,-1,-1,-1,-1,-1,-1,-1,-1,-1,-1,-1,-1,-1,-1,-1,-1,-1,-1,-1,-1,-1,-1,-1,-1,-1,-1,-1,-1,-1,-1,-1,-1,-1,-1,-1,-1,-1],"loss_changes":[5.466785E3,8.441328E2,2.092955E3,6.6078125E1,4.682832E2,3.528584E2,3.7228052E2,1.4251953E1,4.435254E1,6.436133E1,9.576416E1,9.5132324E1,4.5805664E1,1.4186047E2,2.3821744E2,2.5776855E1,2.0234375E0,5.024414E0,2.5606445E1,1.0852539E1,1.5609863E1,2.65542E1,4.899463E1,1.7735596E1,5.8404297E1,3.3756348E1,1.5831055E1,1.0178119E2,5.26687E1,1.3902295E2,8.945996E1,4.811035E0,3.118518E1,8.515625E-1,2.4033203E0,6.3374023E0,1.0673828E0,9.971436E0,4.6984863E0,2.0805664E0,7.7280273E0,9.920898E0,8.826614E0,2.5256104E1,1.0646759E1,3.0525635E1,3.17771E1,1.7827148E1,1.6325073E1,4.502362E1,7.063123E1,1.3119751E1,2.543254E1,7.83461E0,6.1342773E0,7.113403E1,3.638719E1,2.9265137E1,4.3509605E1,1.3143146E2,2.412618E2,9.814331E1,5.4194714E1,0E0,0E0,0E0,0E0,0E0,0E0,0E0,0E0,0E0,0E0,0E0,0E0,0E0,0E0,0E0,0E0,0E0,0E0,0E0,0E0,0E0,0E0,0E0,0E0,0E0,0E0,0E0,0E0,0E0,0E0,0E0,0E0,0E0,0E0,0E0,0E0,0E0,0E0,0E0,0E0,0E0,0E0,0E0,0E0,0E0,0E0,0E0,0E0,0E0,0E0,0E0,0E0,0E0,0E0,0E0,0E0,0E0,0E0,0E0,0E0,0E0,0E0,0E0,0E0],"parents":[2147483647,0,0,1,1,2,2,3,3,4,4,5,5,6,6,7,7,8,8,9,9,10,10,11,11,12,12,13,13,14,14,15,15,16,16,17,17,18,18,19,19,20,20,21,21,22,22,23,23,24,24,25,25,26,26,27,27,28,28,29,29,30,30,31,31,32,32,33,33,34,34,35,35,36,36,37,37,38,38,39,39,40,40,41,41,42,42,43,43,44,44,45,45,46,46,47,47,48,48,49,49,50,50,51,51,52,52,53,53,54,54,55,55,56,56,57,57,58,58,59,59,60,60,61,61,62,62],"right_children":[2,4,6,8,10,12,14,16,18,20,22,24,26,28,30,32,34,36,38,40,42,44,46,48,50,52,54,56,58,60,62,64,66,68,70,72,74,76,78,80,82,84,86,88,90,92,94,96,98,100,102,104,106,108,110,112,114,116,118,120,122,124,126,-1,-1,-1,-1,-1,-1,-1,-1,-1,-1,-1,-1,-1,-1,-1,-1,-1,-1,-1,-1,-1,-1,-1,-1,-1,-1,-1,-1,-1,-1,-1,-1,-1,-1,-1,-1,-1,-1,-1,-1,-1,-1,-1,-1,-1,-1,-1,-1,-1,-1,-1,-1,-1,-1,-1,-1,-1,-1,-1,-1,-1,-1,-1,-1],"split_conditions":[2.994887E0,2.965E2,2.953E2,2.896E2,9.49509E-2,1.7E1,2.006994E1,1.42E1,3.929901E-1,6.432409E-1,2.856E2,2.4446772E1,1.99E1,1.0400001E1,1.26E1,9.49509E-2,6.0358864E-1,1.4400001E1,1.56E1,3.4055144E-1,3.499E2,3.5680002E2,3.474E2,1.0400001E1,1.1908361E0,1.4701756E0,1.31E1,3.9101648E0,2.11412E1,3.7E1,2.4400005E0,1.0449758E0,2.4300001E1,1.7481539E0,1.9E1,5.884789E-1,1.7481539E0,7.4E0,3.8E1,3.582E2,3.038E2,1E0,3.705E2,6.8E1,3.9E0,1E0,6.986211E-1,8E0,2.1441705E0,1.6E0,4E1,3.882036E1,4.3821E1,1.535E2,5.8209457E1,3.4388766E0,2.0250295E-1,2.2945373E0,2.20576E1,1E0,1E0,-3.4900007E0,2.4397056E0,-2.980095E-1,-2.7017298E-1,-7.037667E-2,-2.609001E-1,-3.0355704E-1,-2.8249094E-1,-2.8629202E-1,-3.002982E-1,-2.8920573E-1,-2.6788288E-1,-2.946612E-1,-2.6479796E-1,-1.9364353E-1,-2.4147691E-1,-2.7703667E-1,-2.319297E-1,-2.824034E-1,-2.403646E-1,-2.6692456E-1,-2.4765903E-1,-2.3358403E-1,-1.665591E-1,-1.6814697E-1,3.9839074E-2,-2.1559975E-1,4.2107943E-1,-1.8171087E-1,-1.0338589E-1,-1.8316099E-1,-1.1940398E-1,-7.836657E-2,-1.5318182E-1,-1.7258471E-1,1.3620761E-1,-2.2406805E-1,-1.2807664E-1,-1.3828312E-1,-2.3442702E-1,-7.16747E-2,3.7388873E-1,-2.6039988E-1,-2.1899335E-1,-2.0582981E-1,-7.2313584E-2,-2.3729089E-1,-9.492183E-2,-2.8462756E-1,-2.5959417E-1,-1.1149989E-1,1.13729045E-1,1.808262E-1,-1.348505E-2,-1.8181437E-1,-1.1966189E-1,4.1164973E-1,-1.5718788E-1,-4.105836E-2,1.20409764E-1,2.0341046E-2,4.7859448E-1,4.6174735E-2,-1.3600525E-1,-1.3684875E-1,-3.9327806E-3],"split_indices":[12,3,3,3,16,0,12,0,16,12,5,12,0,1,0,16,16,0,0,13,9,9,9,1,13,13,1,16,14,15,2,13,4,12,0,13,12,1,15,9,3,30,9,15,10,27,13,10,13,7,15,12,12,9,12,13,13,16,14,28,33,2,16,0,0,0,0,0,0,0,0,0,0,0,0,0,0,0,0,0,0,0,0,0,0,0,0,0,0,0,0,0,0,0,0,0,0,0,0,0,0,0,0,0,0,0,0,0,0,0,0,0,0,0,0,0,0,0,0,0,0,0,0,0,0,0,0],"split_type":[0,0,0,0,0,0,0,0,0,0,0,0,0,0,0,0,0,0,0,0,0,0,0,0,0,0,0,0,0,0,0,0,0,0,0,0,0,0,0,0,0,0,0,0,0,0,0,0,0,0,0,0,0,0,0,0,0,0,0,0,0,0,0,0,0,0,0,0,0,0,0,0,0,0,0,0,0,0,0,0,0,0,0,0,0,0,0,0,0,0,0,0,0,0,0,0,0,0,0,0,0,0,0,0,0,0,0,0,0,0,0,0,0,0,0,0,0,0,0,0,0,0,0,0,0,0,0],"sum_hessian":[1.1780114E5,7.3419016E4,4.4382125E4,4.468005E4,2.873896E4,1.6369478E4,2.8012646E4,2.8175248E4,1.6504805E4,1.4911198E4,1.3827763E4,7.843534E3,8.525943E3,1.1041502E4,1.6971145E4,7.552828E3,2.062242E4,9.998033E3,6.506771E3,1.2881051E4,2.0301473E3,6.4461885E3,7.381574E3,3.396368E3,4.4471665E3,3.5466914E3,4.979252E3,6.88085E3,4.160652E3,1.1348399E4,5.622744E3,5.8376914E3,1.7151366E3,1.3956824E4,6.665595E3,5.6984414E3,4.2995923E3,3.476574E3,3.0301973E3,3.6051018E3,9.275949E3,1.5589421E3,4.712052E2,5.7758955E3,6.7029297E2,5.3152427E3,2.0663318E3,8.143172E2,2.5820508E3,3.960965E3,4.862015E2,2.947451E3,5.992404E2,1.4451567E2,4.8347363E3,6.2076416E3,6.732088E2,4.1137705E3,4.6881207E1,1.0668302E4,6.80098E2,4.155095E3,1.4676489E3,5.065666E3,7.720255E2,8.208646E1,1.63305E3,1.3567401E4,3.8942346E2,2.4381282E3,4.227467E3,2.820567E3,2.8778743E3,4.0857146E3,2.1387787E2,4.8254907E2,2.994025E3,2.762999E3,2.6719803E2,3.448745E3,1.563565E2,6.1988774E3,3.077072E3,1.310148E3,2.487942E2,4.5242535E2,1.877986E1,5.7711685E3,4.7272725E0,4.0916937E2,2.611236E2,4.5110596E3,8.041828E2,9.4677545E2,1.1195564E3,7.978268E2,1.6490395E1,2.4063826E3,1.7566823E2,3.456734E3,5.0423102E2,4.5274097E2,3.346054E1,1.6792551E3,1.2681958E3,4.1038303E2,1.8885742E2,7.944646E1,6.506921E1,3.4143062E3,1.42043E3,6.0795283E3,1.2811304E2,1.01215706E2,5.719931E2,3.239404E3,8.7436646E2,2.5027203E1,2.1854004E1,1.0194424E4,4.7387762E2,5.5393976E2,1.26158264E2,2.8531366E2,3.8697815E3,3.6762628E2,1.1000227E3],"tree_param":{"num_deleted":"0","num_feature":"42","num_nodes":"127","size_leaf_vector":"1"}},{"base_weights":[-6.299624E-1,-8.23861E-1,-3.491175E-1,-9.324595E-1,-6.6585505E-1,-2.3435757E-1,-7.403655E-1,-9.712434E-1,-8.677581E-1,-8.103521E-1,-5.214278E-1,-4.1892007E-1,-1.5832011E-1,-6.220019E-1,-8.555452E-1,-9.2104614E-1,-9.898646E-1,-9.214847E-1,-7.876533E-1,-8.435235E-1,-6.211954E-1,-4.790062E-1,-7.3792607E-1,-5.6083804E-1,-3.3089104E-1,-2.459259E-1,-3.1206872E-2,-6.7094E-1,-4.1268674E-1,-7.413466E-1,-9.016216E-1,-9.6287197E-1,-7.840862E-1,-1.0009884E0,-9.665583E-1,-8.9426064E-1,-9.5780957E-1,-7.169443E-1,-8.715749E-1,-9.0455425E-1,-8.2011783E-1,-6.8781227E-1,-4.6163705E-1,-5.926698E-1,-4.020989E-1,7.668256E-1,-7.4063784E-1,-5.842328E-1,-3.7805695E-2,-4.4724625E-1,-2.4189433E-1,-1.507914E-1,-4.2326325E-1,-1.2788983E-1,2.034285E-1,-7.7834255E-1,-5.8678246E-1,-4.7583622E-1,1.7223622E-1,-7.7937996E-1,-2.2816655E-1,-9.0924823E-1,-5.6654954E-1,-2.9366073E-1,-2.5778866E-1,-6.20381E-2,-2.4769528E-1,-3.010545E-1,-2.7350375E-1,-2.7834532E-1,-2.9667285E-1,-2.820583E-1,-2.54932E-1,-2.8953242E-1,-2.5590068E-1,-2.1746174E-1,-5.2794553E-2,-2.4863099E-1,-2.8186458E-1,-2.7381074E-1,-2.2414471E-1,-2.3655589E-1,-2.596456E-1,-2.2329457E-1,-1.3043192E-1,-1.4731109E-1,3.4231788E-1,-1.7947477E-1,1.2550645E-1,-1.5631814E-1,-9.115711E-2,-9.8810785E-2,5.935705E-1,-2.0348744E-1,-2.4154992E-1,-1.5842582E-1,-2.2012697E-1,-4.2037874E-2,4.2018095E-1,-1.4397284E-1,-1.7547302E-2,-5.7567198E-2,-1.9118586E-1,-1.1647462E-1,-2.9119875E-2,-5.7815637E-2,-1.4302994E-1,6.138598E-2,-7.368059E-2,8.6030215E-2,-5.1591184E-2,-2.1206032E-1,-2.61929E-1,-1.7750758E-1,3.5782194E-1,-7.667915E-2,-1.8703553E-1,5.4498875E-1,-1.3993235E-1,-2.506612E-1,-1.9327834E-1,-1.9424398E-1,4.07898E-2,1.3067502E-1,-2.7313012E-1,-2.4602011E-1,-1.4008424E-2],"categories":[],"categories_nodes":[],"categories_segments":[],"categories_sizes":[],"default_left":[0,0,0,0,0,0,0,1,0,0,0,0,0,1,0,0,0,0,0,1,0,0,0,0,0,0,0,0,0,0,0,1,1,0,0,1,0,0,0,0,0,0,1,0,0,0,0,0,0,1,0,0,0,0,0,0,0,0,0,0,0,0,0,0,0,0,0,0,0,0,0,0,0,0,0,0,0,0,0,0,0,0,0,0,0,0,0,0,0,0,0,0,0,0,0,0,0,0,0,0,0,0,0,0,0,0,0,0,0,0,0,0,0,0,0,0,0,0,0,0,0,0,0,0,0,0,0],"id":7,"left_children":[1,3,5,7,9,11,13,15,17,19,21,23,25,27,29,31,33,35,37,39,41,43,45,47,49,51,53,55,57,59,61,63,65,67,69,71,73,75,77,79,81,83,85,87,89,91,93,95,97,99,101,103,105,107,109,111,113,115,117,119,121,123,125,-1,-1,-1,-1,-1,-1,-1,-1,-1,-1,-1,-1,-1,-1,-1,-1,-1,-1,-1,-1,-1,-1,-1,-1,-1,-1,-1,-1,-1,-1,-1,-1,-1,-1,-1,-1,-1,-1,-1,-1,-1,-1,-1,-1,-1,-1,-1,-1,-1,-1,-1,-1,-1,-1,-1,-1,-1,-1,-1,-1,-1,-1,-1,-1],"loss_changes":[5.263246E3,9.8052734E2,1.772436E3,8.41875E1,4.857246E2,4.2834155E2,1.2152881E2,1.8884766E1,5.3969727E1,7.253027E1,1.0667041E2,1.1108325E2,2.407674E2,4.499182E1,2.3193848E1,3.215332E1,3.0322266E0,6.6601562E0,2.9691162E1,1.3403809E1,1.8187073E1,8.496265E1,8.351074E0,4.1681274E1,5.683899E1,2.1588031E2,2.0017343E2,3.1904053E1,3.1110764E1,2.5378235E1,7.7304688E0,6.4433594E0,3.22063E1,1.4365234E0,3.4257812E0,8.110596E0,1.6567383E0,1.1788086E1,6.005249E0,2.826416E0,9.59375E0,1.7206543E1,2.4864418E1,2.2426392E1,6.781763E1,5.862014E0,7.1158447E0,2.6999634E1,2.1829794E1,3.0220734E1,6.1527634E1,1.06260544E2,5.5026978E1,2.4463136E2,8.060886E1,1.0014587E1,1.8278381E1,2.449823E1,8.758509E1,8.708313E0,1.4098312E1,5.42334E0,9.775118E0,0E0,0E0,0E0,0E0,0E0,0E0,0E0,0E0,0E0,0E0,0E0,0E0,0E0,0E0,0E0,0E0,0E0,0E0,0E0,0E0,0E0,0E0,0E0,0E0,0E0,0E0,0E0,0E0,0E0,0E0,0E0,0E0,0E0,0E0,0E0,0E0,0E0,0E0,0E0,0E0,0E0,0E0,0E0,0E0,0E0,0E0,0E0,0E0,0E0,0E0,0E0,0E0,0E0,0E0,0E0,0E0,0E0,0E0,0E0,0E0,0E0,0E0,0E0,0E0],"parents":[2147483647,0,0,1,1,2,2,3,3,4,4,5,5,6,6,7,7,8,8,9,9,10,10,11,11,12,12,13,13,14,14,15,15,16,16,17,17,18,18,19,19,20,20,21,21,22,22,23,23,24,24,25,25,26,26,27,27,28,28,29,29,30,30,31,31,32,32,33,33,34,34,35,35,36,36,37,37,38,38,39,39,40,40,41,41,42,42,43,43,44,44,45,45,46,46,47,47,48,48,49,49,50,50,51,51,52,52,53,53,54,54,55,55,56,56,57,57,58,58,59,59,60,60,61,61,62,62],"right_children":[2,4,6,8,10,12,14,16,18,20,22,24,26,28,30,32,34,36,38,40,42,44,46,48,50,52,54,56,58,60,62,64,66,68,70,72,74,76,78,80,82,84,86,88,90,92,94,96,98,100,102,104,106,108,110,112,114,116,118,120,122,124,126,-1,-1,-1,-1,-1,-1,-1,-1,-1,-1,-1,-1,-1,-1,-1,-1,-1,-1,-1,-1,-1,-1,-1,-1,-1,-1,-1,-1,-1,-1,-1,-1,-1,-1,-1,-1,-1,-1,-1,-1,-1,-1,-1,-1,-1,-1,-1,-1,-1,-1,-1,-1,-1,-1,-1,-1,-1,-1,-1,-1,-1,-1,-1,-1],"split_conditions":[2.994887E0,2.965E2,1.64E1,2.896E2,9.49509E-2,2.978E2,1.75E1,1.42E1,3.929901E-1,6.020005E-1,1.33E1,2.2218758E1,3.5572922E0,1.6716682E0,1.95E1,9.49509E-2,6.0358864E-1,1.4400001E1,1.56E1,3.4055144E-1,3.063E2,9.2319675E-2,1.251963E-3,5.7972164E0,2.8E0,1E0,1.6900005E0,2.129952E1,4E1,1E0,3.09E2,1.0449758E0,7.4E0,1.7481539E0,1.9E1,5.884789E-1,1.4864138E0,1E0,1.95E1,3.575E2,1.50888E1,1E0,3.800014E0,1.4108898E1,3.136E2,3E2,1.53E1,3.8600002E1,4.6E1,1.2688912E0,1.6E0,3.6285543E-1,-3.0200005E0,-3.0500002E0,1.2033303E0,3.8600002E1,1.03E1,1.8E1,4.1E1,1.6390001E2,1.523E2,-3.9400005E0,5.314904E1,-2.9366073E-1,-2.5778866E-1,-6.20381E-2,-2.4769528E-1,-3.010545E-1,-2.7350375E-1,-2.7834532E-1,-2.9667285E-1,-2.820583E-1,-2.54932E-1,-2.8953242E-1,-2.5590068E-1,-2.1746174E-1,-5.2794553E-2,-2.4863099E-1,-2.8186458E-1,-2.7381074E-1,-2.2414471E-1,-2.3655589E-1,-2.596456E-1,-2.2329457E-1,-1.3043192E-1,-1.4731109E-1,3.4231788E-1,-1.7947477E-1,1.2550645E-1,-1.5631814E-1,-9.115711E-2,-9.8810785E-2,5.935705E-1,-2.0348744E-1,-2.4154992E-1,-1.5842582E-1,-2.2012697E-1,-4.2037874E-2,4.2018095E-1,-1.4397284E-1,-1.7547302E-2,-5.7567198E-2,-1.9118586E-1,-1.1647462E-1,-2.9119875E-2,-5.7815637E-2,-1.4302994E-1,6.138598E-2,-7.368059E-2,8.6030215E-2,-5.1591184E-2,-2.1206032E-1,-2.61929E-1,-1.7750758E-1,3.5782194E-1,-7.667915E-2,-1.8703553E-1,5.4498875E-1,-1.3993235E-1,-2.506612E-1,-1.9327834E-1,-1.9424398E-1,4.07898E-2,1.3067502E-1,-2.7313012E-1,-2.4602011E-1,-1.4008424E-2],"split_indices":[12,3,0,3,16,3,1,0,16,12,0,12,16,13,0,16,16,0,0,13,3,12,13,16,10,25,2,12,15,29,9,13,0,12,0,13,12,39,0,9,14,30,13,16,9,3,0,6,15,13,7,16,2,2,13,6,10,0,15,9,9,2,12,0,0,0,0,0,0,0,0,0,0,0,0,0,0,0,0,0,0,0,0,0,0,0,0,0,0,0,0,0,0,0,0,0,0,0,0,0,0,0,0,0,0,0,0,0,0,0,0,0,0,0,0,0,0,0,0,0,0,0,0,0,0,0,0],"split_type":[0,0,0,0,0,0,0,0,0,0,0,0,0,0,0,0,0,0,0,0,0,0,0,0,0,0,0,0,0,0,0,0,0,0,0,0,0,0,0,0,0,0,0,0,0,0,0,0,0,0,0,0,0,0,0,0,0,0,0,0,0,0,0,0,0,0,0,0,0,0,0,0,0,0,0,0,0,0,0,0,0,0,0,0,0,0,0,0,0,0,0,0,0,0,0,0,0,0,0,0,0,0,0,0,0,0,0,0,0,0,0,0,0,0,0,0,0,0,0,0,0,0,0,0,0,0,0],"sum_hessian":[9.665664E4,5.7178215E4,3.9478426E4,3.3884367E4,2.3293848E4,3.0526166E4,8.952262E3,2.1176533E4,1.2707835E4,1.1641807E4,1.1652041E4,8.905562E3,2.1620605E4,4.4182646E3,4.5339966E3,5.743702E3,1.543283E4,7.5999873E3,5.1078477E3,9.901902E3,1.739904E3,9.745649E3,1.9063911E3,3.4071987E3,5.498363E3,1.2798802E4,8.821803E3,3.5792312E3,8.3903326E2,1.3083608E3,3.225636E3,4.3953794E3,1.3483229E3,1.0418353E4,5.0144775E3,4.358832E3,3.2411553E3,2.7773254E3,2.3305222E3,2.7343586E3,7.1675435E3,1.2251029E3,5.148012E2,3.9302754E3,5.8153745E3,2.9225407E0,1.9034686E3,3.2612107E3,1.4598814E2,2.3811711E3,3.117192E3,8.33126E3,4.4675425E3,6.2478096E3,2.5739934E3,1.5688287E3,2.0104025E3,7.574445E2,8.1588776E1,1.2176018E3,9.075897E1,3.1521748E3,7.34612E1,3.8000247E3,5.953547E2,9.095957E1,1.2573633E3,1.0121757E4,2.9659543E2,1.8501643E3,3.1643132E3,2.1346523E3,2.2241794E3,3.0224717E3,2.1868356E2,2.7368748E3,4.045078E1,1.438101E3,8.9242126E2,2.5952175E3,1.3914111E2,4.2357476E3,2.9317957E3,9.998892E2,2.252137E2,5.062089E2,8.592296E0,3.9091108E3,2.1164469E1,2.6283677E3,3.1870068E3,1.9167504E0,1.0057902E0,9.7395715E2,9.295114E2,2.374215E3,8.869954E2,1.3713565E2,8.852499E0,2.1963955E3,1.847756E2,2.7685493E3,3.4864246E2,1.5360255E3,6.795234E3,8.423725E2,3.6251697E3,1.6333191E3,4.61449E3,2.1065696E3,4.6742386E2,8.9908856E2,6.697402E2,2.0055369E3,4.8655E0,3.050493E2,4.523952E2,2.2308098E1,5.9280678E1,8.564612E2,3.6114066E2,4.1821583E1,4.8937386E1,2.4533606E0,3.1497214E3,4.8991856E1,2.4469337E1],"tree_param":{"num_deleted":"0","num_feature":"42","num_nodes":"127","size_leaf_vector":"1"}},{"base_weights":[-5.5112296E-1,-7.873061E-1,-2.9984456E-1,-9.095606E-1,-6.1517614E-1,-1.8852288E-1,-6.649963E-1,-9.569448E-1,-8.3086884E-1,-7.688536E-1,-4.5966092E-1,-3.284102E-1,-1.0626653E-1,-5.327607E-1,-8.1367135E-1,-8.872686E-1,-9.7961795E-1,-8.937205E-1,-7.323382E-1,-8.1529814E-1,-6.6552585E-1,-5.405118E-1,-3.4281164E-1,-3.4564218E-1,3.9865458E-1,-3.22503E-1,-6.388987E-2,-6.6928154E-1,-4.1976136E-1,-8.985848E-1,-7.241476E-1,-9.4055647E-1,-7.0213675E-1,-9.9540037E-1,-9.4877005E-1,-8.6414725E-1,-9.53972E-1,-6.124898E-1,-7.959507E-1,-8.807693E-1,-7.854759E-1,-7.341627E-1,-5.324321E-1,-5.680782E-1,-2.9014665E-1,-5.8115184E-1,-2.6142472E-1,-6.069152E-1,-2.9339194E-1,-1.8652916E-1,1.5216212E0,-3.7688634E-1,7.362876E-2,-9.660044E-2,2.4226196E-1,-7.20936E-1,-4.570267E-1,-6.0809034E-1,-2.9129544E-1,-8.289609E-1,-9.437703E-1,-8.011614E-1,-5.397206E-1,-2.8958067E-1,-2.4663505E-1,2.1771027E-1,-2.188508E-1,-2.9869667E-1,-1.3382192E-1,-2.705923E-1,-2.939412E-1,-2.7399898E-1,-2.3758093E-1,-1.141889E-1,-2.8678247E-1,-1.8764356E-1,1.3424322E-1,-2.4661203E-1,-1.7712855E-1,-2.797135E-1,-2.534211E-1,-2.203756E-1,-2.4730054E-1,-2.309269E-1,-1.7735836E-1,-1.7175087E-1,-8.841462E-2,-1.5862781E-1,-2.1122359E-1,-1.3580856E-1,-3.5984896E-2,-1.8877737E-1,-3.289749E-2,-8.246474E-2,3.811542E-1,-1.8341596E-1,2.926957E-1,-2.623071E-2,-1.0687172E-1,3.26609E-1,-8.350599E-2,6.0436237E-1,-1.0328084E-1,-1.2505133E-1,6.1173424E-2,-4.6309095E-2,4.4814965E-1,-4.71746E-2,7.6580443E-3,4.4833757E-2,1.516738E-1,-1.948754E-1,-2.4823178E-1,-2.001359E-1,-6.521403E-2,-1.1667688E-1,-2.1087818E-1,-1.424854E-1,-5.7203457E-2,3.2073686E-1,-2.499669E-1,-2.8420472E-1,1.11919746E-1,-1.4182682E-1,-2.4938284E-1,-1.968421E-1,-7.5600445E-2],"categories":[],"categories_nodes":[],"categories_segments":[],"categories_sizes":[],"default_left":[0,0,0,0,0,0,0,1,0,0,0,1,0,0,0,0,0,0,0,1,0,0,0,0,0,0,0,1,0,0,0,1,0,0,0,1,0,0,0,0,0,0,0,0,0,0,0,0,0,0,0,1,0,0,0,0,0,0,0,0,0,0,0,0,0,0,0,0,0,0,0,0,0,0,0,0,0,0,0,0,0,0,0,0,0,0,0,0,0,0,0,0,0,0,0,0,0,0,0,0,0,0,0,0,0,0,0,0,0,0,0,0,0,0,0,0,0,0,0,0,0,0,0,0,0,0,0],"id":8,"left_children":[1,3,5,7,9,11,13,15,17,19,21,23,25,27,29,31,33,35,37,39,41,43,45,47,49,51,53,55,57,59,61,63,65,67,69,71,73,75,77,79,81,83,85,87,89,91,93,95,97,99,101,103,105,107,109,111,113,115,117,119,121,123,125,-1,-1,-1,-1,-1,-1,-1,-1,-1,-1,-1,-1,-1,-1,-1,-1,-1,-1,-1,-1,-1,-1,-1,-1,-1,-1,-1,-1,-1,-1,-1,-1,-1,-1,-1,-1,-1,-1,-1,-1,-1,-1,-1,-1,-1,-1,-1,-1,-1,-1,-1,-1,-1,-1,-1,-1,-1,-1,-1,-1,-1,-1,-1,-1],"loss_changes":[4.8060938E3,8.7793555E2,1.5949785E3,9.021289E1,4.1405518E2,3.4601477E2,1.798042E2,2.3186523E1,5.620117E1,4.1304688E1,8.125952E1,1.39651E2,1.7352942E2,7.46156E1,3.2140625E1,3.632715E1,4.6445312E0,9.155273E0,2.6814331E1,1.104541E1,2.436084E1,3.498938E1,6.828934E1,1.4832605E2,1.7000528E2,6.6879974E1,1.5862466E2,2.3757935E1,6.415442E1,6.1693115E0,2.9465698E1,7.718506E0,3.34263E1,6.176758E-1,4.789551E0,1.2656738E1,1.7075195E0,1.7434784E1,1.2040405E1,2.6954346E0,7.5803223E0,8.628296E0,8.647369E0,2.4157959E1,1.3978806E1,2.028366E1,5.4611526E1,1.3418518E1,1.1733252E2,2.0289452E1,8.217189E1,6.3402527E1,1.2179505E2,1.05989746E2,3.7295067E1,1.287677E1,2.1642693E1,2.2119537E1,2.9155151E1,7.992798E0,6.6345215E0,1.4272095E1,2.0707413E1,0E0,0E0,0E0,0E0,0E0,0E0,0E0,0E0,0E0,0E0,0E0,0E0,0E0,0E0,0E0,0E0,0E0,0E0,0E0,0E0,0E0,0E0,0E0,0E0,0E0,0E0,0E0,0E0,0E0,0E0,0E0,0E0,0E0,0E0,0E0,0E0,0E0,0E0,0E0,0E0,0E0,0E0,0E0,0E0,0E0,0E0,0E0,0E0,0E0,0E0,0E0,0E0,0E0,0E0,0E0,0E0,0E0,0E0,0E0,0E0,0E0,0E0,0E0,0E0],"parents":[2147483647,0,0,1,1,2,2,3,3,4,4,5,5,6,6,7,7,8,8,9,9,10,10,11,11,12,12,13,13,14,14,15,15,16,16,17,17,18,18,19,19,20,20,21,21,22,22,23,23,24,24,25,25,26,26,27,27,28,28,29,29,30,30,31,31,32,32,33,33,34,34,35,35,36,36,37,37,38,38,39,39,40,40,41,41,42,42,43,43,44,44,45,45,46,46,47,47,48,48,49,49,50,50,51,51,52,52,53,53,54,54,55,55,56,56,57,57,58,58,59,59,60,60,61,61,62,62],"right_children":[2,4,6,8,10,12,14,16,18,20,22,24,26,28,30,32,34,36,38,40,42,44,46,48,50,52,54,56,58,60,62,64,66,68,70,72,74,76,78,80,82,84,86,88,90,92,94,96,98,100,102,104,106,108,110,112,114,116,118,120,122,124,126,-1,-1,-1,-1,-1,-1,-1,-1,-1,-1,-1,-1,-1,-1,-1,-1,-1,-1,-1,-1,-1,-1,-1,-1,-1,-1,-1,-1,-1,-1,-1,-1,-1,-1,-1,-1,-1,-1,-1,-1,-1,-1,-1,-1,-1,-1,-1,-1,-1,-1,-1,-1,-1,-1,-1,-1,-1,-1,-1,-1,-1,-1,-1,-1],"split_conditions":[1.7024413E0,2.965E2,1.5900001E1,2.896E2,9.49509E-2,2.726E2,1.74E1,1.35E1,3.929901E-1,9.2319675E-2,2.871E2,2.6961122E0,6.1661005E-1,1.6419373E1,1.5715696E1,9.49509E-2,1.7029005E-1,1.58E1,1.2900001E1,3.7763816E-1,3.051E2,3.582E2,9.068E-1,6.1661005E-1,4E1,1E0,3.6130002E2,1.8497248E0,2.598E0,5.0600002E1,1.653E2,8.533375E-1,1E0,3.705E2,1.9E1,8.141612E-1,-3.7700005E0,1E0,2.835E2,2.841E2,7.3E0,1E0,3.5680002E2,1.32E1,2.22315E-1,1E0,1E0,2.961E2,1.5E1,1.9509526E0,2.20576E1,3.1666837E0,1.7954E1,3.071E2,3.676E2,3.8600002E1,5.903419E0,3.37E1,1.801E2,-3.9400005E0,1.035E-2,3.88E1,1E0,-2.8958067E-1,-2.4663505E-1,2.1771027E-1,-2.188508E-1,-2.9869667E-1,-1.3382192E-1,-2.705923E-1,-2.939412E-1,-2.7399898E-1,-2.3758093E-1,-1.141889E-1,-2.8678247E-1,-1.8764356E-1,1.3424322E-1,-2.4661203E-1,-1.7712855E-1,-2.797135E-1,-2.534211E-1,-2.203756E-1,-2.4730054E-1,-2.309269E-1,-1.7735836E-1,-1.7175087E-1,-8.841462E-2,-1.5862781E-1,-2.1122359E-1,-1.3580856E-1,-3.5984896E-2,-1.8877737E-1,-3.289749E-2,-8.246474E-2,3.811542E-1,-1.8341596E-1,2.926957E-1,-2.623071E-2,-1.0687172E-1,3.26609E-1,-8.350599E-2,6.0436237E-1,-1.0328084E-1,-1.2505133E-1,6.1173424E-2,-4.6309095E-2,4.4814965E-1,-4.71746E-2,7.6580443E-3,4.4833757E-2,1.516738E-1,-1.948754E-1,-2.4823178E-1,-2.001359E-1,-6.521403E-2,-1.1667688E-1,-2.1087818E-1,-1.424854E-1,-5.7203457E-2,3.2073686E-1,-2.499669E-1,-2.8420472E-1,1.11919746E-1,-1.4182682E-1,-2.4938284E-1,-1.968421E-1,-7.5600445E-2],"split_indices":[12,3,0,3,16,9,1,0,16,12,5,13,16,12,12,16,16,0,0,13,3,9,14,16,15,33,9,13,14,6,9,13,15,9,0,13,2,39,5,5,1,30,9,0,12,36,39,5,6,12,14,13,14,3,9,6,12,6,9,2,8,6,24,0,0,0,0,0,0,0,0,0,0,0,0,0,0,0,0,0,0,0,0,0,0,0,0,0,0,0,0,0,0,0,0,0,0,0,0,0,0,0,0,0,0,0,0,0,0,0,0,0,0,0,0,0,0,0,0,0,0,0,0,0,0,0,0],"split_type":[0,0,0,0,0,0,0,0,0,0,0,0,0,0,0,0,0,0,0,0,0,0,0,0,0,0,0,0,0,0,0,0,0,0,0,0,0,0,0,0,0,0,0,0,0,0,0,0,0,0,0,0,0,0,0,0,0,0,0,0,0,0,0,0,0,0,0,0,0,0,0,0,0,0,0,0,0,0,0,0,0,0,0,0,0,0,0,0,0,0,0,0,0,0,0,0,0,0,0,0,0,0,0,0,0,0,0,0,0,0,0,0,0,0,0,0,0,0,0,0,0,0,0,0,0,0,0],"sum_hessian":[8.0984914E4,4.1745297E4,3.9239617E4,2.4406436E4,1.733886E4,3.0072965E4,9.166653E3,1.5226594E4,9.179842E3,8.718976E3,8.619885E3,1.1134443E4,1.8938523E4,4.853978E3,4.312675E3,3.7482112E3,1.1478383E4,5.599751E3,3.5800906E3,6.0104604E3,2.7085154E3,5.092578E3,3.5273064E3,1.0877171E4,2.5727222E2,3.1022058E3,1.5836316E4,2.1959749E3,2.6580032E3,2.2086907E3,2.1039841E3,2.907301E3,8.4091003E2,7.5727427E3,3.9056401E3,3.766421E3,1.8333302E3,1.2450317E3,2.3350588E3,1.8720531E3,4.138407E3,1.7839904E3,9.24525E2,4.586332E3,5.0624612E2,8.963172E2,2.6309893E3,1.8109664E3,9.066204E3,1.6968327E2,8.758894E1,2.72777E3,3.7443585E2,1.4308247E4,1.5280701E3,1.7642333E3,4.3174164E2,1.0763531E3,1.58165E3,8.7688745E2,1.3318033E3,1.4818452E3,6.221389E2,2.399497E3,5.0780405E2,1.5333906E1,8.255761E2,7.568415E3,4.3273616E0,1.5693289E3,2.3363113E3,2.2335247E3,1.5328961E3,6.941301E0,1.8263889E3,1.2303649E3,1.4666838E1,2.0693699E3,2.6568918E2,7.5943695E2,1.1126162E3,1.800433E3,2.3379744E3,1.4248685E3,3.5912183E2,7.8995703E2,1.3456798E2,3.5615461E3,1.0247856E3,2.5809232E2,2.481538E2,8.1302997E2,8.328724E1,2.608891E3,2.2097986E1,1.8064761E3,4.490345E0,2.1202673E3,6.945937E3,1.0668334E1,1.5901494E2,6.922249E1,1.8366455E1,2.5524749E3,1.7529517E2,3.2340872E2,5.1027126E1,9.560319E3,4.7479277E3,1.1309808E3,3.9708923E2,1.0607126E3,7.035207E2,2.2910579E2,2.0263585E2,3.2662537E2,7.497278E2,5.585016E2,1.0231485E3,1.4048556E0,8.754826E2,1.3284735E3,3.3298275E0,1.258736E2,1.3559716E3,4.420086E2,1.801303E2],"tree_param":{"num_deleted":"0","num_feature":"42","num_nodes":"127","size_leaf_vector":"1"}},{"base_weights":[-4.7106907E-1,-7.105421E-1,-2.2043997E-1,-8.6935306E-1,-5.145545E-1,-1.3684309E-1,-6.0740846E-1,-9.277337E-1,-7.608894E-1,-6.8732685E-1,-3.6684358E-1,-9.437549E-2,-3.4507403E-1,-4.9521953E-1,-7.932147E-1,-8.3727604E-1,-9.582527E-1,-8.4508663E-1,-6.482185E-1,-7.2926515E-1,-4.3749812E-1,-3.264674E-1,-6.0256946E-1,-1.8544908E-1,2.151164E-2,-4.3181443E-1,-9.3392886E-2,-5.588996E-1,-1.8525232E-1,-3.0513194E-1,-8.145607E-1,-9.0796113E-1,-6.27247E-1,-9.8216766E-1,-9.166572E-1,-7.506175E-1,-8.710438E-1,-5.7759756E-1,-8.0036E-1,-8.1768864E-1,-6.943017E-1,-5.116035E-1,-2.1381909E-1,-6.683986E-1,-3.0046213E-1,-7.350841E-1,-5.418473E-1,-2.7424735E-1,-9.174029E-2,9.153193E-2,-2.8203136E-1,-3.9396565E-2,-4.7947297E-1,-2.7394605E-1,3.9628753E-1,-7.2562534E-1,-4.8401767E-1,-4.7741362E-1,-8.947744E-3,1.1652901E0,-3.519613E-1,-8.621574E-1,-6.995735E-1,-2.8130078E-1,-2.1956702E-1,2.9868928E-3,-2.0462005E-1,-2.957048E-1,-2.3998581E-1,-2.5712666E-1,-2.8757846E-1,-2.5098914E-1,-1.8171474E-1,-2.6550502E-1,-2.0710327E-1,-2.0016177E-1,-1.4581667E-1,-2.4772003E-1,-1.4024815E-1,-2.6134387E-1,-2.2835763E-1,-1.9094165E-1,-2.279165E-1,-1.6765675E-1,-5.8264438E-2,-1.3501409E-1,-1.0769661E-2,-2.0465106E-1,1.4951696E-1,-1.3544741E-1,-7.064712E-2,-2.2733037E-1,-1.3838129E-1,3.622898E-1,-1.656628E-1,-1.4498827E-1,-7.0699915E-2,1.0668288E-2,-5.7430346E-2,4.069604E-2,-8.48354E-2,-9.848488E-2,3.3457887E-1,1.9983508E-1,-3.976443E-2,-1.7913043E-1,-1.1970823E-1,-1.4619568E-1,-3.2956947E-2,5.183239E-2,3.913809E-1,-1.268771E-1,-2.3558311E-1,-1.6425847E-1,-8.323299E-2,1.0611609E-1,-1.5770575E-1,-3.2581702E-2,3.5469317E-1,-1.6224931E-1,7.0546997E-1,2.562338E-1,-1.2147229E-1,-2.1871842E-1,-2.6875213E-1,-2.1641551E-1,3.384232E-1],"categories":[],"categories_nodes":[],"categories_segments":[],"categories_sizes":[],"default_left":[0,0,0,0,0,0,0,1,0,0,0,0,0,1,0,0,0,0,0,1,0,0,0,0,0,0,0,0,0,0,0,1,1,0,0,1,0,0,0,0,0,0,0,0,0,0,0,0,0,0,0,0,0,0,0,0,0,0,0,0,0,0,0,0,0,0,0,0,0,0,0,0,0,0,0,0,0,0,0,0,0,0,0,0,0,0,0,0,0,0,0,0,0,0,0,0,0,0,0,0,0,0,0,0,0,0,0,0,0,0,0,0,0,0,0,0,0,0,0,0,0,0,0,0,0,0,0],"id":9,"left_children":[1,3,5,7,9,11,13,15,17,19,21,23,25,27,29,31,33,35,37,39,41,43,45,47,49,51,53,55,57,59,61,63,65,67,69,71,73,75,77,79,81,83,85,87,89,91,93,95,97,99,101,103,105,107,109,111,113,115,117,119,121,123,125,-1,-1,-1,-1,-1,-1,-1,-1,-1,-1,-1,-1,-1,-1,-1,-1,-1,-1,-1,-1,-1,-1,-1,-1,-1,-1,-1,-1,-1,-1,-1,-1,-1,-1,-1,-1,-1,-1,-1,-1,-1,-1,-1,-1,-1,-1,-1,-1,-1,-1,-1,-1,-1,-1,-1,-1,-1,-1,-1,-1,-1,-1,-1,-1],"loss_changes":[4.162842E3,1.1035469E3,1.0963259E3,1.23353516E2,4.0498633E2,2.4644965E2,1.25113525E2,3.4345703E1,6.453882E1,7.6349365E1,8.129883E1,2.4436372E2,1.030282E2,7.4050476E1,2.3350098E1,4.7231445E1,8.5625E0,8.966797E0,3.1110962E1,1.879834E1,1.7366623E1,6.482239E1,9.667694E0,1.07854004E2,2.165911E2,6.5641235E1,1.0720941E2,3.8551514E1,3.3052193E1,7.055645E0,1.1270996E1,1.1902832E1,2.8440674E1,3.0717773E0,7.8913574E0,1.0123047E1,7.144043E0,1.6168396E1,7.460388E0,4.680786E0,1.6524902E1,1.1757675E1,1.1083426E1,8.631714E0,6.6595215E1,2.0746307E0,1.6287476E1,5.3569183E1,8.0079346E1,1.3678918E2,1.2381142E2,2.5147264E1,2.9385193E1,3.0954315E1,6.610872E1,1.7069977E1,2.8098145E1,9.875183E0,4.77646E1,7.7700076E0,6.3674593E0,6.206421E0,2.6344055E1,0E0,0E0,0E0,0E0,0E0,0E0,0E0,0E0,0E0,0E0,0E0,0E0,0E0,0E0,0E0,0E0,0E0,0E0,0E0,0E0,0E0,0E0,0E0,0E0,0E0,0E0,0E0,0E0,0E0,0E0,0E0,0E0,0E0,0E0,0E0,0E0,0E0,0E0,0E0,0E0,0E0,0E0,0E0,0E0,0E0,0E0,0E0,0E0,0E0,0E0,0E0,0E0,0E0,0E0,0E0,0E0,0E0,0E0,0E0,0E0,0E0,0E0,0E0,0E0],"parents":[2147483647,0,0,1,1,2,2,3,3,4,4,5,5,6,6,7,7,8,8,9,9,10,10,11,11,12,12,13,13,14,14,15,15,16,16,17,17,18,18,19,19,20,20,21,21,22,22,23,23,24,24,25,25,26,26,27,27,28,28,29,29,30,30,31,31,32,32,33,33,34,34,35,35,36,36,37,37,38,38,39,39,40,40,41,41,42,42,43,43,44,44,45,45,46,46,47,47,48,48,49,49,50,50,51,51,52,52,53,53,54,54,55,55,56,56,57,57,58,58,59,59,60,60,61,61,62,62],"right_children":[2,4,6,8,10,12,14,16,18,20,22,24,26,28,30,32,34,36,38,40,42,44,46,48,50,52,54,56,58,60,62,64,66,68,70,72,74,76,78,80,82,84,86,88,90,92,94,96,98,100,102,104,106,108,110,112,114,116,118,120,122,124,126,-1,-1,-1,-1,-1,-1,-1,-1,-1,-1,-1,-1,-1,-1,-1,-1,-1,-1,-1,-1,-1,-1,-1,-1,-1,-1,-1,-1,-1,-1,-1,-1,-1,-1,-1,-1,-1,-1,-1,-1,-1,-1,-1,-1,-1,-1,-1,-1,-1,-1,-1,-1,-1,-1,-1,-1,-1,-1,-1,-1,-1,-1,-1,-1],"split_conditions":[2.5950446E0,2.965E2,1.65E1,2.903E2,9.49509E-2,3.5600002E1,2.07E1,1.35E1,3.1054977E-1,6.9082946E-1,1.33E1,4.6836315E1,1.9899998E0,1.6716682E0,1.3E1,9.49509E-2,9.49509E-2,7.9E0,1.6800001E1,3.6708185E-1,3.499E2,4.152E-1,2.9706415E-2,3.179E2,1.5431231E1,-3.3600006E0,1.2245908E3,1.1191009E1,1.1186825E0,9.400001E0,5.8209457E1,1.0449758E0,7E0,1.7481539E0,1.9E1,8.141612E-1,1.0385647E0,2.8E1,3.9E1,2.855E2,1.40748E1,3.093E2,2.858E2,2.4256072E0,2.843E2,3.043E2,2.6665622E-2,3.2547247E-1,8.45415E-1,1E0,1E0,1.3167156E-1,2.512E0,2.2739797E0,1E0,7.25E1,1E0,-2.4000006E0,4E1,1.7304413E1,2.698E2,4.33E1,1.45236E1,-2.8130078E-1,-2.1956702E-1,2.9868928E-3,-2.0462005E-1,-2.957048E-1,-2.3998581E-1,-2.5712666E-1,-2.8757846E-1,-2.5098914E-1,-1.8171474E-1,-2.6550502E-1,-2.0710327E-1,-2.0016177E-1,-1.4581667E-1,-2.4772003E-1,-1.4024815E-1,-2.6134387E-1,-2.2835763E-1,-1.9094165E-1,-2.279165E-1,-1.6765675E-1,-5.8264438E-2,-1.3501409E-1,-1.0769661E-2,-2.0465106E-1,1.4951696E-1,-1.3544741E-1,-7.064712E-2,-2.2733037E-1,-1.3838129E-1,3.622898E-1,-1.656628E-1,-1.4498827E-1,-7.0699915E-2,1.0668288E-2,-5.7430346E-2,4.069604E-2,-8.48354E-2,-9.848488E-2,3.3457887E-1,1.9983508E-1,-3.976443E-2,-1.7913043E-1,-1.1970823E-1,-1.4619568E-1,-3.2956947E-2,5.183239E-2,3.913809E-1,-1.268771E-1,-2.3558311E-1,-1.6425847E-1,-8.323299E-2,1.0611609E-1,-1.5770575E-1,-3.2581702E-2,3.5469317E-1,-1.6224931E-1,7.0546997E-1,2.562338E-1,-1.2147229E-1,-2.1871842E-1,-2.6875213E-1,-2.1641551E-1,3.384232E-1],"split_indices":[12,3,0,3,16,6,0,0,16,12,0,12,2,13,1,16,16,1,0,13,9,14,12,9,16,2,12,12,16,1,12,13,6,12,0,13,12,15,15,5,14,3,5,12,5,3,13,16,13,27,37,13,14,16,39,4,24,2,15,12,5,6,14,0,0,0,0,0,0,0,0,0,0,0,0,0,0,0,0,0,0,0,0,0,0,0,0,0,0,0,0,0,0,0,0,0,0,0,0,0,0,0,0,0,0,0,0,0,0,0,0,0,0,0,0,0,0,0,0,0,0,0,0,0,0,0,0],"split_type":[0,0,0,0,0,0,0,0,0,0,0,0,0,0,0,0,0,0,0,0,0,0,0,0,0,0,0,0,0,0,0,0,0,0,0,0,0,0,0,0,0,0,0,0,0,0,0,0,0,0,0,0,0,0,0,0,0,0,0,0,0,0,0,0,0,0,0,0,0,0,0,0,0,0,0,0,0,0,0,0,0,0,0,0,0,0,0,0,0,0,0,0,0,0,0,0,0,0,0,0,0,0,0,0,0,0,0,0,0,0,0,0,0,0,0,0,0,0,0,0,0,0,0,0,0,0,0],"sum_hessian":[6.9360484E4,3.5468723E4,3.3891758E4,1.9590707E4,1.5878015E4,2.7871934E4,6.019826E3,1.273079E4,6.859916E3,7.3165034E3,8.561511E3,2.3151717E4,4.7202173E3,3.7557737E3,2.2640527E3,3.2187908E3,9.512E3,3.922324E3,2.937592E3,6.263194E3,1.0533093E3,7.311543E3,1.249968E3,1.2963408E4,1.0188308E4,3.509852E3,1.2103652E3,3.1150173E3,6.407562E2,9.5509E1,2.1685437E3,2.4057983E3,8.1299243E2,6.0252324E3,3.4867673E3,8.5188055E2,3.0704436E3,2.0095823E3,9.280099E2,1.7684197E3,4.4947744E3,7.902204E2,2.6308893E2,5.150243E2,6.7965186E3,3.8929657E2,8.606715E2,6.655111E3,6.3082974E3,8.279189E3,1.9091177E3,3.8030096E2,3.1295513E3,8.846287E2,3.257365E2,9.6275E2,2.1522673E3,2.4050233E2,4.0025388E2,2.2106862E0,9.329832E1,1.5291035E3,6.394401E2,2.0547751E3,3.5102325E2,6.4467445E1,7.48525E2,5.9068774E3,1.1835479E2,1.4494304E3,2.0373369E3,5.3156964E2,3.203109E2,2.84644E3,2.240035E2,1.0123393E3,9.97243E2,8.609049E2,6.710493E1,9.012402E2,8.671795E2,2.3914873E3,2.1032869E3,6.871567E2,1.0306373E2,1.1236732E2,1.507216E2,5.094269E2,5.5973864E0,2.0425609E3,4.7539575E3,3.578809E2,3.141567E1,4.3873644E0,8.562841E2,1.0350857E3,5.6200254E3,2.7708254E3,3.537472E3,7.4067744E3,8.724155E2,1.8486896E3,6.0428074E1,4.3638638E1,3.3666232E2,1.2684237E3,1.8611276E3,3.837074E2,5.0092136E2,2.623654E2,6.3371105E1,1.5982251E2,8.029275E2,1.6448989E3,5.0736847E2,1.285428E1,2.2764806E2,3.701932E2,3.006068E1,1.1298344E0,1.0808518E0,3.2871861E0,9.001113E1,3.133936E2,1.21571E3,6.3249713E2,6.943016E0],"tree_param":{"num_deleted":"0","num_feature":"42","num_nodes":"127","size_leaf_vector":"1"}},{"base_weights":[-3.931046E-1,-6.875954E-1,-2.0137097E-1,-8.5309106E-1,-4.9775597E-1,-1.2962103E-1,-6.149774E-1,-9.235877E-1,-7.497558E-1,-6.5866095E-1,-3.420498E-1,-3.4296104E-1,-9.116975E-2,-5.1548517E-1,-8.292446E-1,-8.0475855E-1,-9.555271E-1,-8.356664E-1,-6.1933035E-1,-7.0000005E-1,-5.4034096E-1,-4.380415E-1,-2.260965E-1,-5.008638E-1,-2.2965263E-1,-1.8527898E-1,-2.1537062E-2,-7.26124E-1,-4.094618E-1,-9.235661E-1,-7.1073467E-1,-8.882103E-1,-5.1260364E-1,-9.2247885E-1,-2.9697642E-1,-6.9751126E-1,-8.657022E-1,-5.6170046E-1,-8.5614884E-1,-7.9940945E-1,-6.578696E-1,-6.1952573E-1,-3.9133897E-1,-4.7779748E-1,-1.5196E-1,-2.4414505E-1,7.818688E-1,-5.376488E-1,-2.1745762E-1,-8.324884E-2,-3.6299318E-1,-2.2045384E-1,1.22760616E-1,-5.0498314E-2,3.012193E-1,-5.7920045E-1,-7.8430265E-1,-5.0939006E-1,-2.223047E-1,8.844144E-2,-9.255381E-1,-4.0586337E-1,-7.610347E-1,-2.771518E-1,-1.9624093E-1,-1.8705276E-1,1.8097624E-2,-2.7824542E-1,-1.7389148E-1,-2.4210809E-1,-1.5882373E-1,-2.4820091E-1,-2.8070065E-1,-7.496125E-2,-1.7979512E-1,-1.0604339E-1,-2.6212084E-1,-2.6409325E-1,-2.2207482E-1,-1.7869142E-1,-2.2061121E-1,-2.028676E-1,-1.2151737E-1,-1.5092482E-1,-7.965248E-2,-1.2916932E-1,-1.9674873E-1,-6.6084675E-2,2.3653246E-1,-7.9443745E-2,6.80715E-2,-2.4000587E-2,6.4026856E-1,-1.2995285E-1,-1.9485348E-1,1.0033723E-1,-1.007837E-1,9.02203E-2,-5.8989484E-2,-1.6992979E-1,-6.261561E-2,-1.6391149E-1,-5.788423E-2,6.3529745E-2,-8.116472E-2,-4.1299188E-3,-7.05436E-2,5.6274023E-2,3.776211E-1,-1.7760068E-1,5.830611E-1,3.3519077E-1,-2.368439E-1,-4.3922592E-2,-1.745904E-1,-8.415212E-2,4.8418846E-2,-1.0099812E-2,-2.7794835E-1,1.557067E-1,-1.4721952E-1,-2.2949702E-1,1.6481835E-1],"categories":[],"categories_nodes":[],"categories_segments":[],"categories_sizes":[],"default_left":[0,0,0,0,0,0,0,1,0,0,0,0,0,0,0,0,0,0,0,1,0,0,0,1,0,0,0,0,0,0,0,1,0,0,0,1,0,0,0,0,0,0,1,0,0,0,0,0,0,0,0,0,0,0,0,0,0,0,0,0,0,0,0,0,0,0,0,0,0,0,0,0,0,0,0,0,0,0,0,0,0,0,0,0,0,0,0,0,0,0,0,0,0,0,0,0,0,0,0,0,0,0,0,0,0,0,0,0,0,0,0,0,0,0,0,0,0,0,0,0,0,0,0],"id":10,"left_children":[1,3,5,7,9,11,13,15,17,19,21,23,25,27,29,31,33,35,37,39,41,43,45,47,49,51,53,55,57,59,61,63,65,67,-1,69,71,73,75,77,79,81,83,85,87,89,91,93,95,97,99,101,103,105,107,109,111,113,115,-1,117,119,121,-1,-1,-1,-1,-1,-1,-1,-1,-1,-1,-1,-1,-1,-1,-1,-1,-1,-1,-1,-1,-1,-1,-1,-1,-1,-1,-1,-1,-1,-1,-1,-1,-1,-1,-1,-1,-1,-1,-1,-1,-1,-1,-1,-1,-1,-1,-1,-1,-1,-1,-1,-1,-1,-1,-1,-1,-1,-1,-1,-1],"loss_changes":[3.4323457E3,7.5269824E2,1.0926157E3,9.25918E1,2.7955054E2,2.5737396E2,1.15604004E2,2.8105469E1,5.7730957E1,2.6478027E1,6.3091736E1,8.56131E1,1.742303E2,8.277136E1,1.8617554E1,3.8993774E1,5.8964844E0,1.2389404E1,2.7746399E1,1.6501587E1,1.6582977E1,3.5240784E1,4.7005844E1,2.07435E1,5.4464645E1,1.2253818E2,1.4286676E2,1.0179993E1,4.620334E1,2.5717773E0,1.1476074E1,9.88031E0,2.3030396E1,4.730957E0,0E0,9.96167E0,6.1190186E0,1.9396667E1,3.2529907E0,5.118225E0,1.3361328E1,1.1028656E1,6.862755E0,2.2637146E1,2.46081E1,2.4679214E1,5.3209953E1,2.0408813E1,1.5255333E1,5.8045334E1,4.5724777E1,9.087225E1,4.0644955E1,9.511984E1,1.3670717E2,1.2671005E1,9.627747E0,4.242737E1,1.9335861E1,0E0,7.836914E-1,8.965828E0,3.833496E0,0E0,0E0,0E0,0E0,0E0,0E0,0E0,0E0,0E0,0E0,0E0,0E0,0E0,0E0,0E0,0E0,0E0,0E0,0E0,0E0,0E0,0E0,0E0,0E0,0E0,0E0,0E0,0E0,0E0,0E0,0E0,0E0,0E0,0E0,0E0,0E0,0E0,0E0,0E0,0E0,0E0,0E0,0E0,0E0,0E0,0E0,0E0,0E0,0E0,0E0,0E0,0E0,0E0,0E0,0E0,0E0,0E0,0E0,0E0,0E0],"parents":[2147483647,0,0,1,1,2,2,3,3,4,4,5,5,6,6,7,7,8,8,9,9,10,10,11,11,12,12,13,13,14,14,15,15,16,16,17,17,18,18,19,19,20,20,21,21,22,22,23,23,24,24,25,25,26,26,27,27,28,28,29,29,30,30,31,31,32,32,33,33,35,35,36,36,37,37,38,38,39,39,40,40,41,41,42,42,43,43,44,44,45,45,46,46,47,47,48,48,49,49,50,50,51,51,52,52,53,53,54,54,55,55,56,56,57,57,58,58,60,60,61,61,62,62],"right_children":[2,4,6,8,10,12,14,16,18,20,22,24,26,28,30,32,34,36,38,40,42,44,46,48,50,52,54,56,58,60,62,64,66,68,-1,70,72,74,76,78,80,82,84,86,88,90,92,94,96,98,100,102,104,106,108,110,112,114,116,-1,118,120,122,-1,-1,-1,-1,-1,-1,-1,-1,-1,-1,-1,-1,-1,-1,-1,-1,-1,-1,-1,-1,-1,-1,-1,-1,-1,-1,-1,-1,-1,-1,-1,-1,-1,-1,-1,-1,-1,-1,-1,-1,-1,-1,-1,-1,-1,-1,-1,-1,-1,-1,-1,-1,-1,-1,-1,-1,-1,-1,-1,-1],"split_conditions":[8.0724585E-1,2.958E2,1.71E1,2.888E2,1.7029005E-1,2.941E2,1.96E1,1.25E1,1.7029005E-1,9.2319675E-2,3.2580002E2,1.5095545E1,1.820911E1,5.751497E0,1.2654128E1,9.49509E-2,1E0,8.7E0,1.89E1,3.7763816E-1,3.048E2,3.8E1,1.0542559E1,1.6064676E0,-1.5900002E0,1E0,1E0,1.43E1,2.367E2,-4.2800007E0,4.68E1,9.949753E-1,9.6E0,3.267E2,-2.9697642E-1,7.474932E-1,1.66E1,7.4E0,-2.4300003E0,2.841E2,8E0,1E0,6.7222965E-1,1.2400001E1,2.921E2,4.3E1,2.6876E0,1.32E1,2.6E1,3.17E-3,6.0999966E-1,3.792E-1,1.2900001E1,1.5431231E1,1.3904E1,6.8E0,1.66E1,1.32E1,5.73E1,8.844144E-2,2.4800001E1,-2.4499998E0,3.4180002E2,-2.771518E-1,-1.9624093E-1,-1.8705276E-1,1.8097624E-2,-2.7824542E-1,-1.7389148E-1,-2.4210809E-1,-1.5882373E-1,-2.4820091E-1,-2.8070065E-1,-7.496125E-2,-1.7979512E-1,-1.0604339E-1,-2.6212084E-1,-2.6409325E-1,-2.2207482E-1,-1.7869142E-1,-2.2061121E-1,-2.028676E-1,-1.2151737E-1,-1.5092482E-1,-7.965248E-2,-1.2916932E-1,-1.9674873E-1,-6.6084675E-2,2.3653246E-1,-7.9443745E-2,6.80715E-2,-2.4000587E-2,6.4026856E-1,-1.2995285E-1,-1.9485348E-1,1.0033723E-1,-1.007837E-1,9.02203E-2,-5.8989484E-2,-1.6992979E-1,-6.261561E-2,-1.6391149E-1,-5.788423E-2,6.3529745E-2,-8.116472E-2,-4.1299188E-3,-7.05436E-2,5.6274023E-2,3.776211E-1,-1.7760068E-1,5.830611E-1,3.3519077E-1,-2.368439E-1,-4.3922592E-2,-1.745904E-1,-8.415212E-2,4.8418846E-2,-1.0099812E-2,-2.7794835E-1,1.557067E-1,-1.4721952E-1,-2.2949702E-1,1.6481835E-1],"split_indices":[12,3,0,3,16,3,1,0,16,12,9,12,12,12,12,16,11,0,0,13,3,15,16,13,2,36,33,1,9,2,6,13,10,9,0,13,0,1,2,5,1,30,13,0,5,15,14,1,6,8,2,14,0,16,14,7,6,1,6,0,6,2,9,0,0,0,0,0,0,0,0,0,0,0,0,0,0,0,0,0,0,0,0,0,0,0,0,0,0,0,0,0,0,0,0,0,0,0,0,0,0,0,0,0,0,0,0,0,0,0,0,0,0,0,0,0,0,0,0,0,0,0,0],"split_type":[0,0,0,0,0,0,0,0,0,0,0,0,0,0,0,0,0,0,0,0,0,0,0,0,0,0,0,0,0,0,0,0,0,0,0,0,0,0,0,0,0,0,0,0,0,0,0,0,0,0,0,0,0,0,0,0,0,0,0,0,0,0,0,0,0,0,0,0,0,0,0,0,0,0,0,0,0,0,0,0,0,0,0,0,0,0,0,0,0,0,0,0,0,0,0,0,0,0,0,0,0,0,0,0,0,0,0,0,0,0,0,0,0,0,0,0,0,0,0,0,0,0,0],"sum_hessian":[6.0789906E4,2.3970357E4,3.681955E4,1.2804412E4,1.1165945E4,3.1377658E4,5.4418926E3,7.606931E3,5.1974814E3,5.4897104E3,5.6762344E3,4.7905005E3,2.6587156E4,3.7186084E3,1.7232839E3,1.6170355E3,5.9898955E3,3.130215E3,2.0672664E3,4.0646665E3,1.425044E3,3.1038994E3,2.572335E3,1.9999784E3,2.7905222E3,1.1305716E4,1.5281441E4,1.2430889E3,2.4755198E3,9.557855E2,7.674984E2,1.256178E3,3.6085754E2,3.0689033E3,2.920992E3,5.6332404E2,2.566891E3,1.6653699E3,4.0189642E2,1.2045292E3,2.8601375E3,9.2846716E2,4.9657678E2,2.7245994E3,3.7930017E2,2.5278296E3,4.4505375E1,1.7694178E3,2.3056056E2,1.3308807E3,1.4596415E3,1.0147287E4,1.1584286E3,1.4023905E4,1.2575356E3,3.5571838E2,8.873704E2,1.6127218E3,8.6279785E2,1.3045609E0,9.5448096E2,1.0997888E2,6.5751953E2,1.0876736E3,1.6850435E2,3.0225906E2,5.8598488E1,3.0230583E3,4.5845055E1,3.3879782E2,2.245262E2,1.6661104E3,9.007807E2,1.800933E2,1.4852766E3,1.4299292E1,3.8759714E2,5.029143E2,7.016148E2,1.5911597E3,1.2689778E3,7.3262695E2,1.9584024E2,2.6142273E2,2.3515405E2,2.1560117E3,5.685877E2,3.5432352E2,2.4976627E1,2.4220017E3,1.0582799E2,2.7756657E1,1.6748718E1,9.1745026E2,8.519675E2,4.0427456E1,1.901331E2,3.0301953E2,1.0278612E3,6.283605E2,8.3128094E2,7.8827826E2,9.359009E3,9.4503143E2,2.1339716E2,1.1697909E4,2.3259963E3,1.1251924E3,1.323432E2,3.5468384E2,1.0345341E0,1.8259997E0,8.8554443E2,2.6923306E2,1.3434888E3,7.493937E2,1.1340416E2,1.0611762E0,9.534198E2,8.813606E0,1.01165276E2,6.559559E2,1.5636729E0],"tree_param":{"num_deleted":"0","num_feature":"42","num_nodes":"123","size_leaf_vector":"1"}},{"base_weights":[-3.2037047E-1,-6.267259E-1,-1.5890867E-1,-8.307648E-1,-4.4700935E-1,-9.5193475E-2,-5.353024E-1,-7.7166194E-1,-9.7713304E-1,-6.0598457E-1,-2.961647E-1,-2.8570563E-1,-5.5462576E-2,-7.2064346E-1,-3.504623E-1,-8.5054666E-1,-6.3649946E-1,-9.779019E-1,-3.9769534E-2,-6.923895E-1,-5.441821E-1,-4.8641872E-1,-2.4006446E-1,-1.9748375E-1,-4.7357228E-1,1.3635739E-2,-1.4037116E-1,-8.241897E-1,-6.008014E-1,-3.7515318E-1,6.1708313E-1,-7.402061E-1,-9.1457397E-1,-3.6774698E-1,-7.214216E-1,-9.782843E-1,-3.758194E-2,-1.5877989E-1,1.4911069E-1,-7.6016283E-1,-5.600013E-1,-4.7308514E-1,-6.4100623E-1,-6.376346E-1,-3.5251087E-1,-5.7390654E-1,-2.1146235E-1,-2.284657E-1,3.608762E-1,-5.3850853E-1,-1.3480528E-1,9.662126E-4,6.3947356E-1,-2.9483843E-1,-8.902873E-2,-7.4144566E-1,-9.161023E-1,-6.249825E-1,2.4865854E-1,-5.84755E-1,-2.6172853E-1,3.2162592E-1,4.164688E0,-2.5060666E-1,-1.7321177E-1,-2.586205E-1,-2.8593722E-1,-1.2368458E-1,8.083798E-2,-2.352493E-1,-1.274337E-1,-2.944765E-1,-2.5407413E-1,-1.333056E-1,-2.3476492E-1,-1.7982624E-1,-5.0214957E-2,-1.6365193E-1,-8.821179E-2,-2.1202359E-1,-1.4654428E-1,-1.9518124E-1,1.7567374E-1,-1.1123951E-1,4.1660705E-1,-2.0615277E-1,-6.487338E-2,-3.4260906E-2,-9.5778E-2,-8.303044E-2,2.6166037E-2,-3.5702607E-3,3.7407747E-1,-1.6697583E-1,2.3507616E-1,-1.0558394E-1,1.4743444E-1,-4.72733E-2,1.2702773E-2,4.6848634E-1,1.569986E-1,-2.1357998E-2,-1.0830789E-1,-3.3560332E-2,8.9705825E-2,-2.2817974E-1,-5.2958883E-2,6.085585E-2,-2.756918E-1,-1.06743455E-1,-2.025442E-1,-1.363263E-1,1.8872063E-1,-1.4324835E-1,-2.312306E-1,-9.428182E-2,8.926393E-2,3.4902576E-1,-3.1522594E-2,-2.1162829E-1,2.473472E0],"categories":[],"categories_nodes":[],"categories_segments":[],"categories_sizes":[],"default_left":[0,0,0,0,0,0,0,0,0,0,0,0,0,0,0,0,1,0,0,0,0,0,0,1,0,0,0,0,0,0,0,1,0,0,0,0,0,0,0,0,0,1,0,0,0,0,0,0,0,0,1,0,0,0,0,0,0,0,0,0,0,0,0,0,0,0,0,0,0,0,0,0,0,0,0,0,0,0,0,0,0,0,0,0,0,0,0,0,0,0,0,0,0,0,0,0,0,0,0,0,0,0,0,0,0,0,0,0,0,0,0,0,0,0,0,0,0,0,0,0,0],"id":11,"left_children":[1,3,5,7,9,11,13,15,17,19,21,23,25,27,29,31,33,35,37,39,41,43,45,47,49,51,53,55,57,59,61,63,65,67,69,71,-1,-1,-1,73,75,77,79,81,83,85,87,89,91,93,95,97,99,101,103,105,107,109,111,113,115,117,119,-1,-1,-1,-1,-1,-1,-1,-1,-1,-1,-1,-1,-1,-1,-1,-1,-1,-1,-1,-1,-1,-1,-1,-1,-1,-1,-1,-1,-1,-1,-1,-1,-1,-1,-1,-1,-1,-1,-1,-1,-1,-1,-1,-1,-1,-1,-1,-1,-1,-1,-1,-1,-1,-1,-1,-1,-1,-1],"loss_changes":[2.6923726E3,6.8850684E2,8.548324E2,7.534375E1,2.394021E2,2.307503E2,1.7653577E2,6.632251E1,1.7819824E0,2.5593506E1,5.4619904E1,8.7096924E1,1.4801413E2,3.1468262E1,6.2001617E1,2.7278809E1,5.2572693E1,7.006836E-1,1.0810537E0,1.7737244E1,1.9246704E1,2.3403137E1,3.7714966E1,6.2037308E1,3.689099E1,1.1029051E2,8.974187E1,9.80957E0,2.4755737E1,5.9803497E1,6.649751E1,2.211084E1,4.237793E0,1.5944038E1,3.2390564E1,2.6391602E-1,0E0,0E0,0E0,9.098389E0,1.0566544E1,2.112259E1,1.1683136E1,9.055359E0,2.0291695E1,1.2495888E1,3.824594E1,5.17731E1,6.2330048E1,3.412799E1,3.7108242E1,8.945003E1,2.8743202E1,4.1766083E1,7.533716E1,7.7753906E0,2.2712402E0,1.5487518E1,9.343085E0,1.7283813E1,4.823519E1,2.197121E1,1.03025894E2,0E0,0E0,0E0,0E0,0E0,0E0,0E0,0E0,0E0,0E0,0E0,0E0,0E0,0E0,0E0,0E0,0E0,0E0,0E0,0E0,0E0,0E0,0E0,0E0,0E0,0E0,0E0,0E0,0E0,0E0,0E0,0E0,0E0,0E0,0E0,0E0,0E0,0E0,0E0,0E0,0E0,0E0,0E0,0E0,0E0,0E0,0E0,0E0,0E0,0E0,0E0,0E0,0E0,0E0,0E0,0E0,0E0,0E0],"parents":[2147483647,0,0,1,1,2,2,3,3,4,4,5,5,6,6,7,7,8,8,9,9,10,10,11,11,12,12,13,13,14,14,15,15,16,16,17,17,18,18,19,19,20,20,21,21,22,22,23,23,24,24,25,25,26,26,27,27,28,28,29,29,30,30,31,31,32,32,33,33,34,34,35,35,39,39,40,40,41,41,42,42,43,43,44,44,45,45,46,46,47,47,48,48,49,49,50,50,51,51,52,52,53,53,54,54,55,55,56,56,57,57,58,58,59,59,60,60,61,61,62,62],"right_children":[2,4,6,8,10,12,14,16,18,20,22,24,26,28,30,32,34,36,38,40,42,44,46,48,50,52,54,56,58,60,62,64,66,68,70,72,-1,-1,-1,74,76,78,80,82,84,86,88,90,92,94,96,98,100,102,104,106,108,110,112,114,116,118,120,-1,-1,-1,-1,-1,-1,-1,-1,-1,-1,-1,-1,-1,-1,-1,-1,-1,-1,-1,-1,-1,-1,-1,-1,-1,-1,-1,-1,-1,-1,-1,-1,-1,-1,-1,-1,-1,-1,-1,-1,-1,-1,-1,-1,-1,-1,-1,-1,-1,-1,-1,-1,-1,-1,-1,-1,-1,-1],"split_conditions":[6.233619E-1,2.943E2,1.58E1,1E0,1.7029005E-1,6.1661005E-1,2.9E2,9.49509E-2,7.3499996E-3,2.836E2,2.82E2,1.22E1,1.1400001E1,1.2654128E1,4E1,1.16E1,1.06E1,6.9E1,1.2799988E0,1E0,1.40748E1,2.6E1,3E0,3.1666837E0,1E0,6.3E0,9.4363165E0,2.01E1,3.066E2,1.1191009E1,1.447363E2,8.216668E-1,1.74E1,1E0,2.4890001E2,2.911E2,-3.758194E-2,-1.5877989E-1,1.4911069E-1,5.7000003E0,1.755881E-1,1.0044472E0,4.1E1,3.676E2,1E0,3.9E0,7.122313E-1,1E0,4.6035033E-1,1E0,2.5366735E0,7.036E-1,2.7299998E-3,9.900001E0,1E0,8.5E0,-4.2800007E0,3.88E1,4.9513084E1,1.8800001E1,1E0,4.1E1,1E0,-2.5060666E-1,-1.7321177E-1,-2.586205E-1,-2.8593722E-1,-1.2368458E-1,8.083798E-2,-2.352493E-1,-1.274337E-1,-2.944765E-1,-2.5407413E-1,-1.333056E-1,-2.3476492E-1,-1.7982624E-1,-5.0214957E-2,-1.6365193E-1,-8.821179E-2,-2.1202359E-1,-1.4654428E-1,-1.9518124E-1,1.7567374E-1,-1.1123951E-1,4.1660705E-1,-2.0615277E-1,-6.487338E-2,-3.4260906E-2,-9.5778E-2,-8.303044E-2,2.6166037E-2,-3.5702607E-3,3.7407747E-1,-1.6697583E-1,2.3507616E-1,-1.0558394E-1,1.4743444E-1,-4.72733E-2,1.2702773E-2,4.6848634E-1,1.569986E-1,-2.1357998E-2,-1.0830789E-1,-3.3560332E-2,8.9705825E-2,-2.2817974E-1,-5.2958883E-2,6.085585E-2,-2.756918E-1,-1.06743455E-1,-2.025442E-1,-1.363263E-1,1.8872063E-1,-1.4324835E-1,-2.312306E-1,-9.428182E-2,8.926393E-2,3.4902576E-1,-3.1522594E-2,-2.1162829E-1,2.473472E0],"split_indices":[12,3,1,11,16,16,3,16,8,5,5,0,0,12,15,1,1,15,2,30,14,15,15,13,30,10,12,1,9,12,12,13,0,28,9,3,0,0,0,1,12,13,15,9,39,10,13,33,16,39,13,14,8,1,30,10,2,6,12,0,29,15,33,0,0,0,0,0,0,0,0,0,0,0,0,0,0,0,0,0,0,0,0,0,0,0,0,0,0,0,0,0,0,0,0,0,0,0,0,0,0,0,0,0,0,0,0,0,0,0,0,0,0,0,0,0,0,0,0,0,0],"split_type":[0,0,0,0,0,0,0,0,0,0,0,0,0,0,0,0,0,0,0,0,0,0,0,0,0,0,0,0,0,0,0,0,0,0,0,0,0,0,0,0,0,0,0,0,0,0,0,0,0,0,0,0,0,0,0,0,0,0,0,0,0,0,0,0,0,0,0,0,0,0,0,0,0,0,0,0,0,0,0,0,0,0,0,0,0,0,0,0,0,0,0,0,0,0,0,0,0,0,0,0,0,0,0,0,0,0,0,0,0,0,0,0,0,0,0,0,0,0,0,0,0],"sum_hessian":[5.443119E4,1.8785314E4,3.5645875E4,8.795655E3,9.989658E3,3.0486443E4,5.1594326E3,6.2700933E3,2.5255625E3,4.8622827E3,5.127376E3,5.2596934E3,2.522675E4,2.5747778E3,2.584655E3,3.9559778E3,2.3141155E3,2.5234495E3,2.113015E0,2.0233153E3,2.838967E3,1.1658685E3,3.9615073E3,3.5803965E3,1.679297E3,1.3908721E4,1.1318029E4,1.3781484E3,1.1966294E3,2.5209353E3,6.371972E1,1.457235E3,2.4987427E3,5.569308E2,1.7571847E3,2.5221707E3,1.2786902E0,1.1125537E0,1.0004611E0,1.3350983E3,6.8821704E2,1.6403566E3,1.1986106E3,5.4578143E2,6.2008716E2,3.111159E2,3.6503914E3,3.3927334E3,1.8766324E2,1.4086849E3,2.7061206E2,1.363372E4,2.750009E2,2.8222754E3,8.495754E3,7.300181E2,6.4813025E2,1.1637654E3,3.2864017E1,8.837197E2,1.6372155E3,5.9827713E1,3.8920054E0,9.171701E2,5.400649E2,1.067778E3,1.4309648E3,5.208791E2,3.6051693E1,1.4490526E3,3.0813205E2,2.4539807E3,6.819001E1,8.975618E1,1.2453422E3,6.249448E2,6.3272213E1,1.1664847E3,4.7387192E2,8.35062E2,3.6354852E2,5.4051855E2,5.262884E0,6.14421E2,5.6660924E0,2.3558598E2,7.5529915E1,1.9200792E3,1.7303121E3,2.9426135E3,4.501197E2,1.3278479E2,5.4878452E1,1.3902544E3,1.8430542E1,2.0126526E2,6.93468E1,2.8211128E3,1.0812607E4,2.9369825E1,2.4563107E2,6.4498444E2,2.177291E3,8.024193E3,4.7156165E2,7.0574365E2,2.4274517E1,1.4800674E0,6.466502E2,1.8408846E2,9.796769E2,1.1470157E1,2.139386E1,5.627752E2,3.2094452E2,1.4970087E3,1.4020677E2,1.9544304E1,4.028341E1,2.1513188E0,1.7406867E0],"tree_param":{"num_deleted":"0","num_feature":"42","num_nodes":"121","size_leaf_vector":"1"}},{"base_weights":[-2.5553343E-1,-6.5556705E-1,-1.5415478E-1,-8.061025E-1,-3.754054E-1,-4.5889348E-1,-8.264309E-2,-6.532902E-1,-8.773269E-1,-1.24797665E-1,-4.8685488E-1,-5.836444E-1,-3.046574E-1,-2.1426909E-1,-2.9839296E-2,-7.827477E-1,-3.9598215E-1,-9.373779E-1,-7.873358E-1,5.0308805E-2,-3.1589946E-1,-5.124554E-1,2.3088501E-1,-5.505197E-1,-8.2628244E-1,-3.9302346E-1,-9.808728E-2,-1.5299693E-1,-4.419987E-1,-6.737091E-2,1.5048316E-1,-8.605905E-1,-5.6540203E-1,-4.9548107E-1,-2.8072093E-2,-9.50338E-1,-6.8858254E-1,-6.6967475E-1,-8.780608E-1,1.981848E-1,-2.1533106E-1,-3.4470412E-1,4.7392598E-1,-4.0297347E-1,-6.530047E-1,7.6424706E-1,-1.4726819E-1,-6.842251E-1,-4.8593107E-1,-8.4903777E-1,-4.4965056E-1,-4.5350555E-1,-1.5846512E-1,-1.8081291E-1,1.9188602E-1,-1.7725691E-1,2.4476512E-1,-3.7551448E-1,-6.51914E-1,-2.3811084E-1,-1.3432557E-2,1.08770125E-1,7.8622407E-1,-2.696008E-1,-1.9269502E-1,-9.84496E-2,-2.0492388E-1,-1.801085E-1,-8.306469E-2,1.2341445E-1,-8.5198976E-2,-2.6926726E-1,-2.9117286E-1,-3.4256518E-2,-2.3269865E-1,-2.3160815E-1,-1.6706535E-1,-2.6551494E-1,9.300817E-4,2.365685E-2,2.7868983E-1,-9.7792074E-2,7.757701E-2,-1.1635493E-1,5.244826E-2,-7.962565E-2,1.0237678E0,-7.525949E-2,-1.4850271E-1,-2.1314546E-1,-1.1528426E-1,-9.98432E-2,4.3884996E-1,-2.360952E-1,9.700157E-2,-2.111997E-1,-6.118274E-2,-1.120617E-3,-1.5247142E-1,-2.55835E-1,4.769043E-2,2.1996882E-2,-2.0346443E-1,-1.4610247E-1,-2.5950894E-3,4.2838715E-2,-1.08043365E-1,-1.7272313E-1,-4.0106602E-2,6.8043717E-3,2.4770409E-1,-6.891878E-2,-3.075032E-3,4.6306804E-2,3.0515146E-1,-1.436922E-1,-8.104012E-2,1.8492499E-1,-2.0331855E-1,-4.714709E-2,-1.5931866E-1,-2.2120323E-2,3.0128704E-2,1.7049773E-1,1.9531738E-2,-3.8529135E-2,3.2870823E-1],"categories":[],"categories_nodes":[],"categories_segments":[],"categories_sizes":[],"default_left":[0,0,0,1,0,0,0,0,0,0,0,0,0,0,0,1,0,0,0,0,1,0,0,1,0,0,0,0,0,0,0,0,0,0,1,0,0,0,0,0,0,0,0,0,0,0,0,0,0,0,0,0,0,1,0,0,0,0,0,0,0,0,1,0,0,0,0,0,0,0,0,0,0,0,0,0,0,0,0,0,0,0,0,0,0,0,0,0,0,0,0,0,0,0,0,0,0,0,0,0,0,0,0,0,0,0,0,0,0,0,0,0,0,0,0,0,0,0,0,0,0,0,0,0,0,0,0],"id":12,"left_children":[1,3,5,7,9,11,13,15,17,19,21,23,25,27,29,31,33,35,37,39,41,43,45,47,49,51,53,55,57,59,61,63,65,67,69,71,73,75,77,79,81,83,85,87,89,91,93,95,97,99,101,103,105,107,109,111,113,115,117,119,121,123,125,-1,-1,-1,-1,-1,-1,-1,-1,-1,-1,-1,-1,-1,-1,-1,-1,-1,-1,-1,-1,-1,-1,-1,-1,-1,-1,-1,-1,-1,-1,-1,-1,-1,-1,-1,-1,-1,-1,-1,-1,-1,-1,-1,-1,-1,-1,-1,-1,-1,-1,-1,-1,-1,-1,-1,-1,-1,-1,-1,-1,-1,-1,-1,-1],"loss_changes":[2.0187205E3,4.2416113E2,8.654785E2,7.067285E1,9.8241516E1,1.4506262E2,2.2357965E2,6.914111E1,2.3374756E1,3.631513E1,4.4875427E1,3.3077026E1,6.1612457E1,1.2844537E2,1.5539812E2,2.2963928E1,2.5607033E1,7.9577637E0,1.8541748E1,2.2312634E1,1.1966927E1,3.5932373E1,1.717148E1,3.139441E1,3.8960876E0,3.3481995E1,2.4340729E1,7.0090256E1,2.6999268E1,1.7502301E2,1.04817474E2,7.889282E0,1.0061401E1,1.2462982E1,1.6992487E1,1.8378906E0,6.707573E0,8.625671E0,6.2142944E0,3.1730772E1,1.0740127E1,1.1301277E1,4.148371E1,1.8423248E1,1.5611542E1,2.7502172E1,1.5406157E1,1.1197998E1,2.668097E1,1.9084778E0,3.7032623E0,2.8011993E1,2.9603603E1,1.4604334E1,2.4152275E1,5.9958023E1,2.901225E1,1.6060303E1,1.5747253E1,1.0811832E2,9.917826E1,7.447682E1,6.904039E1,0E0,0E0,0E0,0E0,0E0,0E0,0E0,0E0,0E0,0E0,0E0,0E0,0E0,0E0,0E0,0E0,0E0,0E0,0E0,0E0,0E0,0E0,0E0,0E0,0E0,0E0,0E0,0E0,0E0,0E0,0E0,0E0,0E0,0E0,0E0,0E0,0E0,0E0,0E0,0E0,0E0,0E0,0E0,0E0,0E0,0E0,0E0,0E0,0E0,0E0,0E0,0E0,0E0,0E0,0E0,0E0,0E0,0E0,0E0,0E0,0E0,0E0,0E0,0E0],"parents":[2147483647,0,0,1,1,2,2,3,3,4,4,5,5,6,6,7,7,8,8,9,9,10,10,11,11,12,12,13,13,14,14,15,15,16,16,17,17,18,18,19,19,20,20,21,21,22,22,23,23,24,24,25,25,26,26,27,27,28,28,29,29,30,30,31,31,32,32,33,33,34,34,35,35,36,36,37,37,38,38,39,39,40,40,41,41,42,42,43,43,44,44,45,45,46,46,47,47,48,48,49,49,50,50,51,51,52,52,53,53,54,54,55,55,56,56,57,57,58,58,59,59,60,60,61,61,62,62],"right_children":[2,4,6,8,10,12,14,16,18,20,22,24,26,28,30,32,34,36,38,