{"learner":{"attributes":{"scikit_learn":"{\"_estimator_type\": \"classifier\"}"},"feature_names":["dead_fuel_moisture_1000hr","dead_fuel_moisture_100hr","pdsi","max_air_temperature","max_relative_humidity","min_air_temperature","min_relative_humidity","precipitation_amount","specific_humidity","surface_downwelling_shortwave_flux_in_air","wind_speed","SWE","Band1","LAI","slope_avg","slope_max","road_density_km_km2","wind_direction_category_N","wind_direction_category_NE","wind_direction_category_E","wind_direction_category_SE","wind_direction_category_S","wind_direction_category_SW","wind_direction_category_W","wind_direction_category_NW","veg_Agriculture ","veg_Barren ","veg_Native Chapparal ","veg_Native Coastal Sage Scrub ","veg_Native Conifer Alpine ","veg_Native Conifer Forest ","veg_Native Desert ","veg_Native Grassland ","veg_Native Inland Scrub ","veg_Native Oak Woodland ","veg_Native Wetland ","veg_Non-native forest ","veg_Non-native grassland ","veg_Non-native shrub ","veg_Riparian ","veg_Urban ","veg_Water "],"feature_types":["float","float","float","float","float","float","float","float","float","float","float","float","float","float","float","float","float","i","i","i","i","i","i","i","i","i","i","i","i","i","i","i","i","i","i","i","i","i","i","i","i","i"],"gradient_booster":{"model":{"gbtree_model_param":{"num_parallel_tree":"1","num_trees":"100"},"iteration_indptr":[0,1,2,3,4,5,6,7,8,9,10,11,12,13,14,15,16,17,18,19,20,21,22,23,24,25,26,27,28,29,30,31,32,33,34,35,36,37,38,39,40,41,42,43,44,45,46,47,48,49,50,51,52,53,54,55,56,57,58,59,60,61,62,63,64,65,66,67,68,69,70,71,72,73,74,75,76,77,78,79,80,81,82,83,84,85,86,87,88,89,90,91,92,93,94,95,96,97,98,99,100],"tree_info":[0,0,0,0,0,0,0,0,0,0,0,0,0,0,0,0,0,0,0,0,0,0,0,0,0,0,0,0,0,0,0,0,0,0,0,0,0,0,0,0,0,0,0,0,0,0,0,0,0,0,0,0,0,0,0,0,0,0,0,0,0,0,0,0,0,0,0,0,0,0,0,0,0,0,0,0,0,0,0,0,0,0,0,0,0,0,0,0,0,0,0,0,0,0,0,0,0,0,0,0],"trees":[{"base_weights":[-1.0590446E0,-1.0991914E0,-8.679899E-1,-1.1220285E0,-1.0477451E0,-1.0075685E0,-6.7143494E-1,-1.1306449E0,-1.1026751E0,-1.0764952E0,-9.374839E-1,-9.120191E-1,-1.079853E0,-7.583814E-1,-4.9904218E-1,-1.1330751E0,-1.1097949E0,-1.1214265E0,-1.0790696E0,-1.1085577E0,-1.0297346E0,-9.4871247E-1,-7.18129E-1,-9.3736774E-1,-7.753104E-1,-1.049029E0,-1.1123688E0,-6.487803E-1,-8.391297E-1,-7.2250605E-1,-3.565499E-1,-3.408942E-1,-1.1262482E0,-1.064314E0,-1.123342E0,-1.124331E0,-1.0961348E0,-1.0919479E0,-1.0402567E0,-1.1128067E0,-1.0612282E0,-1.0644766E0,-1.0015359E0,-1.0663931E0,-9.344132E-1,-7.690365E-1,2.1430038E-1,-7.4960005E-1,-9.527676E-1,-6.5784675E-1,-8.2805455E-1,-1.062974E0,-9.797974E-1,-1.0883002E0,-3.3562848E-1,-8.053519E-1,-5.050436E-1,-8.473402E-1,-2.0169474E-1,-7.35029E-1,8.5149527E-1,-3.8458103E-1,9.416242E-1,-3.3824694E-1,-1.8894175E-1,-3.20845E-1,-2.8634754E-1,-3.332154E-1,-3.394124E-1,-3.3419567E-1,-3.3835858E-1,-3.3153954E-1,-3.131915E-1,-3.232938E-1,-3.3405623E-1,-2.9302388E-1,-3.2029426E-1,-3.3718055E-1,-3.3227283E-1,-3.2366246E-1,-3.053438E-1,-3.2116035E-1,-3.049464E-1,-3.1910896E-1,-2.9617554E-1,-3.205903E-1,-1.8057378E-1,-2.8416982E-1,-2.3038505E-1,-2.3800586E-1,1.5093969E-1,4.0745094E-1,-1.2718117E-1,-1.6046529E-1,-2.4532032E-1,-2.8693542E-1,-1.4820975E-1,-2.3403086E-1,-1.7260139E-1,-2.6814097E-1,-1.8518424E-1,-2.9929268E-1,-3.2233417E-1,-3.0280343E-1,-2.605824E-1,-3.2877827E-1,-2.7198085E-1,-2.4373381E-1,4.2153326E-1,-2.2308233E-1,-1.3630864E-1,-2.4469012E-1,-2.9232606E-1,-1.6436437E-1,9.165905E-1,-2.2969939E-1,-1.229516E-1,1.6592587E0,-1.314152E-1,-7.3327586E-2,-1.8297832E-1,-6.878632E-2,1.7195829E0],"categories":[],"categories_nodes":[],"categories_segments":[],"categories_sizes":[],"default_left":[0,0,0,0,0,0,0,0,0,0,0,0,0,0,0,0,0,0,0,0,0,0,0,0,0,0,0,0,0,1,0,0,0,0,0,0,0,0,0,1,0,0,0,0,0,0,0,0,1,0,0,0,0,1,0,1,0,0,0,0,0,0,0,0,0,0,0,0,0,0,0,0,0,0,0,0,0,0,0,0,0,0,0,0,0,0,0,0,0,0,0,0,0,0,0,0,0,0,0,0,0,0,0,0,0,0,0,0,0,0,0,0,0,0,0,0,0,0,0,0,0,0,0],"id":0,"left_children":[1,3,5,7,9,11,13,15,17,19,21,23,25,27,29,31,33,35,37,39,41,43,45,47,49,51,53,55,57,59,61,-1,63,65,67,69,71,73,75,77,79,81,83,85,87,89,91,93,95,97,99,101,103,105,-1,107,109,111,113,115,117,119,121,-1,-1,-1,-1,-1,-1,-1,-1,-1,-1,-1,-1,-1,-1,-1,-1,-1,-1,-1,-1,-1,-1,-1,-1,-1,-1,-1,-1,-1,-1,-1,-1,-1,-1,-1,-1,-1,-1,-1,-1,-1,-1,-1,-1,-1,-1,-1,-1,-1,-1,-1,-1,-1,-1,-1,-1,-1,-1,-1,-1],"loss_changes":[3.7935625E3,4.7909375E2,2.3562188E3,4.596875E1,3.9746875E2,3.4596094E2,5.343721E2,8.671875E0,3.740625E1,1.4832031E2,6.3365234E1,7.426953E1,2.7488281E1,2.0932227E2,3.806931E2,2.578125E0,1.1431641E1,2.3398438E0,1.81875E1,1.07109375E1,3.8671875E1,4.0625E1,6.0467712E1,5.2063477E1,2.0463745E1,1.3146484E1,9.199219E-1,2.2608301E2,7.127246E1,9.242847E1,2.662752E2,0E0,3.4140625E1,1.659668E0,3.4179688E-1,3.359375E-1,1.2148438E0,7.75E0,1.5746094E1,1.90625E0,2.650879E0,4.1914062E0,1.8845703E1,2.138916E0,4.6353516E1,3.7670776E1,4.9162003E1,1.9870361E1,2.802539E1,1.0199585E1,3.182434E1,8.088867E0,7.2597656E0,3.0996094E0,0E0,7.665015E1,6.3135376E1,5.350586E1,1.9888321E2,4.572412E1,2.2705128E2,2.2579102E2,8.6927344E2,0E0,0E0,0E0,0E0,0E0,0E0,0E0,0E0,0E0,0E0,0E0,0E0,0E0,0E0,0E0,0E0,0E0,0E0,0E0,0E0,0E0,0E0,0E0,0E0,0E0,0E0,0E0,0E0,0E0,0E0,0E0,0E0,0E0,0E0,0E0,0E0,0E0,0E0,0E0,0E0,0E0,0E0,0E0,0E0,0E0,0E0,0E0,0E0,0E0,0E0,0E0,0E0,0E0,0E0,0E0,0E0,0E0,0E0,0E0,0E0],"parents":[2147483647,0,0,1,1,2,2,3,3,4,4,5,5,6,6,7,7,8,8,9,9,10,10,11,11,12,12,13,13,14,14,15,15,16,16,17,17,18,18,19,19,20,20,21,21,22,22,23,23,24,24,25,25,26,26,27,27,28,28,29,29,30,30,32,32,33,33,34,34,35,35,36,36,37,37,38,38,39,39,40,40,41,41,42,42,43,43,44,44,45,45,46,46,47,47,48,48,49,49,50,50,51,51,52,52,53,53,55,55,56,56,57,57,58,58,59,59,60,60,61,61,62,62],"right_children":[2,4,6,8,10,12,14,16,18,20,22,24,26,28,30,32,34,36,38,40,42,44,46,48,50,52,54,56,58,60,62,-1,64,66,68,70,72,74,76,78,80,82,84,86,88,90,92,94,96,98,100,102,104,106,-1,108,110,112,114,116,118,120,122,-1,-1,-1,-1,-1,-1,-1,-1,-1,-1,-1,-1,-1,-1,-1,-1,-1,-1,-1,-1,-1,-1,-1,-1,-1,-1,-1,-1,-1,-1,-1,-1,-1,-1,-1,-1,-1,-1,-1,-1,-1,-1,-1,-1,-1,-1,-1,-1,-1,-1,-1,-1,-1,-1,-1,-1,-1,-1,-1,-1],"split_conditions":[1.1118091E1,2.983E2,2.978E2,2.916E2,1.8727787E0,1.65E1,3.3630002E2,2.588692E0,9.49509E-2,9.49509E-2,4.603772E0,3.132E2,1.86E1,9.400001E0,3.3638832E1,9.49509E-2,1.43E1,1.0396316E0,2.6743343E0,6.897502E-1,2.856E2,4.016E-1,1E0,1.4E1,-2.8200006E0,2.7430002E2,1.95E1,2.4501197E0,4E1,3.67389E0,1.45272E1,-3.408942E-1,1.13699995E-2,4.2878976E0,1.97E1,8.8E0,1E0,1.53E1,1.31E1,3.716688E-1,2.888E2,3.5730002E2,5.908E-1,1E0,3.6180002E2,1.891E1,1.0000271E-1,1.4375234E-1,3.010829E0,3.5864549E0,2.6800003E0,1.3E1,5.7000003E0,1.8975186E0,-3.3562848E-1,3.814949E0,7.28E-1,1.52E1,1E0,4.3776746E0,1.213522E1,2.69E1,1E0,-3.3824694E-1,-1.8894175E-1,-3.20845E-1,-2.8634754E-1,-3.332154E-1,-3.394124E-1,-3.3419567E-1,-3.3835858E-1,-3.3153954E-1,-3.131915E-1,-3.232938E-1,-3.3405623E-1,-2.9302388E-1,-3.2029426E-1,-3.3718055E-1,-3.3227283E-1,-3.2366246E-1,-3.053438E-1,-3.2116035E-1,-3.049464E-1,-3.1910896E-1,-2.9617554E-1,-3.205903E-1,-1.8057378E-1,-2.8416982E-1,-2.3038505E-1,-2.3800586E-1,1.5093969E-1,4.0745094E-1,-1.2718117E-1,-1.6046529E-1,-2.4532032E-1,-2.8693542E-1,-1.4820975E-1,-2.3403086E-1,-1.7260139E-1,-2.6814097E-1,-1.8518424E-1,-2.9929268E-1,-3.2233417E-1,-3.0280343E-1,-2.605824E-1,-3.2877827E-1,-2.7198085E-1,-2.4373381E-1,4.2153326E-1,-2.2308233E-1,-1.3630864E-1,-2.4469012E-1,-2.9232606E-1,-1.6436437E-1,9.165905E-1,-2.2969939E-1,-1.229516E-1,1.6592587E0,-1.314152E-1,-7.3327586E-2,-1.8297832E-1,-6.878632E-2,1.7195829E0],"split_indices":[12,3,3,3,12,0,9,12,16,16,16,9,1,1,12,16,1,12,12,12,5,14,28,6,2,9,0,16,15,13,14,0,8,16,0,0,30,0,0,13,5,9,14,31,9,14,13,13,13,16,2,1,10,13,0,13,14,0,33,16,12,6,33,0,0,0,0,0,0,0,0,0,0,0,0,0,0,0,0,0,0,0,0,0,0,0,0,0,0,0,0,0,0,0,0,0,0,0,0,0,0,0,0,0,0,0,0,0,0,0,0,0,0,0,0,0,0,0,0,0,0,0,0],"split_type":[0,0,0,0,0,0,0,0,0,0,0,0,0,0,0,0,0,0,0,0,0,0,0,0,0,0,0,0,0,0,0,0,0,0,0,0,0,0,0,0,0,0,0,0,0,0,0,0,0,0,0,0,0,0,0,0,0,0,0,0,0,0,0,0,0,0,0,0,0,0,0,0,0,0,0,0,0,0,0,0,0,0,0,0,0,0,0,0,0,0,0,0,0,0,0,0,0,0,0,0,0,0,0,0,0,0,0,0,0,0,0,0,0,0,0,0,0,0,0,0,0,0,0],"sum_hessian":[4.9471072E5,4.0880306E5,8.5907664E4,2.8310944E5,1.2569365E5,5.0232305E4,3.5675355E4,1.9585452E5,8.725491E4,9.969094E4,2.6002707E4,2.1640441E4,2.8591863E4,2.3712521E4,1.1962835E4,1.7536197E5,2.0492545E4,4.8601293E4,3.8653613E4,5.9126645E4,4.0564293E4,2.4733305E4,1.269403E3,1.8250553E4,3.3898904E3,1.4694844E4,1.389702E4,1.0062936E4,1.3649586E4,4.6563823E3,7.3064526E3,1.18824164E5,5.6537812E4,4.721394E3,1.5771151E4,4.3555703E4,5.0455913E3,2.9003174E4,9.650438E3,5.4235117E4,4.891525E3,1.8157186E4,2.2407107E4,2.6717407E3,2.2061564E4,1.203852E3,6.5550964E1,1.387136E3,1.6863416E4,1.0546373E3,2.335253E3,1.2219217E4,2.475627E3,2.9523809E3,1.0944639E4,4.814222E3,5.248713E3,1.3475682E4,1.7390411E2,4.6201567E3,3.6225533E1,7.1527095E3,1.5374287E2,5.6395496E4,1.4231459E2,4.5008066E3,2.2058762E2,6.186911E3,9.58424E3,1.1163394E4,3.2392309E4,4.286149E3,7.594424E2,1.7471379E4,1.1531794E4,2.9189585E3,6.73148E3,1.7272895E4,3.6962227E4,3.4609397E3,1.4305851E3,1.6103111E4,2.054074E3,4.1731597E3,1.823395E4,2.6576172E3,1.4123645E1,2.0479717E4,1.5818481E3,1.1816423E3,2.2209702E1,2.3072214E1,4.247875E1,3.3627213E2,1.0508639E3,1.6728002E4,1.3541449E2,4.2155307E2,6.330843E2,1.7775308E3,5.577222E2,1.8384457E3,1.03807705E4,1.9494943E3,5.261327E2,2.82861E3,1.2377056E2,4.7994517E3,1.4770529E1,9.172822E2,4.3314307E3,1.0790788E4,2.684894E3,1.5794763E2,1.5956484E1,4.2211367E3,3.9901993E2,7.1157293E0,2.9109802E1,4.411213E3,2.7414963E3,1.2430964E2,2.9433245E1],"tree_param":{"num_deleted":"0","num_feature":"42","num_nodes":"123","size_leaf_vector":"1"}},{"base_weights":[-9.98361E-1,-1.0428156E0,-7.513905E-1,-1.0742536E0,-9.744229E-1,-5.6187975E-1,-9.5802104E-1,-1.0818965E0,-1.02527E0,-1.0132368E0,-8.132343E-1,-6.6624296E-1,-3.5493305E-1,-1.0000681E0,-7.939679E-1,-1.0904669E0,-1.0624213E0,-9.598279E-1,-1.0585823E0,-1.0559958E0,-9.568543E-1,-8.3422124E-1,-5.0917107E-1,-7.1890634E-1,-4.666804E-1,-5.5668545E-1,-2.517418E-1,-9.2966306E-1,-1.0441781E0,-7.2127783E-1,-8.90843E-1,-1.0946372E0,-1.0818175E0,-1.0776712E0,-1.0383791E0,-9.9472576E-1,-9.1736126E-1,-1.0304115E0,-1.0789514E0,-1.0647851E0,-9.879369E-1,-9.990355E-1,-9.2368186E-1,-8.4338653E-1,-9.9763356E-2,-2.6317304E-1,-6.670656E-1,-5.63582E-1,-7.5777894E-1,-7.138021E-1,-3.421529E-1,-6.073097E-1,-1.7294076E-1,-1.05808236E-1,-5.030623E-1,-8.810712E-1,-9.793169E-1,-9.8192257E-1,-1.0595112E0,-7.8818226E-1,-5.1889855E-1,-9.050434E-1,-5.9091175E-1,-3.264665E-1,-3.290138E-1,-3.2500443E-1,-1.570745E-1,-3.248086E-1,-3.1977555E-1,-3.0630288E-1,-3.198843E-1,-3.0223784E-1,-2.7976626E-1,-2.7672657E-1,-8.162756E-2,-3.1326947E-1,-2.9130748E-1,-3.237105E-1,-5.242772E-2,-3.2368118E-1,-3.1744638E-1,-2.988136E-1,-1.813707E-1,-3.0226627E-1,-2.7996558E-1,-3.05177E-1,-2.7236462E-1,-2.3967965E-1,-2.7519417E-1,1.088534E0,-1.0356708E-1,-1.0308295E-1,1.3260093E-1,-2.1190275E-1,-4.7389027E-2,-2.093401E-1,-1.3496594E-1,-2.2929102E-1,2.3457898E-2,-2.4959506E-1,-1.7933217E-1,-1.06374055E-1,3.3527583E-1,-1.6237794E-1,-2.1097302E-1,-8.492866E-2,4.5894736E-1,-3.6515377E-2,6.660724E-1,-1.7315796E-1,-1.2513026E-2,-2.6634926E-1,-1.0689518E-1,-2.9849705E-1,-2.493364E-1,-2.9513124E-1,-9.397519E-2,-1.2889898E-1,-3.180315E-1,-1.6382843E-1,-2.4704385E-1,-2.2409414E-1,-9.249788E-2,-2.8549066E-1,-2.5404355E-1,-8.963931E-3,-2.2019768E-1],"categories":[],"categories_nodes":[],"categories_segments":[],"categories_sizes":[],"default_left":[0,0,0,0,0,0,0,0,0,0,0,0,0,0,0,0,0,0,0,0,0,0,0,0,0,0,0,0,0,0,0,0,0,0,0,1,0,1,0,1,1,0,0,0,0,0,0,0,1,0,0,0,0,1,0,1,1,0,0,0,0,1,0,0,0,0,0,0,0,0,0,0,0,0,0,0,0,0,0,0,0,0,0,0,0,0,0,0,0,0,0,0,0,0,0,0,0,0,0,0,0,0,0,0,0,0,0,0,0,0,0,0,0,0,0,0,0,0,0,0,0,0,0,0,0,0,0],"id":1,"left_children":[1,3,5,7,9,11,13,15,17,19,21,23,25,27,29,31,33,35,37,39,41,43,45,47,49,51,53,55,57,59,61,63,65,67,69,71,73,75,77,79,81,83,85,87,89,91,93,95,97,99,101,103,105,107,109,111,113,115,117,119,121,123,125,-1,-1,-1,-1,-1,-1,-1,-1,-1,-1,-1,-1,-1,-1,-1,-1,-1,-1,-1,-1,-1,-1,-1,-1,-1,-1,-1,-1,-1,-1,-1,-1,-1,-1,-1,-1,-1,-1,-1,-1,-1,-1,-1,-1,-1,-1,-1,-1,-1,-1,-1,-1,-1,-1,-1,-1,-1,-1,-1,-1,-1,-1,-1,-1],"loss_changes":[4.2327812E3,7.015625E2,2.302961E3,8.26875E1,6.430625E2,6.6250586E2,1.933125E2,3.1171875E1,6.489453E1,1.9895312E2,1.2706348E2,2.1403516E2,2.1407214E2,6.858008E1,3.981836E1,3.671875E0,2.0585938E1,1.421875E1,1.0378906E1,2.7160156E1,4.9146484E1,1.25706055E2,5.0025818E1,9.700488E1,1.309049E2,6.751941E1,2.496831E2,1.997168E1,1.209375E1,4.410901E1,9.937622E0,7.8125E-3,3.686328E1,9.8046875E-1,1.0060547E1,3.4873047E0,1.482959E1,5.9003906E0,6.894531E-1,2.7773438E0,1.6207031E1,7.883789E0,2.8708984E1,5.9921875E1,2.1305989E2,2.8905159E1,1.5616089E1,4.9037354E1,7.044092E1,1.9070984E1,5.1837463E1,1.9103271E1,7.67912E1,1.5973553E2,8.5516174E1,1.5199951E1,9.073242E0,3.069336E0,3.6708984E0,2.0648438E1,3.9143295E1,5.5585938E0,9.131931E0,0E0,0E0,0E0,0E0,0E0,0E0,0E0,0E0,0E0,0E0,0E0,0E0,0E0,0E0,0E0,0E0,0E0,0E0,0E0,0E0,0E0,0E0,0E0,0E0,0E0,0E0,0E0,0E0,0E0,0E0,0E0,0E0,0E0,0E0,0E0,0E0,0E0,0E0,0E0,0E0,0E0,0E0,0E0,0E0,0E0,0E0,0E0,0E0,0E0,0E0,0E0,0E0,0E0,0E0,0E0,0E0,0E0,0E0,0E0,0E0,0E0,0E0,0E0,0E0],"parents":[2147483647,0,0,1,1,2,2,3,3,4,4,5,5,6,6,7,7,8,8,9,9,10,10,11,11,12,12,13,13,14,14,15,15,16,16,17,17,18,18,19,19,20,20,21,21,22,22,23,23,24,24,25,25,26,26,27,27,28,28,29,29,30,30,31,31,32,32,33,33,34,34,35,35,36,36,37,37,38,38,39,39,40,40,41,41,42,42,43,43,44,44,45,45,46,46,47,47,48,48,49,49,50,50,51,51,52,52,53,53,54,54,55,55,56,56,57,57,58,58,59,59,60,60,61,61,62,62],"right_children":[2,4,6,8,10,12,14,16,18,20,22,24,26,28,30,32,34,36,38,40,42,44,46,48,50,52,54,56,58,60,62,64,66,68,70,72,74,76,78,80,82,84,86,88,90,92,94,96,98,100,102,104,106,108,110,112,114,116,118,120,122,124,126,-1,-1,-1,-1,-1,-1,-1,-1,-1,-1,-1,-1,-1,-1,-1,-1,-1,-1,-1,-1,-1,-1,-1,-1,-1,-1,-1,-1,-1,-1,-1,-1,-1,-1,-1,-1,-1,-1,-1,-1,-1,-1,-1,-1,-1,-1,-1,-1,-1,-1,-1,-1,-1,-1,-1,-1,-1,-1,-1,-1,-1,-1,-1,-1],"split_conditions":[1.8073254E1,2.983E2,1.43E1,2.86747E0,2.9894214E0,3.287E2,2.7430002E2,2.915E2,1.56E1,1.7029005E-1,4.009224E0,3.06E2,2.218074E0,1.79E1,1.65E1,9.49509E-2,1.7029005E-1,2.938E2,1.74E1,6.897502E-1,2.856E2,2.1598E1,7.9E0,1.61E1,9.088E-1,1E0,1.06E1,3.8100002E1,3.9E1,2.7199993E0,8E0,1.35E1,3.95E1,1E0,1.55E1,1.2077848E0,3.681E2,1.7091558E0,2.888E2,3.716688E-1,3.67389E0,3.5730002E2,4.896E-1,9.900001E0,2.18012E1,1E0,1E0,3.7585957E0,3.1678166E0,3.338012E0,1.86236E1,8.8E0,1.76336E1,3.5503888E0,3.1000004E0,2.4299946E0,1.3312532E0,1E0,1.5974609E-3,-3.0100002E0,1.6288086E2,1.3166656E0,3.3556E0,-3.264665E-1,-3.290138E-1,-3.2500443E-1,-1.570745E-1,-3.248086E-1,-3.1977555E-1,-3.0630288E-1,-3.198843E-1,-3.0223784E-1,-2.7976626E-1,-2.7672657E-1,-8.162756E-2,-3.1326947E-1,-2.9130748E-1,-3.237105E-1,-5.242772E-2,-3.2368118E-1,-3.1744638E-1,-2.988136E-1,-1.813707E-1,-3.0226627E-1,-2.7996558E-1,-3.05177E-1,-2.7236462E-1,-2.3967965E-1,-2.7519417E-1,1.088534E0,-1.0356708E-1,-1.0308295E-1,1.3260093E-1,-2.1190275E-1,-4.7389027E-2,-2.093401E-1,-1.3496594E-1,-2.2929102E-1,2.3457898E-2,-2.4959506E-1,-1.7933217E-1,-1.06374055E-1,3.3527583E-1,-1.6237794E-1,-2.1097302E-1,-8.492866E-2,4.5894736E-1,-3.6515377E-2,6.660724E-1,-1.7315796E-1,-1.2513026E-2,-2.6634926E-1,-1.0689518E-1,-2.9849705E-1,-2.493364E-1,-2.9513124E-1,-9.397519E-2,-1.2889898E-1,-3.180315E-1,-1.6382843E-1,-2.4704385E-1,-2.2409414E-1,-9.249788E-2,-2.8549066E-1,-2.5404355E-1,-8.963931E-3,-2.2019768E-1],"split_indices":[12,3,0,12,12,9,9,3,0,16,16,3,16,0,0,16,16,3,1,12,5,14,1,6,14,33,1,6,6,2,10,0,0,30,0,13,9,13,5,13,13,9,14,1,14,28,20,16,13,16,14,1,14,13,2,13,13,38,13,2,12,13,14,0,0,0,0,0,0,0,0,0,0,0,0,0,0,0,0,0,0,0,0,0,0,0,0,0,0,0,0,0,0,0,0,0,0,0,0,0,0,0,0,0,0,0,0,0,0,0,0,0,0,0,0,0,0,0,0,0,0,0,0,0,0,0,0],"split_type":[0,0,0,0,0,0,0,0,0,0,0,0,0,0,0,0,0,0,0,0,0,0,0,0,0,0,0,0,0,0,0,0,0,0,0,0,0,0,0,0,0,0,0,0,0,0,0,0,0,0,0,0,0,0,0,0,0,0,0,0,0,0,0,0,0,0,0,0,0,0,0,0,0,0,0,0,0,0,0,0,0,0,0,0,0,0,0,0,0,0,0,0,0,0,0,0,0,0,0,0,0,0,0,0,0,0,0,0,0,0,0,0,0,0,0,0,0,0,0,0,0,0,0,0,0,0,0],"sum_hessian":[3.856043E5,3.2678066E5,5.8823664E4,2.2386306E5,1.0291759E5,3.068484E4,2.8138822E4,1.9362983E5,3.0233232E4,8.294044E4,1.9977162E4,2.0396607E4,1.0288231E4,2.2394096E4,5.744728E3,1.344212E5,5.9208633E4,1.0208485E4,2.0024748E4,4.715868E4,3.5781754E4,1.8685703E4,1.2914584E3,1.6135848E4,4.26076E3,3.479994E3,6.808238E3,8.634487E3,1.3759607E4,3.2868743E3,2.4578538E3,9.060853E4,4.3812668E4,3.6202066E4,2.3006566E4,5.5912964E3,4.6171885E3,8.424742E3,1.1600005E4,4.1752098E4,5.406582E3,1.573914E4,2.0042615E4,1.8455252E4,2.3045117E2,5.0591513E2,7.855432E2,3.233029E3,1.2902819E4,1.4260559E3,2.8347039E3,3.0738977E3,4.0609622E2,4.308092E3,2.500146E3,4.3733843E3,4.2611035E3,2.7320142E3,1.1027594E4,2.4680642E3,8.1881006E2,2.3448193E3,1.13034584E2,2.2275588E4,6.8332945E4,4.369194E4,1.207268E2,2.529692E4,1.0905147E4,1.4202679E4,8.803889E3,4.6281714E3,9.631251E2,4.5808335E3,3.635526E1,6.8208594E3,1.603883E3,1.1598739E4,1.2660745E0,1.3268987E4,2.8483111E4,5.293034E3,1.1354823E2,1.3922804E4,1.8163362E3,2.8861233E3,1.7156492E4,1.153236E4,6.9228916E3,1.3384003E1,2.1706717E2,4.5457608E2,5.133903E1,7.289202E2,5.6622997E1,1.4803403E3,1.7526888E3,1.2802981E4,9.983702E1,7.0341614E2,7.226398E2,2.8115256E3,2.3178373E1,1.8244286E3,1.2494691E3,3.8220453E2,2.3891714E1,4.2797666E3,2.8325018E1,2.1538162E3,3.4633E2,4.3170825E3,5.630179E1,3.848381E3,4.1272226E2,2.7240137E3,8.000559E0,1.1069154E1,1.1016524E4,3.16157E2,2.1519072E3,3.918402E2,4.2696985E2,1.2940703E3,1.050749E3,2.3215044E1,8.981954E1],"tree_param":{"num_deleted":"0","num_feature":"42","num_nodes":"127","size_leaf_vector":"1"}},{"base_weights":[-9.43076E-1,-1.0068088E0,-6.9378173E-1,-1.0439808E0,-9.334115E-1,-5.274775E-1,-9.3315065E-1,-1.056338E0,-1.014348E0,-1.0088998E0,-8.543374E-1,-6.3652146E-1,-3.6315066E-1,-8.4059656E-1,-9.931779E-1,-1.0605881E0,-1.0284122E0,-1.0412514E0,-9.80513E-1,-1.027536E0,-9.135837E-1,-8.9712876E-1,-7.300705E-1,-7.649999E-1,-5.6743157E-1,-5.28764E-1,-2.3808189E-1,-8.8065654E-1,-6.969394E-1,-1.0162625E0,-9.1607267E-1,-1.0657887E0,-1.0488665E0,-9.562325E-1,-1.0438702E0,-1.0455449E0,-1.0031227E0,-9.96573E-1,-9.2049706E-1,-1.0453684E0,-1.0194371E0,-9.2409015E-1,-5.608549E-1,-9.4660115E-1,-8.547335E-1,-8.130959E-1,-6.523942E-1,-8.3651537E-1,-6.9446784E-1,-6.9454014E-1,-4.7737396E-1,-5.519939E-1,3.5988382E-1,-9.266883E-2,-4.4723913E-1,-8.963193E-1,-7.0731694E-1,-7.6742494E-1,-5.544075E-1,-9.6718556E-1,-1.0348209E0,3.4270084E-1,-9.193619E-1,-3.1648976E-1,-3.2039368E-1,-3.153206E-1,-1.2829416E-1,-2.8841308E-1,-1.9906275E-1,-3.0430314E-1,-3.1583947E-1,-3.1128296E-1,-3.1784183E-1,-3.0478895E-1,-2.7857322E-1,-2.9278466E-1,-3.085427E-1,-2.8044853E-1,-1.9863634E-1,-3.1363782E-1,-1.1685549E-2,-3.0193582E-1,-3.100404E-1,-2.828864E-1,-2.3085824E-1,6.090964E-1,-2.3446417E-1,-2.8657624E-1,-2.592614E-1,-2.9053268E-1,-2.5090775E-1,-2.3310135E-1,-2.8162348E-1,-1.4411731E-1,-2.169988E-1,-2.5268653E-1,-6.6519156E-2,-2.1557562E-1,-5.130074E-2,-2.1235025E-1,1.2235516E-2,-8.732932E-2,-1.6937551E-1,-1.8198167E-1,-1.1354204E-1,-4.4859048E-2,6.2918895E-1,-8.5024275E-2,-1.5205343E-4,-1.6340157E-1,-5.2342556E-2,-2.4794239E-1,-2.8024366E-1,-2.2521396E-1,-6.920057E-2,-1.9215949E-1,-2.564305E-1,-2.195975E-1,-8.404451E-2,-2.9139477E-1,-2.2589773E-1,-2.4602758E-2,-3.1048024E-1,-1.7437503E-1,4.4662023E-1,-2.4375962E-1,-2.8389457E-1],"categories":[],"categories_nodes":[],"categories_segments":[],"categories_sizes":[],"default_left":[0,0,0,0,0,0,0,0,0,0,0,0,0,0,0,0,0,0,0,1,1,0,0,0,0,0,0,1,0,0,0,0,0,0,0,0,0,0,0,0,0,0,0,0,0,0,0,1,1,0,0,0,1,0,0,0,0,0,0,1,0,0,0,0,0,0,0,0,0,0,0,0,0,0,0,0,0,0,0,0,0,0,0,0,0,0,0,0,0,0,0,0,0,0,0,0,0,0,0,0,0,0,0,0,0,0,0,0,0,0,0,0,0,0,0,0,0,0,0,0,0,0,0,0,0,0,0],"id":2,"left_children":[1,3,5,7,9,11,13,15,17,19,21,23,25,27,29,31,33,35,37,39,41,43,45,47,49,51,53,55,57,59,61,63,65,67,69,71,73,75,77,79,81,83,85,87,89,91,93,95,97,99,101,103,105,107,109,111,113,115,117,119,121,123,125,-1,-1,-1,-1,-1,-1,-1,-1,-1,-1,-1,-1,-1,-1,-1,-1,-1,-1,-1,-1,-1,-1,-1,-1,-1,-1,-1,-1,-1,-1,-1,-1,-1,-1,-1,-1,-1,-1,-1,-1,-1,-1,-1,-1,-1,-1,-1,-1,-1,-1,-1,-1,-1,-1,-1,-1,-1,-1,-1,-1,-1,-1,-1,-1],"loss_changes":[4.7689688E3,6.512969E2,2.4327812E3,5.70625E1,4.7897656E2,6.460908E2,1.38375E2,1.2203125E1,4.151172E1,7.209766E1,2.0814648E2,1.9201367E2,2.9793372E2,5.6152832E1,2.6112305E1,4.796875E0,1.5541016E1,3.2089844E0,1.9048828E1,3.9023438E0,2.44375E1,6.044336E1,6.436963E1,3.764795E1,1.6110303E2,1.2799231E2,2.4936539E2,2.0296387E1,2.1231567E1,9.639648E0,1.48515625E1,4.6875E-1,4.048047E1,3.3171387E0,2.1464844E0,1.4824219E0,1.5998535E0,9.740234E0,1.5621826E1,9.394531E-1,3.2753906E0,1.8335938E1,1.14424065E2,8.777344E0,3.2070312E1,2.1310303E1,6.314966E1,1.3151855E1,4.812268E1,5.7177002E1,1.3398267E2,5.6943237E1,1.4042729E2,8.505914E1,8.927484E1,1.7898926E1,1.3140137E1,1.5410034E1,3.471089E1,2.1184082E0,8.28125E-1,1.1325624E1,9.314697E0,0E0,0E0,0E0,0E0,0E0,0E0,0E0,0E0,0E0,0E0,0E0,0E0,0E0,0E0,0E0,0E0,0E0,0E0,0E0,0E0,0E0,0E0,0E0,0E0,0E0,0E0,0E0,0E0,0E0,0E0,0E0,0E0,0E0,0E0,0E0,0E0,0E0,0E0,0E0,0E0,0E0,0E0,0E0,0E0,0E0,0E0,0E0,0E0,0E0,0E0,0E0,0E0,0E0,0E0,0E0,0E0,0E0,0E0,0E0,0E0,0E0,0E0,0E0,0E0],"parents":[2147483647,0,0,1,1,2,2,3,3,4,4,5,5,6,6,7,7,8,8,9,9,10,10,11,11,12,12,13,13,14,14,15,15,16,16,17,17,18,18,19,19,20,20,21,21,22,22,23,23,24,24,25,25,26,26,27,27,28,28,29,29,30,30,31,31,32,32,33,33,34,34,35,35,36,36,37,37,38,38,39,39,40,40,41,41,42,42,43,43,44,44,45,45,46,46,47,47,48,48,49,49,50,50,51,51,52,52,53,53,54,54,55,55,56,56,57,57,58,58,59,59,60,60,61,61,62,62],"right_children":[2,4,6,8,10,12,14,16,18,20,22,24,26,28,30,32,34,36,38,40,42,44,46,48,50,52,54,56,58,60,62,64,66,68,70,72,74,76,78,80,82,84,86,88,90,92,94,96,98,100,102,104,106,108,110,112,114,116,118,120,122,124,126,-1,-1,-1,-1,-1,-1,-1,-1,-1,-1,-1,-1,-1,-1,-1,-1,-1,-1,-1,-1,-1,-1,-1,-1,-1,-1,-1,-1,-1,-1,-1,-1,-1,-1,-1,-1,-1,-1,-1,-1,-1,-1,-1,-1,-1,-1,-1,-1,-1,-1,-1,-1,-1,-1,-1,-1,-1,-1,-1,-1,-1,-1,-1,-1],"split_conditions":[9.406068E0,2.976E2,1.5E1,2.915E2,9.49509E-2,3.187E2,1.79E1,1.6400771E0,9.49509E-2,7.098191E-1,2.6743343E0,2.961E2,2.435404E0,3.05E2,2.107E2,9.49509E-2,1.32E1,1.0396316E0,3.0830107E0,3.716688E-1,3.5503888E0,2.856E2,3.155E2,7.602307E1,2.4501197E0,1.90812E1,2.74E1,1.5962497E0,2.3999996E0,4.3600002E1,2.2915851E-2,1.18E1,3.95E1,6.778472E0,1.65E1,1.41E1,1E0,1.56E1,4E1,1.94E1,1.4084E1,1E0,1.26132E1,3.586E2,4.896E-1,1.3E1,6.8110675E-1,3.0866745E0,1.3312532E0,1.90812E1,9.7E0,4.6447884E1,3.67389E0,7.602307E1,2.119999E0,3.37E1,3.9E1,-1.5600004E0,1.6288086E2,2.5300243E0,5.94E1,4.4E0,1.38E1,-3.1648976E-1,-3.2039368E-1,-3.153206E-1,-1.2829416E-1,-2.8841308E-1,-1.9906275E-1,-3.0430314E-1,-3.1583947E-1,-3.1128296E-1,-3.1784183E-1,-3.0478895E-1,-2.7857322E-1,-2.9278466E-1,-3.085427E-1,-2.8044853E-1,-1.9863634E-1,-3.1363782E-1,-1.1685549E-2,-3.0193582E-1,-3.100404E-1,-2.828864E-1,-2.3085824E-1,6.090964E-1,-2.3446417E-1,-2.8657624E-1,-2.592614E-1,-2.9053268E-1,-2.5090775E-1,-2.3310135E-1,-2.8162348E-1,-1.4411731E-1,-2.169988E-1,-2.5268653E-1,-6.6519156E-2,-2.1557562E-1,-5.130074E-2,-2.1235025E-1,1.2235516E-2,-8.732932E-2,-1.6937551E-1,-1.8198167E-1,-1.1354204E-1,-4.4859048E-2,6.2918895E-1,-8.5024275E-2,-1.5205343E-4,-1.6340157E-1,-5.2342556E-2,-2.4794239E-1,-2.8024366E-1,-2.2521396E-1,-6.920057E-2,-1.9215949E-1,-2.564305E-1,-2.195975E-1,-8.404451E-2,-2.9139477E-1,-2.2589773E-1,-2.4602758E-2,-3.1048024E-1,-1.7437503E-1,4.4662023E-1,-2.4375962E-1,-2.8389457E-1],"split_indices":[12,3,0,3,16,9,0,12,16,12,12,3,16,9,9,16,1,12,12,13,13,5,9,12,16,14,6,13,2,6,13,0,0,16,1,0,30,0,15,1,14,33,14,9,14,0,13,13,13,14,0,12,13,12,2,6,15,2,12,13,4,10,1,0,0,0,0,0,0,0,0,0,0,0,0,0,0,0,0,0,0,0,0,0,0,0,0,0,0,0,0,0,0,0,0,0,0,0,0,0,0,0,0,0,0,0,0,0,0,0,0,0,0,0,0,0,0,0,0,0,0,0,0,0,0,0,0],"split_type":[0,0,0,0,0,0,0,0,0,0,0,0,0,0,0,0,0,0,0,0,0,0,0,0,0,0,0,0,0,0,0,0,0,0,0,0,0,0,0,0,0,0,0,0,0,0,0,0,0,0,0,0,0,0,0,0,0,0,0,0,0,0,0,0,0,0,0,0,0,0,0,0,0,0,0,0,0,0,0,0,0,0,0,0,0,0,0,0,0,0,0,0,0,0,0,0,0,0,0,0,0,0,0,0,0,0,0,0,0,0,0,0,0,0,0,0,0,0,0,0,0,0,0,0,0,0,0],"sum_hessian":[3.002028E5,2.390787E5,6.1124133E4,1.5869448E5,8.038421E4,3.6068406E4,2.5055725E4,1.1196816E5,4.6726324E4,4.111851E4,3.92657E4,2.1679477E4,1.438893E4,9.8631045E3,1.519262E4,9.714574E4,1.4822419E4,2.6012838E4,2.0713486E4,3.4385633E4,6.732881E3,2.9203312E4,1.0062387E4,7.5778174E3,1.4101659E4,6.189587E3,8.199343E3,7.7084185E3,2.1546865E3,1.1682722E4,3.5098984E3,6.722828E4,2.9917459E4,2.6255452E3,1.2196874E4,2.3356445E4,2.6563928E3,1.632846E4,4.385026E3,1.06995205E4,2.3686111E4,6.536562E3,1.9631877E2,1.3466955E4,1.5736357E4,4.8591465E3,5.20324E3,3.7572893E3,3.8205278E3,5.845096E3,8.256563E3,6.0322773E3,1.5730943E2,4.837556E3,3.3617864E3,7.06579E3,6.4262854E2,1.4387866E3,7.158999E2,3.220173E3,8.462549E3,8.878658E0,3.5010198E3,1.1395737E4,5.5832543E4,2.981109E4,1.06368546E2,2.5779497E3,4.7595337E1,2.8583376E3,9.338536E3,1.4927471E4,8.428976E3,2.2552927E3,4.0110013E2,9.936426E3,6.3920337E3,4.152104E3,2.3292192E2,1.0698515E4,1.0054708E0,1.2339645E4,1.1346468E4,5.821004E3,7.155579E2,1.4764707E1,1.8155406E2,1.2177537E4,1.2894178E3,2.1819272E3,1.3554431E4,3.7804365E3,1.0787102E3,1.5215541E3,3.681686E3,3.7219688E3,3.5320602E1,3.6519016E3,1.6862616E2,5.7413354E3,1.03760506E2,2.6342798E3,5.6222837E3,4.5863364E3,1.4459409E3,1.2235001E2,3.4959415E1,1.5752418E3,3.2623147E3,2.476257E3,8.855293E2,2.4903289E3,4.575461E3,5.88476E2,5.415251E1,5.899845E2,8.4880206E2,4.3352274E2,2.8237714E2,3.155785E3,6.438812E1,1.0907267E0,8.461458E3,5.1884556E0,3.690203E0,7.1162506E2,2.7893948E3],"tree_param":{"num_deleted":"0","num_feature":"42","num_nodes":"127","size_leaf_vector":"1"}},{"base_weights":[-8.8802433E-1,-9.719584E-1,-6.182415E-1,-1.0149146E0,-8.805153E-1,-4.4980562E-1,-8.846817E-1,-1.0325446E0,-9.768651E-1,-9.693481E-1,-7.8785735E-1,-6.0529965E-1,-3.4138396E-1,-7.7603537E-1,-9.5655924E-1,-1.0427061E0,-1.0145129E0,-1.01205E0,-9.314262E-1,-9.922397E-1,-8.525186E-1,-8.278851E-1,-6.537509E-1,-4.1388848E-1,-6.683822E-1,-5.051956E-1,-2.3357779E-1,-8.2048905E-1,-6.232977E-1,-8.8945276E-1,-9.93574E-1,-1.0441952E0,-1.0117208E0,-1.0166544E0,-3.4118566E-1,-1.017377E0,-9.622499E-1,-9.0072644E-1,-9.803284E-1,-1.0164299E0,-9.810741E-1,-8.728421E-1,-6.911851E-1,-8.906729E-1,-7.8054017E-1,-6.8107516E-1,-3.4672466E-1,-6.360991E-1,-3.0606142E-1,-6.8003994E-1,7.9519644E-2,-5.4718983E-1,-1.1843537E-1,-8.797714E-2,-3.8075644E-1,-7.8397125E-1,-9.016361E-1,-7.7419823E-1,-5.3296626E-1,-9.043379E-1,-7.1288466E-1,-9.980529E-1,-6.859794E-1,-3.089976E-1,-3.14124E-1,5.966132E-2,-3.0375186E-1,-2.9074937E-1,-3.0853206E-1,1.8586174E-1,-1.8069449E-1,-2.985238E-1,-3.074961E-1,-2.9450482E-1,-2.5622967E-1,-2.7660507E-1,-2.3767202E-1,-2.9735976E-1,-2.3239838E-1,-3.0811292E-1,-3.001622E-1,-2.892856E-1,-2.99856E-1,-2.70911E-1,-2.1790348E-1,-2.4164605E-1,-1.3953924E-1,-2.7676946E-1,-2.566196E-1,-2.7617624E-1,-2.275878E-1,-2.2631471E-1,-1.7927152E-1,-1.2804267E-1,1.9042209E-2,-1.9371422E-1,2.3807456E-1,-1.0692118E-1,5.6445275E-2,-2.3672155E-1,-1.830534E-1,-1.7374897E-1,6.0033184E-1,-1.6805857E-1,4.9245555E-2,5.868795E-1,-5.595141E-2,-4.1171625E-2,1.1643941E-1,-1.3171715E-1,-3.4685213E-2,-2.59382E-1,-2.2345974E-1,-2.771897E-1,-1.8832333E-1,-2.444768E-1,-1.8071586E-1,-1.9250566E-1,-9.50303E-2,-2.4408555E-1,-2.781557E-1,-8.426917E-2,-2.2790264E-1,-8.510846E-2,-2.9964352E-1,2.7580732E-1,-2.1599586E-1],"categories":[],"categories_nodes":[],"categories_segments":[],"categories_sizes":[],"default_left":[0,0,0,0,0,0,0,0,0,0,0,0,0,0,0,0,0,0,0,1,0,0,0,0,1,0,0,0,0,0,0,0,0,0,0,0,0,0,0,0,0,0,0,0,0,0,0,1,0,0,0,1,0,0,0,0,1,0,0,0,0,0,0,0,0,0,0,0,0,0,0,0,0,0,0,0,0,0,0,0,0,0,0,0,0,0,0,0,0,0,0,0,0,0,0,0,0,0,0,0,0,0,0,0,0,0,0,0,0,0,0,0,0,0,0,0,0,0,0,0,0,0,0,0,0,0,0],"id":3,"left_children":[1,3,5,7,9,11,13,15,17,19,21,23,25,27,29,31,33,35,37,39,41,43,45,47,49,51,53,55,57,59,61,63,65,67,69,71,73,75,77,79,81,83,85,87,89,91,93,95,97,99,101,103,105,107,109,111,113,115,117,119,121,123,125,-1,-1,-1,-1,-1,-1,-1,-1,-1,-1,-1,-1,-1,-1,-1,-1,-1,-1,-1,-1,-1,-1,-1,-1,-1,-1,-1,-1,-1,-1,-1,-1,-1,-1,-1,-1,-1,-1,-1,-1,-1,-1,-1,-1,-1,-1,-1,-1,-1,-1,-1,-1,-1,-1,-1,-1,-1,-1,-1,-1,-1,-1,-1,-1],"loss_changes":[5.3097812E3,7.0171875E2,2.4971367E3,8.0625E1,4.6985547E2,5.746587E2,1.6757617E2,1.4171875E1,6.0683594E1,7.721094E1,1.4971484E2,1.6885449E2,3.547146E2,5.7793457E1,3.1327148E1,1.390625E0,4.2916016E1,4.783203E0,2.4392578E1,5.591797E0,1.5099121E1,6.3374023E1,5.3781982E1,8.305853E1,9.1893555E1,1.2944604E2,2.5968103E2,1.8993652E1,2.60318E1,1.1496338E1,1.0816406E1,1E0,2.5483398E0,1.57421875E1,2.4614384E1,2.3066406E0,3.6103516E0,2.31875E1,1.3724121E1,2.6708984E-1,4.2148438E0,1.8140625E1,1.3593109E1,9.625977E0,3.7037598E1,3.5736816E1,1.738031E1,1.6104492E1,5.8319656E1,7.852295E1,2.0691716E2,6.66333E1,1.1084152E2,1.4297551E2,9.311084E1,1.38376465E1,1.1998047E1,4.5765686E0,2.8396729E1,8.068359E0,7.141739E0,4.176758E0,7.378189E0,0E0,0E0,0E0,0E0,0E0,0E0,0E0,0E0,0E0,0E0,0E0,0E0,0E0,0E0,0E0,0E0,0E0,0E0,0E0,0E0,0E0,0E0,0E0,0E0,0E0,0E0,0E0,0E0,0E0,0E0,0E0,0E0,0E0,0E0,0E0,0E0,0E0,0E0,0E0,0E0,0E0,0E0,0E0,0E0,0E0,0E0,0E0,0E0,0E0,0E0,0E0,0E0,0E0,0E0,0E0,0E0,0E0,0E0,0E0,0E0,0E0,0E0,0E0,0E0],"parents":[2147483647,0,0,1,1,2,2,3,3,4,4,5,5,6,6,7,7,8,8,9,9,10,10,11,11,12,12,13,13,14,14,15,15,16,16,17,17,18,18,19,19,20,20,21,21,22,22,23,23,24,24,25,25,26,26,27,27,28,28,29,29,30,30,31,31,32,32,33,33,34,34,35,35,36,36,37,37,38,38,39,39,40,40,41,41,42,42,43,43,44,44,45,45,46,46,47,47,48,48,49,49,50,50,51,51,52,52,53,53,54,54,55,55,56,56,57,57,58,58,59,59,60,60,61,61,62,62],"right_children":[2,4,6,8,10,12,14,16,18,20,22,24,26,28,30,32,34,36,38,40,42,44,46,48,50,52,54,56,58,60,62,64,66,68,70,72,74,76,78,80,82,84,86,88,90,92,94,96,98,100,102,104,106,108,110,112,114,116,118,120,122,124,126,-1,-1,-1,-1,-1,-1,-1,-1,-1,-1,-1,-1,-1,-1,-1,-1,-1,-1,-1,-1,-1,-1,-1,-1,-1,-1,-1,-1,-1,-1,-1,-1,-1,-1,-1,-1,-1,-1,-1,-1,-1,-1,-1,-1,-1,-1,-1,-1,-1,-1,-1,-1,-1,-1,-1,-1,-1,-1,-1,-1,-1,-1,-1,-1],"split_conditions":[7.2693405E0,2.983E2,1.5E1,2.915E2,1.7029005E-1,2.7580002E2,1.79E1,9.49509E-2,9.49509E-2,7.098191E-1,2.588692E0,1.61E1,3.3638832E1,3.05E2,1.74E1,1.6400771E0,3.95E1,1.0396316E0,1.56E1,3.716688E-1,1E0,2.856E2,3.6180002E2,2.553371E1,2.7475219E0,4.3776746E0,9.5E0,1.7E1,3.842354E1,3.316E2,3.2080002E2,1.18E1,6E0,1.46E1,2.044E-1,8.8E0,1E0,2.86747E0,5.8959928E0,3.053E2,1.4084E1,1E0,3.071E2,2.2255695E-1,4.896E-1,2.87E2,2.6035666E0,3.2539418E0,1E0,3.3638832E1,4E1,3.5503888E0,4.5107617E0,1E0,3.0499992E0,2.4329884E1,1.5962497E0,1E0,2.3999996E0,1.31E1,-1.1800003E0,1.5974609E-3,1.9999402E-2,-3.089976E-1,-3.14124E-1,5.966132E-2,-3.0375186E-1,-2.9074937E-1,-3.0853206E-1,1.8586174E-1,-1.8069449E-1,-2.985238E-1,-3.074961E-1,-2.9450482E-1,-2.5622967E-1,-2.7660507E-1,-2.3767202E-1,-2.9735976E-1,-2.3239838E-1,-3.0811292E-1,-3.001622E-1,-2.892856E-1,-2.99856E-1,-2.70911E-1,-2.1790348E-1,-2.4164605E-1,-1.3953924E-1,-2.7676946E-1,-2.566196E-1,-2.7617624E-1,-2.275878E-1,-2.2631471E-1,-1.7927152E-1,-1.2804267E-1,1.9042209E-2,-1.9371422E-1,2.3807456E-1,-1.0692118E-1,5.6445275E-2,-2.3672155E-1,-1.830534E-1,-1.7374897E-1,6.0033184E-1,-1.6805857E-1,4.9245555E-2,5.868795E-1,-5.595141E-2,-4.1171625E-2,1.1643941E-1,-1.3171715E-1,-3.4685213E-2,-2.59382E-1,-2.2345974E-1,-2.771897E-1,-1.8832333E-1,-2.444768E-1,-1.8071586E-1,-1.9250566E-1,-9.50303E-2,-2.4408555E-1,-2.781557E-1,-8.426917E-2,-2.2790264E-1,-8.510846E-2,-2.9964352E-1,2.7580732E-1,-2.1599586E-1],"split_indices":[12,3,0,3,16,9,0,16,16,12,12,6,12,9,1,12,0,12,0,13,33,5,9,12,13,16,1,1,12,9,9,0,0,0,14,0,30,12,12,3,14,30,3,12,14,5,16,13,28,12,15,13,16,33,2,12,13,29,2,1,2,13,13,0,0,0,0,0,0,0,0,0,0,0,0,0,0,0,0,0,0,0,0,0,0,0,0,0,0,0,0,0,0,0,0,0,0,0,0,0,0,0,0,0,0,0,0,0,0,0,0,0,0,0,0,0,0,0,0,0,0,0,0,0,0,0,0],"split_type":[0,0,0,0,0,0,0,0,0,0,0,0,0,0,0,0,0,0,0,0,0,0,0,0,0,0,0,0,0,0,0,0,0,0,0,0,0,0,0,0,0,0,0,0,0,0,0,0,0,0,0,0,0,0,0,0,0,0,0,0,0,0,0,0,0,0,0,0,0,0,0,0,0,0,0,0,0,0,0,0,0,0,0,0,0,0,0,0,0,0,0,0,0,0,0,0,0,0,0,0,0,0,0,0,0,0,0,0,0,0,0,0,0,0,0,0,0,0,0,0,0,0,0,0,0,0,0],"sum_hessian":[2.3451522E5,1.7886473E5,5.5650484E4,1.2168967E5,5.7175055E4,3.409763E4,2.1552854E4,8.314094E4,3.8548734E4,2.9185225E4,2.798983E4,1.4006081E4,2.009155E4,8.586198E3,1.2966654E4,5.313852E4,3.0002418E4,2.1713738E4,1.6834998E4,2.43973E4,4.7879243E3,2.1551896E4,6.437934E3,3.4736277E3,1.0532453E4,7.972953E3,1.2118597E4,6.64719E3,1.9390087E3,4.618503E3,8.348151E3,5.067095E4,2.4675713E3,2.990679E4,9.562734E1,1.9597996E4,2.115741E3,1.0354243E4,6.480755E3,7.6764355E3,1.6720865E4,4.248343E3,5.3958154E2,9.25728E3,1.2294617E4,5.910685E3,5.272492E2,1.1332731E3,2.3403545E3,1.0370891E4,1.6156268E2,7.19167E3,7.8128284E2,6.09276E3,6.0258374E3,4.5915586E3,2.0556313E3,7.232438E2,1.2157649E3,4.2556216E3,3.6288126E2,8.226126E3,1.2202582E2,8.614819E3,4.205613E4,1.4362648E0,2.466135E3,5.962904E3,2.3943887E4,2.0143723E1,7.548362E1,5.0202046E3,1.4577792E4,1.7866382E3,3.2910272E2,8.649317E3,1.7049254E3,6.151776E3,3.2897888E2,4.5641855E3,3.11225E3,8.781503E3,7.939362E3,3.5180696E3,7.3027325E2,3.5667157E2,1.8290997E2,4.8485205E3,4.4087593E3,1.6579764E3,1.0636641E4,3.1432307E3,2.7674543E3,4.4109293E2,8.615626E1,1.1262472E3,7.025928E0,2.1242488E3,2.161059E2,4.0460417E3,6.3248486E3,1.2083974E2,4.072294E1,7.062755E3,1.2891522E2,2.39378E1,7.5734503E2,5.522114E3,5.706459E2,4.93913E3,1.0867074E3,1.4926367E3,3.0989216E3,1.8984808E3,1.5715056E2,5.816363E2,1.4160747E2,8.0765405E2,4.081108E2,8.635229E2,3.3920989E3,3.6148636E1,3.2673264E2,9.12607E0,8.217E3,1.9912559E0,1.2003456E2],"tree_param":{"num_deleted":"0","num_feature":"42","num_nodes":"127","size_leaf_vector":"1"}},{"base_weights":[-8.2980055E-1,-9.333417E-1,-5.2967936E-1,-9.9158275E-1,-8.2478833E-1,-3.6880997E-1,-8.3288515E-1,-1.0120689E0,-9.434056E-1,-9.333004E-1,-7.158371E-1,-4.7290248E-1,-2.0691097E-1,-7.368065E-1,-9.403825E-1,-1.0255494E0,-9.88346E-1,-9.854355E-1,-8.903551E-1,-9.615956E-1,-7.921773E-1,-7.6158834E-1,-5.688658E-1,-5.2587545E-1,-2.849445E-1,-4.3462044E-1,-7.7568084E-2,-7.944266E-1,-6.05666E-1,-8.623603E-1,-9.769518E-1,-1.0275451E0,-9.844342E-1,-9.911195E-1,-2.7323E-1,-9.92195E-1,-9.230058E-1,-8.6129576E-1,-9.602271E-1,-9.920397E-1,-9.4799006E-1,-8.0942136E-1,-5.0688255E-1,-8.335425E-1,-7.033949E-1,-6.755863E-1,-4.759719E-1,-6.551424E-1,-4.5215133E-1,-3.2283238E-1,9.255966E-2,-5.876588E-1,-2.3403262E-1,-2.6310736E-1,7.05924E-2,-7.335188E-1,-8.637566E-1,-7.5233996E-1,-5.275569E-1,-8.9016074E-1,-5.857379E-1,-9.8061675E-1,-6.898187E-1,-3.0262703E-1,-3.094142E-1,-2.7389377E-1,-3.0331308E-1,-2.7907574E-1,-3.0194372E-1,-1.4877683E-1,2.555366E-1,-2.9359326E-1,-3.0486324E-1,-2.832049E-1,-2.4222077E-1,-2.6580808E-1,-2.2182444E-1,-2.915932E-1,-2.2239387E-1,-2.9765788E-1,-8.906232E-3,-2.7809468E-1,-2.913268E-1,-2.5078455E-1,-1.8528852E-1,2.3400246E-1,-2.1794258E-1,-2.5402492E-1,-2.1335854E-1,-2.6013914E-1,-2.0369913E-1,-2.0572247E-1,6.845701E-2,-1.015769E-1,-1.7505686E-1,-2.0511542E-1,-1.2057722E-1,-9.985126E-2,-1.6298966E-1,-1.2725744E-1,-6.2740885E-2,1.9392298E-1,-9.316398E-2,-1.9330426E-1,-1.1800168E-1,3.477428E-2,-1.1319319E-1,-8.4289044E-2,2.127763E-1,7.928574E-2,-2.0170022E-2,-2.3960127E-1,-2.0094237E-1,-2.3191553E-1,-2.688899E-1,-2.4720183E-1,-1.975935E-1,-2.028893E-1,-1.3514015E-1,-2.7450395E-1,-2.0886631E-1,-2.4838676E-1,-9.660534E-2,-2.848561E-1,-2.9857618E-1,-2.8031197E-1,-7.17388E-2],"categories":[],"categories_nodes":[],"categories_segments":[],"categories_sizes":[],"default_left":[0,0,0,0,0,0,0,0,0,0,0,0,0,0,0,0,0,0,0,1,1,0,0,0,0,0,0,0,0,1,0,0,0,0,0,0,0,0,0,0,0,0,0,0,0,0,0,0,0,0,0,0,0,1,0,0,0,0,0,0,0,0,0,0,0,0,0,0,0,0,0,0,0,0,0,0,0,0,0,0,0,0,0,0,0,0,0,0,0,0,0,0,0,0,0,0,0,0,0,0,0,0,0,0,0,0,0,0,0,0,0,0,0,0,0,0,0,0,0,0,0,0,0,0,0,0,0],"id":4,"left_children":[1,3,5,7,9,11,13,15,17,19,21,23,25,27,29,31,33,35,37,39,41,43,45,47,49,51,53,55,57,59,61,63,65,67,69,71,73,75,77,79,81,83,85,87,89,91,93,95,97,99,101,103,105,107,109,111,113,115,117,119,121,123,125,-1,-1,-1,-1,-1,-1,-1,-1,-1,-1,-1,-1,-1,-1,-1,-1,-1,-1,-1,-1,-1,-1,-1,-1,-1,-1,-1,-1,-1,-1,-1,-1,-1,-1,-1,-1,-1,-1,-1,-1,-1,-1,-1,-1,-1,-1,-1,-1,-1,-1,-1,-1,-1,-1,-1,-1,-1,-1,-1,-1,-1,-1,-1,-1],"loss_changes":[5.735461E3,8.668203E2,2.3092139E3,8.719531E1,5.659375E2,5.212759E2,1.6881738E2,1.9027344E1,5.8570312E1,9.510547E1,1.6040137E2,1.8733154E2,3.5660162E2,6.5041016E1,2.1248047E1,2.265625E0,4.480664E1,5.3583984E0,2.3124023E1,7.341797E0,1.9343994E1,7.57793E1,5.600952E1,1.3968677E2,5.9275543E1,1.3450897E2,2.123365E2,2.479126E1,2.9976013E1,1.8545044E1,4.8632812E0,1.6992188E0,2.6362305E0,2.0232422E1,2.276818E1,3.366211E0,2.800293E0,2.448584E1,8.169678E0,8.779297E-1,5.8164062E0,1.873999E1,6.5998665E1,1.2566406E1,3.971582E1,2.4404053E1,4.473877E1,3.831006E1,1.0157825E2,4.3295532E1,8.472491E1,2.7146362E1,9.530308E1,5.9743042E1,1.1468081E2,1.2797241E1,7.602539E0,5.6273193E0,1.9569336E1,1.0212402E1,1.4383095E1,1.4199219E0,7.460518E0,0E0,0E0,0E0,0E0,0E0,0E0,0E0,0E0,0E0,0E0,0E0,0E0,0E0,0E0,0E0,0E0,0E0,0E0,0E0,0E0,0E0,0E0,0E0,0E0,0E0,0E0,0E0,0E0,0E0,0E0,0E0,0E0,0E0,0E0,0E0,0E0,0E0,0E0,0E0,0E0,0E0,0E0,0E0,0E0,0E0,0E0,0E0,0E0,0E0,0E0,0E0,0E0,0E0,0E0,0E0,0E0,0E0,0E0,0E0,0E0,0E0,0E0,0E0,0E0],"parents":[2147483647,0,0,1,1,2,2,3,3,4,4,5,5,6,6,7,7,8,8,9,9,10,10,11,11,12,12,13,13,14,14,15,15,16,16,17,17,18,18,19,19,20,20,21,21,22,22,23,23,24,24,25,25,26,26,27,27,28,28,29,29,30,30,31,31,32,32,33,33,34,34,35,35,36,36,37,37,38,38,39,39,40,40,41,41,42,42,43,43,44,44,45,45,46,46,47,47,48,48,49,49,50,50,51,51,52,52,53,53,54,54,55,55,56,56,57,57,58,58,59,59,60,60,61,61,62,62],"right_children":[2,4,6,8,10,12,14,16,18,20,22,24,26,28,30,32,34,36,38,40,42,44,46,48,50,52,54,56,58,60,62,64,66,68,70,72,74,76,78,80,82,84,86,88,90,92,94,96,98,100,102,104,106,108,110,112,114,116,118,120,122,124,126,-1,-1,-1,-1,-1,-1,-1,-1,-1,-1,-1,-1,-1,-1,-1,-1,-1,-1,-1,-1,-1,-1,-1,-1,-1,-1,-1,-1,-1,-1,-1,-1,-1,-1,-1,-1,-1,-1,-1,-1,-1,-1,-1,-1,-1,-1,-1,-1,-1,-1,-1,-1,-1,-1,-1,-1,-1,-1,-1,-1,-1,-1,-1,-1],"split_conditions":[7.2693405E0,2.976E2,1.52E1,2.915E2,1.7029005E-1,3.041E2,1.74E1,9.49509E-2,9.49509E-2,7.098191E-1,2.588692E0,3.3630002E2,6E0,2.7430002E2,1.95E1,1.6400771E0,3.95E1,1.0396316E0,1.69E1,3.716688E-1,3.2539418E0,2.856E2,3.155E2,3.3638832E1,5.9E0,3.338012E0,2.462979E0,3.7600002E1,2.8383348E1,1.5755419E0,3.2280002E2,1.18E1,3.53E1,1.46E1,1.5345339E0,1.41E1,1E0,2.9894214E0,4E1,1.91E1,1.4084E1,1E0,1.26132E1,3.586E2,4.896E-1,2.1598E1,8.4793013E-1,4.3776746E0,2.62E1,3.711974E0,1.13E1,1E0,-3.21E0,3.67389E0,7.7000003E0,4.3227623E1,1.69E1,1.6616594E0,2.6075E0,2.2E2,3.3638832E1,5.1E1,5.7474937E1,-3.0262703E-1,-3.094142E-1,-2.7389377E-1,-3.0331308E-1,-2.7907574E-1,-3.0194372E-1,-1.4877683E-1,2.555366E-1,-2.9359326E-1,-3.0486324E-1,-2.832049E-1,-2.4222077E-1,-2.6580808E-1,-2.2182444E-1,-2.915932E-1,-2.2239387E-1,-2.9765788E-1,-8.906232E-3,-2.7809468E-1,-2.913268E-1,-2.5078455E-1,-1.8528852E-1,2.3400246E-1,-2.1794258E-1,-2.5402492E-1,-2.1335854E-1,-2.6013914E-1,-2.0369913E-1,-2.0572247E-1,6.845701E-2,-1.015769E-1,-1.7505686E-1,-2.0511542E-1,-1.2057722E-1,-9.985126E-2,-1.6298966E-1,-1.2725744E-1,-6.2740885E-2,1.9392298E-1,-9.316398E-2,-1.9330426E-1,-1.1800168E-1,3.477428E-2,-1.1319319E-1,-8.4289044E-2,2.127763E-1,7.928574E-2,-2.0170022E-2,-2.3960127E-1,-2.0094237E-1,-2.3191553E-1,-2.688899E-1,-2.4720183E-1,-1.975935E-1,-2.028893E-1,-1.3514015E-1,-2.7450395E-1,-2.0886631E-1,-2.4838676E-1,-9.660534E-2,-2.848561E-1,-2.9857618E-1,-2.8031197E-1,-7.17388E-2],"split_indices":[12,3,0,3,16,3,1,16,16,12,12,9,15,9,0,12,0,12,0,13,13,5,9,12,10,16,16,6,12,13,9,0,6,0,16,0,30,12,15,1,14,33,14,9,14,14,13,16,6,16,0,24,2,13,1,12,0,13,14,9,12,6,12,0,0,0,0,0,0,0,0,0,0,0,0,0,0,0,0,0,0,0,0,0,0,0,0,0,0,0,0,0,0,0,0,0,0,0,0,0,0,0,0,0,0,0,0,0,0,0,0,0,0,0,0,0,0,0,0,0,0,0,0,0,0,0,0],"split_type":[0,0,0,0,0,0,0,0,0,0,0,0,0,0,0,0,0,0,0,0,0,0,0,0,0,0,0,0,0,0,0,0,0,0,0,0,0,0,0,0,0,0,0,0,0,0,0,0,0,0,0,0,0,0,0,0,0,0,0,0,0,0,0,0,0,0,0,0,0,0,0,0,0,0,0,0,0,0,0,0,0,0,0,0,0,0,0,0,0,0,0,0,0,0,0,0,0,0,0,0,0,0,0,0,0,0,0,0,0,0,0,0,0,0,0,0,0,0,0,0,0,0,0,0,0,0,0],"sum_hessian":[1.8458348E5,1.3723545E5,4.734802E4,8.931046E4,4.7925E4,3.093651E4,1.6411512E4,6.2650086E4,2.6660375E4,2.4007094E4,2.3917906E4,1.8828719E4,1.210779E4,8.670173E3,7.741339E3,3.992212E4,2.2727965E4,1.4865458E4,1.1794917E4,1.999273E4,4.0143645E3,1.8236748E4,5.6811567E3,1.4687487E4,4.1412324E3,4.385215E3,7.7225757E3,6.0200483E3,2.6501248E3,2.4783179E3,5.263021E3,3.805111E4,1.8710089E3,2.2639773E4,8.819271E1,1.3399722E4,1.4657362E3,8.339774E3,3.4551426E3,6.1529087E3,1.3839821E4,3.783822E3,2.3054245E2,8.1483125E3,1.0088437E4,2.6409014E3,3.0402554E3,5.3314663E3,9.3560205E3,3.7636426E3,3.7758987E2,2.486336E3,1.8988788E3,3.428428E3,4.294148E3,3.2108389E3,2.8092095E3,9.1788306E2,1.7322416E3,2.249978E3,2.2833986E2,5.194305E3,6.871591E1,6.495652E3,3.1555459E4,5.1727185E2,1.353737E3,4.574284E3,1.8065488E4,7.408673E1,1.4105976E1,8.592931E3,4.8067905E3,1.2342491E3,2.3148712E2,6.9277773E3,1.4119971E3,3.2758699E3,1.792727E2,6.1518984E3,1.0100899E0,7.269555E3,6.570266E3,3.321117E3,4.6270505E2,3.3233044E1,1.973094E2,7.3490723E3,7.992402E2,1.3038257E3,8.784611E3,2.6117952E3,2.9106012E1,1.3368075E3,1.7034479E3,4.789296E3,5.421708E2,4.053961E3,5.3020596E3,1.9883318E3,1.7753107E3,1.5880089E2,2.18789E2,1.9230203E3,5.6331573E2,5.516651E2,1.3472137E3,3.367303E3,6.1124897E1,1.7848677E3,2.50928E3,1.581761E3,1.6290778E3,7.4829584E2,2.0609136E3,5.156636E2,4.0221948E2,5.8866675E2,1.1435748E3,1.9911095E3,2.5886847E2,1.1790687E2,1.1043299E2,1.6835353E3,3.51077E3,4.3849144E1,2.4866772E1],"tree_param":{"num_deleted":"0","num_feature":"42","num_nodes":"127","size_leaf_vector":"1"}},{"base_weights":[-7.662311E-1,-9.1188866E-1,-4.841572E-1,-9.812064E-1,-8.022156E-1,-3.3156702E-1,-7.9446435E-1,-1.0035849E0,-9.384379E-1,-9.047118E-1,-6.874031E-1,-4.9714726E-1,-2.3353791E-1,-6.5272266E-1,-8.8419765E-1,-9.6766704E-1,-1.0110538E0,-9.735343E-1,-8.867086E-1,-9.2882174E-1,-7.357294E-1,-7.6840687E-1,-6.1321723E-1,-6.0123587E-1,-3.7447912E-1,-4.5611393E-1,-1.6299698E-1,-7.2819275E-1,-5.0171757E-1,-8.1301725E-1,-9.51394E-1,-9.973032E-1,-8.40691E-1,-1.0161916E0,-9.854004E-1,-9.553421E-1,-9.97822E-1,-8.389993E-1,-9.399988E-1,-9.680687E-1,-9.123794E-1,-7.7543336E-1,-5.253406E-1,-7.7772516E-1,-4.343914E-1,-7.137703E-1,-5.5871487E-1,-6.1524457E-1,-5.0015062E-2,-4.1731086E-1,6.854657E-2,-6.5224105E-1,-3.9323312E-1,-2.469238E-1,-3.5141714E-2,-8.5622925E-1,-6.715646E-1,-6.777516E-1,-4.1997138E-1,-8.763475E-1,-7.2783846E-1,-9.1117936E-1,-9.790785E-1,-3.010176E-1,-2.682504E-1,1.3241313E-1,-2.5923568E-1,-3.065612E-1,-3.0077592E-1,-2.7856356E-1,-3.0007526E-1,-2.9396957E-1,-2.7754477E-1,-3.0045578E-1,-2.784298E-1,-2.6029477E-1,-2.3310278E-1,-2.731283E-1,-2.956206E-1,-2.9517066E-1,-2.8133547E-1,-2.655852E-1,-2.827248E-1,-2.4607371E-1,-1.4347392E-1,-1.9024673E-1,2.56218E-1,-2.4935047E-1,-2.1784046E-1,9.418495E-3,-1.7989713E-1,-2.1662454E-1,-1.938777E-2,-2.3954187E-1,-1.5748817E-1,-1.5547127E-1,-2.0915852E-1,-1.3139571E-1,3.7311107E-1,-1.925165E-1,-1.1160732E-1,1.2145965E-1,-7.983081E-2,-2.0670073E-1,-7.977455E-2,9.6580826E-2,-1.2254863E-1,-1.3247797E-1,-5.4989953E-2,-5.300212E-2,1.8322034E-2,-2.5874618E-1,-2.7513446E-2,-2.0732056E-1,-5.465355E-2,-2.1820934E-1,8.384213E-2,-1.5317072E-1,-6.5656014E-2,-2.662835E-1,-1.7588888E-1,-2.2574976E-1,-9.065942E-2,-2.857086E-1,-2.5484374E-1,-2.938128E-1,-1.2482952E-2],"categories":[],"categories_nodes":[],"categories_segments":[],"categories_sizes":[],"default_left":[0,0,0,0,0,0,0,1,0,0,0,0,0,0,0,0,0,0,0,1,0,0,0,1,0,0,0,0,0,0,0,1,0,0,0,1,0,0,0,0,0,0,0,0,0,0,0,0,0,0,0,1,0,0,0,0,1,0,0,0,0,0,0,0,0,0,0,0,0,0,0,0,0,0,0,0,0,0,0,0,0,0,0,0,0,0,0,0,0,0,0,0,0,0,0,0,0,0,0,0,0,0,0,0,0,0,0,0,0,0,0,0,0,0,0,0,0,0,0,0,0,0,0,0,0,0,0],"id":5,"left_children":[1,3,5,7,9,11,13,15,17,19,21,23,25,27,29,31,33,35,37,39,41,43,45,47,49,51,53,55,57,59,61,63,65,67,69,71,73,75,77,79,81,83,85,87,89,91,93,95,97,99,101,103,105,107,109,111,113,115,117,119,121,123,125,-1,-1,-1,-1,-1,-1,-1,-1,-1,-1,-1,-1,-1,-1,-1,-1,-1,-1,-1,-1,-1,-1,-1,-1,-1,-1,-1,-1,-1,-1,-1,-1,-1,-1,-1,-1,-1,-1,-1,-1,-1,-1,-1,-1,-1,-1,-1,-1,-1,-1,-1,-1,-1,-1,-1,-1,-1,-1,-1,-1,-1,-1,-1,-1],"loss_changes":[6.037E3,7.3590625E2,2.3692344E3,5.5882812E1,4.4106836E2,5.444248E2,2.0922461E2,9.472656E0,3.6191406E1,8.009766E1,1.0593848E2,1.5905591E2,3.308075E2,7.2552734E1,4.7526367E1,2.4490234E1,3.2460938E0,4.416992E0,2.0215332E1,1.0310547E1,2.0312866E1,2.5996094E1,5.0281494E1,5.206714E1,1.08738464E2,6.2284058E1,1.7172379E2,3.034082E1,3.044397E1,2.5851318E1,4.8842773E0,2.525879E0,3.8828735E1,1.0488281E0,3.6396484E0,4.260742E0,4.0576172E-1,7.08374E0,4.3310547E0,1.5249023E0,9.130859E0,2.7369751E1,6.011564E1,2.2087402E1,1.7869797E1,1.7471924E1,4.815149E1,5.194409E1,8.501911E1,5.285193E1,5.7046795E1,1.7279785E1,4.207306E1,1.19585754E2,8.6392654E1,6.159363E0,2.8137085E1,3.2285004E1,2.6506226E1,8.665283E0,2.1814697E1,4.6030273E0,8.125E-1,0E0,0E0,0E0,0E0,0E0,0E0,0E0,0E0,0E0,0E0,0E0,0E0,0E0,0E0,0E0,0E0,0E0,0E0,0E0,0E0,0E0,0E0,0E0,0E0,0E0,0E0,0E0,0E0,0E0,0E0,0E0,0E0,0E0,0E0,0E0,0E0,0E0,0E0,0E0,0E0,0E0,0E0,0E0,0E0,0E0,0E0,0E0,0E0,0E0,0E0,0E0,0E0,0E0,0E0,0E0,0E0,0E0,0E0,0E0,0E0,0E0,0E0,0E0,0E0],"parents":[2147483647,0,0,1,1,2,2,3,3,4,4,5,5,6,6,7,7,8,8,9,9,10,10,11,11,12,12,13,13,14,14,15,15,16,16,17,17,18,18,19,19,20,20,21,21,22,22,23,23,24,24,25,25,26,26,27,27,28,28,29,29,30,30,31,31,32,32,33,33,34,34,35,35,36,36,37,37,38,38,39,39,40,40,41,41,42,42,43,43,44,44,45,45,46,46,47,47,48,48,49,49,50,50,51,51,52,52,53,53,54,54,55,55,56,56,57,57,58,58,59,59,60,60,61,61,62,62],"right_children":[2,4,6,8,10,12,14,16,18,20,22,24,26,28,30,32,34,36,38,40,42,44,46,48,50,52,54,56,58,60,62,64,66,68,70,72,74,76,78,80,82,84,86,88,90,92,94,96,98,100,102,104,106,108,110,112,114,116,118,120,122,124,126,-1,-1,-1,-1,-1,-1,-1,-1,-1,-1,-1,-1,-1,-1,-1,-1,-1,-1,-1,-1,-1,-1,-1,-1,-1,-1,-1,-1,-1,-1,-1,-1,-1,-1,-1,-1,-1,-1,-1,-1,-1,-1,-1,-1,-1,-1,-1,-1,-1,-1,-1,-1,-1,-1,-1,-1,-1,-1,-1,-1,-1,-1,-1,-1],"split_conditions":[3.4750504E0,2.963E2,1.52E1,2.898E2,9.49509E-2,1.9963892E1,1.79E1,1.22E1,2.8572974E-1,7.5754833E-1,2.856E2,3.132E2,2.968E2,2.686E2,1.86E1,9.49509E-2,5.8810705E-1,1.43E1,1.55E1,3.6666483E-1,1E0,3.6630002E2,6.468352E-2,3.0866745E0,4.009224E0,1.3490001E2,3.354E2,1.213522E1,1.5611972E1,3.3638832E1,2.21E1,1.4611084E0,1E0,9.49509E-2,3.55E1,6.877785E-1,1.8727787E0,5.2243763E-1,1.95E1,3.053E2,1.4084E1,1E0,3.67389E0,2.2255695E-1,7.0043784E-1,1E0,4.62E-1,1.0400001E1,2.1598E1,9.49509E-2,8.5610616E-1,9.6944875E-1,8.400001E0,6E0,9E0,2.1598E1,1.9595745E0,4E1,2.3999996E0,3.4980002E2,3.381E2,3.842354E1,3.001E2,-3.010176E-1,-2.682504E-1,1.3241313E-1,-2.5923568E-1,-3.065612E-1,-3.0077592E-1,-2.7856356E-1,-3.0007526E-1,-2.9396957E-1,-2.7754477E-1,-3.0045578E-1,-2.784298E-1,-2.6029477E-1,-2.3310278E-1,-2.731283E-1,-2.956206E-1,-2.9517066E-1,-2.8133547E-1,-2.655852E-1,-2.827248E-1,-2.4607371E-1,-1.4347392E-1,-1.9024673E-1,2.56218E-1,-2.4935047E-1,-2.1784046E-1,9.418495E-3,-1.7989713E-1,-2.1662454E-1,-1.938777E-2,-2.3954187E-1,-1.5748817E-1,-1.5547127E-1,-2.0915852E-1,-1.3139571E-1,3.7311107E-1,-1.925165E-1,-1.1160732E-1,1.2145965E-1,-7.983081E-2,-2.0670073E-1,-7.977455E-2,9.6580826E-2,-1.2254863E-1,-1.3247797E-1,-5.4989953E-2,-5.300212E-2,1.8322034E-2,-2.5874618E-1,-2.7513446E-2,-2.0732056E-1,-5.465355E-2,-2.1820934E-1,8.384213E-2,-1.5317072E-1,-6.5656014E-2,-2.662835E-1,-1.7588888E-1,-2.2574976E-1,-9.065942E-2,-2.857086E-1,-2.5484374E-1,-2.938128E-1,-1.2482952E-2],"split_indices":[12,3,0,3,16,12,0,0,16,12,5,9,3,9,1,16,12,0,0,13,30,9,12,13,16,9,9,12,12,12,0,13,15,16,6,13,12,12,0,3,14,33,13,12,13,39,14,0,14,16,13,13,6,15,15,14,13,15,2,9,9,12,3,0,0,0,0,0,0,0,0,0,0,0,0,0,0,0,0,0,0,0,0,0,0,0,0,0,0,0,0,0,0,0,0,0,0,0,0,0,0,0,0,0,0,0,0,0,0,0,0,0,0,0,0,0,0,0,0,0,0,0,0,0,0,0,0],"split_type":[0,0,0,0,0,0,0,0,0,0,0,0,0,0,0,0,0,0,0,0,0,0,0,0,0,0,0,0,0,0,0,0,0,0,0,0,0,0,0,0,0,0,0,0,0,0,0,0,0,0,0,0,0,0,0,0,0,0,0,0,0,0,0,0,0,0,0,0,0,0,0,0,0,0,0,0,0,0,0,0,0,0,0,0,0,0,0,0,0,0,0,0,0,0,0,0,0,0,0,0,0,0,0,0,0,0,0,0,0,0,0,0,0,0,0,0,0,0,0,0,0,0,0,0,0,0,0],"sum_hessian":[1.4694478E5,9.690346E4,5.0041324E4,5.937081E4,3.7532652E4,3.354701E4,1.649431E4,3.896178E4,2.0409027E4,1.9826305E4,1.770635E4,1.2473704E4,2.1073309E4,6.3973687E3,1.0096942E4,6.729708E3,3.2232074E4,1.2148741E4,8.260286E3,1.7346807E4,2.4794968E3,8.459753E3,9.246596E3,6.7457646E3,5.72794E3,5.0701445E3,1.6003163E4,4.2629746E3,2.1343943E3,4.9094805E3,5.187462E3,5.450672E3,1.2790359E3,2.6821693E4,5.4103804E3,6.969057E3,5.1796836E3,4.367193E3,3.893093E3,5.1045884E3,1.2242219E4,2.0836E3,3.9589664E2,8.228857E3,2.3089552E2,3.24595E3,6.000646E3,6.5784634E3,1.6730089E2,5.2230347E3,5.049052E2,1.2286321E3,3.8415122E3,9.6607295E3,6.3424336E3,1.3029282E3,2.9600461E3,6.745382E2,1.459856E3,2.8105527E3,2.0989275E3,2.1289087E3,3.0585532E3,5.138573E3,3.1209854E2,2.2632948E1,1.256403E3,1.887077E4,7.9509233E3,1.1336614E3,4.276719E3,3.8259187E3,3.1431384E3,4.9061587E3,2.7352518E2,2.9779001E3,1.3892927E3,2.3703364E3,1.5227567E3,3.3313455E3,1.773243E3,6.4522466E3,5.7899717E3,1.8090554E3,2.745447E2,3.674503E2,2.8446342E1,4.0344302E3,4.194427E3,6.0681168E1,1.7021436E2,3.2048037E3,4.114607E1,7.377482E2,5.262898E3,3.0158467E3,3.562617E3,1.2921294E2,3.8087948E1,8.74819E2,4.348216E3,2.5171974E2,2.5318546E2,1.121163E3,1.0746918E2,7.984827E1,3.761664E3,2.37821E3,7.2825195E3,2.5664146E3,3.7760193E3,1.2922227E3,1.0705564E1,2.8462021E3,1.1384393E2,6.415281E2,3.301013E1,1.00541016E3,4.544458E2,2.7035022E3,1.0705058E2,1.9832543E3,1.1567325E2,1.2680779E3,8.608308E2,3.057538E3,1.0151638E0],"tree_param":{"num_deleted":"0","num_feature":"42","num_nodes":"127","size_leaf_vector":"1"}},{"base_weights":[-6.964296E-1,-8.731875E-1,-4.05537E-1,-9.5943034E-1,-7.4283767E-1,-2.7344474E-1,-7.5988734E-1,-9.886698E-1,-9.043747E-1,-8.655583E-1,-6.112012E-1,-4.0784436E-1,-1.6204491E-1,-6.416795E-1,-8.819875E-1,-9.4157094E-1,-9.986547E-1,-9.4878656E-1,-8.394361E-1,-8.9226204E-1,-6.923726E-1,-7.018499E-1,-5.3175026E-1,-3.080323E-1,-5.4552454E-1,-6.4327596E-3,-2.7794066E-1,-7.3040587E-1,-5.195362E-1,-7.769544E-1,-9.278496E-1,-9.7971326E-1,-7.843109E-1,-1.0085617E0,-9.775563E-1,-9.25588E-1,-9.8026776E-1,-7.8279436E-1,-9.052562E-1,-9.4150025E-1,-8.7182397E-1,-7.72193E-1,-5.684918E-1,-6.6557837E-1,-8.150898E-1,-5.842985E-1,-4.016458E-1,-3.9822924E-1,-1.8829902E-1,-5.561633E-1,3.82299E-1,-1.994206E-2,1.3709253E0,-3.4476337E-1,-6.6009305E-2,-7.78177E-1,-5.615514E-1,-5.785066E-1,-2.729996E-1,-8.49849E-1,-5.8896786E-1,-9.3292516E-1,-5.66152E-1,-2.9631713E-1,-2.544576E-1,-2.5184572E-1,-2.526016E-2,-3.0313087E-1,-2.8418958E-1,-2.8408203E-1,-3.0002502E-1,-2.8714E-1,-2.6621428E-1,-2.9557106E-1,-2.621782E-1,-2.3550372E-1,1.0617802E-1,-2.6028267E-1,-2.8934857E-1,-2.8860292E-1,-2.7083924E-1,-2.5176606E-1,-2.7245456E-1,-2.4953173E-1,-1.5569359E-1,-1.8057245E-1,2.1185197E-1,-2.2209527E-1,-1.7528844E-1,-2.4876057E-1,-1.6484015E-1,-2.1736257E-1,-1.6307677E-1,-8.661401E-2,-1.6307022E-1,-1.7423768E-1,-1.02624916E-1,-7.971252E-2,1.2043805E-2,-1.917617E-1,-1.2704375E-1,4.2389855E-1,-1.5046439E-1,-6.703998E-2,1.5055794E-2,8.0798763E-1,-2.4044864E-1,-2.0165153E-2,-1.3556424E-1,-2.2868598E-2,9.291124E-1,-1.9148211E-1,-2.445377E-1,-1.8882771E-1,-1.5629604E-2,-1.18376106E-1,-1.9168411E-1,-2.2255769E-2,-1.5621722E-1,-2.6301584E-1,-2.1044742E-1,-1.9735865E-1,-2.0860389E-2,-2.8643775E-1,-2.639246E-1,-2.488648E-1,-5.0094035E-3],"categories":[],"categories_nodes":[],"categories_segments":[],"categories_sizes":[],"default_left":[0,0,0,0,0,0,0,1,0,0,0,0,0,0,0,0,0,0,0,1,0,0,0,0,0,1,0,0,1,0,0,1,0,0,0,1,0,0,0,0,0,0,1,0,0,0,0,0,0,0,0,0,0,0,0,0,0,0,0,0,0,0,0,0,0,0,0,0,0,0,0,0,0,0,0,0,0,0,0,0,0,0,0,0,0,0,0,0,0,0,0,0,0,0,0,0,0,0,0,0,0,0,0,0,0,0,0,0,0,0,0,0,0,0,0,0,0,0,0,0,0,0,0,0,0,0,0],"id":6,"left_children":[1,3,5,7,9,11,13,15,17,19,21,23,25,27,29,31,33,35,37,39,41,43,45,47,49,51,53,55,57,59,61,63,65,67,69,71,73,75,77,79,81,83,85,87,89,91,93,95,97,99,101,103,105,107,109,111,113,115,117,119,121,123,125,-1,-1,-1,-1,-1,-1,-1,-1,-1,-1,-1,-1,-1,-1,-1,-1,-1,-1,-1,-1,-1,-1,-1,-1,-1,-1,-1,-1,-1,-1,-1,-1,-1,-1,-1,-1,-1,-1,-1,-1,-1,-1,-1,-1,-1,-1,-1,-1,-1,-1,-1,-1,-1,-1,-1,-1,-1,-1,-1,-1,-1,-1,-1,-1],"loss_changes":[6.104871E3,8.2958203E2,2.1005513E3,7.065234E1,4.7462598E2,4.8945386E2,1.7532959E2,1.27109375E1,4.3700195E1,6.9768555E1,1.0185742E2,2.0345508E2,3.2244388E2,6.676636E1,2.8143066E1,2.9781738E1,4.015625E0,5.7783203E0,2.2685547E1,1.2446289E1,1.9710266E1,2.6677002E1,5.150952E1,9.271838E1,6.1669678E1,1.4205353E2,1.4509637E2,2.8492065E1,3.7793518E1,2.4539795E1,7.1188965E0,3.4765625E0,3.852704E1,9.082031E-1,4.3481445E0,5.524414E0,1.182373E0,8.799805E0,5.621338E0,2.190918E0,1.0296875E1,1.8221619E1,3.4597168E1,3.009253E1,5.554077E0,3.037268E1,3.4793365E1,5.0024536E1,6.5327576E1,6.7557495E1,6.554641E1,1.0790961E2,2.1517638E2,2.3158209E2,7.9679245E1,1.3916748E1,2.743901E1,2.3154724E1,2.487112E1,4.625244E0,1.8342743E1,3.9350586E0,8.697229E0,0E0,0E0,0E0,0E0,0E0,0E0,0E0,0E0,0E0,0E0,0E0,0E0,0E0,0E0,0E0,0E0,0E0,0E0,0E0,0E0,0E0,0E0,0E0,0E0,0E0,0E0,0E0,0E0,0E0,0E0,0E0,0E0,0E0,0E0,0E0,0E0,0E0,0E0,0E0,0E0,0E0,0E0,0E0,0E0,0E0,0E0,0E0,0E0,0E0,0E0,0E0,0E0,0E0,0E0,0E0,0E0,0E0,0E0,0E0,0E0,0E0,0E0,0E0,0E0],"parents":[2147483647,0,0,1,1,2,2,3,3,4,4,5,5,6,6,7,7,8,8,9,9,10,10,11,11,12,12,13,13,14,14,15,15,16,16,17,17,18,18,19,19,20,20,21,21,22,22,23,23,24,24,25,25,26,26,27,27,28,28,29,29,30,30,31,31,32,32,33,33,34,34,35,35,36,36,37,37,38,38,39,39,40,40,41,41,42,42,43,43,44,44,45,45,46,46,47,47,48,48,49,49,50,50,51,51,52,52,53,53,54,54,55,55,56,56,57,57,58,58,59,59,60,60,61,61,62,62],"right_children":[2,4,6,8,10,12,14,16,18,20,22,24,26,28,30,32,34,36,38,40,42,44,46,48,50,52,54,56,58,60,62,64,66,68,70,72,74,76,78,80,82,84,86,88,90,92,94,96,98,100,102,104,106,108,110,112,114,116,118,120,122,124,126,-1,-1,-1,-1,-1,-1,-1,-1,-1,-1,-1,-1,-1,-1,-1,-1,-1,-1,-1,-1,-1,-1,-1,-1,-1,-1,-1,-1,-1,-1,-1,-1,-1,-1,-1,-1,-1,-1,-1,-1,-1,-1,-1,-1,-1,-1,-1,-1,-1,-1,-1,-1,-1,-1,-1,-1,-1,-1,-1,-1,-1,-1,-1,-1],"split_conditions":[3.1893642E0,2.963E2,1.58E1,2.898E2,9.49509E-2,2.2695012E0,1.74E1,1.22E1,2.8572974E-1,6.897502E-1,2.856E2,1E1,1.06E1,4.3227623E1,1.95E1,9.49509E-2,6.032913E-1,1.43E1,1.55E1,3.6666483E-1,3.046E2,1.35E1,3.472E2,3.354E2,2.1598E1,3.3479104E0,2.0900002E0,1.7091558E0,1.3312532E0,1.657E2,3.2280002E2,1.4611084E0,3.6630002E2,1.7444031E0,1.9E1,6.877785E-1,1.8727787E0,1E0,1.95E1,3.053E2,1.4084E1,1E0,3.67389E0,2.2255695E-1,4E1,9.088E-1,8.5610616E-1,3.77314E-1,1E0,1.8073254E1,2.2066E1,3.435193E0,2.5104415E0,-2.71E0,1E0,6.8700005E1,4E1,1.65E1,1.86E1,2.921E2,1E0,6.247159E1,5.7474937E1,-2.9631713E-1,-2.544576E-1,-2.5184572E-1,-2.526016E-2,-3.0313087E-1,-2.8418958E-1,-2.8408203E-1,-3.0002502E-1,-2.8714E-1,-2.6621428E-1,-2.9557106E-1,-2.621782E-1,-2.3550372E-1,1.0617802E-1,-2.6028267E-1,-2.8934857E-1,-2.8860292E-1,-2.7083924E-1,-2.5176606E-1,-2.7245456E-1,-2.4953173E-1,-1.5569359E-1,-1.8057245E-1,2.1185197E-1,-2.2209527E-1,-1.7528844E-1,-2.4876057E-1,-1.6484015E-1,-2.1736257E-1,-1.6307677E-1,-8.661401E-2,-1.6307022E-1,-1.7423768E-1,-1.02624916E-1,-7.971252E-2,1.2043805E-2,-1.917617E-1,-1.2704375E-1,4.2389855E-1,-1.5046439E-1,-6.703998E-2,1.5055794E-2,8.0798763E-1,-2.4044864E-1,-2.0165153E-2,-1.3556424E-1,-2.2868598E-2,9.291124E-1,-1.9148211E-1,-2.445377E-1,-1.8882771E-1,-1.5629604E-2,-1.18376106E-1,-1.9168411E-1,-2.2255769E-2,-1.5621722E-1,-2.6301584E-1,-2.1044742E-1,-1.9735865E-1,-2.0860389E-2,-2.8643775E-1,-2.639246E-1,-2.488648E-1,-5.0094035E-3],"split_indices":[12,3,0,3,16,16,1,0,16,12,5,1,0,12,0,16,16,0,0,13,3,0,9,9,14,13,2,13,13,9,9,13,9,12,0,13,12,41,0,3,14,30,13,12,15,14,13,16,24,12,14,16,16,2,38,4,15,0,0,3,29,12,12,0,0,0,0,0,0,0,0,0,0,0,0,0,0,0,0,0,0,0,0,0,0,0,0,0,0,0,0,0,0,0,0,0,0,0,0,0,0,0,0,0,0,0,0,0,0,0,0,0,0,0,0,0,0,0,0,0,0,0,0,0,0,0,0],"split_type":[0,0,0,0,0,0,0,0,0,0,0,0,0,0,0,0,0,0,0,0,0,0,0,0,0,0,0,0,0,0,0,0,0,0,0,0,0,0,0,0,0,0,0,0,0,0,0,0,0,0,0,0,0,0,0,0,0,0,0,0,0,0,0,0,0,0,0,0,0,0,0,0,0,0,0,0,0,0,0,0,0,0,0,0,0,0,0,0,0,0,0,0,0,0,0,0,0,0,0,0,0,0,0,0,0,0,0,0,0,0,0,0,0,0,0,0,0,0,0,0,0,0,0,0,0,0,0],"sum_hessian":[1.1873723E5,7.3856875E4,4.488036E4,4.444472E4,2.9412152E4,3.26945E4,1.2185859E4,2.9017068E4,1.542765E4,1.5218676E4,1.4193477E4,1.4816408E4,1.7878092E4,6.1947993E3,5.99106E3,5.09223E3,2.3924838E4,9.153751E3,6.2738994E3,1.3181979E4,2.0366974E3,6.625897E3,7.56758E3,8.591319E3,6.225089E3,7.6318853E3,1.0246206E4,3.5853665E3,2.6094329E3,1.8263364E3,4.1647236E3,4.0940232E3,9.982068E2,1.6248417E4,7.676421E3,5.2876675E3,3.8660835E3,3.378987E3,2.894912E3,3.8534336E3,9.328545E3,1.2354338E3,8.012635E2,5.023662E3,1.6022346E3,5.3879414E3,2.179639E3,4.898715E3,3.6926042E3,6.154915E3,7.017379E1,7.558734E3,7.315149E1,7.789517E3,2.4566887E3,2.7918948E3,7.9347174E2,2.1046614E3,5.0477136E2,1.3134902E3,5.1284625E2,4.105533E3,5.9190693E1,3.8528516E3,2.4117159E2,9.2510175E2,7.310504E1,1.5750997E4,4.9741934E2,3.272213E3,4.404208E3,2.8831633E3,2.4045042E3,3.6855977E3,1.8048595E2,3.3727153E3,6.2715397E0,1.7795969E3,1.1153153E3,2.5031172E3,1.3503164E3,4.930869E3,4.3976763E3,9.98265E2,2.3716884E2,7.8130865E2,1.995483E1,2.6129666E3,2.4106958E3,1.5193904E3,8.28442E1,1.2083566E3,4.179585E3,1.2154739E3,9.641649E2,1.1500166E3,3.748698E3,2.757913E3,9.3469116E2,3.7832778E3,2.3716375E3,3.2119278E1,3.8054512E1,1.9364913E3,5.6222427E3,4.53232E1,2.782829E1,2.1696028E3,5.619914E3,2.44975E3,6.938885E0,5.8711206E2,2.2047827E3,6.999783E2,9.349347E1,5.224328E2,1.5822286E3,2.807512E2,2.2402019E2,1.1079159E3,2.0557428E2,4.525557E2,6.0290543E1,2.8971956E3,1.2083375E3,3.9665882E1,1.9524813E1],"tree_param":{"num_deleted":"0","num_feature":"42","num_nodes":"127","size_leaf_vector":"1"}},{"base_weights":[-6.211414E-1,-8.276402E-1,-3.3208743E-1,-9.352549E-1,-6.744212E-1,-6.299587E-1,-1.8534386E-1,-9.728924E-1,-8.659358E-1,-8.166835E-1,-5.302344E-1,-4.9105948E-1,-8.152974E-1,-3.0305567E-1,-8.4361136E-2,-9.2455107E-1,-9.899502E-1,-9.2071843E-1,-7.875289E-1,-8.4867495E-1,-6.152246E-1,-4.8973563E-1,-7.417359E-1,-6.348683E-1,-3.8941538E-1,-8.782739E-1,-6.957969E-1,-2.1818765E-1,-4.495589E-1,-9.083406E-3,-2.6746815E-1,-9.6663344E-1,-7.844235E-1,-1.0019467E0,-9.651612E-1,-8.474872E-1,-9.377466E-1,-7.185485E-1,-8.710142E-1,-9.1056156E-1,-8.230834E-1,-6.8786347E-1,-4.3704984E-1,-5.968565E-1,-4.1710666E-1,7.735512E-1,-7.449514E-1,-5.460113E-1,-7.234291E-1,-4.432018E-1,-3.417432E-2,-7.7418375E-1,-9.241922E-1,-7.937768E-1,-5.493822E-1,-3.4977752E-1,-1.07951954E-1,-5.073998E-1,-1.21056676E-1,-3.9077386E-2,3.2743192E-1,-3.4472182E-1,-7.57077E-2,-2.9292476E-1,-2.510216E-1,-2.4795271E-1,-2.133736E-2,-3.0131847E-1,-2.7493036E-1,-2.9020593E-1,-1.7230399E-1,-2.7167305E-1,-2.2037913E-1,-2.8409922E-1,-2.4718061E-1,-2.2045378E-1,-1.4770237E-1,-2.665988E-1,-2.0660855E-1,-2.8262204E-1,-2.610644E-1,-2.3490037E-1,-2.6055476E-1,-2.2554725E-1,-1.3135496E-1,-2.0721939E-1,-8.553287E-2,-2.0328303E-1,-1.5644695E-1,-2.0921075E-1,-1.14285E-1,-1.8796192E-1,5.276621E-1,-2.0269196E-1,-2.4471004E-1,-1.6928843E-1,2.4239624E-2,-2.3009863E-1,-1.1983814E-1,-1.1852021E-1,-2.2824724E-1,-2.7778506E-2,2.23345E-1,-2.462088E-1,-1.9741744E-1,-2.8495532E-1,-2.5855786E-1,-2.4608265E-1,-1.2218989E-1,-2.0181489E-1,-7.2933085E-2,-1.7715748E-1,-8.824818E-2,-1.0959431E-1,-1.5682168E-2,-1.6519597E-1,-6.366643E-2,3.567356E-2,-1.4231312E-1,3.4814984E-2,-3.3500124E-2,3.9399862E-2,5.6141186E-1,2.39681E-2,-1.23454586E-1,9.793658E-2,-4.4565566E-2],"categories":[],"categories_nodes":[],"categories_segments":[],"categories_sizes":[],"default_left":[0,0,0,0,0,0,0,1,0,0,0,0,0,0,0,0,0,0,0,1,0,0,0,0,1,0,0,0,0,0,0,1,0,0,0,1,0,1,0,0,0,0,0,0,0,0,0,0,1,0,0,0,0,0,0,0,0,0,0,0,0,0,0,0,0,0,0,0,0,0,0,0,0,0,0,0,0,0,0,0,0,0,0,0,0,0,0,0,0,0,0,0,0,0,0,0,0,0,0,0,0,0,0,0,0,0,0,0,0,0,0,0,0,0,0,0,0,0,0,0,0,0,0,0,0,0,0],"id":7,"left_children":[1,3,5,7,9,11,13,15,17,19,21,23,25,27,29,31,33,35,37,39,41,43,45,47,49,51,53,55,57,59,61,63,65,67,69,71,73,75,77,79,81,83,85,87,89,91,93,95,97,99,101,103,105,107,109,111,113,115,117,119,121,123,125,-1,-1,-1,-1,-1,-1,-1,-1,-1,-1,-1,-1,-1,-1,-1,-1,-1,-1,-1,-1,-1,-1,-1,-1,-1,-1,-1,-1,-1,-1,-1,-1,-1,-1,-1,-1,-1,-1,-1,-1,-1,-1,-1,-1,-1,-1,-1,-1,-1,-1,-1,-1,-1,-1,-1,-1,-1,-1,-1,-1,-1,-1,-1,-1],"loss_changes":[5.830758E3,9.3891406E2,1.7793179E3,8.648047E1,4.8187305E2,3.4547705E2,3.2418622E2,1.6964844E1,4.9902344E1,7.5745605E1,9.9684814E1,1.1204993E2,4.269287E1,1.5648657E2,2.023723E2,3.268164E1,3.7958984E0,7.851074E0,2.7333252E1,1.5419434E1,2.0734497E1,7.60437E1,9.713135E0,2.4627563E1,8.603729E1,1.72771E1,2.812146E1,1.1566553E2,8.769446E1,1.05040794E2,6.3340332E1,4.7194824E0,3.941693E1,1.3320312E0,3.9414062E0,7.9799805E0,5.131836E0,9.459839E0,6.4405518E0,2.9658203E0,1.2491699E1,1.8105896E1,1.8051811E1,2.3747192E1,5.898645E1,7.256852E0,8.627319E0,1.828247E1,2.2127625E1,5.949878E1,2.7058435E1,5.717163E0,3.35083E0,1.1856384E1,3.0105469E1,4.85047E1,6.219593E1,5.0017944E1,5.8793472E1,1.0760738E2,2.5760928E2,8.650067E1,3.6071064E1,0E0,0E0,0E0,0E0,0E0,0E0,0E0,0E0,0E0,0E0,0E0,0E0,0E0,0E0,0E0,0E0,0E0,0E0,0E0,0E0,0E0,0E0,0E0,0E0,0E0,0E0,0E0,0E0,0E0,0E0,0E0,0E0,0E0,0E0,0E0,0E0,0E0,0E0,0E0,0E0,0E0,0E0,0E0,0E0,0E0,0E0,0E0,0E0,0E0,0E0,0E0,0E0,0E0,0E0,0E0,0E0,0E0,0E0,0E0,0E0,0E0,0E0,0E0,0E0],"parents":[2147483647,0,0,1,1,2,2,3,3,4,4,5,5,6,6,7,7,8,8,9,9,10,10,11,11,12,12,13,13,14,14,15,15,16,16,17,17,18,18,19,19,20,20,21,21,22,22,23,23,24,24,25,25,26,26,27,27,28,28,29,29,30,30,31,31,32,32,33,33,34,34,35,35,36,36,37,37,38,38,39,39,40,40,41,41,42,42,43,43,44,44,45,45,46,46,47,47,48,48,49,49,50,50,51,51,52,52,53,53,54,54,55,55,56,56,57,57,58,58,59,59,60,60,61,61,62,62],"right_children":[2,4,6,8,10,12,14,16,18,20,22,24,26,28,30,32,34,36,38,40,42,44,46,48,50,52,54,56,58,60,62,64,66,68,70,72,74,76,78,80,82,84,86,88,90,92,94,96,98,100,102,104,106,108,110,112,114,116,118,120,122,124,126,-1,-1,-1,-1,-1,-1,-1,-1,-1,-1,-1,-1,-1,-1,-1,-1,-1,-1,-1,-1,-1,-1,-1,-1,-1,-1,-1,-1,-1,-1,-1,-1,-1,-1,-1,-1,-1,-1,-1,-1,-1,-1,-1,-1,-1,-1,-1,-1,-1,-1,-1,-1,-1,-1,-1,-1,-1,-1,-1,-1,-1,-1,-1,-1],"split_conditions":[2.9894214E0,2.963E2,2.95E2,2.898E2,1.7029005E-1,1.79E1,3.3638832E1,1.41E1,2.8572974E-1,6.897502E-1,1.33E1,2.31584E1,1.576E2,1E0,1.28E1,9.49509E-2,6.032913E-1,8.7E0,1.55E1,3.716688E-1,3.063E2,9.213336E-2,1.5974609E-3,1.35E1,1.1950091E0,4.6E1,4.0879257E1,3.026E2,3.5484576E0,1E0,2.4400005E0,1.4435529E0,3.637E2,1.7444031E0,3.381E2,8.241766E-1,1.0396316E0,2.2524772E0,3.8E1,2.861E2,1.4084E1,1E0,-2.3900003E0,2.86E2,4.896E-1,2.988E2,1.53E1,8E0,1.8111192E0,1.8000001E0,4E1,6.247159E1,3.435193E0,7.3E0,1E0,2.8572974E-1,3.253887E-1,3.795E0,1.6337643E1,-2.8400002E0,3.6E1,-2.96E0,2.7778253E-1,-2.9292476E-1,-2.510216E-1,-2.4795271E-1,-2.133736E-2,-3.0131847E-1,-2.7493036E-1,-2.9020593E-1,-1.7230399E-1,-2.7167305E-1,-2.2037913E-1,-2.8409922E-1,-2.4718061E-1,-2.2045378E-1,-1.4770237E-1,-2.665988E-1,-2.0660855E-1,-2.8262204E-1,-2.610644E-1,-2.3490037E-1,-2.6055476E-1,-2.2554725E-1,-1.3135496E-1,-2.0721939E-1,-8.553287E-2,-2.0328303E-1,-1.5644695E-1,-2.0921075E-1,-1.14285E-1,-1.8796192E-1,5.276621E-1,-2.0269196E-1,-2.4471004E-1,-1.6928843E-1,2.4239624E-2,-2.3009863E-1,-1.1983814E-1,-1.1852021E-1,-2.2824724E-1,-2.7778506E-2,2.23345E-1,-2.462088E-1,-1.9741744E-1,-2.8495532E-1,-2.5855786E-1,-2.4608265E-1,-1.2218989E-1,-2.0181489E-1,-7.2933085E-2,-1.7715748E-1,-8.824818E-2,-1.0959431E-1,-1.5682168E-2,-1.6519597E-1,-6.366643E-2,3.567356E-2,-1.4231312E-1,3.4814984E-2,-3.3500124E-2,3.9399862E-2,5.6141186E-1,2.39681E-2,-1.23454586E-1,9.793658E-2,-4.4565566E-2],"split_indices":[12,3,3,3,16,0,12,0,16,12,0,12,9,25,0,16,16,0,0,13,3,12,13,1,13,6,12,3,16,33,2,13,9,12,9,13,12,13,15,5,14,30,2,5,14,3,0,10,13,7,15,12,16,10,24,16,16,14,12,2,15,2,13,0,0,0,0,0,0,0,0,0,0,0,0,0,0,0,0,0,0,0,0,0,0,0,0,0,0,0,0,0,0,0,0,0,0,0,0,0,0,0,0,0,0,0,0,0,0,0,0,0,0,0,0,0,0,0,0,0,0,0,0,0,0,0,0],"split_type":[0,0,0,0,0,0,0,0,0,0,0,0,0,0,0,0,0,0,0,0,0,0,0,0,0,0,0,0,0,0,0,0,0,0,0,0,0,0,0,0,0,0,0,0,0,0,0,0,0,0,0,0,0,0,0,0,0,0,0,0,0,0,0,0,0,0,0,0,0,0,0,0,0,0,0,0,0,0,0,0,0,0,0,0,0,0,0,0,0,0,0,0,0,0,0,0,0,0,0,0,0,0,0,0,0,0,0,0,0,0,0,0,0,0,0,0,0,0,0,0,0,0,0,0,0,0,0],"sum_hessian":[9.768875E4,5.698037E4,4.0708375E4,3.346842E4,2.351195E4,1.3434569E4,2.7273807E4,2.1682592E4,1.1785829E4,1.183261E4,1.1679339E4,7.681465E3,5.753105E3,1.2592821E4,1.4680986E4,5.669771E3,1.6012821E4,6.9318403E3,4.8539893E3,1.0208322E4,1.6242875E3,9.8051455E3,1.8741937E3,3.1787852E3,4.502679E3,3.7634348E3,1.9896702E3,7.975293E3,4.617528E3,1.0404576E4,4.27641E3,4.3557705E3,1.3140006E3,1.0764137E4,5.248684E3,1.3173263E3,5.6145137E3,2.6631501E3,2.1908394E3,2.9763105E3,7.232012E3,1.1518407E3,4.724468E2,3.9589111E3,5.8462344E3,3.4615188E0,1.8707323E3,1.5903151E3,1.5884702E3,3.9103696E3,5.923098E2,1.1574713E3,2.6059636E3,1.1893455E3,8.003247E2,3.6345305E3,4.3407627E3,3.9257578E3,6.9177026E2,9.553909E3,8.5066656E2,3.0477708E3,1.2286393E3,4.0446492E3,3.111211E2,1.2406425E3,7.335813E1,1.0454096E4,3.1004138E2,5.217945E3,3.0739466E1,8.651345E2,4.5219177E2,5.18569E3,4.2882394E2,2.4820767E3,1.8107347E2,1.9939512E3,1.9688808E2,1.6585758E3,1.3177346E3,3.8519297E3,3.3800823E3,9.1559735E2,2.362433E2,1.756437E2,2.968031E2,1.9072975E3,2.0516135E3,6.659495E2,5.1802847E3,1.5802269E0,1.8812919E0,9.5029205E2,9.204402E2,1.5453387E3,4.4976322E1,1.398973E3,1.8949713E2,3.3977039E3,5.1266565E2,5.517914E2,4.0518417E1,8.221179E2,3.353534E2,1.835962E3,7.700015E2,1.1119805E3,7.736498E1,5.697094E2,2.3061531E2,6.802658E2,2.954265E3,7.710685E2,3.569694E3,3.4232695E3,5.024881E2,4.123639E2,2.7940634E2,3.0453228E3,6.5085864E3,7.557609E2,9.490566E1,4.142335E2,2.6335374E3,1.8788269E2,1.0407566E3],"tree_param":{"num_deleted":"0","num_feature":"42","num_nodes":"127","size_leaf_vector":"1"}},{"base_weights":[-5.421852E-1,-7.725648E-1,-2.639988E-1,-9.078034E-1,-5.9897876E-1,-1.6868655E-1,-6.634068E-1,-9.549629E-1,-8.2114834E-1,-7.6057357E-1,-4.4793373E-1,-3.0669188E-1,-9.155148E-2,-5.523387E-1,-8.3859855E-1,-8.9250183E-1,-9.774507E-1,-8.8853645E-1,-7.284313E-1,-7.9835546E-1,-5.377444E-1,-5.7895344E-1,-3.7762758E-1,-2.0494768E-1,-4.4134486E-1,-1.7455727E-1,9.211927E-3,-7.142679E-1,-4.7540274E-1,-7.633649E-1,-9.0634674E-1,-9.467977E-1,-7.214938E-1,-9.934768E-1,-9.4470495E-1,-7.958248E-1,-9.102809E-1,-6.4703125E-1,-8.293399E-1,-8.7683576E-1,-7.6730955E-1,-5.868708E-1,-2.3565409E-1,-5.815477E-1,8.755801E-1,-4.121179E-1,-1.1824645E-1,-3.9346597E-1,-1.1028992E-1,-4.624951E-1,8.8206716E-2,-9.791705E-2,-3.2577047E-1,7.6931976E-2,-1.897781E-1,-7.506441E-1,-2.2454025E-1,-5.213286E-1,-1.0921093E-1,-7.895597E-1,-4.1787788E-1,-9.1223E-1,-5.34615E-1,-2.9143932E-1,-2.5826088E-1,-2.3125882E-1,-1.5361621E-2,-2.9902586E-1,-2.64643E-1,-2.686032E-1,-2.9273728E-1,-2.6044717E-1,-1.9847575E-1,-2.7677733E-1,-2.2921927E-1,-2.0852463E-1,-1.603879E-1,-2.321718E-1,-2.754816E-1,-2.731641E-1,-2.4415906E-1,-2.1596447E-1,-2.4677224E-1,-2.1079725E-1,-1.2961577E-1,3.4016335E-1,-1.6700429E-1,-1.804938E-1,-7.552854E-2,-1.9867148E-1,-1.14553355E-1,-9.764168E-2,3.7612006E-2,-1.2693068E-1,-9.46171E-3,-5.221379E-2,7.775496E-2,-1.7099503E-1,-1.1091101E-1,-8.570008E-2,3.402757E-1,-3.85001E-2,8.7162346E-2,-1.21724784E-1,-2.2873685E-2,1.39902E-2,1.765809E-1,-9.787201E-2,5.7698954E-2,-8.394961E-2,-2.2952928E-1,-1.5682751E-1,5.085234E-1,-9.401653E-2,-1.7348498E-1,6.989479E-2,-7.716468E-2,-2.5747642E-1,-2.0146552E-1,-2.6043788E-2,-2.5962624E-1,-2.7440897E-1,-4.2803682E-2,-2.0221391E-1,3.0319276E-1],"categories":[],"categories_nodes":[],"categories_segments":[],"categories_sizes":[],"default_left":[0,0,0,0,0,0,0,1,0,0,0,0,0,0,0,0,0,0,0,1,1,0,0,0,1,0,0,0,0,0,0,1,0,0,0,1,0,0,0,0,0,0,0,0,0,0,0,0,0,0,0,0,0,0,0,0,0,0,0,0,0,0,0,0,0,0,0,0,0,0,0,0,0,0,0,0,0,0,0,0,0,0,0,0,0,0,0,0,0,0,0,0,0,0,0,0,0,0,0,0,0,0,0,0,0,0,0,0,0,0,0,0,0,0,0,0,0,0,0,0,0,0,0,0,0],"id":8,"left_children":[1,3,5,7,9,11,13,15,17,19,21,23,25,27,29,31,33,35,37,39,41,43,45,47,49,51,53,55,57,59,61,63,65,67,69,71,73,75,77,79,81,83,85,87,-1,89,91,93,95,97,99,101,103,105,107,109,111,113,115,117,119,121,123,-1,-1,-1,-1,-1,-1,-1,-1,-1,-1,-1,-1,-1,-1,-1,-1,-1,-1,-1,-1,-1,-1,-1,-1,-1,-1,-1,-1,-1,-1,-1,-1,-1,-1,-1,-1,-1,-1,-1,-1,-1,-1,-1,-1,-1,-1,-1,-1,-1,-1,-1,-1,-1,-1,-1,-1,-1,-1,-1,-1,-1,-1],"loss_changes":[5.2573457E3,1.052877E3,1.4146504E3,1.022832E2,4.7936475E2,3.1937732E2,1.3884912E2,2.2060547E1,5.493213E1,7.949756E1,9.3377686E1,1.4728754E2,1.6099637E2,5.4284668E1,1.3457031E1,3.9552734E1,5.3554688E0,9.651123E0,3.026294E1,1.9100098E1,2.0333008E1,3.3875366E1,5.9133118E1,1.09332855E2,5.1886963E1,1.2228296E2,1.1718884E2,2.4954102E1,4.998169E1,1.1630981E1,2.6951904E0,6.128174E0,3.4657043E1,2.0507812E0,5.20459E0,8.997131E0,6.786621E0,1.0862854E1,7.5255127E0,4.1274414E0,1.467041E1,2.095285E1,8.619544E1,2.3343018E1,0E0,4.3956665E1,3.9308334E1,2.1958954E1,9.619797E1,4.418811E1,7.018166E1,8.281448E1,7.080771E1,1.00556244E2,1.15199974E2,8.715942E0,5.752274E1,3.1126404E1,1.6916767E1,9.373535E0,1.4040613E1,2.5859375E0,6.086939E0,0E0,0E0,0E0,0E0,0E0,0E0,0E0,0E0,0E0,0E0,0E0,0E0,0E0,0E0,0E0,0E0,0E0,0E0,0E0,0E0,0E0,0E0,0E0,0E0,0E0,0E0,0E0,0E0,0E0,0E0,0E0,0E0,0E0,0E0,0E0,0E0,0E0,0E0,0E0,0E0,0E0,0E0,0E0,0E0,0E0,0E0,0E0,0E0,0E0,0E0,0E0,0E0,0E0,0E0,0E0,0E0,0E0,0E0,0E0,0E0,0E0,0E0],"parents":[2147483647,0,0,1,1,2,2,3,3,4,4,5,5,6,6,7,7,8,8,9,9,10,10,11,11,12,12,13,13,14,14,15,15,16,16,17,17,18,18,19,19,20,20,21,21,22,22,23,23,24,24,25,25,26,26,27,27,28,28,29,29,30,30,31,31,32,32,33,33,34,34,35,35,36,36,37,37,38,38,39,39,40,40,41,41,42,42,43,43,45,45,46,46,47,47,48,48,49,49,50,50,51,51,52,52,53,53,54,54,55,55,56,56,57,57,58,58,59,59,60,60,61,61,62,62],"right_children":[2,4,6,8,10,12,14,16,18,20,22,24,26,28,30,32,34,36,38,40,42,44,46,48,50,52,54,56,58,60,62,64,66,68,70,72,74,76,78,80,82,84,86,88,-1,90,92,94,96,98,100,102,104,106,108,110,112,114,116,118,120,122,124,-1,-1,-1,-1,-1,-1,-1,-1,-1,-1,-1,-1,-1,-1,-1,-1,-1,-1,-1,-1,-1,-1,-1,-1,-1,-1,-1,-1,-1,-1,-1,-1,-1,-1,-1,-1,-1,-1,-1,-1,-1,-1,-1,-1,-1,-1,-1,-1,-1,-1,-1,-1,-1,-1,-1,-1,-1,-1,-1,-1,-1,-1],"split_conditions":[2.9894214E0,2.961E2,1.65E1,2.898E2,1.7029005E-1,2.7E2,1.86E1,1.41E1,2.8572974E-1,6.897502E-1,2.843E2,2.65E1,3.435193E0,1.1118091E1,2.21E1,9.49509E-2,6.032913E-1,8.7E0,1.55E1,3.6666483E-1,2.5300243E0,6.8E1,3.586E2,1.7124203E1,2.3387678E0,1E0,3.37E1,4E1,5.6E0,1E0,3.67389E0,6.9376636E-1,3.637E2,1.7444031E0,1.91E1,8.1666315E-1,1.0396316E0,5.2243763E-1,1.95E1,3.053E2,1.4084E1,3.046E2,1.28556E1,3.6180002E2,8.755801E-1,5.016E-1,3.5E0,4.2878976E0,4.2000003E0,4.0879257E1,4E1,3.627E2,1E0,1E0,2.7199993E0,2.17E1,7.51E-3,1.3E1,-1.4500008E0,5.255728E1,2.06E1,4.886E3,9.400001E0,-2.9143932E-1,-2.5826088E-1,-2.3125882E-1,-1.5361621E-2,-2.9902586E-1,-2.64643E-1,-2.686032E-1,-2.9273728E-1,-2.6044717E-1,-1.9847575E-1,-2.7677733E-1,-2.2921927E-1,-2.0852463E-1,-1.603879E-1,-2.321718E-1,-2.754816E-1,-2.731641E-1,-2.4415906E-1,-2.1596447E-1,-2.4677224E-1,-2.1079725E-1,-1.2961577E-1,3.4016335E-1,-1.6700429E-1,-1.804938E-1,-7.552854E-2,-1.9867148E-1,-1.14553355E-1,-9.764168E-2,3.7612006E-2,-1.2693068E-1,-9.46171E-3,-5.221379E-2,7.775496E-2,-1.7099503E-1,-1.1091101E-1,-8.570008E-2,3.402757E-1,-3.85001E-2,8.7162346E-2,-1.21724784E-1,-2.2873685E-2,1.39902E-2,1.765809E-1,-9.787201E-2,5.7698954E-2,-8.394961E-2,-2.2952928E-1,-1.5682751E-1,5.085234E-1,-9.401653E-2,-1.7348498E-1,6.989479E-2,-7.716468E-2,-2.5747642E-1,-2.0146552E-1,-2.6043788E-2,-2.5962624E-1,-2.7440897E-1,-4.2803682E-2,-2.0221391E-1,3.0319276E-1],"split_indices":[12,3,0,3,16,9,1,0,16,12,5,6,16,12,0,16,16,0,0,13,13,15,9,12,13,25,6,15,10,29,13,13,9,12,0,13,12,12,0,3,14,3,14,9,0,14,10,16,10,12,15,9,24,28,2,6,8,1,2,12,1,12,10,0,0,0,0,0,0,0,0,0,0,0,0,0,0,0,0,0,0,0,0,0,0,0,0,0,0,0,0,0,0,0,0,0,0,0,0,0,0,0,0,0,0,0,0,0,0,0,0,0,0,0,0,0,0,0,0,0,0,0,0,0,0],"split_type":[0,0,0,0,0,0,0,0,0,0,0,0,0,0,0,0,0,0,0,0,0,0,0,0,0,0,0,0,0,0,0,0,0,0,0,0,0,0,0,0,0,0,0,0,0,0,0,0,0,0,0,0,0,0,0,0,0,0,0,0,0,0,0,0,0,0,0,0,0,0,0,0,0,0,0,0,0,0,0,0,0,0,0,0,0,0,0,0,0,0,0,0,0,0,0,0,0,0,0,0,0,0,0,0,0,0,0,0,0,0,0,0,0,0,0,0,0,0,0,0,0,0,0,0,0],"sum_hessian":[8.2034805E4,4.4872188E4,3.716262E4,2.5219658E4,1.965253E4,3.0004059E4,7.158562E3,1.6325156E4,8.894502E3,9.492734E3,1.0159795E4,1.0756397E4,1.9247662E4,4.3836E3,2.7749622E3,4.3323955E3,1.199276E4,5.1458433E3,3.7486592E3,8.114323E3,1.3784113E3,3.5454336E3,6.614361E3,6.1283325E3,4.628065E3,1.0553381E4,8.69428E3,1.4092434E3,2.9743564E3,1.3206566E3,1.4543054E3,3.28489E3,1.0475057E3,8.03233E3,3.9604302E3,9.8475385E2,4.1610894E3,2.0790017E3,1.6696575E3,2.2923354E3,5.8219873E3,1.1847952E3,1.936161E2,3.543639E3,1.7946543E0,5.8375444E3,7.768166E2,2.0474735E3,4.0808591E3,4.4504414E3,1.7762344E2,7.004765E3,3.5486157E3,6.4871836E3,2.207097E3,1.3113087E3,9.793467E1,2.6425215E3,3.3183496E2,1.2263868E3,9.4269844E1,1.4302158E3,2.4089518E1,2.5442354E3,7.4065466E2,9.7550653E2,7.199929E1,7.795005E3,2.3732518E2,1.5418885E3,2.4185417E3,6.363826E2,3.4837122E2,3.833068E3,3.2802124E2,1.4527831E3,6.2621857E2,1.0345159E3,6.351415E2,1.4842866E3,8.080489E2,3.1406829E3,2.6813047E3,6.758195E2,5.0897565E2,3.6285706E1,1.5733038E2,3.339305E3,2.0433398E2,6.2801117E2,5.209533E3,4.1958057E2,3.5723602E2,1.8923499E3,1.5512358E2,3.4807517E3,6.001073E2,2.0595505E3,2.3908906E3,1.3138959E2,4.623386E1,6.496735E3,5.0803033E2,2.6868035E3,8.6181213E2,6.125557E3,3.6162622E2,1.626406E3,5.8069104E2,3.966342E1,1.2716454E3,8.539586E1,1.2538812E1,5.695625E2,2.072959E3,1.0001698E2,2.31818E2,7.711886E2,4.5519818E2,5.487247E1,3.9397373E1,1.4254586E3,4.757322E0,2.2612911E1,1.476606E0],"tree_param":{"num_deleted":"0","num_feature":"42","num_nodes":"125","size_leaf_vector":"1"}},{"base_weights":[-4.6221215E-1,-7.3181856E-1,-2.235973E-1,-8.963969E-1,-5.63323E-1,-1.4297418E-1,-6.352508E-1,-9.5275956E-1,-8.1586856E-1,-7.242765E-1,-4.0802556E-1,-8.446876E-2,-2.9958975E-1,-7.859779E-1,-4.636741E-1,-8.523768E-1,-9.7206753E-1,-8.861402E-1,-7.106245E-1,-7.758929E-1,-6.070646E-1,-3.5581738E-1,-6.5162957E-1,-2.9216135E-1,-4.3891106E-2,-4.8413625E-1,-1.9070159E-1,-7.965979E-1,1.4709099E-1,-4.8657274E-1,4.787743E-1,-9.365314E-1,-5.174106E-1,-9.492436E-1,-2.9929107E-1,-8.299145E-1,-9.4379663E-1,-6.466678E-1,-9.137969E-1,-8.573093E-1,-7.34324E-1,-6.8222064E-1,-4.184012E-1,-4.3023145E-1,-2.218482E-1,-6.776011E-1,-2.8345576E-1,-3.2445687E-1,9.4214875E-1,-5.720073E-2,5.875716E-1,-5.2104115E-1,-2.6087058E-1,-2.166951E-1,2.2024363E-1,-8.45132E-1,-6.7158014E-1,-5.4166937E-1,5.5899864E-1,-7.118262E-1,-3.7895632E-1,2.0916905E0,-2.6402286E-1,-2.8893262E-1,-2.4946451E-1,-3.0100206E-2,-2.1425287E-1,-2.9256064E-1,-2.7263263E-1,-2.6702434E-1,-2.1549943E-1,-2.6956233E-1,-2.889749E-1,-4.1877E-2,-1.983294E-1,-2.7895892E-1,-1.6742918E-1,-2.7263805E-1,-2.431944E-1,-2.0131305E-1,-2.439303E-1,-2.1949403E-1,-1.4716819E-1,-1.423972E-1,-3.8142845E-2,-1.3609698E-1,-1.6793892E-2,-7.116486E-2,2.9874462E-1,-1.894089E-1,-2.4742751E-1,-1.682695E-1,1.733408E-1,-1.1195274E-1,7.8183087E-4,-2.5082487E-1,3.676448E-1,-6.4864345E-2,-5.610914E-3,7.961984E-2,2.6740298E-1,-1.7954713E-1,-1.2224385E-1,-9.130434E-2,5.1446795E-1,-1.2173616E-1,-4.63318E-2,-2.0355858E-1,1.1071702E-1,-2.3820767E-1,-2.7636576E-1,-1.0453435E-1,-2.1546519E-1,1.4553925E-1,-1.960772E-1,3.275754E-1,-1.9356084E-1,-1.840368E-1,-2.5276542E-1,-8.870563E-2,-2.0048715E-1,-1.3251176E-1,1.2194045E0,-1.508982E-1,1.3592015E-1],"categories":[],"categories_nodes":[],"categories_segments":[],"categories_sizes":[],"default_left":[0,0,0,0,0,0,0,1,0,0,0,0,0,0,0,0,0,0,0,1,0,0,0,1,0,0,0,0,0,0,0,1,1,0,0,1,0,0,0,0,0,0,0,0,0,0,1,0,0,0,0,0,0,0,1,0,0,0,0,0,0,1,0,0,0,0,0,0,0,0,0,0,0,0,0,0,0,0,0,0,0,0,0,0,0,0,0,0,0,0,0,0,0,0,0,0,0,0,0,0,0,0,0,0,0,0,0,0,0,0,0,0,0,0,0,0,0,0,0,0,0,0,0,0,0],"id":9,"left_children":[1,3,5,7,9,11,13,15,17,19,21,23,25,27,29,31,33,35,37,39,41,43,45,47,49,51,53,55,57,59,61,63,65,67,-1,69,71,73,75,77,79,81,83,85,87,89,91,93,95,97,99,101,103,105,107,109,111,113,115,117,119,121,123,-1,-1,-1,-1,-1,-1,-1,-1,-1,-1,-1,-1,-1,-1,-1,-1,-1,-1,-1,-1,-1,-1,-1,-1,-1,-1,-1,-1,-1,-1,-1,-1,-1,-1,-1,-1,-1,-1,-1,-1,-1,-1,-1,-1,-1,-1,-1,-1,-1,-1,-1,-1,-1,-1,-1,-1,-1,-1,-1,-1,-1,-1],"loss_changes":[4.532454E3,9.1681836E2,1.2404385E3,7.516797E1,4.08333E2,2.8638403E2,1.5794092E2,1.8238281E1,5.0373047E1,4.8089844E1,1.0561438E2,1.9178465E2,1.707265E2,3.23938E1,6.206427E1,4.4477783E1,3.8637695E0,1.2609131E1,3.535315E1,1.8217773E1,3.4575012E1,6.825165E1,1.3841553E1,1.485722E2,1.6005261E2,2.5849854E1,5.717276E1,1.8974243E1,1.09417515E1,6.754785E1,8.257957E1,2.7524414E0,2.6394608E1,3.7109375E0,0E0,1.3457886E1,9.2370605E-1,1.5327332E1,3.2519531E0,3.770874E0,1.786731E1,1.628125E1,1.1457924E1,3.860608E1,4.6088707E1,8.802612E0,2.3843086E1,5.776764E1,4.893566E1,1.141496E2,3.8235977E1,2.3550781E1,3.912227E1,5.9153152E1,4.2868027E1,8.2751465E0,1.3396332E1,1.9882145E0,1.607958E1,1.1099579E1,4.5466217E1,1.1026327E2,8.413181E0,0E0,0E0,0E0,0E0,0E0,0E0,0E0,0E0,0E0,0E0,0E0,0E0,0E0,0E0,0E0,0E0,0E0,0E0,0E0,0E0,0E0,0E0,0E0,0E0,0E0,0E0,0E0,0E0,0E0,0E0,0E0,0E0,0E0,0E0,0E0,0E0,0E0,0E0,0E0,0E0,0E0,0E0,0E0,0E0,0E0,0E0,0E0,0E0,0E0,0E0,0E0,0E0,0E0,0E0,0E0,0E0,0E0,0E0,0E0,0E0,0E0,0E0],"parents":[2147483647,0,0,1,1,2,2,3,3,4,4,5,5,6,6,7,7,8,8,9,9,10,10,11,11,12,12,13,13,14,14,15,15,16,16,17,17,18,18,19,19,20,20,21,21,22,22,23,23,24,24,25,25,26,26,27,27,28,28,29,29,30,30,31,31,32,32,33,33,35,35,36,36,37,37,38,38,39,39,40,40,41,41,42,42,43,43,44,44,45,45,46,46,47,47,48,48,49,49,50,50,51,51,52,52,53,53,54,54,55,55,56,56,57,57,58,58,59,59,60,60,61,61,62,62],"right_children":[2,4,6,8,10,12,14,16,18,20,22,24,26,28,30,32,34,36,38,40,42,44,46,48,50,52,54,56,58,60,62,64,66,68,-1,70,72,74,76,78,80,82,84,86,88,90,92,94,96,98,100,102,104,106,108,110,112,114,116,118,120,122,124,-1,-1,-1,-1,-1,-1,-1,-1,-1,-1,-1,-1,-1,-1,-1,-1,-1,-1,-1,-1,-1,-1,-1,-1,-1,-1,-1,-1,-1,-1,-1,-1,-1,-1,-1,-1,-1,-1,-1,-1,-1,-1,-1,-1,-1,-1,-1,-1,-1,-1,-1,-1,-1,-1,-1,-1,-1,-1,-1,-1,-1,-1],"split_conditions":[1.6996593E0,2.946E2,1.58E1,2.878E2,9.49509E-2,1.31E1,2.9E2,1.18E1,2.8572974E-1,9.213336E-2,1.33E1,6.4079314E-1,1.8073254E1,3.2180002E2,4E1,9.49509E-2,3E0,1.41E1,1.92E1,4.462488E-1,3.055E2,3.39E2,1.84704E1,3.5503888E0,3.681E2,1E0,1E0,5.7474937E1,1E0,1.213522E1,4.1E1,5.6053287E-1,1.68E-3,1.7029005E-1,-2.9929107E-1,8.1666315E-1,1.66E1,7.2000003E0,3.3630002E2,2.843E2,8E0,1E0,1E0,4.2E1,1E0,1.7300001E1,3.4449973E0,1E0,3.4E1,7.044E-1,3.8E0,2.911E2,6.778472E0,1.7590001E2,6.1638796E-1,2.0800001E1,3.8100002E1,2.4E0,2.21E1,1.85E1,1.9800001E1,1.7587475E0,2.13852E1,-2.8893262E-1,-2.4946451E-1,-3.0100206E-2,-2.1425287E-1,-2.9256064E-1,-2.7263263E-1,-2.6702434E-1,-2.1549943E-1,-2.6956233E-1,-2.889749E-1,-4.1877E-2,-1.983294E-1,-2.7895892E-1,-1.6742918E-1,-2.7263805E-1,-2.431944E-1,-2.0131305E-1,-2.439303E-1,-2.1949403E-1,-1.4716819E-1,-1.423972E-1,-3.8142845E-2,-1.3609698E-1,-1.6793892E-2,-7.116486E-2,2.9874462E-1,-1.894089E-1,-2.4742751E-1,-1.682695E-1,1.733408E-1,-1.1195274E-1,7.8183087E-4,-2.5082487E-1,3.676448E-1,-6.4864345E-2,-5.610914E-3,7.961984E-2,2.6740298E-1,-1.7954713E-1,-1.2224385E-1,-9.130434E-2,5.1446795E-1,-1.2173616E-1,-4.63318E-2,-2.0355858E-1,1.1071702E-1,-2.3820767E-1,-2.7636576E-1,-1.0453435E-1,-2.1546519E-1,1.4553925E-1,-1.960772E-1,3.275754E-1,-1.9356084E-1,-1.840368E-1,-2.5276542E-1,-8.870563E-2,-2.0048715E-1,-1.3251176E-1,1.2194045E0,-1.508982E-1,1.3592015E-1],"split_indices":[12,3,1,3,16,0,3,0,16,12,0,16,12,9,15,16,11,0,0,13,3,9,14,13,9,30,30,12,24,12,15,13,8,16,0,13,0,0,9,5,1,30,36,15,39,0,13,33,15,14,10,9,16,9,13,1,6,10,0,0,0,13,14,0,0,0,0,0,0,0,0,0,0,0,0,0,0,0,0,0,0,0,0,0,0,0,0,0,0,0,0,0,0,0,0,0,0,0,0,0,0,0,0,0,0,0,0,0,0,0,0,0,0,0,0,0,0,0,0,0,0,0,0,0,0],"split_type":[0,0,0,0,0,0,0,0,0,0,0,0,0,0,0,0,0,0,0,0,0,0,0,0,0,0,0,0,0,0,0,0,0,0,0,0,0,0,0,0,0,0,0,0,0,0,0,0,0,0,0,0,0,0,0,0,0,0,0,0,0,0,0,0,0,0,0,0,0,0,0,0,0,0,0,0,0,0,0,0,0,0,0,0,0,0,0,0,0,0,0,0,0,0,0,0,0,0,0,0,0,0,0,0,0,0,0,0,0,0,0,0,0,0,0,0,0,0,0,0,0,0,0,0,0],"sum_hessian":[7.045557E4,3.307861E4,3.737696E4,1.6731633E4,1.6346976E4,3.1256635E4,6.1203247E3,9.836281E3,6.8953516E3,8.02551E3,8.321466E3,2.2757041E4,8.499595E3,3.2562156E3,2.8641091E3,1.5940317E3,8.242249E3,4.1301934E3,2.7651587E3,5.5679443E3,2.4575652E3,6.8548276E3,1.4666381E3,3.7184312E3,1.903861E4,3.1527634E3,5.3468315E3,3.2197156E3,3.649999E1,2.7966428E3,6.7466225E1,1.2725333E3,3.2149835E2,4.375061E3,3.867188E3,2.0988354E3,2.0313578E3,2.1062988E3,6.5885974E2,1.8753285E3,3.6926157E3,1.7555907E3,7.0197455E2,4.4055327E3,2.449295E3,1.3692115E3,9.742656E1,3.6243381E3,9.409308E1,1.8646498E4,3.9211127E2,2.704403E3,4.4836026E2,5.029193E3,3.176386E2,2.3151677E3,9.0454803E2,1.3541652E1,2.2958336E1,9.023361E2,1.8943068E3,2.070066E1,4.6765564E1,1.00893933E3,2.63594E2,1.0353953E2,2.1795883E2,2.6512866E3,1.7237744E3,1.3590491E3,7.3978644E2,6.248633E2,1.4064945E3,5.857698E1,2.0477218E3,6.288423E2,3.0017483E1,8.828033E2,9.9252527E2,2.052992E3,1.6396237E3,1.39343E3,3.621606E2,5.878103E2,1.14164276E2,4.1458257E3,2.5970724E2,2.4195632E3,2.9731848E1,1.0458778E3,3.2333365E2,7.395252E1,2.347404E1,3.1543318E3,4.7000635E2,1.2663679E1,8.14294E1,3.6335586E3,1.5012939E4,1.912016E2,2.0090967E2,1.605309E3,1.0990942E3,4.3953418E2,8.826103E0,1.2443022E3,3.7848906E3,4.4616E1,2.730226E2,1.3917738E3,9.2339386E2,1.15154465E2,7.8939355E2,1.003221E0,1.2538431E1,1.5979745E1,6.9785914E0,5.181344E2,3.8420172E2,1.4725315E3,4.2177524E2,9.402987E0,1.1297675E1,3.5300266E1,1.1465297E1],"tree_param":{"num_deleted":"0","num_feature":"42","num_nodes":"125","size_leaf_vector":"1"}},{"base_weights":[-3.84724E-1,-6.951033E-1,-1.9109888E-1,-8.755755E-1,-5.222537E-1,-1.172331E-1,-5.979691E-1,-9.3249834E-1,-7.722371E-1,-6.798364E-1,-3.6475906E-1,-1.6804801E-1,4.2590003E-2,-7.5650746E-1,-4.5870036E-1,-8.08408E-1,-9.593347E-1,-8.5436314E-1,-6.454062E-1,-7.8134304E-1,-6.3426936E-1,-5.6955796E-1,-3.0405647E-1,-2.816479E-1,-9.063908E-2,-1.084903E-1,1.5216267E-1,-6.25947E-1,-8.7501234E-1,-6.079655E-1,-2.9540357E-1,-8.978196E-1,-4.8606962E-1,-9.2838556E-1,-2.973293E-1,-7.754771E-1,-9.1149336E-1,-5.851942E-1,-8.801777E-1,-8.190774E-1,-6.600783E-1,-6.0007566E-1,-8.45196E-1,-6.6325575E-1,-4.5580655E-1,-3.1623903E-1,5.704968E-1,-3.3514774E-1,-7.803867E-2,-1.2211743E-1,1.5584634E-1,-6.339348E-1,-6.713297E-2,3.0975103E-1,9.333363E-3,-6.7972976E-1,-4.3504497E-1,-8.032761E-1,-9.4564676E-1,-2.5123194E-1,-6.899637E-1,-4.0531728E-1,-5.3457193E-2,-2.7812994E-1,-1.971465E-1,4.655212E-3,-1.970774E-1,-2.881165E-1,-2.622409E-1,2.839604E-1,-2.3392372E-1,4.26726E-2,-2.7402082E-1,-1.8749315E-1,-8.436337E-2,-1.53564E-1,-2.7037066E-1,-2.6039064E-1,-2.261267E-1,-2.0245685E-1,7.222361E-2,-1.541219E-1,-2.0841216E-1,-2.7071777E-1,-2.0905545E-1,-2.0033729E-1,2.7012566E-1,-1.4179203E-1,3.1684762E-1,-8.371078E-2,-1.6938293E-1,-7.2682485E-2,5.121806E-1,-1.6655342E-1,-8.4231585E-2,-3.3944573E-2,7.5033925E-2,-4.3221354E-2,5.403626E-2,-9.673933E-2,6.929587E-2,5.445133E-2,-2.0840822E-1,-3.9652843E-4,-1.3252199E-1,8.021037E-2,2.6230612E-1,-1.42351305E-2,5.4160114E-2,-1.7964172E-1,-2.4264373E-1,-1.7410183E-1,-2.937706E-2,2.937656E-1,-2.4215151E-1,-1.3348232E-1,-2.848023E-1,5.0570756E-1,-8.4371604E-2,-1.644918E-1,-2.2421473E-1,-1.3761581E-1,8.020412E-3,-5.3672984E-2,1.1184144E-1],"categories":[],"categories_nodes":[],"categories_segments":[],"categories_sizes":[],"default_left":[0,0,0,0,0,0,0,1,0,1,0,0,0,0,0,0,0,0,0,0,0,0,0,0,0,0,0,1,0,0,0,1,1,0,0,0,0,1,1,1,0,0,0,0,0,0,0,0,0,0,0,0,0,0,0,0,0,0,0,0,0,0,0,0,0,0,0,0,0,0,0,0,0,0,0,0,0,0,0,0,0,0,0,0,0,0,0,0,0,0,0,0,0,0,0,0,0,0,0,0,0,0,0,0,0,0,0,0,0,0,0,0,0,0,0,0,0,0,0,0,0,0,0,0,0],"id":10,"left_children":[1,3,5,7,9,11,13,15,17,19,21,23,25,27,29,31,33,35,37,39,41,43,45,47,49,51,53,55,57,59,61,63,65,67,-1,69,71,73,75,77,79,81,83,85,87,89,91,93,95,97,99,101,103,105,107,109,111,113,115,117,119,121,123,-1,-1,-1,-1,-1,-1,-1,-1,-1,-1,-1,-1,-1,-1,-1,-1,-1,-1,-1,-1,-1,-1,-1,-1,-1,-1,-1,-1,-1,-1,-1,-1,-1,-1,-1,-1,-1,-1,-1,-1,-1,-1,-1,-1,-1,-1,-1,-1,-1,-1,-1,-1,-1,-1,-1,-1,-1,-1,-1,-1,-1,-1],"loss_changes":[3.7207725E3,7.415244E2,1.1458851E3,6.771973E1,3.0134253E2,2.6210605E2,1.2900562E2,2.4191895E1,4.255371E1,2.7594482E1,7.540961E1,2.1530695E2,1.2891368E2,4.1817505E1,7.5901306E1,3.8168396E1,5.1342773E0,1.0599609E1,2.2534851E1,8.049561E0,2.9761719E1,1.4500977E1,5.016928E1,1.0806946E2,1.1302788E2,7.110003E1,1.01589226E2,1.311676E1,6.5007324E0,4.7500244E1,3.9670013E1,6.7715454E0,2.5123993E1,4.60376E0,0E0,8.532959E0,3.0457764E0,1.5554382E1,2.1046143E0,3.9050293E0,6.1619415E0,2.917627E1,4.3177795E0,5.9864807E0,1.6546906E1,4.2606567E1,6.0300373E1,9.3861694E1,2.3833475E1,8.572763E1,5.937102E1,1.1955421E1,7.484767E1,5.111618E1,2.3035463E1,1.0143463E1,1.4143787E1,5.772705E0,9.025879E-1,1.8269262E1,1.0364319E1,2.3688248E1,2.5060879E1,0E0,0E0,0E0,0E0,0E0,0E0,0E0,0E0,0E0,0E0,0E0,0E0,0E0,0E0,0E0,0E0,0E0,0E0,0E0,0E0,0E0,0E0,0E0,0E0,0E0,0E0,0E0,0E0,0E0,0E0,0E0,0E0,0E0,0E0,0E0,0E0,0E0,0E0,0E0,0E0,0E0,0E0,0E0,0E0,0E0,0E0,0E0,0E0,0E0,0E0,0E0,0E0,0E0,0E0,0E0,0E0,0E0,0E0,0E0,0E0,0E0,0E0],"parents":[2147483647,0,0,1,1,2,2,3,3,4,4,5,5,6,6,7,7,8,8,9,9,10,10,11,11,12,12,13,13,14,14,15,15,16,16,17,17,18,18,19,19,20,20,21,21,22,22,23,23,24,24,25,25,26,26,27,27,28,28,29,29,30,30,31,31,32,32,33,33,35,35,36,36,37,37,38,38,39,39,40,40,41,41,42,42,43,43,44,44,45,45,46,46,47,47,48,48,49,49,50,50,51,51,52,52,53,53,54,54,55,55,56,56,57,57,58,58,59,59,60,60,61,61,62,62],"right_children":[2,4,6,8,10,12,14,16,18,20,22,24,26,28,30,32,34,36,38,40,42,44,46,48,50,52,54,56,58,60,62,64,66,68,-1,70,72,74,76,78,80,82,84,86,88,90,92,94,96,98,100,102,104,106,108,110,112,114,116,118,120,122,124,-1,-1,-1,-1,-1,-1,-1,-1,-1,-1,-1,-1,-1,-1,-1,-1,-1,-1,-1,-1,-1,-1,-1,-1,-1,-1,-1,-1,-1,-1,-1,-1,-1,-1,-1,-1,-1,-1,-1,-1,-1,-1,-1,-1,-1,-1,-1,-1,-1,-1,-1,-1,-1,-1,-1,-1,-1,-1,-1,-1,-1,-1],"split_conditions":[8.0724585E-1,2.943E2,1.69E1,2.886E2,9.49509E-2,3.07E2,1.1118091E1,1.18E1,9.49509E-2,4.3500376E-1,2.82E2,1.8073254E1,9E0,1.76E1,1.657E2,9.49509E-2,1E0,1.23E1,1.92E1,7.6729596E-2,1.4400001E1,2.8E1,1.2260308E1,3.479E2,5E0,3.344E-1,6.0264E0,1.7846475E0,2.06E1,3.58E1,1E0,9.9792033E-1,1.15E-3,1.7029005E-1,-2.973293E-1,-4.4000006E0,-4.1800003E0,1.7091558E0,8.409699E-2,-1.4500008E0,4.49E0,1.4084E1,2.993E2,1E0,1E0,1.33E1,2.5268E0,9.49509E-2,3.681E2,1E0,2.898E2,4.462488E-1,1E0,1E0,3.6E1,3.97E1,5.8959928E0,1.9800001E1,1E0,4.14E1,4.58E1,1E0,5.32E1,-2.7812994E-1,-1.971465E-1,4.655212E-3,-1.970774E-1,-2.881165E-1,-2.622409E-1,2.839604E-1,-2.3392372E-1,4.26726E-2,-2.7402082E-1,-1.8749315E-1,-8.436337E-2,-1.53564E-1,-2.7037066E-1,-2.6039064E-1,-2.261267E-1,-2.0245685E-1,7.222361E-2,-1.541219E-1,-2.0841216E-1,-2.7071777E-1,-2.0905545E-1,-2.0033729E-1,2.7012566E-1,-1.4179203E-1,3.1684762E-1,-8.371078E-2,-1.6938293E-1,-7.2682485E-2,5.121806E-1,-1.6655342E-1,-8.4231585E-2,-3.3944573E-2,7.5033925E-2,-4.3221354E-2,5.403626E-2,-9.673933E-2,6.929587E-2,5.445133E-2,-2.0840822E-1,-3.9652843E-4,-1.3252199E-1,8.021037E-2,2.6230612E-1,-1.42351305E-2,5.4160114E-2,-1.7964172E-1,-2.4264373E-1,-1.7410183E-1,-2.937706E-2,2.937656E-1,-2.4215151E-1,-1.3348232E-1,-2.848023E-1,5.0570756E-1,-8.4371604E-2,-1.644918E-1,-2.2421473E-1,-1.3761581E-1,8.020412E-3,-5.3672984E-2,1.1184144E-1],"split_indices":[12,3,0,3,16,3,12,0,16,13,5,12,15,1,9,16,11,0,0,12,0,15,16,9,10,14,14,13,1,6,24,13,8,16,0,2,2,13,13,2,2,14,3,40,39,0,14,16,9,33,3,13,22,28,15,6,12,6,10,4,6,17,6,0,0,0,0,0,0,0,0,0,0,0,0,0,0,0,0,0,0,0,0,0,0,0,0,0,0,0,0,0,0,0,0,0,0,0,0,0,0,0,0,0,0,0,0,0,0,0,0,0,0,0,0,0,0,0,0,0,0,0,0,0,0],"split_type":[0,0,0,0,0,0,0,0,0,0,0,0,0,0,0,0,0,0,0,0,0,0,0,0,0,0,0,0,0,0,0,0,0,0,0,0,0,0,0,0,0,0,0,0,0,0,0,0,0,0,0,0,0,0,0,0,0,0,0,0,0,0,0,0,0,0,0,0,0,0,0,0,0,0,0,0,0,0,0,0,0,0,0,0,0,0,0,0,0,0,0,0,0,0,0,0,0,0,0,0,0,0,0,0,0,0,0,0,0,0,0,0,0,0,0,0,0,0,0,0,0,0,0,0,0],"sum_hessian":[6.191377E4,2.378463E4,3.812914E4,1.1633761E4,1.215087E4,3.227163E4,5.8575073E3,7.4964175E3,4.1373433E3,6.072079E3,6.0787905E3,2.4486293E4,7.785339E3,2.7371758E3,3.1203313E3,1.3384753E3,6.157942E3,2.5077676E3,1.6295758E3,1.8762765E3,4.1958027E3,1.3879003E3,4.6908906E3,9.922337E3,1.4563956E4,3.2727861E3,4.5125527E3,1.3053323E3,1.4318434E3,1.6287826E3,1.4915488E3,1.0464275E3,2.9204776E2,3.1342393E3,3.023703E3,1.0594463E3,1.4483214E3,1.2997264E3,3.2984933E2,1.4266017E3,4.496748E2,3.6138064E3,5.8199634E2,7.583835E2,6.295167E2,4.627073E3,6.381698E1,7.857162E3,2.0651746E3,1.291509E4,1.6488662E3,2.3775703E2,3.035029E3,2.1448735E3,2.3676794E3,1.0164167E3,2.889156E2,7.1651965E2,7.153238E2,3.0517612E2,1.3236064E3,1.025156E3,4.6639288E2,9.303815E2,1.1604609E2,7.44349E1,2.1761285E2,1.9608129E3,1.1734263E3,2.073861E0,1.0573724E3,2.4865746E0,1.4458348E3,1.1483794E3,1.5134708E2,1.920829E1,3.1064105E2,8.088864E2,6.177152E2,4.4266385E2,7.01096E0,1.8930925E3,1.720714E3,4.163739E2,1.6562244E2,7.567616E2,1.6219299E0,6.2326495E2,6.251744E0,4.0261287E3,6.0094495E2,3.7670273E1,2.6146704E1,1.5551356E3,6.3020264E3,1.8661636E3,1.9901108E2,1.2040989E4,8.741007E2,2.234134E2,1.4254529E3,1.6349268E1,2.2140776E2,2.5823616E3,4.5266748E2,1.996477E3,1.4839635E2,1.7785066E3,5.891729E2,6.282161E2,3.8820056E2,2.0139555E2,8.7520035E1,1.0165334E0,7.155031E2,6.128443E0,7.091954E2,3.8138866E0,3.013622E2,3.8480447E2,9.38802E2,9.1232935E2,1.1282664E2,3.6078955E2,1.0560334E2],"tree_param":{"num_deleted":"0","num_feature":"42","num_nodes":"125","size_leaf_vector":"1"}},{"base_weights":[-3.1285414E-1,-6.350511E-1,-1.5079582E-1,-8.6019725E-1,-4.7028172E-1,-9.388816E-2,-5.663012E-1,-9.1902876E-1,-7.367319E-1,-6.241574E-1,-3.1979883E-1,-2.7983534E-1,-5.68228E-2,-7.352901E-1,-4.1084245E-1,-7.9060787E-1,-9.53274E-1,-1.0955172E-1,-7.743023E-1,-7.52866E-1,-5.778299E-1,-4.9635544E-1,-2.4961177E-1,-1.9612303E-1,-4.688415E-1,-1.7520592E-2,-2.331764E-1,-5.581613E-1,-8.30763E-1,-3.1698096E-1,-7.0218885E-1,-8.5725033E-1,-5.94834E-1,-9.6427995E-1,-8.619096E-1,-2.441953E-1,8.7372154E-1,-6.7631114E-1,-9.245834E-1,-8.096772E-1,-6.103609E-1,-5.385616E-1,-7.9868466E-1,-5.423321E-1,-2.728806E-1,-4.684375E-1,-1.956875E-1,-6.013398E-1,-1.6215606E-1,-5.2836114E-1,-1.158479E-1,-4.5524403E-3,-3.8505873E-1,-3.9879605E-1,-1.5945938E-1,-6.824633E-1,-4.2997327E-1,-7.4266857E-1,-9.213591E-1,-3.711776E-1,1.17401816E-1,-1.9111905E-2,-7.221638E-1,-2.7150508E-2,-2.5990227E-1,-5.685268E-3,-1.9144487E-1,-2.7846578E-1,-2.9642478E-1,-2.6318663E-1,-1.6287056E-1,-1.6368724E-1,6.683809E-2,3.1169868E-1,-1.7782012E-1,-2.0901124E-1,-9.310057E-4,-2.802743E-1,-5.1392928E-2,-2.4839304E-1,-1.5466368E-1,-2.1584544E-1,-1.3236536E-1,-1.3856493E-1,-1.8974632E-1,2.7072015E-1,-2.4102184E-1,-1.712954E-1,-8.323759E-2,-9.246868E-2,2.9332447E-1,-1.4682999E-1,2.0815809E-1,-6.2761724E-2,3.4142572E-1,-2.2561105E-1,-1.259504E-1,-5.447758E-2,1.1078058E-1,-1.6310748E-1,2.0204797E-1,-1.3786262E-1,9.982658E-2,-2.291411E-2,2.401987E-2,-5.8927175E-2,-1.8513514E-1,-1.4612307E-1,-5.9073567E-2,-5.7052054E-2,5.406078E-2,2.751458E-1,-2.0816591E-1,-2.0707242E-1,-9.146523E-2,-2.3078945E-1,-1.07894845E-1,-2.768108E-1,-9.516958E-3,-2.4140097E-2,-1.2967594E-1,1.914517E-2,3.7543964E-1,-1.257313E-1,2.1951258E-1,2.2782554E-1,-2.1809289E-1],"categories":[],"categories_nodes":[],"categories_segments":[],"categories_sizes":[],"default_left":[0,0,0,0,0,0,0,0,1,1,0,0,0,0,0,1,0,0,0,0,0,1,0,0,0,0,0,0,0,0,0,0,0,1,0,0,1,0,0,0,0,0,0,1,0,0,0,0,1,0,1,0,0,0,0,0,0,0,0,0,0,0,0,0,0,0,0,0,0,0,0,0,0,0,0,0,0,0,0,0,0,0,0,0,0,0,0,0,0,0,0,0,0,0,0,0,0,0,0,0,0,0,0,0,0,0,0,0,0,0,0,0,0,0,0,0,0,0,0,0,0,0,0,0,0,0,0],"id":11,"left_children":[1,3,5,7,9,11,13,15,17,19,21,23,25,27,29,31,33,35,37,39,41,43,45,47,49,51,53,55,57,59,61,63,65,67,69,71,73,75,77,79,81,83,85,87,89,91,93,95,97,99,101,103,105,107,109,111,113,115,117,119,121,123,125,-1,-1,-1,-1,-1,-1,-1,-1,-1,-1,-1,-1,-1,-1,-1,-1,-1,-1,-1,-1,-1,-1,-1,-1,-1,-1,-1,-1,-1,-1,-1,-1,-1,-1,-1,-1,-1,-1,-1,-1,-1,-1,-1,-1,-1,-1,-1,-1,-1,-1,-1,-1,-1,-1,-1,-1,-1,-1,-1,-1,-1,-1,-1,-1],"loss_changes":[2.90371E3,6.900034E2,8.748997E2,5.6439453E1,2.4868921E2,2.2430301E2,1.1679346E2,2.2649414E1,5.9830322E1,3.1246582E1,6.724164E1,8.549188E1,1.8809634E2,3.5631348E1,6.3325317E1,1.4183228E1,3.3884277E0,1.9393421E1,3.470044E1,1.0864258E1,3.3490967E1,1.5729767E1,4.583249E1,5.152408E1,3.480786E1,1.0578062E2,6.0319702E1,1.1666351E1,1.0368225E1,4.1463943E1,7.7009277E0,5.761963E0,7.2036285E0,2.2902832E0,1.7833252E0,1.8168434E1,4.897807E0,1.9983398E1,6.7127075E0,4.9558105E0,7.1385956E0,2.3647095E1,5.450653E0,9.56073E0,1.2047075E1,1.9099167E1,5.6567215E1,7.6081467E0,3.582276E1,2.652771E1,3.727111E1,1.303088E2,3.2988937E1,2.7041855E1,3.5756294E1,7.5683136E0,1.1907761E1,6.9371643E0,7.817993E-1,2.7743195E1,1.1826269E1,5.439638E0,4.4687805E0,0E0,0E0,0E0,0E0,0E0,0E0,0E0,0E0,0E0,0E0,0E0,0E0,0E0,0E0,0E0,0E0,0E0,0E0,0E0,0E0,0E0,0E0,0E0,0E0,0E0,0E0,0E0,0E0,0E0,0E0,0E0,0E0,0E0,0E0,0E0,0E0,0E0,0E0,0E0,0E0,0E0,0E0,0E0,0E0,0E0,0E0,0E0,0E0,0E0,0E0,0E0,0E0,0E0,0E0,0E0,0E0,0E0,0E0,0E0,0E0,0E0,0E0,0E0,0E0],"parents":[2147483647,0,0,1,1,2,2,3,3,4,4,5,5,6,6,7,7,8,8,9,9,10,10,11,11,12,12,13,13,14,14,15,15,16,16,17,17,18,18,19,19,20,20,21,21,22,22,23,23,24,24,25,25,26,26,27,27,28,28,29,29,30,30,31,31,32,32,33,33,34,34,35,35,36,36,37,37,38,38,39,39,40,40,41,41,42,42,43,43,44,44,45,45,46,46,47,47,48,48,49,49,50,50,51,51,52,52,53,53,54,54,55,55,56,56,57,57,58,58,59,59,60,60,61,61,62,62],"right_children":[2,4,6,8,10,12,14,16,18,20,22,24,26,28,30,32,34,36,38,40,42,44,46,48,50,52,54,56,58,60,62,64,66,68,70,72,74,76,78,80,82,84,86,88,90,92,94,96,98,100,102,104,106,108,110,112,114,116,118,120,122,124,126,-1,-1,-1,-1,-1,-1,-1,-1,-1,-1,-1,-1,-1,-1,-1,-1,-1,-1,-1,-1,-1,-1,-1,-1,-1,-1,-1,-1,-1,-1,-1,-1,-1,-1,-1,-1,-1,-1,-1,-1,-1,-1,-1,-1,-1,-1,-1,-1,-1,-1,-1,-1,-1,-1,-1,-1,-1,-1,-1,-1,-1,-1,-1,-1],"split_conditions":[6.2383294E-1,2.928E2,1.75E1,9.49509E-2,9.49509E-2,6.4079314E-1,1.1118091E1,1.18E1,7.2000003E0,3.6666483E-1,2.825E2,1.22E1,3.55E1,1.64E1,8E-1,8.241766E-1,2.905E2,1E0,1.91E1,3.053E2,1.4400001E1,1.8111192E0,1.046E0,4.016E-1,1E0,2.5874268E3,2.09E2,3E0,2.01E1,5.7000003E0,1.4400001E1,-3.7700005E0,7E0,1.7300001E1,4.3113616E-1,1E0,2.076E2,2.836E2,3.3630002E2,1E0,3.297E2,1.42544E1,2.723E2,3E0,3.038E2,6.5E0,1E0,-1.96E0,3.5503888E0,1E0,1.9280341E0,4.8969547E1,1.4108E0,9.6000004E-1,3.6189211E3,1.68E-3,1.7982326E0,7.2000003E0,9.889999E-3,1.3E1,3.9E1,1.7700005E0,2.27E-3,-2.7150508E-2,-2.5990227E-1,-5.685268E-3,-1.9144487E-1,-2.7846578E-1,-2.9642478E-1,-2.6318663E-1,-1.6287056E-1,-1.6368724E-1,6.683809E-2,3.1169868E-1,-1.7782012E-1,-2.0901124E-1,-9.310057E-4,-2.802743E-1,-5.1392928E-2,-2.4839304E-1,-1.5466368E-1,-2.1584544E-1,-1.3236536E-1,-1.3856493E-1,-1.8974632E-1,2.7072015E-1,-2.4102184E-1,-1.712954E-1,-8.323759E-2,-9.246868E-2,2.9332447E-1,-1.4682999E-1,2.0815809E-1,-6.2761724E-2,3.4142572E-1,-2.2561105E-1,-1.259504E-1,-5.447758E-2,1.1078058E-1,-1.6310748E-1,2.0204797E-1,-1.3786262E-1,9.982658E-2,-2.291411E-2,2.401987E-2,-5.8927175E-2,-1.8513514E-1,-1.4612307E-1,-5.9073567E-2,-5.7052054E-2,5.406078E-2,2.751458E-1,-2.0816591E-1,-2.0707242E-1,-9.146523E-2,-2.3078945E-1,-1.07894845E-1,-2.768108E-1,-9.516958E-3,-2.4140097E-2,-1.2967594E-1,1.914517E-2,3.7543964E-1,-1.257313E-1,2.1951258E-1,2.2782554E-1,-2.1809289E-1],"split_indices":[12,3,0,16,16,16,12,0,1,13,5,0,6,1,7,13,3,28,0,3,0,13,14,14,30,12,9,10,1,10,1,2,0,0,12,27,9,5,9,25,9,14,5,2,3,10,39,2,13,39,13,12,14,2,12,8,12,10,8,1,15,2,8,0,0,0,0,0,0,0,0,0,0,0,0,0,0,0,0,0,0,0,0,0,0,0,0,0,0,0,0,0,0,0,0,0,0,0,0,0,0,0,0,0,0,0,0,0,0,0,0,0,0,0,0,0,0,0,0,0,0,0,0,0,0,0,0],"split_type":[0,0,0,0,0,0,0,0,0,0,0,0,0,0,0,0,0,0,0,0,0,0,0,0,0,0,0,0,0,0,0,0,0,0,0,0,0,0,0,0,0,0,0,0,0,0,0,0,0,0,0,0,0,0,0,0,0,0,0,0,0,0,0,0,0,0,0,0,0,0,0,0,0,0,0,0,0,0,0,0,0,0,0,0,0,0,0,0,0,0,0,0,0,0,0,0,0,0,0,0,0,0,0,0,0,0,0,0,0,0,0,0,0,0,0,0,0,0,0,0,0,0,0,0,0,0,0],"sum_hessian":[5.5611812E4,1.8609781E4,3.700203E4,7.862282E3,1.0747498E4,3.2545783E4,4.456248E3,5.320573E3,2.5417092E3,5.3122886E3,5.43521E3,5.408119E3,2.7137664E4,2.1334194E3,2.3228284E3,1.1251833E3,4.1953896E3,1.4387392E2,2.3978352E3,1.4019891E3,3.9102996E3,1.5443367E3,3.8908733E3,3.7494817E3,1.6586375E3,2.2192857E4,4.9448066E3,7.495819E2,1.3838375E3,1.7584167E3,5.6441174E2,8.369145E2,2.8826892E2,3.7358132E3,4.5957654E2,1.2720665E2,1.6667269E1,1.4547572E3,9.43078E2,9.990325E2,4.029566E2,3.3229182E3,5.8738135E2,1.2796423E3,2.6469437E2,7.677285E2,3.1231448E3,2.8869724E2,3.4607844E3,1.4188951E3,2.3974228E2,2.1437475E4,7.5538367E2,1.5216697E3,3.4231372E3,3.783641E2,3.712178E2,7.0626904E2,6.775684E2,1.5634901E3,1.9492664E2,1.6091545E1,5.483202E2,9.934477E0,8.2698E2,2.0266186E1,2.6800275E2,1.5013221E3,2.234491E3,4.367702E2,2.2806347E1,7.72047E1,5.0001953E1,1.5241048E1,1.4262211E0,1.4119513E3,4.280592E1,9.3089465E2,1.2183345E1,9.3880884E2,6.022362E1,2.4295729E2,1.5999931E2,1.8326859E3,1.4902323E3,1.0995529E0,5.862818E2,1.1536871E3,1.25955185E2,2.5815143E2,6.5429573E0,7.546749E2,1.3053567E1,3.0926428E3,3.0501802E1,1.5601797E2,1.3267928E2,3.3393137E3,1.214708E2,1.4015648E3,1.7330282E1,1.3572961E2,1.0401267E2,1.1595132E4,9.842343E3,4.176953E2,3.3768835E2,1.0577286E3,4.6394107E2,3.139671E3,2.8346637E2,2.1205792E0,3.7624353E2,1.1903286E2,2.5218494E2,6.594144E2,4.6854637E1,6.7650964E2,1.0587786E0,2.7184833E2,1.2916418E3,1.871405E2,7.7861295E0,1.0786791E1,5.3047543E0,1.2676207E0,5.4705255E2],"tree_param":{"num_deleted":"0","num_feature":"42","num_nodes":"127","size_leaf_vector":"1"}},{"base_weights":[-2.488637E-1,-5.587273E-1,-1.1373007E-1,-8.409379E-1,-4.0334138E-1,-7.425308E-2,-5.4950917E-1,-7.720174E-1,-9.7098756E-1,-5.5992264E-1,-2.6003698E-1,-1.4596517E-1,9.836733E-3,-7.149619E-1,-3.8107592E-1,-8.5733247E-1,-6.2615913E-1,-9.714962E-1,-7.778527E-3,-6.5548E-1,-4.6626887E-1,-2.0059651E-1,-4.8194712E-1,-2.8801572E-1,-8.940077E-2,4.9515184E-2,-1.2156834E-1,-6.11472E-1,-8.51227E-1,-4.7561356E-1,-9.550419E-2,-7.188302E-1,-9.089266E-1,-3.267316E-1,-7.218462E-1,-9.789421E-1,-8.827787E-1,-7.2847956E-1,-5.1272154E-1,-7.4440455E-1,-4.3342716E-1,-2.7280238E-1,-7.262358E-2,-5.2619445E-1,-8.3485305E-2,-1.9640063E-1,-4.2807558E-1,-2.2092456E-1,-3.9085153E-2,-5.134578E-1,6.3471735E-2,-2.3794429E-1,1.0524333E-1,-6.249962E-1,3.1848097E-1,-8.5708755E-1,2.6014858E-1,-6.1288774E-1,-3.1181523E-1,1.4334498E-1,-4.2497316E-1,-2.4087915E-1,-1.4927556E-1,-2.579551E-1,-2.8692904E-1,-1.4667076E-1,3.9170668E-2,-2.2959241E-1,-1.0334571E-1,-2.938457E-1,-1.12075604E-1,4.1251726E-2,-2.7006027E-1,-1.293649E-1,-2.265482E-1,-1.7018464E-1,3.2788005E-2,-2.2877388E-1,3.8385457E-1,-1.10773295E-1,-1.7141062E-1,-9.051139E-2,4.2519014E-2,-5.4493528E-2,8.379881E-2,-1.3369502E-1,-2.0655476E-1,-8.2241155E-2,4.7352788E-1,-6.6174656E-2,1.2231518E-1,-1.4119957E-1,-3.3191074E-2,-6.823255E-2,8.474627E-1,-2.2238567E-2,4.5232628E-2,8.756133E-2,-1.7319363E-1,1.0788026E-2,8.203565E-2,-3.0973196E-2,-9.2112236E-2,9.914489E-3,1.766565E-1,-1.9257204E-1,3.531578E-2,-1.5131137E-2,6.0320497E-1,-1.5459165E-1,-2.625424E-1,-1.9039051E-1,-2.564586E-2,-1.02767564E-1,3.1520313E-1,1.7112572E-2,6.236581E-1,-1.6922966E-1,4.3075144E-2],"categories":[],"categories_nodes":[],"categories_segments":[],"categories_sizes":[],"default_left":[0,0,0,0,0,0,0,0,0,0,0,0,0,0,0,0,1,0,0,0,1,1,0,0,0,0,0,0,0,0,0,1,1,0,0,0,0,0,0,0,0,0,0,0,0,0,1,0,1,0,0,0,0,0,0,0,0,0,0,0,0,0,0,0,0,0,0,0,0,0,0,0,0,0,0,0,0,0,0,0,0,0,0,0,0,0,0,0,0,0,0,0,0,0,0,0,0,0,0,0,0,0,0,0,0,0,0,0,0,0,0,0,0,0,0,0,0,0,0],"id":12,"left_children":[1,3,5,7,9,11,13,15,17,19,21,23,25,27,29,31,33,35,-1,37,39,41,43,45,47,49,51,53,55,57,59,61,63,65,67,69,71,73,75,77,79,81,83,85,87,89,91,93,95,97,99,101,103,105,107,109,-1,111,113,115,117,-1,-1,-1,-1,-1,-1,-1,-1,-1,-1,-1,-1,-1,-1,-1,-1,-1,-1,-1,-1,-1,-1,-1,-1,-1,-1,-1,-1,-1,-1,-1,-1,-1,-1,-1,-1,-1,-1,-1,-1,-1,-1,-1,-1,-1,-1,-1,-1,-1,-1,-1,-1,-1,-1,-1,-1,-1,-1],"loss_changes":[2.1342861E3,6.784199E2,6.105787E2,4.850537E1,2.2388782E2,1.9626971E2,8.1886536E1,4.4220215E1,8.8793945E-1,4.2384644E1,6.869125E1,1.4112158E2,7.811985E1,2.0436584E1,3.9453506E1,1.5543945E1,3.790161E1,3.9001465E-1,0E0,2.4206726E1,2.1714905E1,3.8003845E1,1.93685E1,6.410474E1,8.314373E1,9.045114E1,9.1746826E1,1.0866486E1,7.1777344E0,2.4518784E1,2.8794556E1,1.1136078E1,3.0187988E0,2.410553E1,1.6266663E1,2.0751953E-1,2.9178696E0,1.2033264E1,2.7259583E1,1.0296738E1,1.8914093E1,3.1556E1,5.705574E1,1.2647095E1,3.5677017E1,4.4296227E1,2.6680725E1,6.965431E1,6.0487144E1,1.4489807E1,6.486653E1,2.1345947E1,4.114619E1,1.0580017E1,8.1051035E0,3.4811707E0,0E0,6.791214E0,2.1433372E1,3.536519E1,1.2239473E1,0E0,0E0,0E0,0E0,0E0,0E0,0E0,0E0,0E0,0E0,0E0,0E0,0E0,0E0,0E0,0E0,0E0,0E0,0E0,0E0,0E0,0E0,0E0,0E0,0E0,0E0,0E0,0E0,0E0,0E0,0E0,0E0,0E0,0E0,0E0,0E0,0E0,0E0,0E0,0E0,0E0,0E0,0E0,0E0,0E0,0E0,0E0,0E0,0E0,0E0,0E0,0E0,0E0,0E0,0E0,0E0,0E0,0E0],"parents":[2147483647,0,0,1,1,2,2,3,3,4,4,5,5,6,6,7,7,8,8,9,9,10,10,11,11,12,12,13,13,14,14,15,15,16,16,17,17,19,19,20,20,21,21,22,22,23,23,24,24,25,25,26,26,27,27,28,28,29,29,30,30,31,31,32,32,33,33,34,34,35,35,36,36,37,37,38,38,39,39,40,40,41,41,42,42,43,43,44,44,45,45,46,46,47,47,48,48,49,49,50,50,51,51,52,52,53,53,54,54,55,55,57,57,58,58,59,59,60,60],"right_children":[2,4,6,8,10,12,14,16,18,