{"learner":{"attributes":{"scikit_learn":"{\"_estimator_type\": \"classifier\"}"},"feature_names":["dead_fuel_moisture_1000hr","dead_fuel_moisture_100hr","pdsi","max_air_temperature","max_relative_humidity","min_air_temperature","min_relative_humidity","precipitation_amount","specific_humidity","surface_downwelling_shortwave_flux_in_air","wind_speed","SWE","Band1","LAI","slope_avg","slope_max","road_density_km_km2","wind_direction_category_N","wind_direction_category_NE","wind_direction_category_E","wind_direction_category_SE","wind_direction_category_S","wind_direction_category_SW","wind_direction_category_W","wind_direction_category_NW","veg_Agriculture ","veg_Barren ","veg_Native Chapparal ","veg_Native Coastal Sage Scrub ","veg_Native Conifer Alpine ","veg_Native Conifer Forest ","veg_Native Desert ","veg_Native Grassland ","veg_Native Inland Scrub ","veg_Native Oak Woodland ","veg_Native Wetland ","veg_Non-native forest ","veg_Non-native grassland ","veg_Non-native shrub ","veg_Riparian ","veg_Urban ","veg_Water "],"feature_types":["float","float","float","float","float","float","float","float","float","float","float","float","float","float","float","float","float","i","i","i","i","i","i","i","i","i","i","i","i","i","i","i","i","i","i","i","i","i","i","i","i","i"],"gradient_booster":{"model":{"gbtree_model_param":{"num_parallel_tree":"1","num_trees":"100"},"iteration_indptr":[0,1,2,3,4,5,6,7,8,9,10,11,12,13,14,15,16,17,18,19,20,21,22,23,24,25,26,27,28,29,30,31,32,33,34,35,36,37,38,39,40,41,42,43,44,45,46,47,48,49,50,51,52,53,54,55,56,57,58,59,60,61,62,63,64,65,66,67,68,69,70,71,72,73,74,75,76,77,78,79,80,81,82,83,84,85,86,87,88,89,90,91,92,93,94,95,96,97,98,99,100],"tree_info":[0,0,0,0,0,0,0,0,0,0,0,0,0,0,0,0,0,0,0,0,0,0,0,0,0,0,0,0,0,0,0,0,0,0,0,0,0,0,0,0,0,0,0,0,0,0,0,0,0,0,0,0,0,0,0,0,0,0,0,0,0,0,0,0,0,0,0,0,0,0,0,0,0,0,0,0,0,0,0,0,0,0,0,0,0,0,0,0,0,0,0,0,0,0,0,0,0,0,0,0],"trees":[{"base_weights":[-1.0892255E0,-1.1113938E0,-9.531758E-1,-1.1195014E0,-1.0646368E0,-8.377102E-1,-1.0366071E0,-1.1314592E0,-1.1061451E0,-1.020784E0,-1.1003349E0,-8.4644055E-1,6.2392724E-1,-1.0674748E0,-9.5677763E-1,-1.1233709E0,-1.1340256E0,-1.1225063E0,-1.0834315E0,-1.0246278E0,-4.5792353E-1,-1.1141483E0,-1.0621086E0,-9.086593E-1,-6.946414E-1,-3.6349908E-1,2.14842E0,-1.029127E0,-1.1031742E0,-9.870315E-1,-8.805995E-1,-3.387934E-1,-1.105255E0,-3.4092277E-1,-1.1297445E0,-1.124687E0,-1.1048763E0,-1.0741866E0,-1.1082201E0,-1.0945065E0,-1.0038694E0,-8.455893E-1,3.4321845E0,-1.0953974E0,-3.378624E-1,-1.0643167E0,-7.463764E-1,-8.492318E-1,-9.523313E-1,-7.87335E-1,-6.010047E-1,-8.538348E-1,2.2669764E0,-1.0322894E0,-6.115971E-1,-1.1057438E0,-9.76584E-1,-9.876264E-1,3.130651E-1,-8.8681686E-1,-9.714165E-2,-3.1415915E-1,-3.3249217E-1,-3.1040955E-1,-3.3900875E-1,-3.3913806E-1,-3.363468E-1,-3.3330274E-1,-3.207592E-1,-3.2345718E-1,-3.0029598E-1,-3.353708E-1,-3.274191E-1,-3.3685324E-1,-3.2408717E-1,-3.0441988E-1,-2.5055918E-1,-2.9417956E-1,-3.948919E-2,-1.9611867E-1,1.3398609E0,-3.2921386E-1,-2.721722E-1,-3.232311E-1,-3.090591E-1,-2.68354E-1,3.103244E-1,-2.8436357E-1,-2.3582575E-1,-2.8956118E-1,-2.289948E-1,-2.1299857E-1,-2.6985267E-1,-2.4433693E-1,-1.5418078E-1,-2.7673313E-1,-1.379438E-1,1.1775098E0,-2.7018824E-1,-3.1145656E-1,-2.7520716E-1,-2.4179946E-1,1.0926639E0,-3.2604E-1,-3.3577788E-1,-3.2405955E-1,-1.6451229E-1,-2.9874048E-1,-2.6915064E-1,-2.1424465E-1,-2.740391E-1,-1.5430613E-1,2.1655963E-1],"categories":[],"categories_nodes":[],"categories_segments":[],"categories_sizes":[],"default_left":[0,0,0,0,0,1,0,0,0,1,0,0,0,0,0,0,0,0,0,0,0,0,0,0,0,0,0,1,0,0,0,0,0,0,1,1,0,0,0,0,0,0,0,0,0,0,1,0,1,0,0,0,0,0,0,0,1,1,0,0,0,0,0,0,0,0,0,0,0,0,0,0,0,0,0,0,0,0,0,0,0,0,0,0,0,0,0,0,0,0,0,0,0,0,0,0,0,0,0,0,0,0,0,0,0,0,0,0,0,0,0,0,0],"id":0,"left_children":[1,3,5,7,9,11,13,15,17,19,21,23,25,27,29,31,33,35,37,39,41,43,45,47,49,51,-1,53,55,57,59,-1,61,-1,63,65,67,69,71,73,75,77,79,81,-1,83,85,87,89,91,93,95,97,99,101,103,105,107,-1,109,111,-1,-1,-1,-1,-1,-1,-1,-1,-1,-1,-1,-1,-1,-1,-1,-1,-1,-1,-1,-1,-1,-1,-1,-1,-1,-1,-1,-1,-1,-1,-1,-1,-1,-1,-1,-1,-1,-1,-1,-1,-1,-1,-1,-1,-1,-1,-1,-1,-1,-1,-1,-1],"loss_changes":[1.4754375E3,1.58375E2,6.599844E2,5.603125E1,9.6296875E1,3.6779102E2,9.710156E1,2.671875E0,6.1765625E1,5.9972656E1,1.6921875E1,2.6958594E2,1.1094431E3,3.8166016E1,2.474414E1,3.6679688E0,1.71875E-1,2.546875E0,1.5078125E1,3.915039E1,2.914005E2,4.455078E0,5.5654297E0,5.1851562E1,7.17561E1,1.9529845E2,0E0,1.7663086E1,3.75E0,1.0629883E1,1.5346924E1,0E0,8.4472656E-1,0E0,2.265625E-1,5.3125E-1,1.1962891E0,1.4089844E1,1.9160156E0,1.3422852E0,3.8373047E1,1.6717148E1,7.7000336E1,2.6914062E0,0E0,2.9453125E0,1.8523537E1,5.2848145E1,2.7698242E1,3.5614014E1,7.659851E1,3.0114365E0,1.2868094E2,8.370117E0,9.1092834E1,2.5097656E0,1.2898254E1,4.980957E0,0E0,1.380957E1,9.278747E0,0E0,0E0,0E0,0E0,0E0,0E0,0E0,0E0,0E0,0E0,0E0,0E0,0E0,0E0,0E0,0E0,0E0,0E0,0E0,0E0,0E0,0E0,0E0,0E0,0E0,0E0,0E0,0E0,0E0,0E0,0E0,0E0,0E0,0E0,0E0,0E0,0E0,0E0,0E0,0E0,0E0,0E0,0E0,0E0,0E0,0E0,0E0,0E0,0E0,0E0,0E0,0E0],"parents":[2147483647,0,0,1,1,2,2,3,3,4,4,5,5,6,6,7,7,8,8,9,9,10,10,11,11,12,12,13,13,14,14,15,15,16,16,17,17,18,18,19,19,20,20,21,21,22,22,23,23,24,24,25,25,27,27,28,28,29,29,30,30,32,32,34,34,35,35,36,36,37,37,38,38,39,39,40,40,41,41,42,42,43,43,45,45,46,46,47,47,48,48,49,49,50,50,51,51,52,52,53,53,54,54,55,55,56,56,57,57,59,59,60,60],"right_children":[2,4,6,8,10,12,14,16,18,20,22,24,26,28,30,32,34,36,38,40,42,44,46,48,50,52,-1,54,56,58,60,-1,62,-1,64,66,68,70,72,74,76,78,80,82,-1,84,86,88,90,92,94,96,98,100,102,104,106,108,-1,110,112,-1,-1,-1,-1,-1,-1,-1,-1,-1,-1,-1,-1,-1,-1,-1,-1,-1,-1,-1,-1,-1,-1,-1,-1,-1,-1,-1,-1,-1,-1,-1,-1,-1,-1,-1,-1,-1,-1,-1,-1,-1,-1,-1,-1,-1,-1,-1,-1,-1,-1,-1,-1],"split_conditions":[2.3073166E1,3.5677083E0,1.1900001E1,2.935E2,1.17E1,3.3383331E0,2.661E2,1.28E1,9.49509E-2,3.700002E0,2.493E2,3.295E2,1E0,1.81E1,3.36E2,9.49509E-2,9.49509E-2,7.678607E-1,1.32E1,6.44E-1,4.4E1,1.79E1,2.15972E1,9.5E0,3.384668E0,1.76336E1,2.14842E0,2.9158134E0,4E1,1.23E1,4E1,-3.387934E-1,5.4E0,-3.4092277E-1,4.5E0,4.5999882E-1,1E0,4.2E1,3.1580002E2,3.792E-1,4.116159E0,2.09272E1,7.2227907E0,2.15972E1,-3.378624E-1,3.377E2,3.5627964E0,2.2211614E0,1.4699792E0,1E0,-3.5E0,2.9E2,1.921E1,1E0,1E0,2.12E1,1.8029134E0,2.0344458E0,3.130651E-1,2.89E1,1.15300354E2,-3.1415915E-1,-3.3249217E-1,-3.1040955E-1,-3.3900875E-1,-3.3913806E-1,-3.363468E-1,-3.3330274E-1,-3.207592E-1,-3.2345718E-1,-3.0029598E-1,-3.353708E-1,-3.274191E-1,-3.3685324E-1,-3.2408717E-1,-3.0441988E-1,-2.5055918E-1,-2.9417956E-1,-3.948919E-2,-1.9611867E-1,1.3398609E0,-3.2921386E-1,-2.721722E-1,-3.232311E-1,-3.090591E-1,-2.68354E-1,3.103244E-1,-2.8436357E-1,-2.3582575E-1,-2.8956118E-1,-2.289948E-1,-2.1299857E-1,-2.6985267E-1,-2.4433693E-1,-1.5418078E-1,-2.7673313E-1,-1.379438E-1,1.1775098E0,-2.7018824E-1,-3.1145656E-1,-2.7520716E-1,-2.4179946E-1,1.0926639E0,-3.2604E-1,-3.3577788E-1,-3.2405955E-1,-1.6451229E-1,-2.9874048E-1,-2.6915064E-1,-2.1424465E-1,-2.740391E-1,-1.5430613E-1,2.1655963E-1],"split_indices":[12,12,1,3,1,13,9,0,16,13,9,9,33,0,9,16,16,12,0,14,15,0,14,0,16,14,0,13,15,10,15,0,1,0,6,13,30,15,9,14,16,14,12,14,0,9,13,16,13,25,2,5,14,30,33,0,13,13,0,6,12,0,0,0,0,0,0,0,0,0,0,0,0,0,0,0,0,0,0,0,0,0,0,0,0,0,0,0,0,0,0,0,0,0,0,0,0,0,0,0,0,0,0,0,0,0,0,0,0,0,0,0,0],"split_type":[0,0,0,0,0,0,0,0,0,0,0,0,0,0,0,0,0,0,0,0,0,0,0,0,0,0,0,0,0,0,0,0,0,0,0,0,0,0,0,0,0,0,0,0,0,0,0,0,0,0,0,0,0,0,0,0,0,0,0,0,0,0,0,0,0,0,0,0,0,0,0,0,0,0,0,0,0,0,0,0,0,0,0,0,0,0,0,0,0,0,0,0,0,0,0,0,0,0,0,0,0,0,0,0,0,0,0,0,0,0,0,0,0],"sum_hessian":[4.895565E5,4.2095753E5,6.859895E4,3.5873166E5,6.22259E4,2.877986E4,3.9819094E4,1.8922889E5,1.6950277E5,2.7936824E4,3.4289074E4,2.8609396E4,1.7046292E2,2.8706682E4,1.1112412E4,4.568481E4,1.4354408E5,9.850176E4,7.100101E4,2.7746521E4,1.9030403E2,2.5166748E4,9.122326E3,2.0288607E4,8.320788E3,1.4891504E2,2.1547878E1,1.3854326E4,1.4852355E4,7.945087E3,3.1673247E3,3.4357133E4,1.1327677E4,9.203718E4,5.15069E4,8.760301E4,1.0898746E4,5.174638E4,1.9254629E4,6.3428633E3,2.1403658E4,1.7376978E2,1.6534264E1,9.886529E3,1.528022E4,9.056616E3,6.5710365E1,8.602724E3,1.1685884E4,4.1777285E3,4.1430596E3,1.2608709E2,2.2827951E1,1.374872E4,1.0560594E2,1.4549299E4,3.0305704E2,7.9432734E3,1.8134353E0,3.1422568E3,2.5068077E1,5.829661E2,1.0744711E4,1.6459593E2,5.13423E4,3.3124742E4,5.4478266E4,9.274441E3,1.6243047E3,4.904969E4,2.696685E3,1.2179352E4,7.075278E3,2.0929177E3,4.249946E3,2.0103852E4,1.2998064E3,1.4582153E2,2.7948238E1,3.4135253E0,1.3120738E1,9.778684E3,1.0784607E2,6.5191934E3,2.5374226E3,6.112344E1,4.5869246E0,3.3520818E3,5.250642E3,1.0936936E4,7.489488E2,2.4771526E3,1.7005757E3,1.1979341E3,2.9451257E3,1.0624598E2,1.9841116E1,1.48275E1,8.00045E0,1.3069855E4,6.7886487E2,1.01765724E2,3.840216E0,6.092076E3,8.457223E3,2.4278699E2,6.0270058E1,7.275716E3,6.6755756E2,4.2381052E2,2.7184463E3,1.685428E1,8.213796E0],"tree_param":{"num_deleted":"0","num_feature":"42","num_nodes":"113","size_leaf_vector":"1"}},{"base_weights":[-1.0365881E0,-1.0641901E0,-8.7370366E-1,-1.0764146E0,-1.0155442E0,-7.446013E-1,-9.7164226E-1,-1.0874728E0,-1.0560445E0,-9.720853E-1,-1.0611001E0,-8.245269E-1,-5.942653E-1,-9.219071E-1,-1.0448066E0,-1.0940481E0,-1.0796916E0,-1.0289342E0,-1.08169E0,-9.7636086E-1,-6.022482E-1,-1.069559E0,-9.9358493E-1,-8.3991826E-1,-5.618226E-1,-6.0525596E-1,3.57172E-1,-9.4480777E-1,-7.839943E-1,-1.0554045E0,-9.631745E-1,-1.0878243E0,-3.2887882E-1,-3.2611397E-1,-1.0753249E0,-1.0366191E0,-9.8266953E-1,-1.0876585E0,-1.0551722E0,-1.046831E0,-9.560183E-1,-8.531002E-1,5.9638494E-1,-1.0484415E0,-3.2503158E-1,-1.0394487E0,-9.693244E-1,-7.7053946E-1,-8.9019936E-1,-6.5709925E-1,3.335254E-1,-7.383019E-1,-5.3190166E-1,-7.4246323E-1,1.1004277E0,-9.56544E-1,-7.949875E-1,-6.994485E-1,-8.520578E-1,-1.0583091E0,-9.1601133E-1,-9.762838E-1,-3.0426154E-1,-3.264295E-1,-2.737192E-1,-3.2079235E-1,-3.2564494E-1,-3.153715E-1,-3.0472678E-1,-2.9587358E-1,2.8479155E-2,-3.277507E-1,-3.2402152E-1,2.2202251E-2,-3.1661877E-1,-3.236625E-1,-3.0816785E-1,-2.9603907E-1,-2.6868212E-1,3.188931E-1,-2.7063704E-1,4.7908086E-1,-2.5027853E-1,-3.1733882E-1,-3.0408436E-1,-3.1229913E-1,-2.6887624E-2,-2.93726E-1,-2.0830587E-1,-2.6384947E-1,-2.1194391E-1,-2.7207226E-1,-2.4146563E-1,-2.0713226E-1,-1.2719478E-2,-2.2929823E-1,6.037401E-1,-2.312269E-1,-1.4644022E-1,-2.2417308E-1,-1.3614012E-1,-2.7150312E-1,-4.529359E-2,-9.346253E-2,4.2790267E-1,-2.6567477E-1,-2.907414E-1,-2.5032744E-1,-4.7726715E-3,-2.4553375E-1,-1.8493629E-1,-2.579654E-1,1.0070071E-1,-3.1073767E-1,-3.2227454E-1,-3.039419E-1,-9.9973E-2,-2.9397953E-1,1.5441959E-2,-2.1703194E-1,6.4051557E-1],"categories":[],"categories_nodes":[],"categories_segments":[],"categories_sizes":[],"default_left":[0,0,0,0,0,0,0,0,1,1,0,1,1,0,0,0,1,0,0,0,0,0,0,0,0,0,0,1,0,0,0,0,0,0,0,1,0,0,0,0,0,0,0,0,0,0,0,0,0,0,0,0,0,0,0,0,0,0,0,0,0,0,0,0,0,0,0,0,0,0,0,0,0,0,0,0,0,0,0,0,0,0,0,0,0,0,0,0,0,0,0,0,0,0,0,0,0,0,0,0,0,0,0,0,0,0,0,0,0,0,0,0,0,0,0,0,0,0,0,0,0],"id":1,"left_children":[1,3,5,7,9,11,13,15,17,19,21,23,25,27,29,31,33,35,37,39,41,43,45,47,49,51,53,55,57,59,61,63,-1,-1,65,67,69,71,73,75,77,79,81,83,-1,85,87,89,91,93,95,97,99,101,103,105,107,109,111,113,115,117,119,-1,-1,-1,-1,-1,-1,-1,-1,-1,-1,-1,-1,-1,-1,-1,-1,-1,-1,-1,-1,-1,-1,-1,-1,-1,-1,-1,-1,-1,-1,-1,-1,-1,-1,-1,-1,-1,-1,-1,-1,-1,-1,-1,-1,-1,-1,-1,-1,-1,-1,-1,-1,-1,-1,-1,-1,-1,-1],"loss_changes":[1.7000625E3,1.9128125E2,6.9252734E2,5.7125E1,1.2763281E2,2.8374707E2,1.1247461E2,7.375E0,6.2148438E1,5.2023438E1,1.7050781E1,6.1964844E1,8.6115234E1,5.7898438E1,9.891602E0,6.25E-2,1.296875E0,1.4714844E1,6.2460938E0,4.614258E1,1.1562474E2,7.125E0,2.9372559E0,5.0194336E1,7.338257E1,7.886548E1,7.800124E1,2.722754E1,1.4652832E1,3.5439453E0,1.2315796E1,1.5820312E-1,0E0,0E0,1.7929688E0,1.05E1,2.4458496E1,2.2265625E-1,2.2558594E0,3.5141602E0,4.6595703E1,3.07361E1,9.701817E1,2.5771484E0,0E0,1.6904297E0,5.584717E0,4.2208252E1,1.1314941E1,1.5864899E1,1.5480602E2,2.3036255E1,8.776428E1,3.5826416E0,2.6560768E1,1.2331055E1,3.5697205E1,1.1222473E1,1.3892944E1,2.8046875E0,1.2964462E1,5.41626E0,3.2155083E1,0E0,0E0,0E0,0E0,0E0,0E0,0E0,0E0,0E0,0E0,0E0,0E0,0E0,0E0,0E0,0E0,0E0,0E0,0E0,0E0,0E0,0E0,0E0,0E0,0E0,0E0,0E0,0E0,0E0,0E0,0E0,0E0,0E0,0E0,0E0,0E0,0E0,0E0,0E0,0E0,0E0,0E0,0E0,0E0,0E0,0E0,0E0,0E0,0E0,0E0,0E0,0E0,0E0,0E0,0E0,0E0,0E0,0E0],"parents":[2147483647,0,0,1,1,2,2,3,3,4,4,5,5,6,6,7,7,8,8,9,9,10,10,11,11,12,12,13,13,14,14,15,15,16,16,17,17,18,18,19,19,20,20,21,21,22,22,23,23,24,24,25,25,26,26,27,27,28,28,29,29,30,30,31,31,34,34,35,35,36,36,37,37,38,38,39,39,40,40,41,41,42,42,43,43,45,45,46,46,47,47,48,48,49,49,50,50,51,51,52,52,53,53,54,54,55,55,56,56,57,57,58,58,59,59,60,60,61,61,62,62],"right_children":[2,4,6,8,10,12,14,16,18,20,22,24,26,28,30,32,34,36,38,40,42,44,46,48,50,52,54,56,58,60,62,64,-1,-1,66,68,70,72,74,76,78,80,82,84,-1,86,88,90,92,94,96,98,100,102,104,106,108,110,112,114,116,118,120,-1,-1,-1,-1,-1,-1,-1,-1,-1,-1,-1,-1,-1,-1,-1,-1,-1,-1,-1,-1,-1,-1,-1,-1,-1,-1,-1,-1,-1,-1,-1,-1,-1,-1,-1,-1,-1,-1,-1,-1,-1,-1,-1,-1,-1,-1,-1,-1,-1,-1,-1,-1,-1,-1,-1,-1,-1,-1],"split_conditions":[2.3073166E1,2.0503783E0,1.1900001E1,9.49509E-2,1.27E1,3.216E2,1.81E1,2.928E2,1.32E1,3.5627964E0,3.137E2,1.6929263E0,3.4441419E0,3.3330002E2,2.508E2,1.28E1,4.5999882E-1,1E0,2.926E2,6.44E-1,2.15972E1,1.79E1,4.526517E0,9.5E0,1E0,5.697669E1,4E1,1.5094364E0,3.87E1,4E1,4E1,6.7E1,-3.2887882E-1,-3.2611397E-1,1.15E1,3.074E2,8.7909775E0,2.89E2,5.2000003E0,3.908E-1,3.226E2,2.133883E0,2.2066E1,1.2188167E1,-3.2503158E-1,3.106E2,4E1,2.2211614E0,2.9630002E2,1.86216E1,1.6222092E2,1E0,-3.5E0,5.7000003E0,1.0756586E0,1.2E1,4E1,3.3411303E0,4E1,2.12E1,1E0,1.13E1,1.6222092E2,-3.264295E-1,-2.737192E-1,-3.2079235E-1,-3.2564494E-1,-3.153715E-1,-3.0472678E-1,-2.9587358E-1,2.8479155E-2,-3.277507E-1,-3.2402152E-1,2.2202251E-2,-3.1661877E-1,-3.236625E-1,-3.0816785E-1,-2.9603907E-1,-2.6868212E-1,3.188931E-1,-2.7063704E-1,4.7908086E-1,-2.5027853E-1,-3.1733882E-1,-3.0408436E-1,-3.1229913E-1,-2.6887624E-2,-2.93726E-1,-2.0830587E-1,-2.6384947E-1,-2.1194391E-1,-2.7207226E-1,-2.4146563E-1,-2.0713226E-1,-1.2719478E-2,-2.2929823E-1,6.037401E-1,-2.312269E-1,-1.4644022E-1,-2.2417308E-1,-1.3614012E-1,-2.7150312E-1,-4.529359E-2,-9.346253E-2,4.2790267E-1,-2.6567477E-1,-2.907414E-1,-2.5032744E-1,-4.7726715E-3,-2.4553375E-1,-1.8493629E-1,-2.579654E-1,1.0070071E-1,-3.1073767E-1,-3.2227454E-1,-3.039419E-1,-9.9973E-2,-2.9397953E-1,1.5441959E-2,-2.1703194E-1,6.4051557E-1],"split_indices":[12,12,1,16,1,9,0,3,0,13,9,13,13,9,9,0,13,27,9,14,14,0,12,0,33,12,15,13,6,15,15,15,0,0,0,9,16,3,6,14,9,12,14,12,0,3,15,16,9,14,12,33,2,10,16,0,15,16,15,0,33,10,12,0,0,0,0,0,0,0,0,0,0,0,0,0,0,0,0,0,0,0,0,0,0,0,0,0,0,0,0,0,0,0,0,0,0,0,0,0,0,0,0,0,0,0,0,0,0,0,0,0,0,0,0,0,0,0,0,0,0],"split_type":[0,0,0,0,0,0,0,0,0,0,0,0,0,0,0,0,0,0,0,0,0,0,0,0,0,0,0,0,0,0,0,0,0,0,0,0,0,0,0,0,0,0,0,0,0,0,0,0,0,0,0,0,0,0,0,0,0,0,0,0,0,0,0,0,0,0,0,0,0,0,0,0,0,0,0,0,0,0,0,0,0,0,0,0,0,0,0,0,0,0,0,0,0,0,0,0,0,0,0,0,0,0,0,0,0,0,0,0,0,0,0,0,0,0,0,0,0,0,0,0,0],"sum_hessian":[3.7833747E5,3.2351038E5,5.48271E4,2.5852362E5,6.498674E4,2.3654467E4,3.1172633E4,1.6752703E5,9.0996586E4,3.3270266E4,3.1716473E4,1.5440894E4,8.213574E3,1.8565752E4,1.260688E4,9.072343E4,7.680361E4,4.4254957E4,4.674163E4,3.2888414E4,3.8185272E2,2.8172006E4,3.544467E3,1.4584232E4,8.5666095E2,8.1201377E3,9.3436874E1,1.5916877E4,2.6488755E3,1.1147703E4,1.4591769E3,2.393891E4,6.6784516E4,2.852023E4,4.828338E4,3.7932668E4,6.3222915E3,3.812141E4,8.620218E3,7.355884E3,2.5532531E4,3.160066E2,6.584613E1,1.1203161E4,1.6968844E4,1.2117834E3,2.3326836E3,6.135155E3,8.449077E3,7.745092E2,8.215173E1,2.8826616E3,5.237476E3,3.768442E1,5.575245E1,1.4755606E4,1.161271E3,1.1864231E3,1.4624523E3,1.0913697E4,2.3400601E2,1.4302401E3,2.8936716E1,2.3896389E4,4.2520844E1,3.0389018E4,1.7894361E4,2.2274865E4,1.5657801E4,6.3014663E3,2.082498E1,2.3179336E4,1.4942075E4,1.6416833E0,8.618576E3,2.7716445E3,4.584239E3,1.6904584E4,8.627946E3,7.3674107E0,3.0863916E2,3.8678978E1,2.7167149E1,8.80799E3,2.3951716E3,1.2097155E3,2.0679326E0,2.2502336E3,8.244989E1,2.2668174E3,3.8683374E3,7.05732E3,1.3917578E3,7.3454407E2,3.9965134E1,5.000103E1,3.2150707E1,2.5497942E3,3.3286746E2,1.391698E3,3.8457778E3,2.9144964E1,8.539459E0,1.0463816E1,4.5288635E1,2.234807E3,1.2520799E4,1.1052516E3,5.601938E1,4.8383624E2,7.025869E2,1.4531525E3,9.299826E0,4.5508604E3,6.3628364E3,1.9994351E2,3.4062504E1,1.425228E3,5.0121775E0,2.5293617E1,3.6430993E0],"tree_param":{"num_deleted":"0","num_feature":"42","num_nodes":"121","size_leaf_vector":"1"}},{"base_weights":[-9.9140537E-1,-1.026445E0,-7.9498047E-1,-1.0396297E0,-9.526339E-1,-6.516383E-1,-9.1038793E-1,-1.0594456E0,-1.0178083E0,-8.867233E-1,-1.0085291E0,-7.222431E-1,-4.5645237E-1,-8.5043484E-1,-1.0015434E0,-1.0462688E0,-1.0637829E0,-1.0445772E0,-9.814432E-1,-9.9898565E-1,-8.552769E-1,-9.7110665E-1,-1.0452101E0,-6.4804137E-1,-7.811503E-1,-5.989435E-1,-3.4850484E-1,-8.7830585E-1,-6.9615716E-1,-1.0150849E0,-8.9991623E-1,-1.0560178E0,-1.0169625E0,-3.2029864E-1,-1.0568614E0,-1.0481586E0,-1.0159903E0,-9.639429E-1,-1.0152581E0,-1.0451262E0,-9.763879E-1,-9.0456694E-1,-7.732653E-1,-1.0077672E0,-9.353294E-1,-1.0453982E0,-2.1016742E-1,-7.6812977E-1,-5.839889E-1,-8.0176353E-1,-5.543671E-1,-6.31395E-1,-1.334653E-1,-6.6186255E-1,-2.6565552E-1,-8.925018E-1,-7.0374304E-1,-4.9045533E-1,-7.310054E-1,-1.0187944E0,-8.4439903E-1,-9.1522324E-1,-2.530046E-1,-3.1689817E-1,-2.5883237E-1,-2.6449287E-1,-3.0612427E-1,-2.7083763E-1,-3.172028E-1,-3.1732124E-1,-3.1270012E-1,-3.077923E-1,-2.8771394E-1,-2.9126337E-1,-2.5567517E-1,-3.091781E-1,-2.9469195E-1,-1.1000251E-1,-3.1400883E-1,4.260589E-2,-2.931354E-1,-2.7579048E-1,-2.0212978E-1,-2.3714955E-1,-1.375888E-1,-3.1465325E-1,-2.9724786E-1,-2.8176692E-1,-1.2385276E-1,-3.151695E-1,-3.020514E-1,1.2660213E-1,-1.935819E-1,-2.646904E-1,-2.1876906E-1,-1.8355946E-1,-7.327972E-2,-2.585196E-1,-2.2087239E-1,-1.9883275E-1,4.4791006E-2,-2.6348373E-1,-1.7885913E-1,4.5065698E-1,-1.0453162E-1,-2.3787527E-1,-1.6933939E-1,-1.11351036E-1,6.4188293E-3,-2.610911E-1,-2.8501374E-1,-2.2846478E-1,-1.4701923E-2,-1.5148464E-1,3.648516E-1,-2.2132717E-1,-6.433546E-4,-2.970104E-1,-3.1181136E-1,-2.9596454E-1,-9.99803E-2,-2.7596647E-1,3.700101E-2,-2.6852933E-1,3.3581352E-1],"categories":[],"categories_nodes":[],"categories_segments":[],"categories_sizes":[],"default_left":[0,0,0,0,0,0,0,0,0,0,0,0,0,0,0,0,0,0,0,0,0,0,0,0,1,0,0,1,0,0,0,0,0,0,1,1,0,0,0,0,0,0,0,0,0,0,0,0,1,0,0,0,0,0,0,0,0,0,0,0,1,0,1,0,0,0,0,0,0,0,0,0,0,0,0,0,0,0,0,0,0,0,0,0,0,0,0,0,0,0,0,0,0,0,0,0,0,0,0,0,0,0,0,0,0,0,0,0,0,0,0,0,0,0,0,0,0,0,0,0,0,0,0,0,0],"id":2,"left_children":[1,3,5,7,9,11,13,15,17,19,21,23,25,27,29,31,33,35,37,39,41,43,45,47,49,51,53,55,57,59,61,63,65,-1,67,69,71,73,75,77,79,81,83,85,87,89,91,93,95,97,99,101,103,105,107,109,111,113,115,117,119,121,123,-1,-1,-1,-1,-1,-1,-1,-1,-1,-1,-1,-1,-1,-1,-1,-1,-1,-1,-1,-1,-1,-1,-1,-1,-1,-1,-1,-1,-1,-1,-1,-1,-1,-1,-1,-1,-1,-1,-1,-1,-1,-1,-1,-1,-1,-1,-1,-1,-1,-1,-1,-1,-1,-1,-1,-1,-1,-1,-1,-1,-1,-1],"loss_changes":[2.0034688E3,2.3951562E2,7.287578E2,8.959375E1,1.371289E2,2.7071582E2,1.3261328E2,5.171875E0,9.613281E1,5.9868164E1,2.6804688E1,6.2618652E1,8.0196045E1,6.276465E1,1.2415039E1,6.7148438E0,1.0859375E0,4.8164062E0,2.4074219E1,2.8979492E0,5.3645508E1,1.2232422E1,1.3867188E0,4.875708E1,3.7166992E1,3.392975E1,7.710043E1,3.0297852E1,1.5842407E1,4.544922E0,1.1130615E1,3.1054688E-1,2.2919922E0,0E0,1.2539062E0,1.7460938E0,2.671875E0,2.0796875E1,6.2753906E0,9.168701E-1,2.2109375E0,2.7916504E1,2.7039062E1,2.4052734E0,9.983887E0,9.7753906E-1,1.2496753E0,9.224976E0,3.939807E1,2.8336426E1,5.1484787E1,1.7766296E1,5.2571445E1,7.4887695E0,7.136154E1,1.3911133E1,3.5664673E1,8.787842E0,9.49939E0,3.913086E0,1.3290207E1,5.5422363E0,2.5591536E1,0E0,0E0,0E0,0E0,0E0,0E0,0E0,0E0,0E0,0E0,0E0,0E0,0E0,0E0,0E0,0E0,0E0,0E0,0E0,0E0,0E0,0E0,0E0,0E0,0E0,0E0,0E0,0E0,0E0,0E0,0E0,0E0,0E0,0E0,0E0,0E0,0E0,0E0,0E0,0E0,0E0,0E0,0E0,0E0,0E0,0E0,0E0,0E0,0E0,0E0,0E0,0E0,0E0,0E0,0E0,0E0,0E0,0E0,0E0,0E0,0E0,0E0],"parents":[2147483647,0,0,1,1,2,2,3,3,4,4,5,5,6,6,7,7,8,8,9,9,10,10,11,11,12,12,13,13,14,14,15,15,16,16,17,17,18,18,19,19,20,20,21,21,22,22,23,23,24,24,25,25,26,26,27,27,28,28,29,29,30,30,31,31,32,32,34,34,35,35,36,36,37,37,38,38,39,39,40,40,41,41,42,42,43,43,44,44,45,45,46,46,47,47,48,48,49,49,50,50,51,51,52,52,53,53,54,54,55,55,56,56,57,57,58,58,59,59,60,60,61,61,62,62],"right_children":[2,4,6,8,10,12,14,16,18,20,22,24,26,28,30,32,34,36,38,40,42,44,46,48,50,52,54,56,58,60,62,64,66,-1,68,70,72,74,76,78,80,82,84,86,88,90,92,94,96,98,100,102,104,106,108,110,112,114,116,118,120,122,124,-1,-1,-1,-1,-1,-1,-1,-1,-1,-1,-1,-1,-1,-1,-1,-1,-1,-1,-1,-1,-1,-1,-1,-1,-1,-1,-1,-1,-1,-1,-1,-1,-1,-1,-1,-1,-1,-1,-1,-1,-1,-1,-1,-1,-1,-1,-1,-1,-1,-1,-1,-1,-1,-1,-1,-1,-1,-1,-1,-1,-1,-1],"split_conditions":[2.3073166E1,3.5677083E0,1.1900001E1,2.935E2,1.17E1,3.369E2,1.81E1,1.2900001E1,9.49509E-2,6.44E-1,1.79E1,8.400001E0,7.23612E1,3.324E2,2.508E2,2.119942E-1,9.49509E-2,7.678607E-1,1.06E1,3.792E-1,3.196E2,2.1340001E2,1.2639999E-2,2.2211614E0,1.4699792E0,3.7E1,-3.6900005E0,1.5094364E0,2.89E1,4E1,4E1,6.7E1,2.57E1,-3.2029864E-1,4.5E0,4.5999882E-1,1E0,4.2E1,3.147E2,2.708E2,5.23E1,4.247836E0,4.518971E0,7.524E-1,2.15972E1,2.5540001E2,2.9E2,5E0,1.3308281E0,2.5240001E2,3.9E1,5.024E-1,3.8E1,-4.83E0,3.586E2,1.6300001E1,1.4436E1,1.5400001E1,4E1,2.12E1,1.8029134E0,1.143E-2,2.539984E0,-3.1689817E-1,-2.5883237E-1,-2.6449287E-1,-3.0612427E-1,-2.7083763E-1,-3.172028E-1,-3.1732124E-1,-3.1270012E-1,-3.077923E-1,-2.8771394E-1,-2.9126337E-1,-2.5567517E-1,-3.091781E-1,-2.9469195E-1,-1.1000251E-1,-3.1400883E-1,4.260589E-2,-2.931354E-1,-2.7579048E-1,-2.0212978E-1,-2.3714955E-1,-1.375888E-1,-3.1465325E-1,-2.9724786E-1,-2.8176692E-1,-1.2385276E-1,-3.151695E-1,-3.020514E-1,1.2660213E-1,-1.935819E-1,-2.646904E-1,-2.1876906E-1,-1.8355946E-1,-7.327972E-2,-2.585196E-1,-2.2087239E-1,-1.9883275E-1,4.4791006E-2,-2.6348373E-1,-1.7885913E-1,4.5065698E-1,-1.0453162E-1,-2.3787527E-1,-1.6933939E-1,-1.11351036E-1,6.4188293E-3,-2.610911E-1,-2.8501374E-1,-2.2846478E-1,-1.4701923E-2,-1.5148464E-1,3.648516E-1,-2.2132717E-1,-6.433546E-4,-2.970104E-1,-3.1181136E-1,-2.9596454E-1,-9.99803E-2,-2.7596647E-1,3.700101E-2,-2.6852933E-1,3.3581352E-1],"split_indices":[12,12,1,3,1,9,0,0,16,14,0,1,12,9,9,16,16,12,1,14,9,9,8,16,13,15,2,13,6,15,15,15,4,0,6,13,30,15,9,5,9,16,16,14,14,9,5,15,13,9,15,14,15,2,9,1,14,1,15,0,13,8,13,0,0,0,0,0,0,0,0,0,0,0,0,0,0,0,0,0,0,0,0,0,0,0,0,0,0,0,0,0,0,0,0,0,0,0,0,0,0,0,0,0,0,0,0,0,0,0,0,0,0,0,0,0,0,0,0,0,0,0,0,0,0],"split_type":[0,0,0,0,0,0,0,0,0,0,0,0,0,0,0,0,0,0,0,0,0,0,0,0,0,0,0,0,0,0,0,0,0,0,0,0,0,0,0,0,0,0,0,0,0,0,0,0,0,0,0,0,0,0,0,0,0,0,0,0,0,0,0,0,0,0,0,0,0,0,0,0,0,0,0,0,0,0,0,0,0,0,0,0,0,0,0,0,0,0,0,0,0,0,0,0,0,0,0,0,0,0,0,0,0,0,0,0,0,0,0,0,0,0,0,0,0,0,0,0,0,0,0,0,0],"sum_hessian":[2.9121206E5,2.4712412E5,4.4087945E4,2.0965988E5,3.746425E4,1.9667062E4,2.4420883E4,1.0985436E5,9.980551E4,1.7199623E4,2.0264629E4,1.4440715E4,5.2263486E3,1.4738001E4,9.682882E3,2.7264803E4,8.2589555E4,5.7471816E4,4.2333695E4,3.7568984E3,1.3442724E4,1.0044556E4,1.0220073E4,6.396035E3,8.044679E3,2.2507727E3,2.975576E3,1.2478927E4,2.2590742E3,8.536445E3,1.1464357E3,2.043267E4,6.832133E3,5.2828375E4,2.9761184E4,5.1041438E4,6.4303804E3,2.7915768E4,1.4417927E4,1.2202045E3,2.536694E3,8.390118E3,5.0526055E3,4.94762E3,5.096936E3,1.021752E4,2.553247E0,2.2210046E3,4.175031E3,7.3720674E3,6.726118E2,2.1037502E3,1.4702249E2,6.207499E2,2.3548262E3,1.1536624E4,9.42303E2,3.2945312E2,1.9296212E3,8.350004E3,1.8644221E2,1.1195309E3,2.6904732E1,2.0395545E4,3.7124985E1,1.7631581E2,6.6558174E3,9.8510506E1,2.9662672E4,1.9233064E4,3.1808373E4,5.456645E3,9.737355E2,2.6276562E4,1.6392045E3,9.818245E3,4.5996807E3,3.3583527E0,1.2168461E3,1.528689E0,2.5351653E3,7.8838223E3,5.062964E2,4.7888013E3,2.6380423E2,1.4269028E3,3.520717E3,5.058442E3,3.84939E1,8.98707E3,1.2304498E3,1.0531728E0,1.5000743E0,5.589087E2,1.662096E3,3.8576875E3,3.173431E2,3.8428228E3,3.5292449E3,5.828717E2,8.974012E1,2.595152E2,1.8442351E3,1.6382927E1,1.3063957E2,2.616041E2,3.5914575E2,1.7216777E3,6.3314844E2,8.336758E3,3.1998657E3,8.657072E2,7.6595764E1,3.27377E2,2.0761123E0,1.911898E3,1.7723227E1,3.503017E3,4.8469863E3,1.4514595E2,4.1296272E1,1.1146385E3,4.8923054E0,1.8566057E1,8.338674E0],"tree_param":{"num_deleted":"0","num_feature":"42","num_nodes":"125","size_leaf_vector":"1"}},{"base_weights":[-9.4843096E-1,-9.962361E-1,-7.2873396E-1,-1.0277337E0,-9.5412195E-1,-6.0115E-1,-8.818098E-1,-1.0342591E0,-9.921023E-1,-1.009307E0,-8.984528E-1,-6.863303E-1,-4.4986933E-1,-8.07917E-1,-9.710762E-1,-1.0166994E0,-1.0414124E0,-9.554958E-1,-1.0269176E0,-1.0181477E0,-9.436262E-1,-9.293505E-1,-8.1754726E-1,-6.0732126E-1,-7.544809E-1,-5.908849E-1,-3.6400765E-1,-8.332204E-1,-6.497923E-1,-9.8637193E-1,-8.5615116E-1,-1.0305109E0,-9.7616625E-1,-3.1410837E-1,-1.0308447E0,-9.711947E-1,-8.7928784E-1,-1.0105777E0,-3.1101197E-1,-1.0274361E0,-1.0074546E0,-1.0110278E0,-9.185458E-1,-9.361622E-1,-7.889777E-1,-8.2883626E-1,2.978825E-1,-7.458553E-1,-5.1850665E-1,-7.7208334E-1,-4.687067E-1,-7.5963265E-1,-4.8455834E-1,-3.8071623E-1,7.061754E-1,-8.4956217E-1,-6.564764E-1,-5.802461E-1,-7.9177004E-1,-9.54815E-1,-1.0118859E0,-8.622742E-1,4.2797735E-1,-3.1208122E-1,-3.055671E-1,-2.6007605E-1,-2.9531887E-1,-3.1049466E-1,-2.9711273E-1,-2.4807082E-1,-2.934702E-1,-2.6706737E-1,-1.1622782E-1,-3.032624E-1,-6.094592E-2,-3.0886316E-1,-2.9760802E-1,-2.99344E-1,-3.09087E-1,-3.073945E-1,-2.8365448E-1,-2.7760196E-1,-2.1036497E-1,-2.8683022E-1,-2.688189E-1,-2.4098311E-1,4.411697E-1,-2.895738E-1,-2.3554133E-1,3.8339645E-1,-2.276155E-1,-2.573488E-1,-2.0970258E-1,-1.5902314E-1,2.4572471E-1,-2.3745714E-1,-1.8997315E-1,-1.8003754E-1,3.034236E-1,-1.8106443E-1,-2.5407854E-1,-1.648213E-1,-8.507471E-2,-1.4985363E-1,-7.218564E-2,-1.7265111E-1,3.6463845E-1,-2.7259725E-1,-2.4603498E-1,-2.088211E-1,-4.6625853E-2,-2.311177E-1,-1.490263E-1,-2.3932438E-1,2.5044218E-1,-2.902429E-1,-2.4145311E-1,-3.0488572E-1,-2.682057E-1,-2.6460624E-1,-1.9844633E-1,-1.5854211E-1,4.7747025E-1],"categories":[],"categories_nodes":[],"categories_segments":[],"categories_sizes":[],"default_left":[0,0,0,0,0,0,0,0,0,0,0,0,0,0,0,0,0,0,0,1,0,0,0,0,0,0,1,1,0,0,0,1,0,0,0,0,1,0,0,0,0,0,1,0,0,0,0,0,1,0,1,0,0,0,0,0,0,0,0,1,0,0,0,0,0,0,0,0,0,0,0,0,0,0,0,0,0,0,0,0,0,0,0,0,0,0,0,0,0,0,0,0,0,0,0,0,0,0,0,0,0,0,0,0,0,0,0,0,0,0,0,0,0,0,0,0,0,0,0,0,0,0,0],"id":3,"left_children":[1,3,5,7,9,11,13,15,17,19,21,23,25,27,29,31,33,35,37,39,41,43,45,47,49,51,53,55,57,59,61,63,65,-1,67,69,71,73,-1,75,77,79,81,83,85,87,89,91,93,95,97,99,101,103,105,107,109,111,113,115,117,119,121,-1,-1,-1,-1,-1,-1,-1,-1,-1,-1,-1,-1,-1,-1,-1,-1,-1,-1,-1,-1,-1,-1,-1,-1,-1,-1,-1,-1,-1,-1,-1,-1,-1,-1,-1,-1,-1,-1,-1,-1,-1,-1,-1,-1,-1,-1,-1,-1,-1,-1,-1,-1,-1,-1,-1,-1,-1,-1,-1,-1],"loss_changes":[2.3538906E3,2.4325E2,7.8201953E2,2.3460938E1,2.4116406E2,2.8134766E2,1.1934863E2,1.01171875E1,1.9828125E1,2.2015625E1,9.732422E1,7.482715E1,9.51532E1,3.9350098E1,1.3646484E1,1.3439453E1,2.671875E0,8.685547E0,2.8808594E-1,2.4257812E0,7.0283203E0,2.6404297E1,1.3689111E2,7.934424E1,3.7378418E1,5.308728E1,8.7856445E1,2.4257324E1,1.3166016E1,4.885742E0,8.04187E0,1.1835938E0,5.0595703E0,0E0,2.6582031E0,5.8964844E0,7.038574E0,5.551758E-1,0E0,3.6914062E-1,2.5488281E0,1.6137695E-1,4.432617E0,2.0783203E1,4.3832397E1,6.328125E1,1.1432603E2,1.2667603E1,6.1596558E1,1.8570312E1,8.5777016E1,1.5156067E1,2.3699371E1,8.015961E1,5.0079945E1,1.2933105E1,1.44045105E1,1.4381073E1,5.0507812E0,5.425293E0,1.1674805E0,3.2685547E0,6.7387576E0,0E0,0E0,0E0,0E0,0E0,0E0,0E0,0E0,0E0,0E0,0E0,0E0,0E0,0E0,0E0,0E0,0E0,0E0,0E0,0E0,0E0,0E0,0E0,0E0,0E0,0E0,0E0,0E0,0E0,0E0,0E0,0E0,0E0,0E0,0E0,0E0,0E0,0E0,0E0,0E0,0E0,0E0,0E0,0E0,0E0,0E0,0E0,0E0,0E0,0E0,0E0,0E0,0E0,0E0,0E0,0E0,0E0,0E0,0E0,0E0],"parents":[2147483647,0,0,1,1,2,2,3,3,4,4,5,5,6,6,7,7,8,8,9,9,10,10,11,11,12,12,13,13,14,14,15,15,16,16,17,17,18,18,19,19,20,20,21,21,22,22,23,23,24,24,25,25,26,26,27,27,28,28,29,29,30,30,31,31,32,32,34,34,35,35,36,36,37,37,39,39,40,40,41,41,42,42,43,43,44,44,45,45,46,46,47,47,48,48,49,49,50,50,51,51,52,52,53,53,54,54,55,55,56,56,57,57,58,58,59,59,60,60,61,61,62,62],"right_children":[2,4,6,8,10,12,14,16,18,20,22,24,26,28,30,32,34,36,38,40,42,44,46,48,50,52,54,56,58,60,62,64,66,-1,68,70,72,74,-1,76,78,80,82,84,86,88,90,92,94,96,98,100,102,104,106,108,110,112,114,116,118,120,122,-1,-1,-1,-1,-1,-1,-1,-1,-1,-1,-1,-1,-1,-1,-1,-1,-1,-1,-1,-1,-1,-1,-1,-1,-1,-1,-1,-1,-1,-1,-1,-1,-1,-1,-1,-1,-1,-1,-1,-1,-1,-1,-1,-1,-1,-1,-1,-1,-1,-1,-1,-1,-1,-1,-1,-1,-1,-1,-1,-1],"split_conditions":[1.6435463E1,2.955E2,1.31E1,2.0503783E0,9.49509E-2,3.216E2,1.81E1,1.3E1,1.81E1,1.5173476E0,3.5677083E0,1.02E1,2.2704158E0,3.324E2,2.493E2,2.119942E-1,9.49509E-2,1E0,1.86E1,7.67496E-1,6E0,4.2E1,2.15972E1,2.2211614E0,3.7E1,1.4032E0,3.2399752E0,1.5094364E0,4.98E1,2.15E1,1.13E1,4.5474792E-1,7E0,-3.1410837E-1,2.975E2,6.6E0,3.1500044E0,2.875E2,-3.1101197E-1,7.678607E-1,1.1900001E1,4.1E0,3.5627964E0,3.342E2,8.7909775E0,6.44E-1,2.2066E1,5E0,3.1500044E0,3.058E2,2.3849788E0,8.12502E-1,3.5630002E2,3.06E2,3.7E1,-2.71E0,1E0,4.925545E1,1.03E1,1.5731206E0,1.4436E1,1.358804E1,1E0,-3.1208122E-1,-3.055671E-1,-2.6007605E-1,-2.9531887E-1,-3.1049466E-1,-2.9711273E-1,-2.4807082E-1,-2.934702E-1,-2.6706737E-1,-1.1622782E-1,-3.032624E-1,-6.094592E-2,-3.0886316E-1,-2.9760802E-1,-2.99344E-1,-3.09087E-1,-3.073945E-1,-2.8365448E-1,-2.7760196E-1,-2.1036497E-1,-2.8683022E-1,-2.688189E-1,-2.4098311E-1,4.411697E-1,-2.895738E-1,-2.3554133E-1,3.8339645E-1,-2.276155E-1,-2.573488E-1,-2.0970258E-1,-1.5902314E-1,2.4572471E-1,-2.3745714E-1,-1.8997315E-1,-1.8003754E-1,3.034236E-1,-1.8106443E-1,-2.5407854E-1,-1.648213E-1,-8.507471E-2,-1.4985363E-1,-7.218564E-2,-1.7265111E-1,3.6463845E-1,-2.7259725E-1,-2.4603498E-1,-2.088211E-1,-4.6625853E-2,-2.311177E-1,-1.490263E-1,-2.3932438E-1,2.5044218E-1,-2.902429E-1,-2.4145311E-1,-3.0488572E-1,-2.682057E-1,-2.6460624E-1,-1.9844633E-1,-1.5854211E-1,4.7747025E-1],"split_indices":[12,3,1,12,16,9,0,0,0,12,12,0,16,9,9,16,16,30,1,13,15,15,14,16,15,14,13,13,6,0,10,13,0,0,9,1,13,5,0,12,0,10,13,9,16,14,14,15,13,3,13,13,9,3,15,2,33,12,10,13,14,16,29,0,0,0,0,0,0,0,0,0,0,0,0,0,0,0,0,0,0,0,0,0,0,0,0,0,0,0,0,0,0,0,0,0,0,0,0,0,0,0,0,0,0,0,0,0,0,0,0,0,0,0,0,0,0,0,0,0,0,0,0],"split_type":[0,0,0,0,0,0,0,0,0,0,0,0,0,0,0,0,0,0,0,0,0,0,0,0,0,0,0,0,0,0,0,0,0,0,0,0,0,0,0,0,0,0,0,0,0,0,0,0,0,0,0,0,0,0,0,0,0,0,0,0,0,0,0,0,0,0,0,0,0,0,0,0,0,0,0,0,0,0,0,0,0,0,0,0,0,0,0,0,0,0,0,0,0,0,0,0,0,0,0,0,0,0,0,0,0,0,0,0,0,0,0,0,0,0,0,0,0,0,0,0,0,0,0],"sum_hessian":[2.2419134E5,1.8412334E5,4.0067992E4,1.05325695E5,7.879766E4,2.1856338E4,1.8211652E4,8.899875E4,1.6326944E4,3.9562258E4,3.92354E4,1.3980767E4,7.875572E3,9.969319E3,8.242333E3,2.5802309E4,6.319644E4,7.9726E3,8.354345E3,3.485608E4,4.70618E3,2.8384816E4,1.0850582E4,6.479174E3,7.5015923E3,2.9782837E3,4.897288E3,8.590399E3,1.3789207E3,7.2674956E3,9.74837E2,1.922651E4,6.5758E3,4.1203594E4,2.1992848E4,6.6010337E3,1.371566E3,3.168929E3,5.185416E3,1.860236E4,1.6253718E4,1.2656185E3,3.4405618E3,2.7065758E4,1.3190579E3,1.074212E4,1.08461716E2,2.5282246E3,3.9509492E3,7.064734E3,4.368586E2,1.148844E3,1.8294398E3,4.822637E3,7.465085E1,7.859869E3,7.305296E2,9.2896423E2,4.4995642E2,3.2661638E3,4.0013318E3,9.705377E2,4.299278E0,1.0537345E4,8.689164E3,4.6812427E2,6.107676E3,1.9930537E4,2.0623103E3,3.1256277E2,6.288471E3,1.3409401E3,3.0626001E1,3.167512E3,1.4168614E0,1.753075E4,1.071608E3,1.145992E4,4.793798E3,1.0356598E3,2.2995871E2,3.333107E3,1.0745484E2,1.8061963E4,9.003795E3,1.3114032E3,7.6546297E0,2.6011794E3,8.140941E3,5.615898E1,5.2302734E1,7.4063336E2,1.7875913E3,3.9176643E3,3.328503E1,6.192899E3,8.718346E2,4.0177948E2,3.5079113E1,4.1490628E2,7.339377E2,1.3818461E3,4.4759372E2,2.608332E3,2.2143052E3,2.1191044E1,5.3459805E1,2.6039854E3,5.2558843E3,6.766694E2,5.3860226E1,2.8093304E2,6.480312E2,4.4881653E2,1.1398884E0,3.0068584E3,2.5930545E2,3.8499956E3,1.5133609E2,8.8054694E2,8.999077E1,2.6592474E0,1.6400306E0],"tree_param":{"num_deleted":"0","num_feature":"42","num_nodes":"123","size_leaf_vector":"1"}},{"base_weights":[-9.0428865E-1,-9.693696E-1,-6.624987E-1,-1.0077728E0,-9.184296E-1,-5.3443795E-1,-8.380036E-1,-1.0215336E0,-9.8198026E-1,-9.832719E-1,-8.5175586E-1,-6.0522974E-1,-3.495744E-1,-7.505786E-1,-9.39447E-1,-1.0001047E0,-1.0267763E0,-1.008418E0,-9.486532E-1,-9.9525887E-1,-9.13481E-1,-8.7994266E-1,-7.615669E-1,-7.3959374E-1,-5.449939E-1,-4.9573773E-1,-2.237356E-1,-8.044564E-1,-6.5550584E-1,-9.577562E-1,-8.0501443E-1,-1.0156401E0,-9.532866E-1,-1.0291731E0,-1.0003211E0,-1.0125782E0,-9.5750606E-1,-9.161924E-1,-9.8802906E-1,-1.0107727E0,-9.8352605E-1,-9.8158675E-1,-8.8729113E-1,-9.676455E-1,-8.628532E-1,-9.1036814E-1,-7.056077E-1,-8.7626445E-1,-6.826224E-1,-4.1308287E-1,-6.1844385E-1,-3.8248023E-1,-6.564897E-1,-5.495612E-1,-1.7596649E-1,-8.112424E-1,-3.4833565E-1,-6.741968E-1,-2.5171664E-1,-9.2148453E-1,-9.8682815E-1,-8.2001567E-1,-2.5228268E-1,-3.0515015E-1,-2.4575725E-1,-2.1671166E-1,-2.8828323E-1,-3.1009963E-1,-3.0609226E-1,-3.0034727E-1,-3.9642837E-2,-3.03895E-1,-1.6211824E-1,-2.9327005E-1,-2.534494E-1,-2.789223E-1,-2.3684384E-1,-3.002609E-1,-2.8608173E-1,-3.0325806E-1,-8.7558955E-2,-2.915834E-1,-3.0284694E-1,-2.9749647E-1,-2.6970065E-1,-2.7059188E-1,-2.2841538E-1,-2.9430214E-1,-2.6465434E-1,-2.7212214E-1,-2.4705662E-1,-2.7427158E-1,1.2107634E-1,-2.1863559E-1,-1.1301675E-1,-2.8271046E-1,-2.4598394E-1,-2.0865071E-1,-8.2053795E-2,-1.5862694E-1,-8.708375E-2,-1.9378136E-1,-9.116535E-2,-1.2232833E-1,1.1314292E-1,-1.3438317E-1,-2.2470339E-1,-1.3131617E-1,-2.3375545E-1,-1.8785613E-3,-8.732309E-2,-2.152284E-1,-2.524373E-1,-1.8860933E-1,3.7674573E-1,-2.062098E-1,-8.481093E-2,-9.567077E-2,3.4902546E-1,-2.802086E-1,-2.2325146E-1,-2.9758525E-1,-2.4895836E-1,-2.4796778E-1,5.882753E-2,-1.5399995E-1,4.0190265E-1],"categories":[],"categories_nodes":[],"categories_segments":[],"categories_sizes":[],"default_left":[0,0,0,0,0,0,0,0,0,0,0,0,0,0,0,0,0,0,0,1,0,0,0,0,0,0,0,1,0,0,0,0,0,0,0,0,0,0,0,0,0,0,0,0,0,0,0,0,0,1,1,1,0,0,0,0,0,0,0,1,0,0,0,0,0,0,0,0,0,0,0,0,0,0,0,0,0,0,0,0,0,0,0,0,0,0,0,0,0,0,0,0,0,0,0,0,0,0,0,0,0,0,0,0,0,0,0,0,0,0,0,0,0,0,0,0,0,0,0,0,0,0,0,0,0,0,0],"id":4,"left_children":[1,3,5,7,9,11,13,15,17,19,21,23,25,27,29,31,33,35,37,39,41,43,45,47,49,51,53,55,57,59,61,63,65,67,69,71,73,75,77,79,81,83,85,87,89,91,93,95,97,99,101,103,105,107,109,111,113,115,117,119,121,123,125,-1,-1,-1,-1,-1,-1,-1,-1,-1,-1,-1,-1,-1,-1,-1,-1,-1,-1,-1,-1,-1,-1,-1,-1,-1,-1,-1,-1,-1,-1,-1,-1,-1,-1,-1,-1,-1,-1,-1,-1,-1,-1,-1,-1,-1,-1,-1,-1,-1,-1,-1,-1,-1,-1,-1,-1,-1,-1,-1,-1,-1,-1,-1,-1],"loss_changes":[2.724375E3,2.659922E2,8.250576E2,2.6601562E1,2.5276562E2,2.7772217E2,1.3669434E2,4.671875E0,2.291211E1,2.3966797E1,7.286914E1,1.2387695E2,1.0809796E2,4.2123047E1,1.6870117E1,6.307617E0,1.5546875E0,2.2246094E0,1.4430664E1,3.6210938E0,6.923828E0,3.2189453E1,5.6777588E1,3.6388916E1,1.0250708E2,4.9287415E1,4.913655E1,1.615332E1,2.2601318E1,5.7373047E0,6.969055E0,1.4160156E0,3.7419434E0,4.2578125E-1,2.3483887E0,2.1191406E0,1.7922363E0,1.0581543E1,1.4365234E0,3.8964844E-1,3.3730469E0,1.0998535E-1,5.1674805E0,3.2287598E0,3.1342773E1,9.935303E0,3.7958984E1,4.4171143E0,1.7500122E1,5.377588E1,5.8706543E1,3.0854828E1,2.1337921E1,1.0033798E1,5.391825E1,1.422583E1,3.6587677E1,1.46698E1,1.3213846E1,5.5759277E0,1.9787598E0,5.7612305E0,1.0791242E1,0E0,0E0,0E0,0E0,0E0,0E0,0E0,0E0,0E0,0E0,0E0,0E0,0E0,0E0,0E0,0E0,0E0,0E0,0E0,0E0,0E0,0E0,0E0,0E0,0E0,0E0,0E0,0E0,0E0,0E0,0E0,0E0,0E0,0E0,0E0,0E0,0E0,0E0,0E0,0E0,0E0,0E0,0E0,0E0,0E0,0E0,0E0,0E0,0E0,0E0,0E0,0E0,0E0,0E0,0E0,0E0,0E0,0E0,0E0,0E0,0E0,0E0,0E0,0E0],"parents":[2147483647,0,0,1,1,2,2,3,3,4,4,5,5,6,6,7,7,8,8,9,9,10,10,11,11,12,12,13,13,14,14,15,15,16,16,17,17,18,18,19,19,20,20,21,21,22,22,23,23,24,24,25,25,26,26,27,27,28,28,29,29,30,30,31,31,32,32,33,33,34,34,35,35,36,36,37,37,38,38,39,39,40,40,41,41,42,42,43,43,44,44,45,45,46,46,47,47,48,48,49,49,50,50,51,51,52,52,53,53,54,54,55,55,56,56,57,57,58,58,59,59,60,60,61,61,62,62],"right_children":[2,4,6,8,10,12,14,16,18,20,22,24,26,28,30,32,34,36,38,40,42,44,46,48,50,52,54,56,58,60,62,64,66,68,70,72,74,76,78,80,82,84,86,88,90,92,94,96,98,100,102,104,106,108,110,112,114,116,118,120,122,124,126,-1,-1,-1,-1,-1,-1,-1,-1,-1,-1,-1,-1,-1,-1,-1,-1,-1,-1,-1,-1,-1,-1,-1,-1,-1,-1,-1,-1,-1,-1,-1,-1,-1,-1,-1,-1,-1,-1,-1,-1,-1,-1,-1,-1,-1,-1,-1,-1,-1,-1,-1,-1,-1,-1,-1,-1,-1,-1,-1,-1,-1,-1,-1,-1],"split_conditions":[1.1714837E1,2.955E2,1.33E1,2.898E2,9.49509E-2,3.369E2,1.81E1,1.3E1,2.119942E-1,9.622693E-1,3.5677083E0,3.469789E1,5.697669E1,2.706E2,2.493E2,9.49509E-2,3.5677083E0,1.9746091E0,1.5900001E1,5.5334014E-1,1.9732E0,4E0,5E0,9.928E-1,9.5E0,1E0,-4.2200003E0,2.846114E0,3.459999E0,2.15E1,4E1,5.6492634E0,2.84E1,9.49509E-2,2.65148E1,6.7E1,1E0,4E1,3.3822317E0,2.72E1,1.15E1,7.2227907E0,3.555E2,3.5630002E2,2.85E2,1.913494E1,4.116159E0,5.024E-1,4.4E1,4.866636E-1,1.4699792E0,3.700002E0,7.8998876E-1,1.1068885E3,8.2E0,1.33E1,4E1,5.2097207E3,3.6330002E2,1.6929263E0,4E1,1.13E1,1E0,-3.0515015E-1,-2.4575725E-1,-2.1671166E-1,-2.8828323E-1,-3.1009963E-1,-3.0609226E-1,-3.0034727E-1,-3.9642837E-2,-3.03895E-1,-1.6211824E-1,-2.9327005E-1,-2.534494E-1,-2.789223E-1,-2.3684384E-1,-3.002609E-1,-2.8608173E-1,-3.0325806E-1,-8.7558955E-2,-2.915834E-1,-3.0284694E-1,-2.9749647E-1,-2.6970065E-1,-2.7059188E-1,-2.2841538E-1,-2.9430214E-1,-2.6465434E-1,-2.7212214E-1,-2.4705662E-1,-2.7427158E-1,1.2107634E-1,-2.1863559E-1,-1.1301675E-1,-2.8271046E-1,-2.4598394E-1,-2.0865071E-1,-8.2053795E-2,-1.5862694E-1,-8.708375E-2,-1.9378136E-1,-9.116535E-2,-1.2232833E-1,1.1314292E-1,-1.3438317E-1,-2.2470339E-1,-1.3131617E-1,-2.3375545E-1,-1.8785613E-3,-8.732309E-2,-2.152284E-1,-2.524373E-1,-1.8860933E-1,3.7674573E-1,-2.062098E-1,-8.481093E-2,-9.567077E-2,3.4902546E-1,-2.802086E-1,-2.2325146E-1,-2.9758525E-1,-2.4895836E-1,-2.4796778E-1,5.882753E-2,-1.5399995E-1,4.0190265E-1],"split_indices":[12,3,1,3,16,9,0,0,16,12,12,12,12,9,9,16,12,12,0,13,14,15,15,14,0,25,2,13,2,0,15,12,4,16,14,15,30,15,12,7,0,12,9,9,5,16,16,14,15,13,13,13,13,12,1,0,15,12,9,13,15,10,33,0,0,0,0,0,0,0,0,0,0,0,0,0,0,0,0,0,0,0,0,0,0,0,0,0,0,0,0,0,0,0,0,0,0,0,0,0,0,0,0,0,0,0,0,0,0,0,0,0,0,0,0,0,0,0,0,0,0,0,0,0,0,0,0],"split_type":[0,0,0,0,0,0,0,0,0,0,0,0,0,0,0,0,0,0,0,0,0,0,0,0,0,0,0,0,0,0,0,0,0,0,0,0,0,0,0,0,0,0,0,0,0,0,0,0,0,0,0,0,0,0,0,0,0,0,0,0,0,0,0,0,0,0,0,0,0,0,0,0,0,0,0,0,0,0,0,0,0,0,0,0,0,0,0,0,0,0,0,0,0,0,0,0,0,0,0,0,0,0,0,0,0,0,0,0,0,0,0,0,0,0,0,0,0,0,0,0,0,0,0,0,0,0,0],"sum_hessian":[1.731712E5,1.3644281E5,3.672839E4,7.778359E4,5.865922E4,2.1236664E4,1.5491726E4,5.069709E4,2.7086506E4,2.9731082E4,2.8928137E4,1.5354519E4,5.8821465E3,8.325298E3,7.1664277E3,1.0002979E4,4.069411E4,1.5088128E4,1.1998377E4,2.5361799E4,4.369284E3,2.2033305E4,6.8948325E3,4.749302E3,1.0605217E4,2.7199502E3,3.1621963E3,5.309141E3,3.0161562E3,6.3019946E3,8.6443353E2,7.4951763E3,2.507802E3,3.727873E4,3.415378E3,1.393089E4,1.1572386E3,6.5899814E3,5.4083955E3,1.0884538E4,1.4477261E4,1.2034006E3,3.1658838E3,3.584101E3,1.8449203E4,1.8801227E3,5.01471E3,1.3930591E3,3.356243E3,3.7954602E3,6.8097563E3,1.597684E3,1.1222664E3,4.029862E2,2.75921E3,5.2305444E3,7.859669E1,2.8820784E3,1.34078E2,2.8183567E3,3.4836377E3,8.411217E2,2.3311827E1,7.433222E3,6.1953815E1,8.3552956E1,2.424249E3,2.4665158E4,1.2613574E4,3.411938E3,3.4399467E0,1.3917804E4,1.3085491E1,9.7582544E2,1.8141316E2,5.9476987E3,6.4228284E2,3.9186057E3,1.4897898E3,1.0882807E4,1.7312305E0,1.0038064E4,4.439196E3,1.062822E3,1.4057863E2,2.8297476E3,3.3613605E2,3.0904587E3,4.9364233E2,8.674402E3,9.774801E3,1.8749043E3,5.2184343E0,4.6834375E3,3.3127258E2,6.336146E2,7.594444E2,3.2531252E3,1.03117584E2,1.9527671E3,1.8426931E3,6.261424E3,5.483321E2,1.5466726E3,5.1011303E1,3.4668106E2,7.7558527E2,2.7294952E2,1.3003668E2,1.1155847E3,1.6436254E3,1.2802543E3,3.95029E3,6.7421364E1,1.1175317E1,2.7875542E3,9.452412E1,1.2874048E2,5.337524E0,2.6281602E3,1.9019661E2,3.3683901E3,1.1524751E2,8.3592505E2,5.1966577E0,2.0609768E1,2.7020586E0],"tree_param":{"num_deleted":"0","num_feature":"42","num_nodes":"127","size_leaf_vector":"1"}},{"base_weights":[-8.558532E-1,-9.377854E-1,-5.780987E-1,-9.878616E-1,-8.731067E-1,-7.5045675E-1,-4.229816E-1,-1.0076118E0,-9.5668083E-1,-9.557437E-1,-7.913775E-1,-6.558117E-1,-9.0015346E-1,-5.117627E-1,-2.8634635E-1,-9.856388E-1,-1.0171093E0,-8.9166605E-1,-9.8622024E-1,-9.714526E-1,-8.665276E-1,-8.344153E-1,-7.0721245E-1,-6.881006E-1,-3.8967767E-1,-8.5243523E-1,-9.655896E-1,-6.3708174E-1,-4.2921877E-1,-5.904517E-1,-2.3574522E-1,-9.915756E-1,-8.9284855E-1,-3.058291E-1,-9.7117734E-1,-7.345318E-1,-9.055956E-1,-9.936244E-1,-9.0480363E-1,-9.918599E-1,-9.561433E-1,-9.531165E-1,-8.3413506E-1,-8.536959E-1,-7.020651E-1,-6.3250405E-1,-8.398788E-1,-7.1088845E-1,-3.868812E-1,-5.3099155E-1,-1.634023E-1,-8.6625576E-1,-4.5234215E-1,-9.699162E-1,-8.161849E-1,-7.803702E-1,-5.5984795E-1,-3.0538163E-1,-5.82994E-1,-6.663562E-1,-1.8420552E-1,-3.8786152E-1,-1.2938929E-1,-3.0223864E-1,-2.9155877E-1,-2.6983783E-1,7.499618E-3,-2.7146E-1,-3.0088153E-1,-2.231018E-1,3.370297E-1,-2.7769813E-1,-2.518471E-1,-2.931739E-1,-3.0407512E-1,-2.8172866E-1,-1.9077456E-1,-2.975921E-1,-7.529898E-2,-2.8235736E-1,-2.9700938E-1,-3.026582E-1,-2.7735695E-1,-2.659954E-1,-2.3360944E-1,-2.6491338E-1,-2.3904891E-1,-2.351209E-1,-1.6687317E-1,-2.1405607E-1,-1.5426202E-1,-2.7242953E-1,-2.2594343E-1,-2.1801051E-1,-1.3971342E-1,-1.370729E-1,3.5460442E-1,-1.7006014E-1,1.3806102E-1,1.431939E-2,-1.0898667E-1,-2.813889E-1,-2.448589E-1,-1.9466484E-1,3.4273532E-1,-2.401106E-1,-2.9203418E-1,-2.6906878E-1,-2.2252051E-2,-2.4916376E-1,-1.6786157E-1,-1.7466713E-1,-5.5300724E-3,-1.78066E-1,-6.456663E-2,-1.7834985E-1,2.2312441E-1,-2.614479E-1,-1.7781365E-1,1.8579164E-1,-1.5680556E-1,-2.1188535E-1,-9.490016E-2,-6.1485153E-2,4.4755064E-2],"categories":[],"categories_nodes":[],"categories_segments":[],"categories_sizes":[],"default_left":[0,0,0,0,0,0,0,0,1,0,0,0,0,0,0,0,0,1,0,1,0,0,0,0,0,0,0,0,0,0,0,1,0,0,0,1,0,0,0,0,0,0,0,0,0,0,0,0,1,1,0,0,0,0,0,0,0,0,0,0,0,0,0,0,0,0,0,0,0,0,0,0,0,0,0,0,0,0,0,0,0,0,0,0,0,0,0,0,0,0,0,0,0,0,0,0,0,0,0,0,0,0,0,0,0,0,0,0,0,0,0,0,0,0,0,0,0,0,0,0,0,0,0,0,0],"id":5,"left_children":[1,3,5,7,9,11,13,15,17,19,21,23,25,27,29,31,33,35,37,39,41,43,45,47,49,51,53,55,57,59,61,63,65,-1,67,69,71,73,75,77,79,81,83,85,87,89,91,93,95,97,99,101,103,105,107,109,111,113,115,117,119,121,123,-1,-1,-1,-1,-1,-1,-1,-1,-1,-1,-1,-1,-1,-1,-1,-1,-1,-1,-1,-1,-1,-1,-1,-1,-1,-1,-1,-1,-1,-1,-1,-1,-1,-1,-1,-1,-1,-1,-1,-1,-1,-1,-1,-1,-1,-1,-1,-1,-1,-1,-1,-1,-1,-1,-1,-1,-1,-1,-1,-1,-1,-1],"loss_changes":[3.06475E3,3.3602344E2,8.200615E2,3.513672E1,3.0584766E2,2.0531836E2,1.9579224E2,6.4804688E0,4.28125E1,3.0789062E1,8.210547E1,7.627612E1,1.6746582E1,1.0099219E2,9.779004E1,5.0947266E0,1.6757812E0,1.4914551E1,8.525391E0,5.044922E0,8.708008E0,3.7932617E1,7.6091064E1,5.424341E1,3.0804855E1,1.7648193E1,7.373047E-1,4.2561768E1,1.1227246E2,2.785144E1,8.824823E1,2.2148438E0,4.0448E0,0E0,1.6707764E0,1.0768738E1,7.8896484E0,3.6894531E0,1.1522583E1,4.4091797E-1,4.6347656E0,5.264282E-1,6.5113525E0,2.1285156E1,2.249768E1,4.707141E1,1.5777222E1,2.8284668E1,6.215371E1,2.1392166E1,1.57523575E1,1.0550293E1,3.5541245E1,5.9375E-1,4.298069E0,1.4585144E1,3.0616821E1,8.491037E1,4.0634766E1,1.10252075E1,3.9542336E1,5.0914673E1,6.767276E1,0E0,0E0,0E0,0E0,0E0,0E0,0E0,0E0,0E0,0E0,0E0,0E0,0E0,0E0,0E0,0E0,0E0,0E0,0E0,0E0,0E0,0E0,0E0,0E0,0E0,0E0,0E0,0E0,0E0,0E0,0E0,0E0,0E0,0E0,0E0,0E0,0E0,0E0,0E0,0E0,0E0,0E0,0E0,0E0,0E0,0E0,0E0,0E0,0E0,0E0,0E0,0E0,0E0,0E0,0E0,0E0,0E0,0E0,0E0,0E0,0E0,0E0],"parents":[2147483647,0,0,1,1,2,2,3,3,4,4,5,5,6,6,7,7,8,8,9,9,10,10,11,11,12,12,13,13,14,14,15,15,16,16,17,17,18,18,19,19,20,20,21,21,22,22,23,23,24,24,25,25,26,26,27,27,28,28,29,29,30,30,31,31,32,32,34,34,35,35,36,36,37,37,38,38,39,39,40,40,41,41,42,42,43,43,44,44,45,45,46,46,47,47,48,48,49,49,50,50,51,51,52,52,53,53,54,54,55,55,56,56,57,57,58,58,59,59,60,60,61,61,62,62],"right_children":[2,4,6,8,10,12,14,16,18,20,22,24,26,28,30,32,34,36,38,40,42,44,46,48,50,52,54,56,58,60,62,64,66,-1,68,70,72,74,76,78,80,82,84,86,88,90,92,94,96,98,100,102,104,106,108,110,112,114,116,118,120,122,124,-1,-1,-1,-1,-1,-1,-1,-1,-1,-1,-1,-1,-1,-1,-1,-1,-1,-1,-1,-1,-1,-1,-1,-1,-1,-1,-1,-1,-1,-1,-1,-1,-1,-1,-1,-1,-1,-1,-1,-1,-1,-1,-1,-1,-1,-1,-1,-1,-1,-1,-1,-1,-1,-1,-1,-1,-1,-1,-1,-1,-1,-1],"split_conditions":[1.1714837E1,2.955E2,2.975E2,9.49509E-2,9.49509E-2,1.81E1,3.295E2,1.28E1,1.46E1,9.622693E-1,2.133883E0,1E0,2E1,5.697669E1,5.616E-1,1.0001428E0,2.6006546E0,6.2000003E0,2.926E2,5.5334014E-1,1.9732E0,1E0,1E0,1E0,5.2876686E1,4E1,4E1,1.266E0,1.15E1,6.513631E2,2.436836E0,4.5474792E-1,9.3E0,-3.058291E-1,1.58E1,1.01E1,2.0503783E0,2.11E1,5.8688903E0,2.72E1,1.15E1,3.792E-1,3.096E2,3.342E2,3.6E1,3.226E2,4E0,1E0,2.4866557E0,3.1500044E0,2.89E1,4.4504906E1,1.6222092E2,-3.96E0,1.6222092E2,3.188494E0,1.86216E1,-3.2800007E0,1.4436E1,3.908E-1,9.81519E2,9.08E-1,3.586E2,-3.0223864E-1,-2.9155877E-1,-2.6983783E-1,7.499618E-3,-2.7146E-1,-3.0088153E-1,-2.231018E-1,3.370297E-1,-2.7769813E-1,-2.518471E-1,-2.931739E-1,-3.0407512E-1,-2.8172866E-1,-1.9077456E-1,-2.975921E-1,-7.529898E-2,-2.8235736E-1,-2.9700938E-1,-3.026582E-1,-2.7735695E-1,-2.659954E-1,-2.3360944E-1,-2.6491338E-1,-2.3904891E-1,-2.351209E-1,-1.6687317E-1,-2.1405607E-1,-1.5426202E-1,-2.7242953E-1,-2.2594343E-1,-2.1801051E-1,-1.3971342E-1,-1.370729E-1,3.5460442E-1,-1.7006014E-1,1.3806102E-1,1.431939E-2,-1.0898667E-1,-2.813889E-1,-2.448589E-1,-1.9466484E-1,3.4273532E-1,-2.401106E-1,-2.9203418E-1,-2.6906878E-1,-2.2252051E-2,-2.4916376E-1,-1.6786157E-1,-1.7466713E-1,-5.5300724E-3,-1.78066E-1,-6.456663E-2,-1.7834985E-1,2.2312441E-1,-2.614479E-1,-1.7781365E-1,1.8579164E-1,-1.5680556E-1,-2.1188535E-1,-9.490016E-2,-6.1485153E-2,4.4755064E-2],"split_indices":[12,3,3,16,16,0,9,0,0,12,12,30,1,12,14,12,12,1,9,13,14,27,25,33,12,15,15,14,0,12,16,13,10,0,1,10,12,0,12,7,0,14,9,9,15,9,15,29,13,13,6,12,12,2,12,16,14,2,14,14,12,14,9,0,0,0,0,0,0,0,0,0,0,0,0,0,0,0,0,0,0,0,0,0,0,0,0,0,0,0,0,0,0,0,0,0,0,0,0,0,0,0,0,0,0,0,0,0,0,0,0,0,0,0,0,0,0,0,0,0,0,0,0,0,0],"split_type":[0,0,0,0,0,0,0,0,0,0,0,0,0,0,0,0,0,0,0,0,0,0,0,0,0,0,0,0,0,0,0,0,0,0,0,0,0,0,0,0,0,0,0,0,0,0,0,0,0,0,0,0,0,0,0,0,0,0,0,0,0,0,0,0,0,0,0,0,0,0,0,0,0,0,0,0,0,0,0,0,0,0,0,0,0,0,0,0,0,0,0,0,0,0,0,0,0,0,0,0,0,0,0,0,0,0,0,0,0,0,0,0,0,0,0,0,0,0,0,0,0,0,0,0,0],"sum_hessian":[1.3469548E5,1.04011695E5,3.068379E4,5.8615492E4,4.5396203E4,1.4532356E4,1.6151432E4,3.5866203E4,2.274929E4,2.2567441E4,2.2828764E4,8.90659E3,5.625767E3,9.788465E3,6.3629673E3,1.0855753E4,2.501045E4,7.116786E3,1.5632503E4,1.9180326E4,3.387115E3,1.509898E4,7.729783E3,7.941498E3,9.6509186E2,3.261442E3,2.3643252E3,3.8844026E3,5.904062E3,9.061956E2,5.4567715E3,1.0193855E4,6.6189764E2,2.3787271E4,1.2231776E3,5.8388715E2,6.532899E3,1.4319101E4,1.3134023E3,8.193946E3,1.0986379E4,9.1440045E2,2.4727146E3,1.3174312E4,1.9246686E3,4.9487573E3,2.7810261E3,7.3816978E3,5.598002E2,5.932486E2,3.7184323E2,3.1514165E3,1.1002524E2,2.2924465E3,7.187862E1,1.3572507E3,2.5271519E3,3.2720354E3,2.6320266E3,7.629947E2,1.4320094E2,2.2442588E3,3.2125127E3,5.617026E3,4.5768296E3,6.5718427E2,4.71339E0,4.0568307E2,8.174945E2,5.8162537E2,2.2617385E0,5.0017295E3,1.5311693E3,7.8926016E3,6.4264995E3,1.1626368E3,1.5076547E2,8.192351E3,1.595892E0,7.6429097E3,3.3434695E3,2.9839075E2,6.160097E2,1.2621073E3,1.2106073E3,8.680024E3,4.4942876E3,1.2308961E3,6.9377234E2,2.9342192E3,2.0145381E3,1.5513567E3,1.2296694E3,6.9325996E3,4.4909805E2,5.365594E2,2.3240835E1,5.729396E2,2.0309032E1,1.8120432E2,1.9063893E2,1.2882848E3,1.8631318E3,9.84816E1,1.1543641E1,5.141438E1,2.2410322E3,6.463889E1,7.239723E0,1.1037128E3,2.53538E2,2.4267812E3,1.0037042E2,7.784232E2,2.4936123E3,2.6099453E3,2.2081448E1,1.986943E2,5.6430035E2,4.219805E1,1.0100289E2,4.1003085E2,1.834228E3,2.5272703E3,6.8524255E2],"tree_param":{"num_deleted":"0","num_feature":"42","num_nodes":"125","size_leaf_vector":"1"}},{"base_weights":[-8.01337E-1,-9.0958774E-1,-5.116413E-1,-9.789213E-1,-8.42475E-1,-3.8470396E-1,-7.3910713E-1,-9.987652E-1,-9.4521827E-1,-9.326998E-1,-7.49596E-1,-5.354146E-1,-3.0225527E-1,-6.446055E-1,-8.9828247E-1,-9.714424E-1,-1.0090607E0,-7.98623E-1,-9.6261907E-1,-9.4923246E-1,-8.306309E-1,-8.117762E-1,-6.815829E-1,-7.314595E-1,-4.6964332E-1,-4.121208E-1,-1.6507983E-1,-8.0465347E-1,-5.873698E-1,-8.478038E-1,-9.551105E-1,-9.772682E-1,-8.650787E-1,-3.0330127E-1,-9.5315444E-1,-5.006677E-1,-8.208494E-1,-9.2728704E-1,-9.899606E-1,-9.786183E-1,-9.31958E-1,-8.5643715E-1,-6.871086E-1,-7.299054E-1,-8.6429876E-1,-7.30652E-1,-5.615254E-1,-8.3163804E-1,-6.3107556E-1,-5.543564E-1,-3.060168E-1,-5.1727474E-1,-2.591296E-1,-2.3361936E-1,9.711145E-2,-8.2239646E-1,-4.6261054E-1,-6.12255E-1,-1.5283169E-1,-9.232459E-1,-7.7713734E-1,-5.414046E-2,-9.556149E-1,-2.9348996E-1,-1.3585456E-1,-2.6758903E-1,-1.5960446E-1,-2.4757437E-1,-2.9774505E-1,-2.0787105E-1,-2.8946273E-2,-2.7260685E-1,-2.2639813E-1,-2.8285092E-1,-2.4891889E-1,-2.9771176E-1,-2.655089E-1,-2.9843158E-1,-2.9024175E-1,-2.733128E-1,-2.9161742E-1,-2.7014884E-1,-2.3872611E-1,-2.215373E-1,1.9867038E-2,-2.402075E-1,-1.8057935E-1,-2.6524225E-1,-2.2238103E-1,-2.267762E-1,-1.6648778E-1,-2.4865122E-1,-1.5216252E-1,-2.5452355E-1,-7.65666E-2,-2.1347132E-1,-1.0837922E-1,-1.5748408E-1,-2.258728E-1,-1.1092176E-1,9.7731955E-2,-1.2834227E-1,-1.8081447E-1,-9.18975E-2,1.2783182E-1,-1.7120554E-1,-5.212745E-2,7.788515E-2,-5.014855E-2,-2.8276598E-1,-2.350445E-1,-8.6980695E-3,-1.7533627E-1,-2.0195837E-1,-1.4859717E-1,-6.7710996E-2,2.7064946E-1,-2.7855468E-1,-6.327422E-2,-2.3823918E-1,2.1418855E-3,-2.8813934E-1,-2.4314106E-1],"categories":[],"categories_nodes":[],"categories_segments":[],"categories_sizes":[],"default_left":[0,0,0,0,0,0,0,0,1,0,0,0,0,0,0,0,0,1,0,1,0,0,0,0,0,1,0,0,0,0,0,0,0,0,0,0,1,0,0,0,0,0,1,0,0,0,0,0,0,0,0,0,0,0,0,0,0,0,0,0,0,0,0,0,0,0,0,0,0,0,0,0,0,0,0,0,0,0,0,0,0,0,0,0,0,0,0,0,0,0,0,0,0,0,0,0,0,0,0,0,0,0,0,0,0,0,0,0,0,0,0,0,0,0,0,0,0,0,0,0,0,0,0],"id":6,"left_children":[1,3,5,7,9,11,13,15,17,19,21,23,25,27,29,31,33,35,37,39,41,43,45,47,49,51,53,55,57,59,61,63,65,-1,67,69,71,73,75,77,79,81,83,85,87,89,91,93,95,97,99,101,103,105,107,109,111,113,115,117,119,-1,121,-1,-1,-1,-1,-1,-1,-1,-1,-1,-1,-1,-1,-1,-1,-1,-1,-1,-1,-1,-1,-1,-1,-1,-1,-1,-1,-1,-1,-1,-1,-1,-1,-1,-1,-1,-1,-1,-1,-1,-1,-1,-1,-1,-1,-1,-1,-1,-1,-1,-1,-1,-1,-1,-1,-1,-1,-1,-1,-1,-1],"loss_changes":[3.318789E3,3.5770703E2,8.3112354E2,2.4394531E1,3.274629E2,2.2950781E2,1.545415E2,5.7265625E0,3.5097656E1,3.2722656E1,8.1072266E1,8.391467E1,1.8002136E2,5.883423E1,1.0203125E1,3.2124023E0,9.140625E-1,9.50824E0,1.1220703E1,7.760742E0,9.69458E0,4.2703613E1,5.393213E1,1.5965393E1,6.769324E1,1.0660083E2,9.5552444E1,9.953003E0,5.1514282E1,1.0168945E1,5.3027344E-1,2.9125977E0,2.6488037E0,0E0,2.1899414E0,8.211018E0,7.4089966E0,7.5566406E0,9.111328E-1,1.7285156E-1,8.155273E0,5.564331E0,1.6612274E1,3.525415E1,1.4317871E1,2.8636719E1,3.850116E1,7.6882935E0,1.7621582E1,1.8434021E1,6.744565E1,2.979126E1,8.75961E1,8.493884E1,4.738533E1,6.824463E0,4.5402184E0,3.1829712E1,2.0180038E1,3.4915771E0,1.4142029E1,0E0,4.8620605E-1,0E0,0E0,0E0,0E0,0E0,0E0,0E0,0E0,0E0,0E0,0E0,0E0,0E0,0E0,0E0,0E0,0E0,0E0,0E0,0E0,0E0,0E0,0E0,0E0,0E0,0E0,0E0,0E0,0E0,0E0,0E0,0E0,0E0,0E0,0E0,0E0,0E0,0E0,0E0,0E0,0E0,0E0,0E0,0E0,0E0,0E0,0E0,0E0,0E0,0E0,0E0,0E0,0E0,0E0,0E0,0E0,0E0,0E0,0E0,0E0],"parents":[2147483647,0,0,1,1,2,2,3,3,4,4,5,5,6,6,7,7,8,8,9,9,10,10,11,11,12,12,13,13,14,14,15,15,16,16,17,17,18,18,19,19,20,20,21,21,22,22,23,23,24,24,25,25,26,26,27,27,28,28,29,29,30,30,31,31,32,32,34,34,35,35,36,36,37,37,38,38,39,39,40,40,41,41,42,42,43,43,44,44,45,45,46,46,47,47,48,48,49,49,50,50,51,51,52,52,53,53,54,54,55,55,56,56,57,57,58,58,59,59,60,60,62,62],"right_children":[2,4,6,8,10,12,14,16,18,20,22,24,26,28,30,32,34,36,38,40,42,44,46,48,50,52,54,56,58,60,62,64,66,-1,68,70,72,74,76,78,80,82,84,86,88,90,92,94,96,98,100,102,104,106,108,110,112,114,116,118,120,-1,122,-1,-1,-1,-1,-1,-1,-1,-1,-1,-1,-1,-1,-1,-1,-1,-1,-1,-1,-1,-1,-1,-1,-1,-1,-1,-1,-1,-1,-1,-1,-1,-1,-1,-1,-1,-1,-1,-1,-1,-1,-1,-1,-1,-1,-1,-1,-1,-1,-1,-1,-1,-1,-1,-1,-1,-1,-1,-1,-1,-1],"split_conditions":[8.375446E0,2.935E2,1.37E1,9.49509E-2,9.49509E-2,3.469789E1,1.95E1,1.28E1,1.0900001E1,9.622693E-1,3.074E2,5E0,3.036E2,2.5527458E1,2.02E1,1.0001428E0,2.9393477E0,2.57E1,1.81E1,4.5999882E-1,1E0,8.400001E0,2.133883E0,5.024E-1,3.046E2,6.074981E-1,1.8699989E0,3.482E2,1E0,4.4504906E1,7E-1,6.7E1,2.11428E1,-3.0330127E-1,1.51E1,1E0,3.5416245E-1,3.4835117E0,3.051E2,2.836E2,1.15E1,3.137E2,3.5627964E0,3.2E1,4.8057303E0,1E0,5.752E-1,1E0,1.5599995E0,1.6E1,4.2902455E0,1.12E1,4E1,6.048E-1,8.7707597E-1,7.04E-1,1.41E1,2.706E2,1.38184E1,1.0400001E1,1.4436E1,-5.414046E-2,4E1,-2.9348996E-1,-1.3585456E-1,-2.6758903E-1,-1.5960446E-1,-2.4757437E-1,-2.9774505E-1,-2.0787105E-1,-2.8946273E-2,-2.7260685E-1,-2.2639813E-1,-2.8285092E-1,-2.4891889E-1,-2.9771176E-1,-2.655089E-1,-2.9843158E-1,-2.9024175E-1,-2.733128E-1,-2.9161742E-1,-2.7014884E-1,-2.3872611E-1,-2.215373E-1,1.9867038E-2,-2.402075E-1,-1.8057935E-1,-2.6524225E-1,-2.2238103E-1,-2.267762E-1,-1.6648778E-1,-2.4865122E-1,-1.5216252E-1,-2.5452355E-1,-7.65666E-2,-2.1347132E-1,-1.0837922E-1,-1.5748408E-1,-2.258728E-1,-1.1092176E-1,9.7731955E-2,-1.2834227E-1,-1.8081447E-1,-9.18975E-2,1.2783182E-1,-1.7120554E-1,-5.212745E-2,7.788515E-2,-5.014855E-2,-2.8276598E-1,-2.350445E-1,-8.6980695E-3,-1.7533627E-1,-2.0195837E-1,-1.4859717E-1,-6.7710996E-2,2.7064946E-1,-2.7855468E-1,-6.327422E-2,-2.3823918E-1,2.1418855E-3,-2.8813934E-1,-2.4314106E-1],"split_indices":[12,3,1,16,16,12,0,0,0,12,9,15,3,12,1,12,12,4,0,13,30,1,12,14,3,13,2,9,29,12,10,15,14,0,1,27,13,12,9,5,0,9,13,15,12,27,14,39,2,0,16,0,15,14,13,14,1,9,14,10,14,0,15,0,0,0,0,0,0,0,0,0,0,0,0,0,0,0,0,0,0,0,0,0,0,0,0,0,0,0,0,0,0,0,0,0,0,0,0,0,0,0,0,0,0,0,0,0,0,0,0,0,0,0,0,0,0,0,0,0,0,0,0],"split_type":[0,0,0,0,0,0,0,0,0,0,0,0,0,0,0,0,0,0,0,0,0,0,0,0,0,0,0,0,0,0,0,0,0,0,0,0,0,0,0,0,0,0,0,0,0,0,0,0,0,0,0,0,0,0,0,0,0,0,0,0,0,0,0,0,0,0,0,0,0,0,0,0,0,0,0,0,0,0,0,0,0,0,0,0,0,0,0,0,0,0,0,0,0,0,0,0,0,0,0,0,0,0,0,0,0,0,0,0,0,0,0,0,0,0,0,0,0,0,0,0,0,0,0],"sum_hessian":[1.0584336E5,7.704993E4,2.879343E4,3.789124E4,3.915869E4,1.848215E4,1.0311279E4,2.3831158E4,1.4060081E4,1.9858574E4,1.9300115E4,6.5336274E3,1.1948522E4,6.4732144E3,3.8380647E3,6.5483066E3,1.7282852E4,1.496821E3,1.2563261E4,1.708322E4,2.7753545E3,1.0076678E4,9.2234375E3,1.63878E3,4.8948477E3,6.633592E3,5.3149307E3,1.7016996E3,4.7715146E3,2.0410116E3,1.7970531E3,6.2005005E3,3.478064E2,1.6685703E4,5.971481E2,1.0553927E2,1.3912817E3,5.49599E3,7.0672705E3,6.303882E3,1.0779338E4,2.348171E3,4.2718362E2,3.9439072E3,6.1327705E3,6.5438135E3,2.6796238E3,8.165833E2,8.221967E2,3.223554E3,1.6712936E3,3.930025E3,2.703567E3,4.213569E3,1.1013619E3,1.6164445E3,8.52552E1,4.5126733E3,2.588413E2,9.8131445E2,1.0596971E3,1.4029398E0,1.7956501E3,6.187463E3,1.3037579E1,3.2027588E2,2.7530521E1,1.4560187E2,4.515462E2,7.103793E1,3.4501335E1,5.9238873E2,7.98893E2,4.7329575E3,7.630325E2,6.900209E3,1.6706125E2,2.5377354E3,3.7661462E3,7.099896E3,3.6794421E3,1.352416E3,9.957548E2,3.9994226E2,2.7241383E1,2.5359463E3,1.4079609E3,5.2757183E3,8.5705255E2,5.7181133E3,8.257001E2,4.5012906E2,2.2294946E3,7.930342E2,2.3549166E1,6.320067E2,1.9019003E2,2.810856E3,4.1269794E2,1.5185475E3,1.5274612E2,1.9227051E3,2.0073198E3,2.5298755E3,1.7369136E2,6.341682E2,3.5794006E3,6.820045E2,4.1935742E2,3.8976202E2,1.2266824E3,1.8972801E1,6.62824E1,2.9634775E3,1.549196E3,2.4285283E2,1.5988473E1,9.73807E2,7.507452E0,1.0372109E3,2.2486216E1,1.7321581E3,6.3492046E1],"tree_param":{"num_deleted":"0","num_feature":"42","num_nodes":"123","size_leaf_vector":"1"}},{"base_weights":[-7.3953986E-1,-8.847455E-1,-4.5815286E-1,-9.6524304E-1,-8.071776E-1,-3.5252923E-1,-7.4068624E-1,-9.11932E-1,-9.83415E-1,-9.0562904E-1,-7.0044124E-1,-5.168893E-1,-2.6676288E-1,-8.062267E-1,-5.029687E-1,-9.529297E-1,-8.067366E-1,-3.0044845E-1,-9.539411E-1,-9.2278755E-1,-7.9819924E-1,-6.5800375E-1,-8.46117E-1,-7.6849544E-1,-4.595669E-1,-3.6934283E-1,-1.3871336E-1,-7.165072E-1,-8.9830863E-1,-6.3052386E-1,-3.5317E-1,-9.732921E-1,-9.054798E-1,-8.9536095E-1,-7.4866253E-1,-9.113719E-1,-9.805365E-1,-9.60703E-1,-9.0060407E-1,-8.7649506E-1,-7.372006E-1,-6.9513756E-1,-4.9165988E-1,-8.9455324E-1,-7.61939E-1,-8.08798E-1,-5.501354E-1,-5.0105923E-1,-1.0293954E-1,-2.5736716E-1,-4.8286173E-1,-3.4405056E-1,-6.454247E-2,-8.2535225E-1,-6.258475E-1,-9.37817E-1,-8.1021345E-1,-6.612118E-1,-1.4979455E-1,-4.146613E-1,3.409814E-1,-2.922315E-1,-5.650524E-2,-2.7269265E-1,-1.69441E-2,-2.1999869E-1,-2.7708352E-1,-1.9638056E-1,-2.4740243E-1,-2.747984E-1,-1.3129914E-1,-2.9422152E-1,-2.1867026E-2,-2.9437867E-1,-2.8397483E-1,-2.615131E-1,-2.8521922E-1,-2.889721E-1,-2.5048965E-1,-2.7912986E-1,-2.1298793E-1,-2.218412E-1,-1.7364047E-1,-1.545986E-1,9.106253E-1,-2.548796E-1,-2.8166467E-1,-2.4157663E-1,-2.0726612E-1,-2.7750164E-1,-2.2765319E-1,-1.8074723E-1,9.4439805E-2,-1.5940596E-1,-5.897169E-2,-5.1160794E-2,1.0670446E-1,-8.7956086E-2,9.147954E-3,-1.6172785E-1,-5.135122E-2,-4.7128122E-2,-1.4441332E-1,-2.7594022E-2,1.0791024E-1,-2.7897123E-1,-2.2399437E-1,-1.9500966E-1,-7.688077E-2,-2.825934E-1,-1.9153741E-1,-2.5047985E-1,6.0303885E-2,-1.3344036E-1,-2.0933637E-1,-2.4200399E-1,8.523916E-2,-1.4333394E-1,-4.3779206E-2,2.491007E-2,7.4584687E-1],"categories":[],"categories_nodes":[],"categories_segments":[],"categories_sizes":[],"default_left":[0,0,0,0,0,0,0,0,0,0,0,0,0,0,0,1,1,0,1,1,0,0,0,0,0,0,0,0,0,0,0,0,0,0,0,0,0,0,0,0,0,0,0,0,0,0,0,0,0,1,1,0,0,0,0,0,0,0,1,0,0,0,0,0,0,0,0,0,0,0,0,0,0,0,0,0,0,0,0,0,0,0,0,0,0,0,0,0,0,0,0,0,0,0,0,0,0,0,0,0,0,0,0,0,0,0,0,0,0,0,0,0,0,0,0,0,0,0,0,0,0],"id":7,"left_children":[1,3,5,7,9,11,13,15,17,19,21,23,25,27,29,31,33,-1,35,37,39,41,43,45,47,49,51,53,55,57,59,61,63,65,67,69,71,73,75,77,79,81,83,85,87,89,91,93,95,97,99,101,103,105,107,109,111,113,115,117,119,-1,-1,-1,-1,-1,-1,-1,-1,-1,-1,-1,-1,-1,-1,-1,-1,-1,-1,-1,-1,-1,-1,-1,-1,-1,-1,-1,-1,-1,-1,-1,-1,-1,-1,-1,-1,-1,-1,-1,-1,-1,-1,-1,-1,-1,-1,-1,-1,-1,-1,-1,-1,-1,-1,-1,-1,-1,-1,-1,-1],"loss_changes":[3.4441133E3,3.464297E2,8.561333E2,2.5533203E1,2.9700977E2,2.9434375E2,1.21245605E2,2.9202637E1,9.878906E0,2.6416992E1,8.348779E1,1.0294275E2,1.802868E2,4.9908203E1,3.2072113E1,3.944336E0,9.393433E0,0E0,7.883301E0,9.813477E0,9.078369E0,6.47168E1,1.1809082E1,1.1237244E1,8.629956E1,9.676318E1,9.3004906E1,3.011499E1,9.736328E0,1.334906E1,3.3417038E1,2.03833E0,4.442627E0,2.8427124E0,7.949768E0,6.157715E0,8.0029297E-1,4.272461E-1,1.0794922E1,2.388794E0,5.3970337E0,4.3967773E1,1.6231107E2,3.065918E0,2.90802E0,5.7908936E0,9.697403E0,4.8111572E1,1.8954311E1,3.9596146E1,6.622589E1,4.1533066E1,5.228016E1,1.088739E1,1.5007629E1,1.9841309E0,2.36922E1,6.469879E0,1.6189304E1,1.2084961E1,3.5200706E1,0E0,0E0,0E0,0E0,0E0,0E0,0E0,0E0,0E0,0E0,0E0,0E0,0E0,0E0,0E0,0E0,0E0,0E0,0E0,0E0,0E0,0E0,0E0,0E0,0E0,0E0,0E0,0E0,0E0,0E0,0E0,0E0,0E0,0E0,0E0,0E0,0E0,0E0,0E0,0E0,0E0,0E0,0E0,0E0,0E0,0E0,0E0,0E0,0E0,0E0,0E0,0E0,0E0,0E0,0E0,0E0,0E0,0E0,0E0,0E0],"parents":[2147483647,0,0,1,1,2,2,3,3,4,4,5,5,6,6,7,7,8,8,9,9,10,10,11,11,12,12,13,13,14,14,15,15,16,16,18,18,19,19,20,20,21,21,22,22,23,23,24,24,25,25,26,26,27,27,28,28,29,29,30,30,31,31,32,32,33,33,34,34,35,35,36,36,37,37,38,38,39,39,40,40,41,41,42,42,43,43,44,44,45,45,46,46,47,47,48,48,49,49,50,50,51,51,52,52,53,53,54,54,55,55,56,56,57,57,58,58,59,59,60,60],"right_children":[2,4,6,8,10,12,14,16,18,20,22,24,26,28,30,32,34,-1,36,38,40,42,44,46,48,50,52,54,56,58,60,62,64,66,68,70,72,74,76,78,80,82,84,86,88,90,92,94,96,98,100,102,104,106,108,110,112,114,116,118,120,-1,-1,-1,-1,-1,-1,-1,-1,-1,-1,-1,-1,-1,-1,-1,-1,-1,-1,-1,-1,-1,-1,-1,-1,-1,-1,-1,-1,-1,-1,-1,-1,-1,-1,-1,-1,-1,-1,-1,-1,-1,-1,-1,-1,-1,-1,-1,-1,-1,-1,-1,-1,-1,-1,-1,-1,-1,-1,-1,-1],"split_conditions":[4.8057303E0,2.935E2,1.5900001E1,1.2900001E1,9.49509E-2,2.5527458E1,2.645E2,9.49509E-2,9.49509E-2,7.678607E-1,1.38E1,6.44E-1,3.107E2,2.04E1,4.925545E1,6.704151E-1,3.347198E-1,-3.0044845E-1,1.81E1,4.5999882E-1,2.889E2,3.6E1,3.167E2,3.5630002E2,3.555E2,2.4E1,-3.3100004E0,3.274043E1,8.827693E1,4E1,1E0,4.526517E0,6.6E1,4.22E1,9.6E0,1.33E1,2.883E2,2.836E2,1.11E1,4.6936E0,3E0,3.432E2,1.0537154E1,1.45E1,2.843E2,3.792E-1,2.3073166E1,3.9046E0,1E0,1.1266851E0,1.0164703E0,8E0,2.8822168E3,2.5144E0,1E0,2.15972E1,1.4436E1,1.1900001E1,1.8323622E0,1E0,1.27672E1,-2.922315E-1,-5.650524E-2,-2.7269265E-1,-1.69441E-2,-2.1999869E-1,-2.7708352E-1,-1.9638056E-1,-2.4740243E-1,-2.747984E-1,-1.3129914E-1,-2.9422152E-1,-2.1867026E-2,-2.9437867E-1,-2.8397483E-1,-2.615131E-1,-2.8521922E-1,-2.889721E-1,-2.5048965E-1,-2.7912986E-1,-2.1298793E-1,-2.218412E-1,-1.7364047E-1,-1.545986E-1,9.106253E-1,-2.548796E-1,-2.8166467E-1,-2.4157663E-1,-2.0726612E-1,-2.7750164E-1,-2.2765319E-1,-1.8074723E-1,9.4439805E-2,-1.5940596E-1,-5.897169E-2,-5.1160794E-2,1.0670446E-1,-8.7956086E-2,9.147954E-3,-1.6172785E-1,-5.135122E-2,-4.7128122E-2,-1.4441332E-1,-2.7594022E-2,1.0791024E-1,-2.7897123E-1,-2.2399437E-1,-1.9500966E-1,-7.688077E-2,-2.825934E-1,-1.9153741E-1,-2.5047985E-1,6.0303885E-2,-1.3344036E-1,-2.0933637E-1,-2.4200399E-1,8.523916E-2,-1.4333394E-1,-4.3779206E-2,2.491007E-2,7.4584687E-1],"split_indices":[12,3,0,0,16,12,9,16,16,12,0,14,9,0,12,13,13,0,0,13,9,15,9,9,9,6,2,12,12,15,33,12,15,4,1,10,5,5,0,14,15,9,16,1,5,14,12,16,36,13,13,1,12,14,30,14,14,1,13,24,14,0,0,0,0,0,0,0,0,0,0,0,0,0,0,0,0,0,0,0,0,0,0,0,0,0,0,0,0,0,0,0,0,0,0,0,0,0,0,0,0,0,0,0,0,0,0,0,0,0,0,0,0,0,0,0,0,0,0,0,0],"split_type":[0,0,0,0,0,0,0,0,0,0,0,0,0,0,0,0,0,0,0,0,0,0,0,0,0,0,0,0,0,0,0,0,0,0,0,0,0,0,0,0,0,0,0,0,0,0,0,0,0,0,0,0,0,0,0,0,0,0,0,0,0,0,0,0,0,0,0,0,0,0,0,0,0,0,0,0,0,0,0,0,0,0,0,0,0,0,0,0,0,0,0,0,0,0,0,0,0,0,0,0,0,0,0,0,0,0,0,0,0,0,0,0,0,0,0,0,0,0,0,0,0],"sum_hessian":[8.430168E4,5.560526E4,2.8696418E4,2.7281713E4,2.8323549E4,2.0889309E4,7.8071084E3,6.9483896E3,2.0333322E4,1.4729696E4,1.3593852E4,7.1610547E3,1.3728254E4,6.1179536E3,1.6891548E3,4.9940166E3,1.9543732E3,1.2582191E4,7.7511304E3,1.2694548E4,2.035148E3,1.0531416E4,3.062436E3,1.3264481E3,5.834607E3,7.621121E3,6.1071333E3,3.1031743E3,3.0147793E3,9.105784E2,7.7857635E2,3.4807815E3,1.5132351E3,7.6797754E2,1.1863956E3,2.9940525E3,4.757078E3,4.6701494E3,8.0243984E3,8.853603E2,1.1497877E3,8.606879E3,1.9245371E3,1.9377965E3,1.1246394E3,1.1174896E3,2.0895842E2,5.2261567E3,6.084502E2,3.838284E3,3.7828372E3,1.619637E3,4.487496E3,1.406473E3,1.6967014E3,2.0746902E3,9.400893E2,8.5558575E2,5.4992687E1,7.155887E2,6.298766E1,3.47694E3,3.8415768E0,1.5069597E3,6.2754326E0,1.1802197E2,6.4995557E2,5.34542E2,6.5185364E2,2.9641924E3,2.9860065E1,4.75594E3,1.1380036E0,1.8736333E3,2.7965164E3,5.1019497E3,2.9224485E3,2.7945435E2,6.0590594E2,1.37967E2,1.0118207E3,6.2281226E3,2.3787563E3,1.9125566E3,1.1980488E1,9.7212024E2,9.6567633E2,6.922689E2,4.323705E2,3.306912E2,7.8679846E2,1.9731801E2,1.1640425E1,4.75257E3,4.735868E2,5.308378E2,7.761236E1,3.4135073E3,4.2477664E2,3.2040725E3,5.7876465E2,6.867887E2,9.328482E2,4.215636E3,2.7185983E2,5.994033E2,8.0706964E2,1.5917789E3,1.0492246E2,2.0441309E3,3.0559217E1,9.178274E2,2.2261875E1,1.2560101E2,7.2998474E2,2.15344E1,3.3458286E1,5.7885205E2,1.3673666E2,5.7153866E1,5.8337936E0],"tree_param":{"num_deleted":"0","num_feature":"42","num_nodes":"121","size_leaf_vector":"1"}},{"base_weights":[-6.704884E-1,-8.457092E-1,-3.821593E-1,-9.4627655E-1,-7.5264543E-1,-3.0130342E-1,-7.467044E-1,-8.78457E-1,-9.700074E-1,-8.7E-1,-6.3036114E-1,-4.5391288E-1,-2.2036743E-1,-6.580491E-1,-8.865985E-1,-9.295935E-1,-7.514236E-1,-9.931685E-1,-9.320722E-1,-8.901701E-1,-7.436249E-1,-5.844276E-1,-7.988039E-1,-7.2555584E-1,-3.982737E-1,-1.0122292E-1,-3.257318E-1,-7.984871E-1,-5.566922E-1,-9.3999076E-1,-8.073746E-1,-9.5653063E-1,-8.6803406E-1,-8.5983634E-1,-6.8317825E-1,-2.9947615E-1,-9.657766E-1,-8.785077E-1,-9.6628034E-1,-9.390826E-1,-8.620626E-1,-7.8009003E-1,-5.482664E-1,-8.0212903E-1,-5.462203E-1,-8.527328E-1,-7.011483E-1,-8.988475E-1,-6.555525E-1,-4.8384985E-1,-2.041491E-1,-4.079186E-1,-6.742465E-2,-3.533892E-1,8.79278E-2,-8.4458745E-1,-4.681473E-1,-6.0678864E-1,-1.7456998E-1,-5.581094E-1,-9.4384784E-1,-8.31965E-1,-2.6097164E-1,-2.6817393E-1,-2.9155833E-1,-2.659332E-1,-1.8770872E-1,-2.0076242E-1,-2.6852536E-1,-1.5819588E-1,-2.2658159E-1,-2.8992397E-1,-8.704962E-3,-2.712958E-1,-2.2213435E-1,-2.9092255E-1,-2.4857788E-1,-2.8980264E-1,-2.7623388E-1,-2.4905308E-1,-2.8045505E-1,-2.599801E-1,-2.1307707E-1,-1.910836E-1,2.205015E-1,-2.4392913E-1,2.6042039E-2,-1.9677664E-1,-1.4170957E-1,-2.4459487E-1,-2.7687344E-1,-2.1691658E-1,-1.5089826E-1,-2.7757967E-1,1.3684116E-1,-2.2744924E-1,-1.4493126E-1,-2.078545E-1,-1.334359E-1,-8.581534E-2,6.72442E-2,-1.316074E-1,1.8244204E-1,-7.1902245E-2,2.26502E-3,-1.3856524E-1,-7.951183E-2,-9.161244E-3,4.1399524E-1,-2.5471982E-1,3.6055928E-1,-4.735502E-2,-2.0359042E-1,-1.8618594E-1,2.4053408E-2,-1.1503889E-1,5.699932E-2,2.7682415E-1,-2.519123E-1,-2.8451577E-1,-1.909684E-1,-2.0815393E-1,-2.630242E-1,-1.8303452E-1,3.0511457E-1],"categories":[],"categories_nodes":[],"categories_segments":[],"categories_sizes":[],"default_left":[0,0,0,0,0,0,0,0,0,0,0,0,0,0,0,1,1,0,1,1,0,0,0,0,0,0,0,0,1,0,0,0,0,0,0,0,0,0,0,0,0,0,1,0,0,0,0,0,0,0,0,0,0,0,0,0,0,0,0,0,0,0,0,0,0,0,0,0,0,0,0,0,0,0,0,0,0,0,0,0,0,0,0,0,0,0,0,0,0,0,0,0,0,0,0,0,0,0,0,0,0,0,0,0,0,0,0,0,0,0,0,0,0,0,0,0,0,0,0,0,0,0,0,0,0],"id":8,"left_children":[1,3,5,7,9,11,13,15,17,19,21,23,25,27,29,31,33,35,37,39,41,43,45,47,49,51,53,55,57,59,61,63,65,67,69,-1,71,73,75,77,79,81,83,85,87,89,91,93,95,97,99,101,103,105,107,109,111,113,115,117,119,121,123,-1,-1,-1,-1,-1,-1,-1,-1,-1,-1,-1,-1,-1,-1,-1,-1,-1,-1,-1,-1,-1,-1,-1,-1,-1,-1,-1,-1,-1,-1,-1,-1,-1,-1,-1,-1,-1,-1,-1,-1,-1,-1,-1,-1,-1,-1,-1,-1,-1,-1,-1,-1,-1,-1,-1,-1,-1,-1,-1,-1,-1,-1],"loss_changes":[3.449041E3,3.9674023E2,7.605342E2,3.1990234E1,3.16042E2,2.608412E2,5.7518066E1,3.373169E1,1.2348633E1,2.802539E1,8.315137E1,1.1035132E2,1.7329083E2,4.042749E1,6.9155273E0,5.429199E0,1.0706177E1,3.3984375E-1,9.674805E0,1.2527832E1,1.0650879E1,7.0224365E1,1.1583008E1,1.4492859E1,1.0087317E2,6.715408E1,8.385327E1,1.7899414E1,3.188263E1,1.060791E0,9.692841E0,1.6425781E0,4.61969E0,3.3372498E0,1.0182129E1,0E0,8.647461E-1,7.3459473E0,8.623047E-1,8.498535E-1,1.3550293E1,7.2875366E0,2.8688805E1,1.2416138E1,5.82688E1,3.1479492E0,3.2326965E0,1.3130829E1,1.5369049E1,3.4126343E1,6.535763E1,2.0375488E1,7.540819E1,6.570764E1,7.044562E1,1.0671387E1,9.648365E0,1.4083008E1,1.4929733E1,6.2892895E0,8.8220215E-1,3.754303E0,1.544392E1,0E0,0E0,0E0,0E0,0E0,0E0,0E0,0E0,0E0,0E0,0E0,0E0,0E0,0E0,0E0,0E0,0E0,0E0,0E0,0E0,0E0,0E0,0E0,0E0,0E0,0E0,0E0,0E0,0E0,0E0,0E0,0E0,0E0,0E0,0E0,0E0,0E0,0E0,0E0,0E0,0E0,0E0,0E0,0E0,0E0,0E0,0E0,0E0,0E0,0E0,0E0,0E0,0E0,0E0,0E0,0E0,0E0,0E0,0E0,0E0,0E0,0E0],"parents":[2147483647,0,0,1,1,2,2,3,3,4,4,5,5,6,6,7,7,8,8,9,9,10,10,11,11,12,12,13,13,14,14,15,15,16,16,17,17,18,18,19,19,20,20,21,21,22,22,23,23,24,24,25,25,26,26,27,27,28,28,29,29,30,30,31,31,32,32,33,33,34,34,36,36,37,37,38,38,39,39,40,40,41,41,42,42,43,43,44,44,45,45,46,46,47,47,48,48,49,49,50,50,51,51,52,52,53,53,54,54,55,55,56,56,57,57,58,58,59,59,60,60,61,61,62,62],"right_children":[2,4,6,8,10,12,14,16,18,20,22,24,26,28,30,32,34,36,38,40,42,44,46,48,50,52,54,56,58,60,62,64,66,68,70,-1,72,74,76,78,80,82,84,86,88,90,92,94,96,98,100,102,104,106,108,110,112,114,116,118,120,122,124,-1,-1,-1,-1,-1,-1,-1,-1,-1,-1,-1,-1,-1,-1,-1,-1,-1,-1,-1,-1,-1,-1,-1,-1,-1,-1,-1,-1,-1,-1,-1,-1,-1,-1,-1,-1,-1,-1,-1,-1,-1,-1,-1,-1,-1,-1,-1,-1,-1,-1,-1,-1,-1,-1,-1,-1,-1,-1,-1,-1,-1,-1],"split_conditions":[4.383816E0,2.935E2,1.6300001E1,1.2900001E1,9.49509E-2,2.5527458E1,2.12E1,9.49509E-2,9.49509E-2,7.678607E-1,1.38E1,6.44E-1,9.7E0,2.8073456E1,4.4504906E1,6.704151E-1,3.347198E-1,2.9E2,1.81E1,4.5999882E-1,1E0,4E0,3.196E2,3.792E-1,3.045E2,-4.2700005E0,1E0,1.9972659E0,1.4699792E0,-4.05E0,1.373E1,7.9E0,5.759181E-1,4.22E1,9.5E0,-2.9947615E-1,1.27E1,6.9199996E-3,3.02E2,2.836E2,1.1900001E1,2.901E2,3.5627964E0,1E0,8.49901E-2,9.41E1,1E0,1E0,3.236E2,2.906E2,2.8973167E0,3.7E1,2.2211614E0,2.706E2,4E1,1.22E1,-2.0200005E0,1E0,1.6222092E2,3.82E1,2.15972E1,1.9E1,1E0,-2.6817393E-1,-2.9155833E-1,-2.659332E-1,-1.8770872E-1,-2.0076242E-1,-2.6852536E-1,-1.5819588E-1,-2.2658159E-1,-2.8992397E-1,-8.704962E-3,-2.712958E-1,-2.2213435E-1,-2.9092255E-1,-2.4857788E-1,-2.8980264E-1,-2.7623388E-1,-2.4905308E-1,-2.8045505E-1,-2.599801E-1,-2.1307707E-1,-1.910836E-1,2.205015E-1,-2.4392913E-1,2.6042039E-2,-1.9677664E-1,-1.4170957E-1,-2.4459487E-1,-2.7687344E-1,-2.1691658E-1,-1.5089826E-1,-2.7757967E-1,1.3684116E-1,-2.2744924E-1,-1.4493126E-1,-2.078545E-1,-1.334359E-1,-8.581534E-2,6.72442E-2,-1.316074E-1,1.8244204E-1,-7.1902245E-2,2.26502E-3,-1.3856524E-1,-7.951183E-2,-9.161244E-3,4.1399524E-1,-2.5471982E-1,3.6055928E-1,-4.735502E-2,-2.0359042E-1,-1.8618594E-1,2.4053408E-2,-1.1503889E-1,5.699932E-2,2.7682415E-1,-2.519123E-1,-2.8451577E-1,-1.909684E-1,-2.0815393E-1,-2.630242E-1,-1.8303452E-1,3.0511457E-1],"split_indices":[12,3,1,0,16,12,0,16,16,12,0,14,1,12,12,13,13,3,0,13,30,15,9,14,3,2,33,13,13,2,14,0,12,4,0,0,10,8,9,5,0,9,13,39,12,4,36,39,9,3,16,15,16,9,15,10,2,34,12,6,14,1,33,0,0,0,0,0,0,0,0,0,0,0,0,0,0,0,0,0,0,0,0,0,0,0,0,0,0,0,0,0,0,0,0,0,0,0,0,0,0,0,0,0,0,0,0,0,0,0,0,0,0,0,0,0,0,0,0,0,0,0,0,0,0],"split_type":[0,0,0,0,0,0,0,0,0,0,0,0,0,0,0,0,0,0,0,0,0,0,0,0,0,0,0,0,0,0,0,0,0,0,0,0,0,0,0,0,0,0,0,0,0,0,0,0,0,0,0,0,0,0,0,0,0,0,0,0,0,0,0,0,0,0,0,0,0,0,0,0,0,0,0,0,0,0,0,0,0,0,0,0,0,0,0,0,0,0,0,0,0,0,0,0,0,0,0,0,0,0,0,0,0,0,0,0,0,0,0,0,0,0,0,0,0,0,0,0,0,0,0,0,0],"sum_hessian":[6.827449E4,4.2465688E4,2.58088E4,2.0405621E4,2.2060066E4,2.1125096E4,4.6837065E3,5.299214E3,1.5106407E4,1.1253813E4,1.0806253E4,7.3193774E3,1.3805718E4,2.8703682E3,1.8133384E3,3.7737837E3,1.5254302E3,9.364071E3,5.7423354E3,9.699656E3,1.554158E3,8.494353E3,2.3119E3,1.2422747E3,6.0771025E3,6.4800884E3,7.3256294E3,1.2003337E3,1.6700345E3,1.0767848E3,7.365536E2,2.6149827E3,1.1588011E3,5.8481256E2,9.406176E2,7.867918E3,1.4961532E3,2.24839E3,3.4939456E3,3.527948E3,6.171708E3,1.3071714E3,2.4698662E2,1.2652261E3,7.2291265E3,1.4844197E3,8.274802E2,3.5403326E2,8.8824146E2,4.21674E3,1.8603624E3,6.421309E2,5.8379575E3,6.8666675E3,4.589616E2,1.0519701E3,1.4836368E2,1.4759487E3,1.9408574E2,1.2223897E1,1.0645609E3,7.0433307E2,3.222052E1,5.2596375E2,2.0890188E3,1.074515E3,8.42862E1,9.437905E1,4.9043347E2,3.001153E2,6.405023E2,1.4951056E3,1.0475883E0,1.8895679E3,3.588221E2,3.4023652E3,9.158028E1,1.4067133E3,2.1212346E3,4.3003037E3,1.871404E3,5.787717E2,7.2839966E2,2.3149321E2,1.54934E1,1.2498898E3,1.53362875E1,2.9055063E3,4.32362E3,9.764376E2,5.0798203E2,7.427199E2,8.4760345E1,3.475738E2,6.4594603E0,5.5475195E2,3.3348953E2,6.613951E2,3.555345E3,1.5619978E3,2.9836465E2,6.2380634E2,1.8324585E1,1.7697881E3,4.0681692E3,3.0800684E3,3.786599E3,4.2130923E2,3.7652386E1,1.0502567E3,1.7133772E0,6.0671955E1,8.769173E1,1.4469138E3,2.9035013E1,1.233537E2,7.073203E1,1.5893053E0,1.0634592E1,1.0470121E3,1.7548794E1,1.7649083E2,5.278423E2,2.5717377E1,6.503143E0],"tree_param":{"num_deleted":"0","num_feature":"42","num_nodes":"125","size_leaf_vector":"1"}},{"base_weights":[-5.953889E-1,-7.961778E-1,-3.0809802E-1,-9.2251354E-1,-6.859619E-1,-2.3309828E-1,-6.8287534E-1,-8.3642286E-1,-9.5349914E-1,-8.2587206E-1,-5.5034566E-1,-2.9536742E-1,-4.512492E-2,-7.4502677E-1,-4.402574E-1,-9.0099674E-1,-6.8448436E-1,-9.8421896E-1,-9.041131E-1,-8.5094655E-1,-6.7573225E-1,-4.7846255E-1,-6.8678355E-1,-4.158693E-1,-2.0761654E-1,3.743691E-2,-2.1955645E-1,-8.381638E-1,-6.288556E-1,-5.325557E-1,-1.8814392E-1,-9.3578595E-1,-8.2358813E-1,-8.130271E-1,-6.0767955E-1,-9.910011E-1,-9.480484E-1,-8.4032017E-1,-9.514152E-1,-9.131836E-1,-8.159983E-1,-7.907011E-1,-5.9378844E-1,-5.0779945E-1,-1.364875E-1,-7.6071763E-1,-5.544502E-1,-3.3887345E-1,-5.9639806E-1,-9.61596E-2,-3.6461243E-1,1.3298766E-1,-9.480886E-2,-2.4743006E-1,2.359394E0,-7.41548E-1,-8.9583087E-1,-5.176278E-1,-7.7611345E-1,-5.7843965E-1,-1.4217977E-1,-2.4595246E-1,1.0635158E0,-2.5677437E-1,-2.8674155E-1,-2.4877979E-1,5.9355624E-2,-2.4668711E-1,4.8561335E-2,-1.3479124E-1,-2.0738862E-1,-2.973491E-1,-1.413825E-1,-2.886136E-1,-2.441291E-1,-2.5469247E-1,-8.634083E-2,-2.8670818E-1,-2.3045371E-1,-2.8445932E-1,-2.6691082E-1,-2.3153263E-1,-2.6899418E-1,-2.4104096E-1,-5.8149204E-2,-2.6059574E-1,-1.6714104E-1,-1.8590805E-1,-1.2892303E-1,-4.751744E-2,6.929501E-1,-2.4180217E-1,-1.9207582E-1,-1.1973921E-1,-1.8329793E-1,-1.665067E-1,-8.0069065E-2,3.7220612E-1,-1.8069647E-1,-1.4931351E-1,-1.7546559E-2,-1.614409E-1,-7.911184E-2,6.2450416E-2,-2.2837386E-2,-5.550431E-2,1.1789025E-1,-1.03905715E-1,2.2689426E-2,-2.5097078E-1,1.5667163E0,-2.2765724E-1,7.239025E-2,-1.2320127E-1,-2.7080315E-1,-1.6674475E-1,-2.5098065E-2,-2.4083363E-1,-8.607251E-2,2.012763E-1,-1.7664602E-1,9.234972E-2,-1.5177426E-1,-8.855758E-2,3.997328E-1,4.607349E-1,-2.138908E-1],"categories":[],"categories_nodes":[],"categories_segments":[],"categories_sizes":[],"default_left":[0,0,0,0,0,0,0,0,0,0,0,0,0,0,0,1,1,0,1,1,0,0,0,0,0,0,0,0,0,0,0,0,0,0,0,0,0,0,0,0,0,1,0,0,1,0,0,0,0,0,0,0,0,0,0,1,0,1,0,0,0,0,0,0,0,0,0,0,0,0,0,0,0,0,0,0,0,0,0,0,0,0,0,0,0,0,0,0,0,0,0,0,0,0,0,0,0,0,0,0,0,0,0,0,0,0,0,0,0,0,0,0,0,0,0,0,0,0,0,0,0,0,0,0,0,0,0],"id":9,"left_children":[1,3,5,7,9,11,13,15,17,19,21,23,25,27,29,31,33,35,37,39,41,43,45,47,49,51,53,55,57,59,61,63,65,67,69,71,73,75,77,79,81,83,85,87,89,91,93,95,97,99,101,103,105,107,109,111,113,115,117,119,121,123,125,-1,-1,-1,-1,-1,-1,-1,-1,-1,-1,-1,-1,-1,-1,-1,-1,-1,-1,-1,-1,-1,-1,-1,-1,-1,-1,-1,-1,-1,-1,-1,-1,-1,-1,-1,-1,-1,-1,-1,-1,-1,-1,-1,-1,-1,-1,-1,-1,-1,-1,-1,-1,-1,-1,-1,-1,-1,-1,-1,-1,-1,-1,-1,-1],"loss_changes":[3.2518047E3,4.6141797E2,6.51782E2,4.0436523E1,3.358828E2,2.2621887E2,5.7983276E1,3.960254E1,1.6345703E1,3.226416E1,8.798071E1,1.5343213E2,6.928823E1,3.2765625E1,1.8307251E1,6.9675293E0,1.1617371E1,7.753906E-1,1.2383057E1,1.5504883E1,1.133667E1,5.9127563E1,2.9954346E1,8.4817505E1,1.4699863E2,4.128278E1,1.1168993E2,8.834106E0,2.2090027E1,1.0280014E1,1.5712463E1,2.34021E0,5.379822E0,4.2500305E0,9.911194E0,2.8320312E-2,1.3356323E0,8.691284E0,1.2265625E0,1.3581543E0,1.6404785E1,3.795807E0,6.9275513E0,4.7193848E1,2.541964E1,1.0336426E1,9.561707E0,6.6595764E1,2.063324E1,7.4326126E1,6.0937317E1,2.9830818E1,6.0376717E1,4.89218E1,1.5645609E2,1.1122498E1,3.1594238E0,1.2967819E1,7.4516907E0,7.104355E0,1.0332216E1,1.6319813E1,9.161543E0,0E0,0E0,0E0,0E0,0E0,0E0,0E0,0E0,0E0,0E0,0E0,0E0,0E0,0E0,0E0,0E0,0E0,0E0,0E0,0E0,0E0,0E0,0E0,0E0,0E0,0E0,0E0,0E0,0E0,0E0,0E0,0E0,0E0,0E0,0E0,0E0,0E0,0E0,0E0,0E0,0E0,0E0,0E0,0E0,0E0,0E0,0E0,0E0,0E0,0E0,0E0,0E0,0E0,0E0,0E0,0E0,0E0,0E0,0E0,0E0,0E0,0E0,0E0,0E0],"parents":[2147483647,0,0,1,1,2,2,3,3,4,4,5,5,6,6,7,7,8,8,9,9,10,10,11,11,12,12,13,13,14,14,15,15,16,16,17,17,18,18,19,19,20,20,21,21,22,22,23,23,24,24,25,25,26,26,27,27,28,28,29,29,30,30,31,31,32,32,33,33,34,34,35,35,36,36,37,37,38,38,39,39,40,40,41,41,42,42,43,43,44,44,45,45,46,46,47,47,48,48,49,49,50,50,51,51,52,52,53,53,54,54,55,55,56,56,57,57,58,58,59,59,60,60,61,61,62,62],"right_children":[2,4,6,8,10,12,14,16,18,20,22,24,26,28,30,32,34,36,38,40,42,44,46,48,50,52,54,56,58,60,62,64,66,68,70,72,74,76,78,80,82,84,86,88,90,92,94,96,98,100,102,104,106,108,110,112,114,116,118,120,122,124,126,-1,-1,-1,-1,-1,-1,-1,-1,-1,-1,-1,-1,-1,-1,-1,-1,-1,-1,-1,-1,-1,-1,-1,-1,-1,-1,-1,-1,-1,-1,-1,-1,-1,-1,-1,-1,-1,-1,-1,-1,-1,-1,-1,-1,-1,-1,-1,-1,-1,-1,-1,-1,-1,-1,-1,-1,-1,-1,-1,-1,-1,-1,-1,-1],"split_conditions":[4.383816E0,2.935E2,1.75E1,1.2900001E1,9.49509E-2,3.417E2,2.4640001E2,9.49509E-2,9.49509E-2,7.678607E-1,1.02E1,2.2704158E0,1E0,4.4504906E1,1.6222092E2,6.704151E-1,3.347198E-1,2.9E2,1.85E1,4.5999882E-1,2.889E2,4.1E1,3.1580002E2,1E0,2.8800001E1,7.364E0,2.8822168E3,2.04E1,2.15E1,3.8E1,1.4336E1,7.9E0,6.6E1,1.0537154E1,9.6E0,2.861E2,1.1672044E0,1.08E1,3.02E2,2.836E2,1.11E1,3.4441419E0,3E0,1.1142749E-1,4.050004E0,2.851E2,5.8332443E-1,4.0885296E-1,-5.5300007E0,5.616E-1,-2.71E0,1E0,4E1,1E0,4E0,3.1500044E0,5.2E1,1.5958296E0,1.373E1,4.84E1,1.37E1,1E0,1.4834E1,-2.5677437E-1,-2.8674155E-1,-2.4877979E-1,5.9355624E-2,-2.4668711E-1,4.8561335E-2,-1.3479124E-1,-2.0738862E-1,-2.973491E-1,-1.413825E-1,-2.886136E-1,-2.441291E-1,-2.5469247E-1,-8.634083E-2,-2.8670818E-1,-2.3045371E-1,-2.8445932E-1,-2.6691082E-1,-2.3153263E-1,-2.6899418E-1,-2.4104096E-1,-5.8149204E-2,-2.6059574E-1,-1.6714104E-1,-1.8590805E-1,-1.2892303E-1,-4.751744E-2,6.929501E-1,-2.4180217E-1,-1.9207582E-1,-1.1973921E-1,-1.8329793E-1,-1.665067E-1,-8.0069065E-2,3.7220612E-1,-1.8069647E-1,-1.4931351E-1,-1.7546559E-2,-1.614409E-1,-7.911184E-2,6.2450416E-2,-2.2837386E-2,-5.550431E-2,1.1789025E-1,-1.03905715E-1,2.2689426E-2,-2.5097078E-1,1.5667163E0,-2.2765724E-1,7.239025E-2,-1.2320127E-1,-2.7080315E-1,-1.6674475E-1,-2.5098065E-2,-2.4083363E-1,-8.607251E-2,2.012763E-1,-1.7664602E-1,9.234972E-2,-1.5177426E-1,-8.855758E-2,3.997328E-1,4.607349E-1,-2.138908E-1],"split_indices":[12,3,0,0,16,9,9,16,16,12,1,16,25,12,12,13,13,3,0,13,9,15,9,25,6,14,12,0,0,15,14,0,15,16,0,5,12,10,9,5,0,13,15,12,13,5,13,16,2,14,2,22,15,24,15,13,4,13,14,4,1,34,14,0,0,0,0,0,0,0,0,0,0,0,0,0,0,0,0,0,0,0,0,0,0,0,0,0,0,0,0,0,0,0,0,0,0,0,0,0,0,0,0,0,0,0,0,0,0,0,0,0,0,0,0,0,0,0,0,0,0,0,0,0,0,0,0],"split_type":[0,0,0,0,0,0,0,0,0,0,0,0,0,0,0,0,0,0,0,0,0,0,0,0,0,0,0,0,0,0,0,0,0,0,0,0,0,0,0,0,0,0,0,0,0,0,0,0,0,0,0,0,0,0,0,0,0,0,0,0,0,0,0,0,0,0,0,0,0,0,0,0,0,0,0,0,0,0,0,0,0,0,0,0,0,0,0,0,0,0,0,0,0,0,0,0,0,0,0,0,0,0,0,0,0,0,0,0,0,0,0,0,0,0,0,0,0,0,0,0,0,0,0,0,0,0,0],"sum_hessian":[5.6375195E4,3.3182223E4,2.3192975E4,1.5457072E4,1.7725148E4,1.9326928E4,3.8660474E3,4.0982983E3,1.1358774E4,8.72195E3,9.003198E3,1.4517279E4,4.8096484E3,3.0759988E3,7.9004865E2,2.872539E3,1.2257595E3,6.9911235E3,4.3676504E3,7.4697734E3,1.2521765E3,5.8995107E3,3.1036875E3,6.11553E3,8.401749E3,3.2650312E3,1.5446173E3,1.7038046E3,1.3721941E3,5.775106E2,2.12538E2,1.974199E3,8.983401E2,4.5487772E2,7.708818E2,5.8650015E3,1.1261223E3,1.867649E3,2.5000015E3,2.677125E3,4.792648E3,5.174849E2,7.346916E2,5.4329507E3,4.6656006E2,1.9881611E3,1.1155264E3,4.289099E3,1.8264307E3,4.9144326E3,3.487317E3,1.8954891E3,1.3695422E3,1.5289958E3,1.5621511E1,6.420197E2,1.0617849E3,7.843036E2,5.8789056E2,5.163395E2,6.117115E1,2.0392319E2,8.614797E0,4.0442078E2,1.5697782E3,8.935612E2,4.778878E0,4.507513E2,4.1263986E0,2.6856702E2,5.023148E2,5.862261E3,2.7399735E0,1.0142409E3,1.1188141E2,1.8383169E3,2.9332117E1,2.4388367E3,6.116481E1,1.0588387E3,1.6182864E3,3.1021777E3,1.6904705E3,5.0630743E2,1.1177492E1,8.377006E1,6.509215E2,2.2297075E3,3.2032432E3,4.633466E2,3.2134745E0,1.4407947E3,5.4736646E2,2.9986798E2,8.156584E2,1.0697828E3,3.219316E3,5.200218E0,1.8212305E3,4.204512E2,4.4939814E3,1.2806721E3,2.2066448E3,1.3942358E3,5.0125333E2,1.1563219E3,2.1322035E2,1.1705103E3,3.5848557E2,7.7159667E0,7.9055448E0,6.3113245E2,1.0887276E1,1.5623373E1,1.0461615E3,7.2061096E2,6.3692623E1,5.5689465E2,3.0995855E1,3.7303476E0,5.1260913E2,2.7411425E1,3.3759727E1,1.9854247E2,5.38073E0,6.9126163E0,1.7021807E0],"tree_param":{"num_deleted":"0","num_feature":"42","num_nodes":"127","size_leaf_vector":"1"}},{"base_weights":[-5.16848E-1,-7.460479E-1,-2.507589E-1,-9.040171E-1,-6.267501E-1,-1.8839882E-1,-6.400882E-1,-8.0127084E-1,-9.405246E-1,-7.810181E-1,-4.8159656E-1,-3.6733255E-1,-1.2417666E-1,-7.551864E-1,-4.9342972E-1,-8.760171E-1,-6.2502474E-1,-9.7615725E-1,-8.817455E-1,-8.063617E-1,-6.184282E-1,-5.87767E-1,-3.7624526E-1,-5.231484E-1,-2.7879763E-1,-6.4331734E-1,-1.04874544E-1,-5.603762E-1,-8.2723033E-1,-3.5125092E-1,-6.826545E-1,-9.1690636E-1,-7.7981925E-1,-1.6309756E-1,-6.558352E-1,-9.792245E-1,-8.5404545E-1,-9.1718286E-1,-7.766868E-1,-8.823722E-1,-7.646575E-1,-6.770586E-1,-3.4512606E-1,-6.4412016E-1,-3.8363293E-1,-6.964351E-1,-3.1989345E-1,-2.731897E-2,-5.608591E-1,-3.9558145E-1,-1.3724741E-1,-6.7007947E-1,1.9469898E0,-2.558595E-1,-5.4158945E-2,-6.5843546E-1,-1.0697473E-1,-8.6443865E-1,-6.5861344E-1,-5.084159E-1,-1.7519514E-1,-7.1683997E-1,1.53531125E-2,-2.4363297E-1,-2.817906E-1,-2.3639439E-1,8.363508E-2,-9.824736E-2,1.57035E-1,-2.0107158E-1,-1.3058102E-2,-2.898088E-1,-2.999267E-1,-2.6648062E-1,3.9415196E-2,-2.3485942E-1,-2.7908292E-1,-2.5148535E-1,-1.4321765E-1,-2.7691787E-1,-2.5577524E-1,-2.1409099E-1,-2.603402E-1,-2.0506707E-1,2.6082522E-1,4.1536644E-2,-2.2601537E-1,-1.8051746E-1,-2.5010836E-1,-1.605038E-1,1.4753696E-2,-2.1412945E-1,1.5583482E-1,-1.1180421E-1,-2.5727885E-2,-6.615366E-2,3.1488416E-1,-2.4431066E-1,-1.5021671E-1,-3.8270645E-2,-1.3931267E-1,1.7928502E-1,-5.08581E-2,-2.1230902E-1,-6.257742E-3,-1.18709594E-1,1.124751E0,-8.480136E-2,1.6460751E-1,4.300259E-3,-5.7242382E-2,-2.0291586E-1,1.02198124E-1,-1.5233423E-1,2.536781E-1,-2.4271473E-1,-2.7616772E-1,-7.60627E-2,-2.2604989E-1,1.8174563E-2,-1.5988919E-1,-1.5377402E-1,-2.3088684E-2,-2.1688586E-1,1.5320545E-1,2.4701396E-1,-2.1007237E-1],"categories":[],"categories_nodes":[],"categories_segments":[],"categories_sizes":[],"default_left":[0,0,0,0,0,0,0,0,0,0,0,0,0,0,0,1,0,0,0,1,0,0,0,0,1,0,0,1,0,1,0,0,0,0,0,0,0,0,0,0,0,0,0,0,0,0,0,0,0,0,0,0,0,0,0,0,0,0,0,0,0,0,0,0,0,0,0,0,0,0,0,0,0,0,0,0,0,0,0,0,0,0,0,0,0,0,0,0,0,0,0,0,0,0,0,0,0,0,0,0,0,0,0,0,0,0,0,0,0,0,0,0,0,0,0,0,0,0,0,0,0,0,0,0,0,0,0],"id":10,"left_children":[1,3,5,7,9,11,13,15,17,19,21,23,25,27,29,31,33,35,37,39,41,43,45,47,49,51,53,55,57,59,61,63,65,67,69,71,73,75,77,79,81,83,85,87,89,91,93,95,97,99,101,103,105,107,109,111,113,115,117,119,121,123,125,-1,-1,-1,-1,-1,-1,-1,-1,-1,-1,-1,-1,-1,-1,-1,-1,-1,-1,-1,-1,-1,-1,-1,-1,-1,-1,-1,-1,-1,-1,-1,-1,-1,-1,-1,-1,-1,-1,-1,-1,-1,-1,-1,-1,-1,-1,-1,-1,-1,-1,-1,-1,-1,-1,-1,-1,-1,-1,-1,-1,-1,-1,-1,-1],"loss_changes":[2.9015898E3,4.8114453E2,5.344824E2,4.0492188E1,3.2580322E2,2.1807391E2,5.0936035E1,3.75177E1,1.6119629E1,2.8592773E1,8.3752075E1,6.900531E1,1.3991113E2,2.3411865E1,3.579605E1,7.2561035E0,1.2189423E1,1.050293E0,1.0718262E1,1.8676514E1,1.5090637E1,4.274707E1,6.781995E1,3.3923584E1,5.282129E1,3.6005447E1,1.0312706E2,2.0486572E1,7.2090454E0,2.1129547E1,1.3697754E1,2.5612793E0,5.5000305E0,6.419036E0,7.1112366E0,3.6376953E-1,4.5438156E0,3.2995605E0,1.3996857E1,1.826416E0,2.0163818E1,8.497101E0,3.3856857E1,2.3026245E1,5.316372E1,1.2244507E1,3.9623596E1,2.7141996E1,2.5307251E1,3.2245483E1,3.4437935E1,1.21033325E1,2.4176092E1,7.320741E1,9.438503E1,7.0448E0,3.2275322E1,2.4024658E0,8.584717E0,5.6841583E0,1.19983015E1,4.4724426E0,1.6627495E1,0E0,0E0,0E0,0E0,0E0,0E0,0E0,0E0,0E0,0E0,0E0,0E0,0E0,0E0,0E0,0E0,0E0,0E0,0E0,0E0,0E0,0E0,0E0,0E0,0E0,0E0,0E0,0E0,0E0,0E0,0E0,0E0,0E0,0E0,0E0,0E0,0E0,0E0,0E0,0E0,0E0,0E0,0E0,0E0,0E0,0E0,0E0,0E0,0E0,0E0,0E0,0E0,0E0,0E0,0E0,0E0,0E0,0E0,0E0,0E0,0E0,0E0,0E0,0E0],"parents":[2147483647,0,0,1,1,2,2,3,3,4,4,5,5,6,6,7,7,8,8,9,9,10,10,11,11,12,12,13,13,14,14,15,15,16,16,17,17,18,18,19,19,20,20,21,21,22,22,23,23,24,24,25,25,26,26,27,27,28,28,29,29,30,30,31,31,32,32,33,33,34,34,35,35,36,36,37,37,38,38,39,39,40,40,41,41,42,42,43,43,44,44,45,45,46,46,47,47,48,48,49,49,50,50,51,51,52,52,53,53,54,54,55,55,56,56,57,57,58,58,59,59,60,60,61,61,62,62],"right_children":[2,4,6,8,10,12,14,16,18,20,22,24,26,28,30,32,34,36,38,40,42,44,46,48,50,52,54,56,58,60,62,64,66,68,70,72,74,76,78,80,82,84,86,88,90,92,94,96,98,100,102,104,106,108,110,112,114,116,118,120,122,124,126,-1,-1,-1,-1,-1,-1,-1,-1,-1,-1,-1,-1,-1,-1,-1,-1,-1,-1,-1,-1,-1,-1,-1,-1,-1,-1,-1,-1,-1,-1,-1,-1,-1,-1,-1,-1,-1,-1,-1,-1,-1,-1,-1,-1,-1,-1,-1,-1,-1,-1,-1,-1,-1,-1,-1,-1,-1,-1,-1,-1,-1,-1,-1,-1],"split_conditions":[3.5677083E0,2.928E2,1.79E1,1.2900001E1,9.49509E-2,2.1340001E2,4.4504906E1,2.119942E-1,9.49509E-2,7.678607E-1,2.85E2,2.6600035E1,4.152E-1,1.5900001E1,2.12E1,6.901531E-1,5.4E0,1.9746091E0,1.857E2,4.5999882E-1,1E0,1E0,5.616E-1,3.47E1,3.7888473E-1,4.799999E0,1.1632782E0,1.8949846E0,1.863034E0,7.8222233E-1,4E1,7.7000003E0,6.6E1,1.77E2,3.461E2,1E0,3.177E2,2.45E1,6.89E-3,2.836E2,1.15E1,2.28368E1,1.46412E1,1.64E1,4.7710353E-1,1E0,1E0,4.6E0,7.04E-1,9.2E0,5.2000003E0,7.593534E2,3.792E-1,2.15972E1,2.95E1,2.873E2,3.8E1,5.38E1,1.9800001E1,1.1400001E1,9E0,1E0,4.1E1,-2.4363297E-1,-2.817906E-1,-2.3639439E-1,8.363508E-2,-9.824736E-2,1.57035E-1,-2.0107158E-1,-1.3058102E-2,-2.898088E-1,-2.999267E-1,-2.6648062E-1,3.9415196E-2,-2.3485942E-1,-2.7908292E-1,-2.5148535E-1,-1.4321765E-1,-2.7691787E-1,-2.5577524E-1,-2.1409099E-1,-2.603402E-1,-2.0506707E-1,2.6082522E-1,4.1536644E-2,-2.2601537E-1,-1.8051746E-1,-2.5010836E-1,-1.605038E-1,1.4753696E-2,-2.1412945E-1,1.5583482E-1,-1.1180421E-1,-2.5727885E-2,-6.615366E-2,3.1488416E-1,-2.4431066E-1,-1.5021671E-1,-3.8270645E-2,-1.3931267E-1,1.7928502E-1,-5.08581E-2,-2.1230902E-1,-6.257742E-3,-1.18709594E-1,1.124751E0,-8.480136E-2,1.6460751E-1,4.300259E-3,-5.7242382E-2,-2.0291586E-1,1.02198124E-1,-1.5233423E-1,2.536781E-1,-2.4271473E-1,-2.7616772E-1,-7.60627E-2,-2.2604989E-1,1.8174563E-2,-1.5988919E-1,-1.5377402E-1,-2.3088684E-2,-2.1688586E-1,1.5320545E-1,2.4701396E-1,-2.1007237E-1],"split_indices":[12,3,0,0,16,9,12,16,16,12,5,12,14,1,0,13,1,12,9,13,30,30,14,4,13,2,16,13,13,13,15,0,15,9,9,11,9,6,8,5,0,14,14,0,12,39,27,10,14,6,1,12,14,14,6,5,15,6,0,1,15,38,15,0,0,0,0,0,0,0,0,0,0,0,0,0,0,0,0,0,0,0,0,0,0,0,0,0,0,0,0,0,0,0,0,0,0,0,0,0,0,0,0,0,0,0,0,0,0,0,0,0,0,0,0,0,0,0,0,0,0,0,0,0,0,0,0],"split_type":[0,0,0,0,0,0,0,0,0,0,0,0,0,0,0,0,0,0,0,0,0,0,0,0,0,0,0,0,0,0,0,0,0,0,0,0,0,0,0,0,0,0,0,0,0,0,0,0,0,0,0,0,0,0,0,0,0,0,0,0,0,0,0,0,0,0,0,0,0,0,0,0,0,0,0,0,0,0,0,0,0,0,0,0,0,0,0,0,0,0,0,0,0,0,0,0,0,0,0,0,0,0,0,0,0,0,0,0,0,0,0,0,0,0,0,0,0,0,0,0,0,0,0,0,0,0,0],"sum_hessian":[4.7578773E4,2.5560258E4,2.2018516E4,1.0994812E4,1.4565446E4,1.8979926E4,3.0385889E3,2.8884739E3,8.106338E3,7.0589136E3,7.506533E3,5.011718E3,1.3968208E4,1.7001526E3,1.3384363E3,2.0254897E3,8.629841E2,5.0371426E3,3.069195E3,6.1035654E3,9.553481E2,3.7364504E3,3.7700828E3,1.8141024E3,3.1976155E3,4.9957373E2,1.3468634E4,4.613687E2,1.2387838E3,7.658511E2,5.7258527E2,1.4153556E3,6.101341E2,5.4355206E1,8.086289E2,4.9068706E3,1.302722E2,2.289271E3,7.7992395E2,2.1552415E3,3.948324E3,7.853853E2,1.6996281E2,2.9264272E3,8.100232E2,5.625167E2,3.2075662E3,1.2834273E2,1.6857596E3,1.7511017E3,1.4465139E3,4.9519885E2,4.3749037E0,3.3855376E3,1.0083097E4,3.7895764E2,8.241109E1,1.0114604E3,2.2732346E2,4.0363675E2,3.6221432E2,5.45826E2,2.6759243E1,2.557725E2,1.1595831E3,6.0571954E2,4.414553E0,4.4276257E1,1.0078949E1,7.8995215E2,1.867671E1,3.016336E3,1.8905347E3,1.2599508E2,4.2771173E0,2.0873915E2,2.080532E3,6.453117E2,1.3461226E2,8.982894E2,1.256952E3,2.6469163E3,1.3014077E3,7.8265454E2,2.7307274E0,7.810657E1,9.185625E1,2.394998E3,5.314293E2,5.9994946E2,2.1007372E2,5.5501917E2,7.4975634E0,2.6169607E3,5.9060547E2,1.0949537E2,1.8847363E1,3.2081302E2,1.3649467E3,3.5825244E2,1.3928492E3,6.0128914E1,1.386385E3,4.679923E2,2.7206541E1,2.2415295E0,2.1333745E0,3.2769807E3,1.0855684E2,6.717135E3,3.365962E3,3.7258636E2,6.371257E0,5.8333443E1,2.4077646E1,5.168032E2,4.9465714E2,4.3840286E1,1.8348317E2,1.6633007E1,3.8700375E2,8.072904E1,2.814853E2,5.4353033E2,2.295652E0,1.2497187E1,1.4262055E1],"tree_param":{"num_deleted":"0","num_feature":"42","num_nodes":"127","size_leaf_vector":"1"}},{"base_weights":[-4.3780062E-1,-7.02409E-1,-2.1082832E-1,-8.793931E-1,-5.735189E-1,-1.5193862E-1,-5.720371E-1,-7.292261E-1,-9.1705376E-1,-7.337787E-1,-4.210959E-1,-2.7808174E-1,-7.976855E-2,-7.323388E-1,-4.1860598E-1,-8.219168E-1,-5.0201285E-1,-9.605109E-1,-8.397773E-1,-8.344994E-1,-6.9022816E-1,-3.6661536E-1,-6.617653E-1,-5.6278116E-1,-2.2738291E-1,-1.0801903E-1,2.3315035E-1,-5.8903915E-1,-8.405946E-1,-3.113077E-1,-6.8811375E-1,-8.786385E-1,-6.868759E-1,-5.138608E-1,1.0316899E0,-9.3953025E-1,-2.9876828E-1,-9.16701E-1,-7.5749093E-1,-8.495852E-1,-5.829347E-1,-6.591477E-1,-9.1643924E-1,-6.640116E-1,-3.222993E-1,-7.8344077E-1,-5.8209527E-1,-8.4853464E-1,-4.5925096E-1,-2.9849577E-1,-2.0238841E-2,-4.2336304E-2,-2.343176E-1,1.6895707E-1,1.144353E0,-6.572243E-1,-1.326845E-1,-8.8680464E-1,-7.268023E-1,-3.5483027E-1,2.3303422E-1,-7.331376E-1,-4.475603E-1,-2.2941369E-1,-2.761185E-1,-2.103253E-1,1.5207995E-1,-3.1956386E-2,-1.6520324E-1,-1.9250546E-1,7.9973686E-1,-2.5052798E-1,-2.8568467E-1,-2.7592695E-1,-2.1193346E-2,-2.3457293E-1,-7.373253E-2,-2.6191762E-1,-2.2619344E-1,-2.4642454E-1,-1.781827E-2,-1.7711416E-1,-2.2192189E-1,-2.7674246E-1,-3.2797534E-2,-2.33276E-1,-1.6608907E-1,-1.00093365E-1,2.6641583E-1,-6.1575145E-2,-2.3989895E-1,-1.8283418E-1,-8.165608E-2,-2.6213452E-1,-1.1357375E-1,-1.5344416E-1,1.1531431E-2,-4.598722E-2,-1.17464066E-1,-9.279829E-2,1.0647546E-2,-3.5471603E-2,3.0688342E-2,-8.100596E-2,5.1455438E-2,9.638659E-2,-2.9835416E-2,-2.3056449E-1,4.2104197E-1,-2.013497E-1,1.6467309E-1,-6.468513E-2,4.269009E-1,-2.6799858E-1,-1.2486879E-1,-1.5330772E-1,-2.5761756E-1,-1.4941104E-1,-7.506231E-2,-9.255564E-2,1.989488E-1,-1.1473969E-1,-2.3169006E-1,-1.886633E-1,-4.9153432E-2],"categories":[],"categories_nodes":[],"categories_segments":[],"categories_sizes":[],"default_left":[0,0,0,0,0,0,0,0,0,1,0,0,0,0,0,1,0,0,0,0,0,0,0,0,0,0,0,1,0,0,1,0,0,0,0,0,0,0,0,0,0,0,0,0,0,0,0,0,0,0,0,0,0,0,0,0,0,0,0,1,0,0,0,0,0,0,0,0,0,0,0,0,0,0,0,0,0,0,0,0,0,0,0,0,0,0,0,0,0,0,0,0,0,0,0,0,0,0,0,0,0,0,0,0,0,0,0,0,0,0,0,0,0,0,0,0,0,0,0,0,0,0,0,0,0],"id":11,"left_children":[1,3,5,7,9,11,13,15,17,19,21,23,25,27,29,31,33,35,37,39,41,43,45,47,49,51,53,55,57,59,61,63,65,67,69,71,-1,73,75,77,79,81,83,85,87,89,91,93,95,97,99,101,103,105,107,109,111,113,115,117,119,121,123,-1,-1,-1,-1,-1,-1,-1,-1,-1,-1,-1,-1,-1,-1,-1,-1,-1,-1,-1,-1,-1,-1,-1,-1,-1,-1,-1,-1,-1,-1,-1,-1,-1,-1,-1,-1,-1,-1,-1,-1,-1,-1,-1,-1,-1,-1,-1,-1,-1,-1,-1,-1,-1,-1,-1,-1,-1,-1,-1,-1,-1,-1],"loss_changes":[2.467482E3,4.3223438E2,4.703897E2,4.452832E1,2.6788672E2,1.7311856E2,7.594165E1,3.343805E1,2.0637207E1,2.2894775E1,7.357178E1,9.976697E1,1.06979546E2,2.3003662E1,4.5659027E1,8.128784E0,9.039322E0,2.0932617E0,1.3904663E1,5.616333E0,2.5700195E1,6.0315247E1,9.605286E0,3.0539795E1,8.6556366E1,9.205182E1,5.842566E1,2.0300995E1,3.8805542E0,2.7006317E1,4.555374E0,3.0982056E0,6.1529083E0,6.920204E0,1.2435749E1,2.6394043E0,0E0,3.0041504E0,1.3804138E1,2.746582E0,1.1724442E1,1.7812988E1,2.0883179E0,7.0246887E0,5.520996E1,3.6608124E0,5.1837616E0,2.9542084E0,2.0025024E1,5.904596E1,2.4223856E1,8.017209E1,5.505638E1,3.8358337E1,3.3684387E1,9.94957E0,1.1457175E1,1.493103E0,6.793747E0,1.5647644E1,1.9943745E1,4.8990784E0,3.685957E0,0E0,0E0,0E0,0E0,0E0,0E0,0E0,0E0,0E0,0E0,0E0,0E0,0E0,0E0,0E0,0E0,0E0,0E0,0E0,0E0,0E0,0E0,0E0,0E0,0E0,0E0,0E0,0E0,0E0,0E0,0E0,0E0,0E0,0E0,0E0,0E0,0E0,0E0,0E0,0E0,0E0,0E0,0E0,0E0,0E0,0E0,0E0,0E0,0E0,0E0,0E0,0E0,0E0,0E0,0E0,0E0,0E0,0E0,0E0,0E0,0E0,0E0],"parents":[2147483647,0,0,1,1,2,2,3,3,4,4,5,5,6,6,7,7,8,8,9,9,10,10,11,11,12,12,13,13,14,14,15,15,16,16,17,17,18,18,19,19,20,20,21,21,22,22,23,23,24,24,25,25,26,26,27,27,28,28,29,29,30,30,31,31,32,32,33,33,34,34,35,35,37,37,38,38,39,39,40,40,41,41,42,42,43,43,44,44,45,45,46,46,47,47,48,48,49,49,50,50,51,51,52,52,53,53,54,54,55,55,56,56,57,57,58,58,59,59,60,60,61,61,62,62],"right_children":[2,4,6,8,10,12,14,16,18,20,22,24,26,28,30,32,34,36,38,40,42,44,46,48,50,52,54,56,58,60,62,64,66,68,70,72,-1,74,76,78,80,82,84,86,88,90,92,94,96,98,100,102,104,106,108,110,112,114,116,118,120,122,124,-1,-1,-1,-1,-1,-1,-1,-1,-1,-1,-1,-1,-1,-1,-1,-1,-1,-1,-1,-1,-1,-1,-1,-1,-1,-1,-1,-1,-1,-1,-1,-1,-1,-1,-1,-1,-1,-1,-1,-1,-1,-1,-1,-1,-1,-1,-1,-1,-1,-1,-1,-1,-1,-1,-1,-1,-1,-1,-1,-1,-1,-1],"split_conditions":[2.0503783E0,2.928E2,1.6300001E1,1.16E1,9.49509E-2,2.3073166E1,2.8073456E1,2.119942E-1,9.49509E-2,3.985413E-1,1.4E1,4E0,1E0,1.9300001E1,2.02E1,6.704151E-1,9.8E0,1E0,1.295E2,9.622693E-1,1.58E1,6.652E-1,2.614E2,3.792E-1,3.425E2,1.27E1,2.9158134E0,1.9613993E0,1.485E2,1E0,1.4324745E0,7.9E0,6.6E1,6.2000003E0,1.61E2,2.3E1,-2.9876828E-1,1.32E1,8.21E-3,2.898E2,3.046E2,1.46412E1,1E0,3.096E2,1E0,1.15E1,4.518971E0,1.7761295E1,3.7640626E0,9.7E0,9.49509E-2,-9.800005E-1,1E0,7.2616E0,1.15300354E2,1.01E1,2.11428E1,2.15972E1,2.1300001E1,4.5474792E-1,3.8E0,4.68E1,1.6222092E2,-2.2941369E-1,-2.761185E-1,-2.103253E-1,1.5207995E-1,-3.1956386E-2,-1.6520324E-1,-1.9250546E-1,7.9973686E-1,-2.5052798E-1,-2.8568467E-1,-2.7592695E-1,-2.1193346E-2,-2.3457293E-1,-7.373253E-2,-2.6191762E-1,-2.2619344E-1,-2.4642454E-1,-1.781827E-2,-1.7711416E-1,-2.2192189E-1,-2.7674246E-1,-3.2797534E-2,-2.33276E-1,-1.6608907E-1,-1.00093365E-1,2.6641583E-1,-6.1575145E-2,-2.3989895E-1,-1.8283418E-1,-8.165608E-2,-2.6213452E-1,-1.1357375E-1,-1.5344416E-1,1.1531431E-2,-4.598722E-2,-1.17464066E-1,-9.279829E-2,1.0647546E-2,-3.5471603E-2,3.0688342E-2,-8.100596E-2,5.1455438E-2,9.638659E-2,-2.9835416E-2,-2.3056449E-1,4.2104197E-1,-2.013497E-1,1.6467309E-1,-6.468513E-2,4.269009E-1,-2.6799858E-1,-1.2486879E-1,-1.5330772E-1,-2.5761756E-1,-1.4941104E-1,-7.506231E-2,-9.255564E-2,1.989488E-1,-1.1473969E-1,-2.3169006E-1,-1.886633E-1,-4.9153432E-2],"split_indices":[12,3,1,0,16,12,12,16,16,13,0,15,33,0,1,13,10,11,9,12,0,14,9,14,9,0,13,13,9,29,13,0,15,6,9,6,0,10,8,5,3,14,39,9,39,6,16,12,16,0,16,2,30,14,12,10,14,14,0,13,10,6,12,0,0,0,0,0,0,0,0,0,0,0,0,0,0,0,0,0,0,0,0,0,0,0,0,0,0,0,0,0,0,0,0,0,0,0,0,0,0,0,0,0,0,0,0,0,0,0,0,0,0,0,0,0,0,0,0,0,0,0,0,0,0],"split_type":[0,0,0,0,0,0,0,0,0,0,0,0,0,0,0,0,0,0,0,0,0,0,0,0,0,0,0,0,0,0,0,0,0,0,0,0,0,0,0,0,0,0,0,0,0,0,0,0,0,0,0,0,0,0,0,0,0,0,0,0,0,0,0,0,0,0,0,0,0,0,0,0,0,0,0,0,0,0,0,0,0,0,0,0,0,0,0,0,0,0,0,0,0,0,0,0,0,0,0,0,0,0,0,0,0,0,0,0,0,0,0,0,0,0,0,0,0,0,0,0,0,0,0,0,0],"sum_hessian":[4.1085914E4,1.8969191E4,2.2116723E4,7.99084E3,1.0978352E4,1.9017605E4,3.0991162E3,1.6062993E3,6.384541E3,5.3497383E3,5.6286133E3,6.9198423E3,1.2097764E4,1.5137786E3,1.5853376E3,1.1390226E3,4.672767E2,4.0791584E3,2.3053823E3,1.6094211E3,3.7403171E3,4.591707E3,1.036906E3,1.0444769E3,5.875365E3,1.109661E4,1.00115265E3,6.5422E2,8.595586E2,1.1354426E3,4.4989502E2,7.9823206E2,3.407905E2,4.643545E2,2.9222178E0,2.5780496E3,1.501109E3,1.1862756E3,1.1191066E3,1.5161254E3,9.329582E1,3.2919333E3,4.483837E2,5.936769E2,3.9980303E3,4.0679575E2,6.301103E2,2.7586545E2,7.686115E2,4.373497E3,1.5018685E3,7.300996E3,3.7956145E3,9.363717E2,6.478099E1,5.687947E2,8.542531E1,6.0647955E2,2.5307904E2,1.0517025E3,8.374016E1,3.772401E2,7.265491E1,2.1927794E2,5.7895416E2,3.3719006E2,3.6004233E0,3.881364E1,4.2554083E2,1.7438108E0,1.1784071E0,2.877676E2,2.290282E3,1.1819203E3,4.3554406E0,1.0676317E3,5.1474842E1,1.2107333E3,3.0539203E2,6.3707253E1,2.958857E1,1.7807698E3,1.5111636E3,4.449137E2,3.4699993E0,2.896262E2,3.0405072E2,3.9616204E3,3.640997E1,1.1474599E1,3.9532117E2,5.7812E2,5.1990334E1,2.6098544E2,1.4880007E1,6.9558606E2,7.3025406E1,1.7091064E3,2.6643906E3,2.4200061E2,1.2598679E3,4.7882827E3,2.5127131E3,3.4890132E3,3.0660144E2,5.9722675E2,3.391449E2,7.493769E0,5.7287216E1,5.6273376E2,6.0609097E0,8.191963E1,3.5056772E0,5.973004E2,9.179141E0,9.787148E1,1.5520757E2,4.423953E2,6.093072E2,3.7193913E1,4.654625E1,3.8978893E1,3.382612E2,4.358437E1,2.9070541E1],"tree_param":{"num_deleted":"0","num_feature":"42","num_nodes":"125","size_leaf_vector":"1"}},{"base_weights":[-3.6206672E-1,-6.3203573E-1,-1.6184726E-1,-8.62508E-1,-5.0633705E-1,-1.2236312E-1,-6.0402817E-1,-7.2353995E-1,-9.1116756E-1,-6.7766494E-1,-3.5374212E-1,-7.595347E-1,-1.0913083E-1,-7.2864425E-1,-4.7585446E-1,-8.0664206E-1,-5.317612E-1,-9.6064323E-1,-8.2350254E-1,-7.383813E-1,-5.831575E-1,-3.0258045E-1,-6.430991E-1,-7.9309326E-1,-1.7382942E-1,-2.6457697E-1,-5.8998395E-2,-8.0418944E-1,-4.6688575E-1,-5.179965E-1,1.2059275E-1,-8.678827E-1,-6.613919E-1,-7.404603E-1,-4.138714E-1,-9.391391E-1,-9.9174017E-1,-8.334802E-1,-7.533783E-2,-7.9567796E-1,-6.5507954E-1,-4.0803924E-1,-6.94909E-1,-3.3690837E-1,1.21137805E-1,-7.431535E-1,-5.453108E-1,-8.3474463E-1,-5.7392067E-1,6.889323E-1,-4.9289942E-1,-3.0308935E-1,2.9623138E-2,-1.3933297E-1,1.5254745E-2,-6.845546E-1,-8.5000205E-1,3.910747E-2,-6.084099E-1,-4.1877818E-1,-6.9798E-1,-3.5896218E-1,7.146978E-1,-2.1530497E-1,-2.7127022E-1,-2.0669073E-1,6.312002E-2,-1.573619E-1,-2.5239256E-1,1.3073155E-2,-1.452367E-1,-2.7170348E-1,-2.9365554E-1,-1.4542629E-1,-2.9780343E-1,-2.6903665E-1,-2.1576692E-1,4.2762366E-1,-1.285804E-1,-2.4959551E-1,-2.0533131E-1,-2.1938176E-1,-1.5391234E-1,-9.130065E-2,-2.4696018E-1,-1.7984974E-1,-2.4382874E-1,-1.12344086E-1,-8.761505E-3,2.9765246E-2,9.294304E-1,-2.3626779E-1,-1.3719848E-1,-2.2408879E-1,-1.4008571E-1,-2.5985733E-1,-1.8727994E-1,-2.117215E-1,4.8144635E-2,5.010438E-1,-8.462809E-2,-2.6401743E-1,-5.228366E-2,-1.4114694E-1,-7.04011E-2,-3.1644676E-2,1.1892319E-1,-5.382977E-2,2.2515189E-2,-5.781891E-2,2.253547E-2,-2.3998813E-1,-1.2512466E-1,-2.5780028E-1,-1.1735607E-1,-8.760684E-2,1.735706E-1,-1.9005728E-1,1.3720112E-1,-1.530199E-1,-6.504692E-2,2.5698438E-1,-2.1315789E-1,1.6678106E-2,-2.1637222E-1,3.9228797E-1,-1.7878008E-1],"categories":[],"categories_nodes":[],"categories_segments":[],"categories_sizes":[],"default_left":[0,0,0,0,0,0,0,0,0,1,0,0,0,0,0,1,1,0,0,0,0,0,0,0,0,0,0,0,0,0,1,0,0,0,0,1,0,0,0,0,0,0,0,0,0,0,0,0,0,0,0,0,0,0,0,0,0,0,0,0,0,0,0,0,0,0,0,0,0,0,0,0,0,0,0,0,0,0,0,0,0,0,0,0,0,0,0,0,0,0,0,0,0,0,0,0,0,0,0,0,0,0,0,0,0,0,0,0,0,0,0,0,0,0,0,0,0,0,0,0,0,0,0,0,0,0,0],"id":12,"left_children":[1,3,5,7,9,11,13,15,17,19,21,23,25,27,29,31,33,35,37,39,41,43,45,47,49,51,53,55,57,59,61,63,65,67,69,71,73,75,77,79,81,83,85,87,89,91,93,95,97,99,101,103,105,107,109,111,113,115,117,119,121,123,125,-1,-1,-1,-1,-1,-1,-1,-1,-1,-1,-1,-1,-1,-1,-1,-1,-1,-1,-1,-1,-1,-1,-1,-1,-1,-1,-1,-1,-1,-1,-1,-1,-1,-1,-1,-1,-1,-1,-1,-1,-1,-1,-1,-1,-1,-1,-1,-1,-1,-1,-1,-1,-1,-1,-1,-1,-1,-1,-1,-1,-1,-1,-1,-1],"loss_changes":[1.9608608E3,4.4709424E2,3.6362488E2,3.619751E1,2.6116138E2,1.6116495E2,2.692456E1,2.2176147E1,1.6701416E1,2.6591064E1,7.812598E1,7.506653E0,1.4600078E2,1.670633E1,2.1290955E1,8.211365E0,1.0315872E1,7.885742E-1,1.0850891E1,1.3145264E1,3.5856567E1,6.545889E1,7.363312E0,2.8764038E0,6.494045E0,5.1776764E1,8.452255E1,3.0846558E0,1.4048912E1,1.3797668E1,1.636678E1,3.12677E0,7.288086E0,2.9247055E0,8.960136E0,1.1589355E0,1.0314941E-2,9.790405E0,1.1394489E1,6.26355E0,1.2314392E1,3.082685E1,1.2172852E1,4.8091095E1,2.1736E1,4.585907E0,6.055374E0,1.4890442E0,6.10544E0,6.6194477E0,1.9318495E0,4.6163177E1,2.6295006E1,5.852237E1,9.1703606E1,5.5428696E0,1.7173462E0,7.9834175E0,4.3877335E0,9.312614E0,6.048218E0,4.8392515E0,2.0666111E1,0E0,0E0,0E0,0E0,0E0,0E0,0E0,0E0,0E0,0E0,0E0,0E0,0E0,0E0,0E0,0E0,0E0,0E0,0E0,0E0,0E0,0E0,0E0,0E0,0E0,0E0,0E0,0E0,0E0,0E0,0E0,0E0,0E0,0E0,0E0,0E0,0E0,0E0,0E0,0E0,0E0,0E0,0E0,0E0,0E0,0E0,0E0,0E0,0E0,0E0,0E0,0E0,0E0,0E0,0E0,0E0,0E0,0E0,0E0,0E0,0E0,0E0,0E0,0E0],"parents":[2147483647,0,0,1,1,2,2,3,3,4,4,5,5,6,6,7,7,8,8,9,9,10,10,11,11,12,12,13,13,14,14,15,15,16,16,17,17,18,18,19,19,20,20,21,21,22,22,23,23,24,24,25,25,26,26,27,27,28,28,29,29,30,30,31,31,32,32,33,33,34,34,35,35,36,36,37,37,38,38,39,39,40,40,41,41,42,42,43,43,44,44,45,45,46,46,47,47,48,48,49,49,50,50,51,51,52,52,53,53,54,54,55,55,56,56,57,57,58,58,59,59,60,60,61,61,62,62],"right_children":[2,4,6,8,10,12,14,16,18,20,22,24,26,28,30,32,34,36,38,40,42,44,46,48,50,52,54,56,58,60,62,64,66,68,70,72,74,76,78,80,82,84,86,88,90,92,94,96,98,100,102,104,106,108,110,112,114,116,118,120,122,124,126,-1,-1,-1,-1,-1,-1,-1,-1,-1,-1,-1,-1,-1,-1,-1,-1,-1,-1,-1,-1,-1,-1,-1,-1,-1,-1,-1,-1,-1,-1,-1,-1,-1,-1,-1,-1,-1,-1,-1,-1,-1,-1,-1,-1,-1,-1,-1,-1,-1,-1,-1,-1,-1,-1,-1,-1,-1,-1,-1,-1,-1,-1,-1,-1],"split_conditions":[2.0503783E0,2.913E2,1.95E1,1.2900001E1,9.49509E-2,3.792E-1,2.6600035E1,2.119942E-1,9.49509E-2,1.0062474E0,1.4900001E1,1E0,2.068E2,2.15E2,3.8E1,6.901531E-1,3.299981E-1,1E0,1.32E1,2.853E2,1.373E1,4.2E1,2.706E2,4E0,2.4350197E1,1E0,4.6669662E1,2.12E1,1.36E1,2.3E1,1.7733465E0,7.9E0,1.0001428E0,8.7E0,6.4E0,1.75E1,2.044E-1,2.871E2,1E0,3.7E1,3.314E2,1.4900001E1,1.07E1,3.5630002E2,6.8E1,3.7128701E0,2.8016E0,3.5480002E2,3.088E2,-2.8100004E0,2.764E2,1.7103811E1,7.23612E1,3.5630002E2,-3.3100004E0,1.4740001E2,2.15972E1,2.1300001E1,6.8E0,1.1508228E0,-4.34E0,2.22E1,4.1E1,-2.1530497E-1,-2.7127022E-1,-2.0669073E-1,6.312002E-2,-1.573619E-1,-2.5239256E-1,1.3073155E-2,-1.452367E-1,-2.7170348E-1,-2.9365554E-1,-1.4542629E-1,-2.9780343E-1,-2.6903665E-1,-2.1576692E-1,4.2762366E-1,-1.285804E-1,-2.4959551E-1,-2.0533131E-1,-2.1938176E-1,-1.5391234E-1,-9.130065E-2,-2.4696018E-1,-1.7984974E-1,-2.4382874E-1,-1.12344086E-1,-8.761505E-3,2.9765246E-2,9.294304E-1,-2.3626779E-1,-1.3719848E-1,-2.2408879E-1,-1.4008571E-1,-2.5985733E-1,-1.8727994E-1,-2.117215E-1,4.8144635E-2,5.010438E-1,-8.462809E-2,-2.6401743E-1,-5.228366E-2,-1.4114694E-1,-7.04011E-2,-3.1644676E-2,1.1892319E-1,-5.382977E-2,2.2515189E-2,-5.781891E-2,2.253547E-2,-2.3998813E-1,-1.2512466E-1,-2.5780028E-1,-1.1735607E-1,-8.760684E-2,1.735706E-1,-1.9005728E-1,1.3720112E-1,-1.530199E-1,-6.504692E-2,2.5698438E-1,-2.1315789E-1,1.6678106E-2,-2.1637222E-1,3.9228797E-1,-1.7878008E-1],"split_indices":[12,3,0,0,16,14,12,16,16,13,0,39,9,9,15,13,13,11,10,5,14,