{"learner":{"attributes":{"scikit_learn":"{\"_estimator_type\": \"classifier\"}"},"feature_names":["dead_fuel_moisture_1000hr","dead_fuel_moisture_100hr","pdsi","max_air_temperature","max_relative_humidity","min_air_temperature","min_relative_humidity","precipitation_amount","specific_humidity","surface_downwelling_shortwave_flux_in_air","wind_speed","SWE","Band1","LAI","slope_avg","slope_max","road_density_km_km2","wind_direction_category_N","wind_direction_category_NE","wind_direction_category_E","wind_direction_category_SE","wind_direction_category_S","wind_direction_category_SW","wind_direction_category_W","wind_direction_category_NW","veg_Agriculture ","veg_Barren ","veg_Native Chapparal ","veg_Native Coastal Sage Scrub ","veg_Native Conifer Alpine ","veg_Native Conifer Forest ","veg_Native Desert ","veg_Native Grassland ","veg_Native Inland Scrub ","veg_Native Oak Woodland ","veg_Native Wetland ","veg_Non-native forest ","veg_Non-native grassland ","veg_Non-native shrub ","veg_Riparian ","veg_Urban ","veg_Water "],"feature_types":["float","float","float","float","float","float","float","float","float","float","float","float","float","float","float","float","float","i","i","i","i","i","i","i","i","i","i","i","i","i","i","i","i","i","i","i","i","i","i","i","i","i"],"gradient_booster":{"model":{"gbtree_model_param":{"num_parallel_tree":"1","num_trees":"100"},"iteration_indptr":[0,1,2,3,4,5,6,7,8,9,10,11,12,13,14,15,16,17,18,19,20,21,22,23,24,25,26,27,28,29,30,31,32,33,34,35,36,37,38,39,40,41,42,43,44,45,46,47,48,49,50,51,52,53,54,55,56,57,58,59,60,61,62,63,64,65,66,67,68,69,70,71,72,73,74,75,76,77,78,79,80,81,82,83,84,85,86,87,88,89,90,91,92,93,94,95,96,97,98,99,100],"tree_info":[0,0,0,0,0,0,0,0,0,0,0,0,0,0,0,0,0,0,0,0,0,0,0,0,0,0,0,0,0,0,0,0,0,0,0,0,0,0,0,0,0,0,0,0,0,0,0,0,0,0,0,0,0,0,0,0,0,0,0,0,0,0,0,0,0,0,0,0,0,0,0,0,0,0,0,0,0,0,0,0,0,0,0,0,0,0,0,0,0,0,0,0,0,0,0,0,0,0,0,0],"trees":[{"base_weights":[-1.0875628E0,-1.1094896E0,-9.611078E-1,-1.1194133E0,-1.0684146E0,-1.0090986E0,-7.9387224E-1,-1.1285948E0,-1.1023237E0,-1.0322678E0,-1.1060206E0,-9.3465346E-1,-1.0631796E0,-8.10875E-1,-4.511944E-2,-3.402755E-1,-1.1219364E0,-1.0806353E0,-1.1222819E0,-1.036853E0,-7.4767333E-1,-1.1135602E0,-1.0396417E0,-9.406746E-1,1.6766528E-2,-1.0319198E0,-1.0979704E0,-8.4949064E-1,-6.489895E-1,-6.755202E-1,3.41061E0,-3.378267E-1,-1.1165079E0,-1.0930291E0,-1.0636334E0,-1.1264602E0,-1.0871445E0,-1.1002761E0,-1.0192059E0,-8.9346665E-1,1.1071765E0,-1.0997704E0,-1.1235753E0,-1.0407406E0,-1.6961347E-1,-1.0134804E0,-9.0865016E-1,-4.90587E-1,5.2753816E0,-1.0370092E0,-8.6025083E-1,-1.1077199E0,-1.0644362E0,-7.7570444E-1,-9.398453E-1,-7.413376E-1,-3.7453386E-1,-6.865806E-1,3.041469E-1,-4.785219E-1,6.593069E0,-3.3318236E-1,-3.3775017E-1,-3.2961035E-1,-3.1886142E-1,-3.328092E-1,-3.1682172E-1,-3.357666E-1,-3.3960226E-1,-3.3224845E-1,-3.1678528E-1,-3.301808E-1,-1.2626959E-2,-3.08127E-1,-2.5864702E-1,-3.174131E-1,-1.8924081E-1,9.368456E-1,-2.9121688E-1,-3.317939E-1,-3.1835628E-1,-3.119347E-2,-3.3708692E-1,-3.1307808E-1,-2.0977026E-1,-2.1187432E-1,3.041469E-1,-3.0965132E-1,-2.6612693E-1,-2.4875008E-1,-2.8332397E-1,-2.3661824E-1,4.5737392E-1,-1.4358619E-1,1.9463161E0,-3.2079595E-1,-3.0630988E-1,-2.7956733E-1,3.9893037E-1,-2.0347066E-1,-3.324561E-1,-3.2080156E-1,-2.6651213E-1,-2.7445215E-1,-2.087767E-1,-2.6354182E-1,-2.9558316E-1,-2.5190052E-1,-1.8922499E-1,-1.9831005E-1,-4.5431126E-3,-2.3753391E-1,-1.4144458E-1,-1.9585691E-1,-5.1609008E-3,1.3797331E0,2.2148156E0],"categories":[],"categories_nodes":[],"categories_segments":[],"categories_sizes":[],"default_left":[0,0,0,0,0,0,0,0,1,1,0,1,0,0,1,0,1,0,0,0,0,0,0,0,0,1,0,0,0,0,0,0,0,0,0,0,0,1,0,0,0,1,0,0,0,0,0,0,0,0,0,0,0,0,0,0,0,0,0,0,0,0,0,0,0,0,0,0,0,0,0,0,0,0,0,0,0,0,0,0,0,0,0,0,0,0,0,0,0,0,0,0,0,0,0,0,0,0,0,0,0,0,0,0,0,0,0,0,0,0,0,0,0,0,0,0,0],"id":0,"left_children":[1,3,5,7,9,11,13,15,17,19,21,23,25,27,29,-1,31,33,35,37,39,41,43,45,47,49,51,53,55,57,59,-1,61,63,65,67,69,71,73,75,77,79,81,83,85,87,89,91,93,95,97,99,101,103,105,107,109,111,-1,113,115,-1,-1,-1,-1,-1,-1,-1,-1,-1,-1,-1,-1,-1,-1,-1,-1,-1,-1,-1,-1,-1,-1,-1,-1,-1,-1,-1,-1,-1,-1,-1,-1,-1,-1,-1,-1,-1,-1,-1,-1,-1,-1,-1,-1,-1,-1,-1,-1,-1,-1,-1,-1,-1,-1,-1,-1],"loss_changes":[1.3573125E3,1.6903125E2,5.802969E2,5.15E1,1.0932031E2,2.2549219E2,2.0555371E2,6.96875E0,4.9671875E1,5.3320312E1,1.8769531E1,1.3566406E2,3.4296875E1,9.81582E1,7.8575244E2,0E0,1.0078125E0,1.07265625E1,7.7578125E0,4.453125E1,1.7969498E2,3.6992188E0,3.7207031E0,5.394336E1,4.02504E2,1.4113281E1,3.8535156E0,8.424805E1,7.690918E1,6.3945923E0,6.9191205E2,0E0,1.15625E0,4.4023438E0,7.0546875E0,9.296875E-1,2.9770508E0,3.0185547E0,3.864453E1,2.5841522E1,2.0659813E2,2.4394531E0,8.8671875E-1,3.2363281E0,4.7402945E0,1.6044922E1,4.5697266E1,8.3885124E1,9.570526E1,7.517578E0,7.975046E1,1.640625E0,2.0666504E0,7.731201E1,1.5097168E1,2.4237915E1,7.914362E1,6.4964447E0,0E0,2.0778494E0,1.4340332E1,0E0,0E0,0E0,0E0,0E0,0E0,0E0,0E0,0E0,0E0,0E0,0E0,0E0,0E0,0E0,0E0,0E0,0E0,0E0,0E0,0E0,0E0,0E0,0E0,0E0,0E0,0E0,0E0,0E0,0E0,0E0,0E0,0E0,0E0,0E0,0E0,0E0,0E0,0E0,0E0,0E0,0E0,0E0,0E0,0E0,0E0,0E0,0E0,0E0,0E0,0E0,0E0,0E0,0E0,0E0,0E0],"parents":[2147483647,0,0,1,1,2,2,3,3,4,4,5,5,6,6,7,7,8,8,9,9,10,10,11,11,12,12,13,13,14,14,16,16,17,17,18,18,19,19,20,20,21,21,22,22,23,23,24,24,25,25,26,26,27,27,28,28,29,29,30,30,32,32,33,33,34,34,35,35,36,36,37,37,38,38,39,39,40,40,41,41,42,42,43,43,44,44,45,45,46,46,47,47,48,48,49,49,50,50,51,51,52,52,53,53,54,54,55,55,56,56,57,57,59,59,60,60],"right_children":[2,4,6,8,10,12,14,16,18,20,22,24,26,28,30,-1,32,34,36,38,40,42,44,46,48,50,52,54,56,58,60,-1,62,64,66,68,70,72,74,76,78,80,82,84,86,88,90,92,94,96,98,100,102,104,106,108,110,112,-1,114,116,-1,-1,-1,-1,-1,-1,-1,-1,-1,-1,-1,-1,-1,-1,-1,-1,-1,-1,-1,-1,-1,-1,-1,-1,-1,-1,-1,-1,-1,-1,-1,-1,-1,-1,-1,-1,-1,-1,-1,-1,-1,-1,-1,-1,-1,-1,-1,-1,-1,-1,-1,-1,-1,-1,-1,-1],"split_conditions":[1.9094866E1,1.9320508E0,3.214E2,9.49509E-2,1.27E1,1.28E1,4E1,2.926E2,1.32E1,3.4995866E0,3.139E2,3.1298661E0,1.7E1,1.1599998E0,3.299981E0,-3.402755E-1,8.510506E-1,3.072E2,3.234E2,6.42E-1,4.4E1,1.74E1,1E0,9E0,1E0,2.3691654E0,1.712E2,7.7E1,3.06E2,8E0,1.0760223E0,-3.378267E-1,1.15E1,1E0,6.42E-1,1.7300001E1,2.831E2,3.2102795E0,4.5517564E0,3.7E1,4.5E1,1.5055366E0,5.4E0,2.0726E1,3.041E2,1.1999989E0,9.6E0,1.77912E1,3.5E1,9E0,1E0,6.07E1,1.43372E1,9.032E-1,3.28E1,4.2926393E0,3.4002912E0,1.0510133E2,3.041469E-1,6.1E0,1.292337E2,-3.3318236E-1,-3.3775017E-1,-3.2961035E-1,-3.1886142E-1,-3.328092E-1,-3.1682172E-1,-3.357666E-1,-3.3960226E-1,-3.3224845E-1,-3.1678528E-1,-3.301808E-1,-1.2626959E-2,-3.08127E-1,-2.5864702E-1,-3.174131E-1,-1.8924081E-1,9.368456E-1,-2.9121688E-1,-3.317939E-1,-3.1835628E-1,-3.119347E-2,-3.3708692E-1,-3.1307808E-1,-2.0977026E-1,-2.1187432E-1,3.041469E-1,-3.0965132E-1,-2.6612693E-1,-2.4875008E-1,-2.8332397E-1,-2.3661824E-1,4.5737392E-1,-1.4358619E-1,1.9463161E0,-3.2079595E-1,-3.0630988E-1,-2.7956733E-1,3.9893037E-1,-2.0347066E-1,-3.324561E-1,-3.2080156E-1,-2.6651213E-1,-2.7445215E-1,-2.087767E-1,-2.6354182E-1,-2.9558316E-1,-2.5190052E-1,-1.8922499E-1,-1.9831005E-1,-4.5431126E-3,-2.3753391E-1,-1.4144458E-1,-1.9585691E-1,-5.1609008E-3,1.3797331E0,2.2148156E0],"split_indices":[12,12,9,16,1,1,15,3,0,13,9,13,1,2,13,0,13,9,9,14,15,0,38,15,33,13,9,4,3,10,16,0,0,27,14,0,5,13,16,15,15,13,6,14,3,2,0,14,15,15,33,4,14,14,6,16,16,12,0,10,12,0,0,0,0,0,0,0,0,0,0,0,0,0,0,0,0,0,0,0,0,0,0,0,0,0,0,0,0,0,0,0,0,0,0,0,0,0,0,0,0,0,0,0,0,0,0,0,0,0,0,0,0,0,0,0,0],"split_type":[0,0,0,0,0,0,0,0,0,0,0,0,0,0,0,0,0,0,0,0,0,0,0,0,0,0,0,0,0,0,0,0,0,0,0,0,0,0,0,0,0,0,0,0,0,0,0,0,0,0,0,0,0,0,0,0,0,0,0,0,0,0,0,0,0,0,0,0,0,0,0,0,0,0,0,0,0,0,0,0,0,0,0,0,0,0,0,0,0,0,0,0,0,0,0,0,0,0,0,0,0,0,0,0,0,0,0,0,0,0,0,0,0,0,0,0,0],"sum_hessian":[4.8991256E5,4.1751062E5,7.240195E4,3.3624647E5,8.126413E4,5.625396E4,1.6147991E4,2.1868947E5,1.1755701E5,4.1450508E4,3.9813625E4,2.3678121E4,3.2575842E4,1.5789363E4,3.5862842E2,1.1814512E5,1.0054436E5,5.6363047E4,6.119396E4,4.079067E4,6.598336E2,3.5738496E4,4.075129E3,2.3529227E4,1.4889484E2,1.717478E4,1.54010625E4,1.2744971E4,3.0443923E3,3.039803E2,5.464814E1,5.6850715E4,4.3693645E4,3.2562607E4,2.380044E4,5.4662977E4,6.5309863E3,8.865807E3,3.1924867E4,6.122299E2,4.7603653E1,1.508246E4,2.0656037E4,4.0697922E3,5.3367324E0,7.1785454E3,1.6350681E4,1.3662035E2,1.2274485E1,1.6675367E4,4.994114E2,1.1907211E4,3.493852E3,7.0210054E3,5.723966E3,2.2766501E3,7.677423E2,3.0259274E2,1.3875505E0,2.4975908E1,2.9672232E1,2.683608E4,1.6857564E4,2.737797E4,5.1846357E3,3.3561643E3,2.0444275E4,2.380503E4,3.0857947E4,3.9315708E3,2.5994155E3,8.863031E3,2.775101E0,3.0393545E4,1.531322E3,3.745319E2,2.3769806E2,2.3908562E1,2.3695091E1,1.2967833E4,2.114627E3,1.0673465E0,2.0654969E4,4.0340361E3,3.5756107E1,3.949182E0,1.3875505E0,6.247499E3,9.310463E2,5.0814233E3,1.1269258E4,1.1954281E2,1.7077543E1,2.2414277E0,1.0033057E1,5.495447E3,1.1179921E4,4.8414838E2,1.5263055E1,1.4515912E1,1.1892694E4,3.3942686E3,9.958343E1,2.5549072E3,4.4660977E3,2.4434763E3,3.2804895E3,1.2016187E3,1.0750314E3,4.2672513E2,3.410172E2,2.0140828E2,1.0118445E2,1.7824686E1,7.1512213E0,1.0353261E1,1.9318972E1],"tree_param":{"num_deleted":"0","num_feature":"42","num_nodes":"117","size_leaf_vector":"1"}},{"base_weights":[-1.0344926E0,-1.0617218E0,-8.83123E-1,-1.0742334E0,-1.010589E0,-9.5065105E-1,-7.2835386E-1,-1.0858979E0,-1.0526628E0,-1.0387433E0,-9.372118E-1,-8.480605E-1,-1.0010817E0,-6.695583E-1,-8.591064E-1,-1.0931144E0,-1.0774298E0,-1.0255474E0,-1.0778724E0,-9.968894E-1,-1.0669868E0,-1.0265973E0,-9.05614E-1,-8.6837643E-1,-5.7911444E-1,-9.585818E-1,-1.0420666E0,-6.8182266E-1,2.7846807E-1,-9.067455E-1,-7.0807827E-1,-1.08736E0,-3.286968E-1,-1.0790983E0,-1.0557989E0,-1.0533079E0,-1.0135816E0,-1.0831804E0,-1.0336694E0,-1.0597461E0,-9.79862E-1,-1.0521736E0,-1.0817375E0,-1.0375462E0,-9.335408E-1,-9.1293E-1,-5.768738E-1,-9.5012796E-1,-8.382423E-1,-6.713639E-1,-5.9895173E-2,-9.657676E-1,-6.774072E-1,3.4431998E-2,-1.0428239E0,-7.2424096E-1,-4.519592E-1,-6.7906046E-1,1.0457773E0,-9.148136E-1,-2.5305772E-1,-8.0420583E-1,-5.125986E-1,-3.262612E-1,-8.9012966E-2,-3.2530573E-1,-3.2166025E-1,-3.1163153E-1,-3.217323E-1,-3.001989E-1,-3.1763113E-1,-3.2028574E-1,-3.0158466E-1,-3.269376E-1,-3.2196575E-1,-3.1775236E-1,-2.9852226E-1,-3.1936142E-1,-2.936647E-1,-2.960871E-1,-2.5023463E-1,-3.169514E-1,-2.9379588E-1,-1.9407287E-2,-3.2454255E-1,-3.2345024E-1,-3.0598512E-1,-2.869447E-1,-1.4658879E-1,-2.7707988E-1,-2.0779854E-1,-2.7150354E-1,2.1032272E-1,-2.9223067E-1,-2.4004637E-1,-2.5858986E-1,-1.9912466E-1,-2.0336117E-1,3.8672844E-1,1.9734041E-1,-2.1334879E-1,-3.0279198E-1,-2.8327802E-1,-2.58846E-1,2.6978123E-1,4.6884033E-1,-1.8193026E-1,-3.0537036E-1,-3.1993532E-1,-2.5373814E-1,-1.9409078E-1,-1.80873E-1,-6.5654635E-2,1.7851213E-1,-2.1410239E-1,-1.2788868E-1,4.8049912E-1,-2.9338187E-1,-2.5903404E-1,-2.399218E-1,1.9363444E-1,-2.6071608E-1,-1.8895252E-1,-2.4432121E-1,-1.2685457E-1],"categories":[],"categories_nodes":[],"categories_segments":[],"categories_sizes":[],"default_left":[0,0,0,0,0,0,0,0,1,0,0,1,0,1,0,0,0,0,0,0,0,0,0,0,0,1,0,0,0,0,0,0,0,1,0,0,0,0,0,0,0,1,0,0,0,0,1,0,0,0,0,0,0,0,0,0,0,0,0,1,1,0,0,0,0,0,0,0,0,0,0,0,0,0,0,0,0,0,0,0,0,0,0,0,0,0,0,0,0,0,0,0,0,0,0,0,0,0,0,0,0,0,0,0,0,0,0,0,0,0,0,0,0,0,0,0,0,0,0,0,0,0,0,0,0],"id":1,"left_children":[1,3,5,7,9,11,13,15,17,19,21,23,25,27,29,31,33,35,37,39,41,43,45,47,49,51,53,55,57,59,61,63,-1,65,67,69,71,73,75,77,79,81,83,85,87,89,91,93,95,97,99,101,103,105,107,109,111,113,115,117,119,121,123,-1,-1,-1,-1,-1,-1,-1,-1,-1,-1,-1,-1,-1,-1,-1,-1,-1,-1,-1,-1,-1,-1,-1,-1,-1,-1,-1,-1,-1,-1,-1,-1,-1,-1,-1,-1,-1,-1,-1,-1,-1,-1,-1,-1,-1,-1,-1,-1,-1,-1,-1,-1,-1,-1,-1,-1,-1,-1,-1,-1,-1,-1],"loss_changes":[1.5602812E3,2.0425E2,6.029219E2,6.378125E1,1.294375E2,2.0717578E2,1.3433496E2,9.046875E0,6.0789062E1,5.2859375E1,4.854004E1,7.193555E1,4.5945312E1,1.4099219E2,3.8497314E1,1.171875E-1,1.640625E0,1.34296875E1,9.886719E0,1.8646484E1,4.8085938E0,3.6845703E0,3.061621E1,2.956543E1,4.470282E1,2.6104492E1,1.1211914E1,1.1624414E2,1.148656E2,2.1560303E1,2.4185608E1,3.5703125E0,0E0,1.421875E0,4.633789E-1,2.7148438E0,1.2621094E1,1.5859375E0,3.9174805E0,4.7216797E-1,1.4157227E1,3.2617188E0,9.1015625E-1,1.8139648E0,4.5416565E0,2.9125977E1,1.1998799E2,1.1128418E1,3.674121E1,1.0990784E1,6.6852936E1,1.1136719E1,9.823163E1,1.1334536E1,6.9804688E0,9.423779E1,6.550113E1,3.4996796E0,7.158686E1,1.2388672E1,2.5939533E1,9.354858E0,1.1418831E1,0E0,0E0,0E0,0E0,0E0,0E0,0E0,0E0,0E0,0E0,0E0,0E0,0E0,0E0,0E0,0E0,0E0,0E0,0E0,0E0,0E0,0E0,0E0,0E0,0E0,0E0,0E0,0E0,0E0,0E0,0E0,0E0,0E0,0E0,0E0,0E0,0E0,0E0,0E0,0E0,0E0,0E0,0E0,0E0,0E0,0E0,0E0,0E0,0E0,0E0,0E0,0E0,0E0,0E0,0E0,0E0,0E0,0E0,0E0,0E0,0E0,0E0],"parents":[2147483647,0,0,1,1,2,2,3,3,4,4,5,5,6,6,7,7,8,8,9,9,10,10,11,11,12,12,13,13,14,14,15,15,16,16,17,17,18,18,19,19,20,20,21,21,22,22,23,23,24,24,25,25,26,26,27,27,28,28,29,29,30,30,31,31,33,33,34,34,35,35,36,36,37,37,38,38,39,39,40,40,41,41,42,42,43,43,44,44,45,45,46,46,47,47,48,48,49,49,50,50,51,51,52,52,53,53,54,54,55,55,56,56,57,57,58,58,59,59,60,60,61,61,62,62],"right_children":[2,4,6,8,10,12,14,16,18,20,22,24,26,28,30,32,34,36,38,40,42,44,46,48,50,52,54,56,58,60,62,64,-1,66,68,70,72,74,76,78,80,82,84,86,88,90,92,94,96,98,100,102,104,106,108,110,112,114,116,118,120,122,124,-1,-1,-1,-1,-1,-1,-1,-1,-1,-1,-1,-1,-1,-1,-1,-1,-1,-1,-1,-1,-1,-1,-1,-1,-1,-1,-1,-1,-1,-1,-1,-1,-1,-1,-1,-1,-1,-1,-1,-1,-1,-1,-1,-1,-1,-1,-1,-1,-1,-1,-1,-1,-1,-1,-1,-1,-1,-1,-1,-1,-1,-1],"split_conditions":[1.9094866E1,1.9320508E0,3.026E2,9.49509E-2,3.095E2,1.17E1,3.28E1,2.926E2,1.32E1,1.27E1,7.52E-1,1.4859558E0,1.6300001E1,3.3950024E0,1.4499989E0,1.18E1,7.7702016E-1,2.28E2,3.234E2,5E0,1.8300001E1,2.8733323E0,2.13896E1,7E0,4E1,2.3691654E0,5.28E1,1.1599998E0,4E1,4E1,2.995E2,1.3900001E1,-3.286968E-1,8.510506E-1,9.2E0,3.75E1,6.42E-1,2.896E2,2.831E2,1E0,4.6256976E0,2.4166603E0,3.58E1,3.792E-1,7.036E-1,4.5517564E0,3.6155598E0,9.0999985E-1,3.078E2,9E0,4.1E1,9E0,4E1,1.58E1,1.95E1,9E0,4.5517564E0,6.7000003E0,1.0760223E0,4.5916826E-1,2.1133347E0,1.1982909E1,4.0642105E1,-3.262612E-1,-8.9012966E-2,-3.2530573E-1,-3.2166025E-1,-3.1163153E-1,-3.217323E-1,-3.001989E-1,-3.1763113E-1,-3.2028574E-1,-3.0158466E-1,-3.269376E-1,-3.2196575E-1,-3.1775236E-1,-2.9852226E-1,-3.1936142E-1,-2.936647E-1,-2.960871E-1,-2.5023463E-1,-3.169514E-1,-2.9379588E-1,-1.9407287E-2,-3.2454255E-1,-3.2345024E-1,-3.0598512E-1,-2.869447E-1,-1.4658879E-1,-2.7707988E-1,-2.0779854E-1,-2.7150354E-1,2.1032272E-1,-2.9223067E-1,-2.4004637E-1,-2.5858986E-1,-1.9912466E-1,-2.0336117E-1,3.8672844E-1,1.9734041E-1,-2.1334879E-1,-3.0279198E-1,-2.8327802E-1,-2.58846E-1,2.6978123E-1,4.6884033E-1,-1.8193026E-1,-3.0537036E-1,-3.1993532E-1,-2.5373814E-1,-1.9409078E-1,-1.80873E-1,-6.5654635E-2,1.7851213E-1,-2.1410239E-1,-1.2788868E-1,4.8049912E-1,-2.9338187E-1,-2.5903404E-1,-2.399218E-1,1.9363444E-1,-2.6071608E-1,-1.8895252E-1,-2.4432121E-1,-1.2685457E-1],"split_indices":[12,12,9,16,9,1,6,3,0,1,14,13,1,13,2,1,12,9,9,15,0,16,14,15,15,13,4,2,15,15,3,10,0,13,1,4,14,3,5,36,16,13,4,14,14,16,13,2,3,10,15,15,15,0,0,15,16,0,16,13,13,16,12,0,0,0,0,0,0,0,0,0,0,0,0,0,0,0,0,0,0,0,0,0,0,0,0,0,0,0,0,0,0,0,0,0,0,0,0,0,0,0,0,0,0,0,0,0,0,0,0,0,0,0,0,0,0,0,0,0,0,0,0,0,0],"split_type":[0,0,0,0,0,0,0,0,0,0,0,0,0,0,0,0,0,0,0,0,0,0,0,0,0,0,0,0,0,0,0,0,0,0,0,0,0,0,0,0,0,0,0,0,0,0,0,0,0,0,0,0,0,0,0,0,0,0,0,0,0,0,0,0,0,0,0,0,0,0,0,0,0,0,0,0,0,0,0,0,0,0,0,0,0,0,0,0,0,0,0,0,0,0,0,0,0,0,0,0,0,0,0,0,0,0,0,0,0,0,0,0,0,0,0,0,0,0,0,0,0,0,0,0,0],"sum_hessian":[3.787836E5,3.2102903E5,5.7754562E4,2.5790297E5,6.3126074E4,4.020666E4,1.7547904E4,1.6735508E5,9.054788E4,4.5611992E4,1.7514084E4,1.3256643E4,2.6950016E4,1.21089795E4,5.438926E3,9.028585E4,7.706923E4,4.3644914E4,4.690297E4,1.8392564E4,2.7219426E4,4.56601E3,1.2948073E4,1.2323505E4,9.3313727E2,1.3242444E4,1.3707571E4,1.1954606E4,1.5437265E2,4.1309033E3,1.3080226E3,2.7791344E4,6.249451E4,7.150446E4,5.56477E3,1.3119886E4,3.0525027E4,4.1853598E4,5.0493706E3,3.9073562E3,1.4485209E4,1.3617093E4,1.3602334E4,4.0762568E3,4.8975305E2,1.2664454E4,2.836197E2,3.3108643E3,9.012641E3,7.9211035E2,1.410269E2,1.2910076E4,3.3236862E2,9.604403E0,1.3697967E4,1.0090405E4,1.8642017E3,6.872519E1,8.564746E1,4.0801453E3,5.0757977E1,8.747487E2,4.3327386E2,2.7784736E4,6.6068487E0,4.049923E4,3.1005227E4,2.7819011E3,2.782869E3,1.2506727E3,1.1869213E4,4.0470781E3,2.6477947E4,2.5091494E4,1.6762104E4,3.02433E3,2.0250404E3,3.6772844E3,2.3007164E2,1.3807299E4,6.779101E2,1.2840274E4,7.7681854E2,1.0118436E0,1.3601322E4,1.2138082E3,2.8624487E3,4.6464432E2,2.5108738E1,1.20763E4,5.881539E2,2.2590587E2,5.7713837E1,2.8498088E3,4.6105554E2,7.9304824E3,1.0821584E3,7.901421E2,1.9682155E0,6.708701E1,7.3939896E1,4.253516E3,8.65656E3,2.9780087E2,3.4567764E1,2.412464E0,7.1919384E0,6.6876855E3,7.0102812E3,3.9176958E3,6.172709E3,1.130536E3,7.3366565E2,1.3894838E0,6.733571E1,2.3540834E1,6.2106625E1,1.8224491E3,2.2576963E3,3.1625729E1,1.913225E1,6.347097E2,2.4003897E2,9.746179E1,3.3581207E2],"tree_param":{"num_deleted":"0","num_feature":"42","num_nodes":"125","size_leaf_vector":"1"}},{"base_weights":[-9.886866E-1,-1.0269506E0,-8.230222E-1,-1.0513191E0,-9.939271E-1,-9.027475E-1,-6.727539E-1,-1.0551419E0,-1.0119423E0,-1.0330464E0,-9.452195E-1,-8.0328035E-1,-9.684617E-1,-6.1991125E-1,-8.016946E-1,-1.041678E0,-1.0621495E0,-1.0342603E0,-9.7040266E-1,-1.0004083E0,-1.0466267E0,-9.726877E-1,-8.8805044E-1,-8.1654304E-1,-2.958501E-1,-9.2142934E-1,-1.0101608E0,-7.727262E-1,-5.3688407E-1,-8.556435E-1,-6.704773E-1,-3.166393E-1,-1.0308571E0,-1.0653758E0,-1.0509214E0,-1.0116825E0,-1.0485271E0,-9.9477863E-1,-9.231824E-1,-1.0161391E0,-9.664406E-1,-1.051192E0,-9.9483454E-1,-1.032856E0,-9.6101356E-1,-9.961703E-1,-8.4517807E-1,-8.364498E-1,-6.235674E-1,-5.884429E-1,5.868415E-1,-9.279408E-1,-6.8487346E-1,-9.74195E-1,-1.0317748E0,-7.8708273E-1,4.7986257E-1,-5.9299195E-1,-3.0236316E-1,-8.646511E-1,-3.4789705E-1,-7.624182E-1,-4.7628474E-1,-3.0938986E-1,-2.1412766E-1,-3.1962195E-1,-1.8283938E-1,-3.1767958E-1,-3.1290984E-1,-3.051268E-1,-2.48329E-1,-9.085285E-2,-3.14618E-1,-3.1464237E-1,-2.9464272E-1,-2.6652592E-1,-3.0776656E-1,-2.911557E-1,-3.083521E-1,-2.9009706E-1,2.2553843E-1,-3.1274217E-1,-3.1877726E-1,-3.0238116E-1,-2.731591E-1,-3.0991524E-1,-3.011745E-2,-2.96298E-1,-2.7990484E-1,-3.022981E-1,-2.5525418E-1,-2.5774908E-1,-1.878838E-1,-2.2810376E-1,-2.6369673E-1,-2.2513762E-1,-1.3270089E-1,3.670891E-1,-1.8202087E-1,3.5957783E-2,6.7120653E-1,-2.9209056E-1,-2.7132678E-1,-2.5624627E-1,1.3229366E-1,-2.9501697E-1,-2.0719089E-1,-3.0266672E-1,-3.1487587E-1,-2.7481833E-1,-2.1394809E-1,6.239699E-1,-1.9594756E-1,-1.8818028E-1,-5.3456876E-2,-1.0718442E-1,1.4345003E-4,-2.811833E-1,-2.4379443E-1,-1.9407533E-1,1.9733748E-1,-2.5372347E-1,-1.9230556E-1,-1.5524563E-1,5.342615E-2],"categories":[],"categories_nodes":[],"categories_segments":[],"categories_sizes":[],"default_left":[0,0,0,0,0,0,0,0,0,1,0,1,0,0,0,1,1,0,0,0,0,0,0,0,0,1,0,0,0,0,0,0,0,1,0,1,0,0,0,1,0,0,0,0,0,0,0,0,0,0,0,0,0,1,0,0,0,0,0,1,1,0,0,0,0,0,0,0,0,0,0,0,0,0,0,0,0,0,0,0,0,0,0,0,0,0,0,0,0,0,0,0,0,0,0,0,0,0,0,0,0,0,0,0,0,0,0,0,0,0,0,0,0,0,0,0,0,0,0,0,0,0,0,0,0],"id":2,"left_children":[1,3,5,7,9,11,13,15,17,19,21,23,25,27,29,31,33,35,37,39,41,43,45,47,49,51,53,55,57,59,61,-1,63,65,67,69,71,73,75,77,79,81,83,85,87,89,91,93,95,97,99,101,103,105,107,109,111,113,115,117,119,121,123,-1,-1,-1,-1,-1,-1,-1,-1,-1,-1,-1,-1,-1,-1,-1,-1,-1,-1,-1,-1,-1,-1,-1,-1,-1,-1,-1,-1,-1,-1,-1,-1,-1,-1,-1,-1,-1,-1,-1,-1,-1,-1,-1,-1,-1,-1,-1,-1,-1,-1,-1,-1,-1,-1,-1,-1,-1,-1,-1,-1,-1,-1],"loss_changes":[1.8484375E3,1.8965625E2,6.552383E2,1.946875E1,1.9078906E2,2.329961E2,1.288291E2,1.0609375E1,1.0205078E1,2.36875E1,6.955078E1,9.555371E1,4.129883E1,1.704585E2,3.8460693E1,5.265625E0,1.84375E0,1.4667969E0,3.9638672E0,7.7929688E0,8.269531E0,2.0273438E1,6.666699E1,5.276367E1,9.438922E1,1.4967773E1,7.859375E0,8.559717E1,1.1468921E2,1.7553955E1,2.8403015E1,0E0,2.6171875E0,2.265625E-1,5.2734375E-2,2.2089844E0,3.930664E-1,8.7109375E-1,4.2943115E0,4.9814453E0,5.652832E0,2.484375E0,2.6269531E0,7.8759766E-1,1.800586E1,6.038086E0,3.1408203E1,4.0029297E1,2.958722E1,9.824493E0,6.998892E1,9.7109375E0,5.2823776E1,1.05271E1,1.8374023E0,4.4020752E1,9.983551E1,1.0002637E2,2.8063446E1,1.3723145E1,2.1392677E1,1.0502258E1,1.4121559E1,0E0,0E0,0E0,0E0,0E0,0E0,0E0,0E0,0E0,0E0,0E0,0E0,0E0,0E0,0E0,0E0,0E0,0E0,0E0,0E0,0E0,0E0,0E0,0E0,0E0,0E0,0E0,0E0,0E0,0E0,0E0,0E0,0E0,0E0,0E0,0E0,0E0,0E0,0E0,0E0,0E0,0E0,0E0,0E0,0E0,0E0,0E0,0E0,0E0,0E0,0E0,0E0,0E0,0E0,0E0,0E0,0E0,0E0,0E0,0E0,0E0,0E0],"parents":[2147483647,0,0,1,1,2,2,3,3,4,4,5,5,6,6,7,7,8,8,9,9,10,10,11,11,12,12,13,13,14,14,15,15,16,16,17,17,18,18,19,19,20,20,21,21,22,22,23,23,24,24,25,25,26,26,27,27,28,28,29,29,30,30,32,32,33,33,34,34,35,35,36,36,37,37,38,38,39,39,40,40,41,41,42,42,43,43,44,44,45,45,46,46,47,47,48,48,49,49,50,50,51,51,52,52,53,53,54,54,55,55,56,56,57,57,58,58,59,59,60,60,61,61,62,62],"right_children":[2,4,6,8,10,12,14,16,18,20,22,24,26,28,30,32,34,36,38,40,42,44,46,48,50,52,54,56,58,60,62,-1,64,66,68,70,72,74,76,78,80,82,84,86,88,90,92,94,96,98,100,102,104,106,108,110,112,114,116,118,120,122,124,-1,-1,-1,-1,-1,-1,-1,-1,-1,-1,-1,-1,-1,-1,-1,-1,-1,-1,-1,-1,-1,-1,-1,-1,-1,-1,-1,-1,-1,-1,-1,-1,-1,-1,-1,-1,-1,-1,-1,-1,-1,-1,-1,-1,-1,-1,-1,-1,-1,-1,-1,-1,-1,-1,-1,-1,-1,-1,-1,-1,-1,-1],"split_conditions":[1.1925072E1,9.49509E-2,2.9330002E2,1.2982129E0,2.963E2,1.28E1,3.28E1,1.0400001E1,2.881E2,1.27E1,2.147375E0,2.3233266E0,1.6800001E1,3.3562626E1,8.5999966E-1,4.1125357E-1,2.9080002E2,1.25E1,3.3E1,9.107217E-1,2.921E2,6.42E-1,5E0,1E0,4E1,2.4649935E0,1.8800001E1,2.16044E1,7.199993E-1,4E1,2.995E2,-3.166393E-1,6.6E1,1.69E1,2.806E2,2.9133315E0,3.2600002E1,4.272E-1,1.90816E1,9.6E0,1.33E1,1.96E1,5.526866E0,1.11E1,2.853E2,1E0,4.5517564E0,8.5E0,4.5512417E1,2.07E-3,1.6343665E2,9E0,4E1,2.1933453E0,2E1,9.032E-1,1.243607E1,1E0,3.096E2,4.5916826E-1,3.1298661E0,6.6091933E0,3.615E2,-3.0938986E-1,-2.1412766E-1,-3.1962195E-1,-1.8283938E-1,-3.1767958E-1,-3.1290984E-1,-3.051268E-1,-2.48329E-1,-9.085285E-2,-3.14618E-1,-3.1464237E-1,-2.9464272E-1,-2.6652592E-1,-3.0776656E-1,-2.911557E-1,-3.083521E-1,-2.9009706E-1,2.2553843E-1,-3.1274217E-1,-3.1877726E-1,-3.0238116E-1,-2.731591E-1,-3.0991524E-1,-3.011745E-2,-2.96298E-1,-2.7990484E-1,-3.022981E-1,-2.5525418E-1,-2.5774908E-1,-1.878838E-1,-2.2810376E-1,-2.6369673E-1,-2.2513762E-1,-1.3270089E-1,3.670891E-1,-1.8202087E-1,3.5957783E-2,6.7120653E-1,-2.9209056E-1,-2.7132678E-1,-2.5624627E-1,1.3229366E-1,-2.9501697E-1,-2.0719089E-1,-3.0266672E-1,-3.1487587E-1,-2.7481833E-1,-2.1394809E-1,6.239699E-1,-1.9594756E-1,-1.8818028E-1,-5.3456876E-2,-1.0718442E-1,1.4345003E-4,-2.811833E-1,-2.4379443E-1,-1.9407533E-1,1.9733748E-1,-2.5372347E-1,-1.9230556E-1,-1.5524563E-1,5.342615E-2],"split_indices":[12,16,9,12,3,1,6,0,9,1,12,13,1,12,2,13,9,1,15,12,9,14,15,30,15,13,0,14,2,15,3,0,15,10,5,13,4,14,14,0,10,0,12,10,5,36,16,1,12,8,12,15,15,13,1,14,12,33,3,13,13,16,9,0,0,0,0,0,0,0,0,0,0,0,0,0,0,0,0,0,0,0,0,0,0,0,0,0,0,0,0,0,0,0,0,0,0,0,0,0,0,0,0,0,0,0,0,0,0,0,0,0,0,0,0,0,0,0,0,0,0,0,0,0,0],"split_type":[0,0,0,0,0,0,0,0,0,0,0,0,0,0,0,0,0,0,0,0,0,0,0,0,0,0,0,0,0,0,0,0,0,0,0,0,0,0,0,0,0,0,0,0,0,0,0,0,0,0,0,0,0,0,0,0,0,0,0,0,0,0,0,0,0,0,0,0,0,0,0,0,0,0,0,0,0,0,0,0,0,0,0,0,0,0,0,0,0,0,0,0,0,0,0,0,0,0,0,0,0,0,0,0,0,0,0,0,0,0,0,0,0,0,0,0,0,0,0,0,0,0,0,0,0],"sum_hessian":[2.9173278E5,2.3698936E5,5.4743414E4,1.3634672E5,1.0064265E5,3.5763812E4,1.8979604E4,1.2425752E5,1.2089194E4,5.580385E4,4.4838797E4,1.4233196E4,2.1530615E4,1.3466539E4,5.5130654E3,4.2585234E4,8.167229E4,7.84851E3,4.240685E3,1.6418736E4,3.9385113E4,3.027598E4,1.4562816E4,1.3870064E4,3.6313126E2,1.0129107E4,1.1401507E4,4.7379126E3,8.728626E3,3.9029001E3,1.6101649E3,1.8684102E4,2.3901133E4,6.3369547E4,1.830274E4,3.0669155E3,4.781594E3,2.783645E3,1.4570399E3,1.1202026E4,5.216711E3,3.617692E4,3.2081912E3,4.905538E3,2.5370443E4,4.128619E3,1.0434196E4,1.2570046E4,1.3000186E3,2.729783E2,9.015294E1,9.854918E3,2.7419E2,4.29713E3,7.104377E3,4.6845913E3,5.3320885E1,7.042271E3,1.6863552E3,3.8341775E3,6.8722725E1,1.0907976E3,5.193674E2,2.386559E4,3.5542675E1,6.3363957E4,5.5928E0,9.0150625E3,9.287677E3,2.9749302E3,9.1985374E1,1.6841791E0,4.77991E3,5.12089E2,2.2715562E3,1.0957972E3,3.6124265E2,2.3038428E3,8.898184E3,5.2154805E3,1.2307632E0,2.0551338E4,1.5625585E4,2.7671626E3,4.4102856E2,4.904406E3,1.1321629E0,1.2981282E4,1.2389161E4,3.8206094E3,3.080099E2,9.804837E3,6.293594E2,4.5137295E3,8.056317E3,7.627962E2,5.372223E2,2.069722E0,2.709086E2,7.110712E1,1.9045824E1,3.3349502E3,6.519968E3,2.385617E2,3.5628296E1,4.1597734E3,1.3735635E2,3.1345151E3,3.9698618E3,1.7025771E3,2.9820144E3,2.1758339E1,3.1562544E1,6.504301E3,5.379706E2,1.4273374E3,2.5901782E2,1.5927484E3,2.241429E3,5.3247444E1,1.5475285E1,6.43289E2,4.475086E2,4.8880057E2,3.0566776E1],"tree_param":{"num_deleted":"0","num_feature":"42","num_nodes":"125","size_leaf_vector":"1"}},{"base_weights":[-9.4501805E-1,-9.97077E-1,-7.580561E-1,-1.0261831E0,-9.5644456E-1,-8.329501E-1,-5.5937874E-1,-1.0408205E0,-1.0089142E0,-1.001775E0,-8.965621E-1,-7.236948E-1,-9.1959715E-1,-7.1898824E-1,-4.8873323E-1,-1.0310473E0,-1.0451621E0,-1.0164475E0,-9.466687E-1,-9.6801233E-1,-1.0243016E0,-9.861269E-1,-8.7635463E-1,-8.597984E-1,-6.769411E-1,-8.661198E-1,-9.77367E-1,-7.3313534E-1,2.668091E-1,-5.16779E-1,7.9522476E-2,-1.0313876E0,1.3740174E-1,-3.139457E-1,-1.0220705E0,-1.0304857E0,-1.0090876E0,-9.759534E-1,-8.9802957E-1,-9.782993E-1,-9.036888E-1,-1.0281518E0,-9.537155E-1,-1.019063E0,-9.694003E-1,-9.07308E-1,-7.920142E-1,-8.934561E-1,-7.0828015E-1,-7.186351E-1,-5.189395E-1,-9.456128E-1,-8.3612096E-1,-9.308717E-1,-1.003638E0,-7.6455617E-1,-3.980265E-1,1.0481912E0,-5.5818707E-1,-4.6397072E-1,-7.1414113E-1,-1.4539844E-1,9.5971155E-1,-3.136745E-1,-3.0734617E-1,6.852701E-1,-2.5308E-1,-1.6590709E-2,-3.0675817E-1,-3.101921E-1,-3.0249628E-1,-2.9920924E-1,-3.0712676E-1,-2.938086E-1,-2.118521E-1,-2.1942146E-1,-2.775501E-1,-2.737383E-1,-2.9687423E-1,-2.7239373E-1,1.391895E-1,-3.044539E-1,-3.114566E-1,-3.001938E-1,-2.631763E-1,-1.02506615E-1,-3.0601168E-1,-2.9191205E-1,-2.1889208E-1,-2.8239372E-1,-2.6231688E-1,-2.5101775E-1,-2.080581E-1,-2.9091892E-1,-2.5407666E-1,-2.5671035E-1,-1.7853265E-1,-2.2626089E-1,-1.5327345E-1,-1.9176978E-1,-8.108952E-2,-2.8477362E-1,-1.5310074E-1,-2.5341442E-1,-1.5116496E-1,-2.8376102E-1,-2.3277137E-1,-6.9783214E-3,-3.012317E-1,-2.0815898E-1,-2.6448447E-1,-1.519639E-1,6.0248905E-1,-1.4819656E-1,3.9638218E-1,-2.1553987E-1,1.3769975E-1,-1.5584752E-1,-6.987765E-2,-2.372715E-1,-1.6885234E-1,1.5090874E-1,-1.0083155E-1,3.8248882E-1,-2.0779677E-1],"categories":[],"categories_nodes":[],"categories_segments":[],"categories_sizes":[],"default_left":[0,0,0,0,0,0,0,0,0,1,0,0,0,0,0,0,0,1,0,0,0,0,0,0,1,0,0,0,0,0,1,1,0,0,0,0,0,0,0,1,1,0,0,0,0,0,0,0,0,0,0,0,0,1,0,0,0,0,0,0,0,0,0,0,0,0,0,0,0,0,0,0,0,0,0,0,0,0,0,0,0,0,0,0,0,0,0,0,0,0,0,0,0,0,0,0,0,0,0,0,0,0,0,0,0,0,0,0,0,0,0,0,0,0,0,0,0,0,0,0,0,0,0,0,0],"id":3,"left_children":[1,3,5,7,9,11,13,15,17,19,21,23,25,27,29,31,33,35,37,39,41,43,45,47,49,51,53,55,57,59,61,63,65,-1,67,69,71,73,75,77,79,81,83,85,87,89,91,93,95,97,99,101,103,105,107,109,111,113,115,117,119,121,123,-1,-1,-1,-1,-1,-1,-1,-1,-1,-1,-1,-1,-1,-1,-1,-1,-1,-1,-1,-1,-1,-1,-1,-1,-1,-1,-1,-1,-1,-1,-1,-1,-1,-1,-1,-1,-1,-1,-1,-1,-1,-1,-1,-1,-1,-1,-1,-1,-1,-1,-1,-1,-1,-1,-1,-1,-1,-1,-1,-1,-1,-1],"loss_changes":[2.18675E3,2.069375E2,7.279707E2,2.4828125E1,1.9830469E2,3.358828E2,1.5080078E2,1.2734375E0,2.1085938E1,3.0773438E1,5.6376953E1,9.950488E1,6.039453E1,5.752539E1,1.481831E2,6.9453125E0,9.765625E-2,3.2890625E0,6.3740234E0,1.0185547E1,5.8242188E0,2.2148438E0,6.667383E1,1.9857422E1,7.678125E1,2.3778809E1,1.06953125E1,4.2370117E1,3.8549114E1,9.199341E1,8.686264E1,6.0546875E-1,1.4276988E1,0E0,8.786621E-1,6.933594E-2,3.7167969E0,2.2197266E0,8.030273E0,9.800781E0,1.4032715E1,2.1132812E0,3.817505E0,9.329834E-1,2.6730957E0,2.030664E1,2.9972656E1,1.0833496E1,1.1755371E1,6.805859E1,7.307294E1,3.9667969E0,2.0956543E1,7.287842E0,2.760254E0,3.0042725E1,9.2288666E1,1.3536716E1,5.106515E0,8.9562256E1,2.1250977E1,4.3421104E1,4.7394234E1,0E0,0E0,0E0,0E0,0E0,0E0,0E0,0E0,0E0,0E0,0E0,0E0,0E0,0E0,0E0,0E0,0E0,0E0,0E0,0E0,0E0,0E0,0E0,0E0,0E0,0E0,0E0,0E0,0E0,0E0,0E0,0E0,0E0,0E0,0E0,0E0,0E0,0E0,0E0,0E0,0E0,0E0,0E0,0E0,0E0,0E0,0E0,0E0,0E0,0E0,0E0,0E0,0E0,0E0,0E0,0E0,0E0,0E0,0E0,0E0,0E0,0E0],"parents":[2147483647,0,0,1,1,2,2,3,3,4,4,5,5,6,6,7,7,8,8,9,9,10,10,11,11,12,12,13,13,14,14,15,15,16,16,17,17,18,18,19,19,20,20,21,21,22,22,23,23,24,24,25,25,26,26,27,27,28,28,29,29,30,30,31,31,32,32,34,34,35,35,36,36,37,37,38,38,39,39,40,40,41,41,42,42,43,43,44,44,45,45,46,46,47,47,48,48,49,49,50,50,51,51,52,52,53,53,54,54,55,55,56,56,57,57,58,58,59,59,60,60,61,61,62,62],"right_children":[2,4,6,8,10,12,14,16,18,20,22,24,26,28,30,32,34,36,38,40,42,44,46,48,50,52,54,56,58,60,62,64,66,-1,68,70,72,74,76,78,80,82,84,86,88,90,92,94,96,98,100,102,104,106,108,110,112,114,116,118,120,122,124,-1,-1,-1,-1,-1,-1,-1,-1,-1,-1,-1,-1,-1,-1,-1,-1,-1,-1,-1,-1,-1,-1,-1,-1,-1,-1,-1,-1,-1,-1,-1,-1,-1,-1,-1,-1,-1,-1,-1,-1,-1,-1,-1,-1,-1,-1,-1,-1,-1,-1,-1,-1,-1,-1,-1,-1,-1,-1,-1,-1,-1,-1],"split_conditions":[8.706301E0,9.49509E-2,3.161E2,2.93E2,2.968E2,1.28E1,2.5881025E1,1.18E1,1.2982129E0,1.5400001E1,6.42E-1,7E0,1.7E1,2.18056E1,3.7E1,1.3900001E1,1.8608533E0,4.1125357E-1,1.17712E1,3.4024627E0,3.182E2,3.68E-1,2.147375E0,-3.999996E-2,1.0743797E0,2.4792484E1,1.8800001E1,4.158756E0,2.2072E1,3.78E1,3.1298661E0,2.033385E-1,2.06E1,-3.139457E-1,1.1108184E-3,3.457E2,1.0400001E1,8.418051E0,1.26784E1,9.3E0,4.0908294E0,1.7300001E1,6.77E-3,-5.5300007E0,1E0,2.853E2,3.387E2,3.1876528E1,2.2968366E0,3.073E2,5.5670002E1,2.18056E1,1.425E1,1.5254226E0,1.69E1,1E0,1E0,3.299981E0,5E1,1.1599998E0,-7.7000046E-1,3.8E1,4.1E1,-3.136745E-1,-3.0734617E-1,6.852701E-1,-2.5308E-1,-1.6590709E-2,-3.0675817E-1,-3.101921E-1,-3.0249628E-1,-2.9920924E-1,-3.0712676E-1,-2.938086E-1,-2.118521E-1,-2.1942146E-1,-2.775501E-1,-2.737383E-1,-2.9687423E-1,-2.7239373E-1,1.391895E-1,-3.044539E-1,-3.114566E-1,-3.001938E-1,-2.631763E-1,-1.02506615E-1,-3.0601168E-1,-2.9191205E-1,-2.1889208E-1,-2.8239372E-1,-2.6231688E-1,-2.5101775E-1,-2.080581E-1,-2.9091892E-1,-2.5407666E-1,-2.5671035E-1,-1.7853265E-1,-2.2626089E-1,-1.5327345E-1,-1.9176978E-1,-8.108952E-2,-2.8477362E-1,-1.5310074E-1,-2.5341442E-1,-1.5116496E-1,-2.8376102E-1,-2.3277137E-1,-6.9783214E-3,-3.012317E-1,-2.0815898E-1,-2.6448447E-1,-1.519639E-1,6.0248905E-1,-1.4819656E-1,3.9638218E-1,-2.1553987E-1,1.3769975E-1,-1.5584752E-1,-6.987765E-2,-2.372715E-1,-1.6885234E-1,1.5090874E-1,-1.0083155E-1,3.8248882E-1,-2.0779677E-1],"split_indices":[12,16,9,3,3,1,12,1,12,0,14,15,1,14,15,10,12,13,14,12,9,14,12,2,13,12,0,16,14,6,13,13,6,0,13,9,0,12,14,0,13,1,8,2,39,5,9,12,16,3,12,14,14,13,6,25,28,13,15,2,2,15,15,0,0,0,0,0,0,0,0,0,0,0,0,0,0,0,0,0,0,0,0,0,0,0,0,0,0,0,0,0,0,0,0,0,0,0,0,0,0,0,0,0,0,0,0,0,0,0,0,0,0,0,0,0,0,0,0,0,0,0,0,0,0],"split_type":[0,0,0,0,0,0,0,0,0,0,0,0,0,0,0,0,0,0,0,0,0,0,0,0,0,0,0,0,0,0,0,0,0,0,0,0,0,0,0,0,0,0,0,0,0,0,0,0,0,0,0,0,0,0,0,0,0,0,0,0,0,0,0,0,0,0,0,0,0,0,0,0,0,0,0,0,0,0,0,0,0,0,0,0,0,0,0,0,0,0,0,0,0,0,0,0,0,0,0,0,0,0,0,0,0,0,0,0,0,0,0,0,0,0,0,0,0,0,0,0,0,0,0,0,0],"sum_hessian":[2.2474916E5,1.757952E5,4.8953957E4,1.0241123E5,7.338397E4,3.55498E4,1.3404157E4,5.5396723E4,4.7014504E4,4.175788E4,3.1626092E4,1.5727705E4,1.9822096E4,4.109771E3,9.294386E3,1.7113322E4,3.82834E4,4.192517E4,5.0893325E3,1.6728822E4,2.5029055E4,5.8131074E3,2.5812984E4,4.0168777E3,1.1710827E4,1.0301774E4,9.520321E3,4.051879E3,5.7892086E1,8.857331E3,4.3705533E2,1.7108459E4,4.8640747E0,3.616612E4,2.1172798E3,1.4372447E4,2.7552725E4,3.1647996E3,1.9245332E3,1.4410072E4,2.3187502E3,2.3721598E4,1.3074574E3,1.9376929E3,3.8754148E3,1.8875734E4,6.93725E3,3.2827598E3,7.341179E2,9.262941E3,2.447886E3,2.8141426E3,7.487632E3,3.4503079E3,6.0700137E3,3.7033594E3,3.4851965E2,2.9593002E1,2.8299084E1,6.990287E3,1.8670436E3,3.487672E2,8.8288124E1,5.5472803E3,1.1561179E4,1.1088933E0,3.7551813E0,1.0573573E0,2.1162224E3,1.2378833E4,1.9936139E3,1.5351786E4,1.2200938E4,3.1227153E3,4.2084133E1,2.7345584E2,1.6510773E3,2.1199407E3,1.2290132E4,2.3118342E3,6.916019E0,1.0243829E4,1.3477769E4,8.026932E2,5.047642E2,3.2925324E0,1.9344003E3,3.8144495E3,6.096531E1,9.271153E3,9.604581E3,4.766045E3,2.171205E3,1.2363787E3,2.0463811E3,3.1596707E2,4.1815085E2,7.9065073E3,1.3564338E3,1.64868E3,7.9920593E2,2.7896807E3,2.4462017E1,7.297334E3,1.902977E2,3.1411887E3,3.0911923E2,2.9183025E0,6.067095E3,2.3132764E3,1.3900829E3,3.3423584E2,1.4283795E1,4.330192E0,2.526281E1,2.4700647E1,3.5984359E0,5.6349414E3,1.3553456E3,1.2358123E3,6.3123145E2,7.8890755E1,2.6987643E2,7.433444E1,1.395368E1],"tree_param":{"num_deleted":"0","num_feature":"42","num_nodes":"125","size_leaf_vector":"1"}},{"base_weights":[-8.9994234E-1,-9.659385E-1,-6.78859E-1,-1.0039907E0,-9.138953E-1,-5.423892E-1,-8.1728846E-1,-1.0233914E0,-9.813158E-1,-9.7410053E-1,-8.420634E-1,-6.1836225E-1,-3.8660878E-1,-8.8548785E-1,-6.693904E-1,-1.010464E0,-1.0291584E0,-9.9122894E-1,-9.01117E-1,-9.20687E-1,-9.971178E-1,-9.5332426E-1,-8.179687E-1,-7.7414036E-1,-5.66239E-1,-5.666992E-1,-2.6646447E-1,-8.161267E-1,-9.46829E-1,-7.361654E-1,-5.3791094E-1,-1.010901E0,1.0569363E-1,-1.0309455E0,-9.982306E-1,-1.0096806E0,-9.816152E-1,-9.7545576E-1,-8.696696E-1,-8.631983E-1,-9.426458E-1,-1.0050873E0,-9.108707E-1,-9.95022E-1,-9.323528E-1,-8.559861E-1,-7.1769977E-1,-8.165744E-1,-5.737053E-1,-6.178143E-1,-4.101472E-1,-7.916767E-1,-4.661355E-1,-3.7856415E-1,-1.18695065E-1,-9.054967E-1,-7.809671E-1,-9.012554E-1,-9.82587E-1,-7.6657575E-1,-5.5801165E-1,-4.1128632E-1,-7.3448884E-1,-3.088861E-1,-3.005567E-1,5.627451E-1,-1.9489364E-1,-1.5055966E-1,-3.0929455E-1,-9.14564E-3,-2.9964778E-1,-3.0427438E-1,-2.9426154E-1,-2.8992328E-1,-3.002352E-1,-1.7557779E-1,-2.9306138E-1,1.686273E-1,-2.6197204E-1,-2.669725E-1,-2.2937022E-1,-2.9173496E-1,-2.673733E-1,-2.9312378E-1,-3.046188E-1,-2.7865282E-1,-2.111938E-1,-8.7882616E-2,-2.9887074E-1,-2.8234422E-1,-2.3095001E-1,-2.6912236E-1,-2.4428342E-1,-2.3578706E-1,-1.903758E-1,-2.7303153E-1,-2.2848023E-1,-2.3316963E-1,-1.2763476E-1,-2.017156E-1,-1.4567418E-1,-1.2864424E-1,2.0283331E-1,-2.5055024E-1,-1.3130768E-1,-1.5499172E-1,-6.627424E-2,-8.583374E-2,-1.9779281E-1,-1.3878186E-1,-1.4185247E-2,-2.7538317E-1,-2.2208704E-1,-2.4034281E-1,-1.5348005E-1,1.888594E-1,-2.7072477E-1,-2.8727943E-1,-3.0338088E-1,-2.6538295E-1,-2.2113056E-1,-1.995942E-1,-5.9778634E-2,-2.0996223E-1,-8.977087E-2,-2.3049219E-1,-1.3858762E-1],"categories":[],"categories_nodes":[],"categories_segments":[],"categories_sizes":[],"default_left":[0,0,0,0,0,0,0,0,0,1,0,0,0,0,0,0,0,1,0,1,0,0,0,0,0,0,0,0,0,1,0,1,0,0,0,0,0,0,0,0,0,0,0,0,0,0,0,0,0,1,1,0,0,0,0,1,0,0,0,0,0,0,0,0,0,0,0,0,0,0,0,0,0,0,0,0,0,0,0,0,0,0,0,0,0,0,0,0,0,0,0,0,0,0,0,0,0,0,0,0,0,0,0,0,0,0,0,0,0,0,0,0,0,0,0,0,0,0,0,0,0,0,0,0,0,0,0],"id":4,"left_children":[1,3,5,7,9,11,13,15,17,19,21,23,25,27,29,31,33,35,37,39,41,43,45,47,49,51,53,55,57,59,61,63,65,67,69,71,73,75,77,79,81,83,85,87,89,91,93,95,97,99,101,103,105,107,109,111,113,115,117,119,121,123,125,-1,-1,-1,-1,-1,-1,-1,-1,-1,-1,-1,-1,-1,-1,-1,-1,-1,-1,-1,-1,-1,-1,-1,-1,-1,-1,-1,-1,-1,-1,-1,-1,-1,-1,-1,-1,-1,-1,-1,-1,-1,-1,-1,-1,-1,-1,-1,-1,-1,-1,-1,-1,-1,-1,-1,-1,-1,-1,-1,-1,-1,-1,-1,-1],"loss_changes":[2.5348594E3,2.6410938E2,7.543203E2,3.2992188E1,2.4366406E2,2.3790234E2,1.9944434E2,2.0625E0,2.7457031E1,3.6884766E1,6.834375E1,1.0937012E2,1.4262872E2,5.6961914E1,5.45896E1,6.3984375E0,5.5859375E-1,4.6367188E0,8.349121E0,1.0892578E1,1.384375E1,3.0805664E0,8.020801E1,2.8345947E1,8.135376E1,5.935504E1,6.555423E1,1.9327148E1,1.0839355E1,2.2060303E1,5.2298035E1,1.1513672E0,9.178808E0,1.953125E-3,8.919678E-1,4.3066406E-1,5.125E0,6.958008E-2,1.4671631E1,6.1030273E0,9.396973E0,4.6835938E0,6.140625E0,1.0028076E0,3.6572266E0,2.5605469E1,3.2603516E1,1.3670288E1,1.763147E1,5.46416E1,5.139911E1,1.2166504E1,2.250946E1,5.82471E1,4.1967567E1,3.0092773E0,2.449707E1,6.2089844E0,1.9135742E0,1.1673096E1,2.330661E1,4.1424942E1,7.2637634E0,0E0,0E0,0E0,0E0,0E0,0E0,0E0,0E0,0E0,0E0,0E0,0E0,0E0,0E0,0E0,0E0,0E0,0E0,0E0,0E0,0E0,0E0,0E0,0E0,0E0,0E0,0E0,0E0,0E0,0E0,0E0,0E0,0E0,0E0,0E0,0E0,0E0,0E0,0E0,0E0,0E0,0E0,0E0,0E0,0E0,0E0,0E0,0E0,0E0,0E0,0E0,0E0,0E0,0E0,0E0,0E0,0E0,0E0,0E0,0E0,0E0,0E0,0E0,0E0],"parents":[2147483647,0,0,1,1,2,2,3,3,4,4,5,5,6,6,7,7,8,8,9,9,10,10,11,11,12,12,13,13,14,14,15,15,16,16,17,17,18,18,19,19,20,20,21,21,22,22,23,23,24,24,25,25,26,26,27,27,28,28,29,29,30,30,31,31,32,32,33,33,34,34,35,35,36,36,37,37,38,38,39,39,40,40,41,41,42,42,43,43,44,44,45,45,46,46,47,47,48,48,49,49,50,50,51,51,52,52,53,53,54,54,55,55,56,56,57,57,58,58,59,59,60,60,61,61,62,62],"right_children":[2,4,6,8,10,12,14,16,18,20,22,24,26,28,30,32,34,36,38,40,42,44,46,48,50,52,54,56,58,60,62,64,66,68,70,72,74,76,78,80,82,84,86,88,90,92,94,96,98,100,102,104,106,108,110,112,114,116,118,120,122,124,126,-1,-1,-1,-1,-1,-1,-1,-1,-1,-1,-1,-1,-1,-1,-1,-1,-1,-1,-1,-1,-1,-1,-1,-1,-1,-1,-1,-1,-1,-1,-1,-1,-1,-1,-1,-1,-1,-1,-1,-1,-1,-1,-1,-1,-1,-1,-1,-1,-1,-1,-1,-1,-1,-1,-1,-1,-1,-1,-1,-1,-1,-1,-1,-1],"split_conditions":[8.706301E0,9.49509E-2,1.22E1,2.93E2,2.963E2,3.304E2,2.492E2,1.18E1,1.2982129E0,1.27E1,6.42E-1,7E0,3.3562626E1,1.6800001E1,8.5999966E-1,1.3900001E1,1.8608533E0,4.1125357E-1,1.5E1,1.05E1,2.9080002E2,3.68E-1,2.147375E0,5.4999924E-1,3.056E2,5E0,-2.3600006E0,2.4792484E1,1.95E1,1.8452618E0,1.6300001E1,2.033385E-1,1.76E1,2.5800001E1,4.8E0,3.457E2,1.0400001E1,8E-1,1.6E1,1E0,5.7822824E-1,1.61E1,5.987154E0,-5.5300007E0,1E0,2.853E2,3.182E2,3.1876528E1,2.357724E0,9.03317E-1,3.3950024E0,1.4499989E0,3.0805645E0,9.906482E2,6.42E-1,1.9055367E0,1E0,1.33E1,2.1E1,7E0,1.4513593E2,3.5822086E1,2.856E2,-3.088861E-1,-3.005567E-1,5.627451E-1,-1.9489364E-1,-1.5055966E-1,-3.0929455E-1,-9.14564E-3,-2.9964778E-1,-3.0427438E-1,-2.9426154E-1,-2.8992328E-1,-3.002352E-1,-1.7557779E-1,-2.9306138E-1,1.686273E-1,-2.6197204E-1,-2.669725E-1,-2.2937022E-1,-2.9173496E-1,-2.673733E-1,-2.9312378E-1,-3.046188E-1,-2.7865282E-1,-2.111938E-1,-8.7882616E-2,-2.9887074E-1,-2.8234422E-1,-2.3095001E-1,-2.6912236E-1,-2.4428342E-1,-2.3578706E-1,-1.903758E-1,-2.7303153E-1,-2.2848023E-1,-2.3316963E-1,-1.2763476E-1,-2.017156E-1,-1.4567418E-1,-1.2864424E-1,2.0283331E-1,-2.5055024E-1,-1.3130768E-1,-1.5499172E-1,-6.627424E-2,-8.583374E-2,-1.9779281E-1,-1.3878186E-1,-1.4185247E-2,-2.7538317E-1,-2.2208704E-1,-2.4034281E-1,-1.5348005E-1,1.888594E-1,-2.7072477E-1,-2.8727943E-1,-3.0338088E-1,-2.6538295E-1,-2.2113056E-1,-1.995942E-1,-5.9778634E-2,-2.0996223E-1,-8.977087E-2,-2.3049219E-1,-1.3858762E-1],"split_indices":[12,16,1,3,3,9,9,1,12,1,14,15,12,1,2,10,12,13,15,0,9,14,12,2,3,15,2,12,0,13,0,13,6,4,6,9,0,10,15,27,12,0,12,2,17,5,9,12,16,13,13,2,16,12,14,13,33,6,1,15,12,12,5,0,0,0,0,0,0,0,0,0,0,0,0,0,0,0,0,0,0,0,0,0,0,0,0,0,0,0,0,0,0,0,0,0,0,0,0,0,0,0,0,0,0,0,0,0,0,0,0,0,0,0,0,0,0,0,0,0,0,0,0,0,0,0,0],"split_type":[0,0,0,0,0,0,0,0,0,0,0,0,0,0,0,0,0,0,0,0,0,0,0,0,0,0,0,0,0,0,0,0,0,0,0,0,0,0,0,0,0,0,0,0,0,0,0,0,0,0,0,0,0,0,0,0,0,0,0,0,0,0,0,0,0,0,0,0,0,0,0,0,0,0,0,0,0,0,0,0,0,0,0,0,0,0,0,0,0,0,0,0,0,0,0,0,0,0,0,0,0,0,0,0,0,0,0,0,0,0,0,0,0,0,0,0,0,0,0,0,0,0,0,0,0,0,0],"sum_hessian":[1.7377577E5,1.3382417E5,3.9951582E4,7.729238E4,5.6531793E4,2.0120668E4,1.9830914E4,4.1629734E4,3.566265E4,3.0748049E4,2.5783744E4,1.352275E4,6.5979175E3,1.3568955E4,6.261958E3,1.289668E4,2.8733057E4,3.1729334E4,3.933317E3,9.272193E3,2.1475855E4,4.582907E3,2.1200838E4,3.3868335E3,1.0135917E4,2.6387876E3,3.9591296E3,6.374892E3,7.1940635E3,4.1497886E3,2.1121697E3,1.2891726E4,4.9535794E0,2.7132758E4,1.6002985E3,1.0833174E4,2.089616E4,1.1603472E3,2.7729695E3,2.5739119E3,6.6982812E3,1.9649533E4,1.8263236E3,1.518068E3,3.064839E3,1.5366886E4,5.8339507E3,2.7925498E3,5.942837E2,7.616382E3,2.519535E3,8.1303125E2,1.8257565E3,2.2503926E3,1.708737E3,1.7928916E3,4.5820005E3,3.1744385E3,4.019625E3,3.5418938E3,6.078945E2,1.2865425E3,8.256273E2,4.163227E3,8.728499E3,1.037891E0,3.9156885E0,2.802565E0,2.7129955E4,1.0158795E0,1.5992826E3,9.321211E3,1.5119631E3,1.1681853E4,9.214307E3,5.692216E0,1.154655E3,6.5087676E0,2.7664607E3,2.0191012E3,5.548108E2,4.228536E3,2.469745E3,5.3122827E3,1.433725E4,1.6771458E3,1.491779E2,3.0381687E0,1.5150298E3,2.902958E3,1.6188121E2,7.7306133E3,7.6362725E3,3.1986284E3,2.6353225E3,1.0279948E3,1.7645552E3,2.4866823E2,3.4561548E2,5.388526E3,2.227856E3,2.4775642E3,4.1970764E1,7.228607E2,9.017051E1,1.513038E3,3.1271848E2,1.694424E3,5.5596857E2,2.9286014E2,1.415877E3,1.663037E3,1.2985466E2,4.260886E3,3.211141E2,1.9944668E0,3.172444E3,2.166504E3,1.8531211E3,7.0191656E2,2.8399773E3,4.67277E2,1.4061751E2,3.58352E2,9.281905E2,7.328662E2,9.276107E1],"tree_param":{"num_deleted":"0","num_feature":"42","num_nodes":"127","size_leaf_vector":"1"}},{"base_weights":[-8.5041875E-1,-9.3398285E-1,-5.9723586E-1,-9.830983E-1,-8.682061E-1,-4.8172134E-1,-7.906464E-1,-1.0085914E0,-9.536514E-1,-9.439131E-1,-7.811842E-1,-5.642155E-1,-3.3089226E-1,-8.5556424E-1,-6.162447E-1,-9.914528E-1,-1.01628E0,-9.6617055E-1,-8.5381424E-1,-8.8795984E-1,-9.8115414E-1,-9.227011E-1,-7.538165E-1,-7.290116E-1,-5.10964E-1,-4.6980757E-1,-2.2203282E-1,-7.845582E-1,-9.3135846E-1,-7.6732206E-1,-5.602758E-1,-9.9200994E-1,1.0472824E-1,-1.0186955E0,-9.744026E-1,-9.904022E-1,-9.536495E-1,-9.039932E-1,-7.7385217E-1,-9.0327626E-1,-7.8601617E-1,-9.873147E-1,-8.683296E-1,-9.911218E-1,-9.0421087E-1,-8.132911E-1,-6.6864574E-1,-7.779742E-1,-5.2767396E-1,-3.9337397E-1,-5.891977E-1,-6.9713616E-1,-3.8390747E-1,-2.7930543E-1,4.4461764E-2,-8.840011E-1,-7.440606E-1,-8.92365E-1,-9.764238E-1,-8.1400436E-1,-6.218981E-1,-6.1390674E-1,-3.489327E-1,-3.0505094E-1,-2.9403022E-1,-2.3427893E-1,3.5030758E-1,-1.3226277E-1,-3.0562294E-1,-7.8014825E-3,-2.9255423E-1,-2.989235E-1,-2.8586212E-1,-2.80203E-1,-2.9359862E-1,-2.8639582E-1,-2.5744E-1,-1.5792733E-1,-2.449557E-1,-2.3981199E-1,-2.7627796E-1,-2.5277555E-1,-1.5965769E-1,-2.8942403E-1,-3.012816E-1,-2.8157678E-1,-2.265362E-1,-2.9849455E-1,-2.0132649E-1,-2.7262732E-1,-1.6436514E-1,-2.478445E-1,-1.8205117E-1,-2.2081575E-1,-1.7549068E-1,-2.6562613E-1,-2.1499404E-1,-6.625916E-2,-1.9093275E-1,-1.623308E-1,-7.7693254E-2,-1.9182223E-1,-1.3165234E-1,-1.498746E-1,-2.3458628E-1,-1.5432142E-1,-7.778602E-2,-5.387153E-2,-1.4556476E-1,7.551118E-2,-4.9398653E-2,1.2562063E-1,-2.665942E-1,-2.2691114E-1,-4.8262384E-2,-2.8498185E-1,-2.5098467E-1,-2.9504573E-1,-2.4996935E-1,-2.4615246E-1,-4.5063615E-2,-2.0859525E-1,2.8254145E-3,-1.9465621E-1,-4.9803734E-2,-1.2850635E-1,8.285561E-2],"categories":[],"categories_nodes":[],"categories_segments":[],"categories_sizes":[],"default_left":[0,0,0,0,0,0,0,0,0,1,0,0,0,0,0,0,0,1,0,0,0,0,0,0,0,0,0,0,0,0,0,1,0,0,0,0,0,0,0,1,1,0,0,0,0,0,0,0,0,0,1,0,0,0,0,0,1,0,0,0,0,0,0,0,0,0,0,0,0,0,0,0,0,0,0,0,0,0,0,0,0,0,0,0,0,0,0,0,0,0,0,0,0,0,0,0,0,0,0,0,0,0,0,0,0,0,0,0,0,0,0,0,0,0,0,0,0,0,0,0,0,0,0,0,0,0,0],"id":5,"left_children":[1,3,5,7,9,11,13,15,17,19,21,23,25,27,29,31,33,35,37,39,41,43,45,47,49,51,53,55,57,59,61,63,65,67,69,71,73,75,77,79,81,83,85,87,89,91,93,95,97,99,101,103,105,107,109,111,113,115,117,119,121,123,125,-1,-1,-1,-1,-1,-1,-1,-1,-1,-1,-1,-1,-1,-1,-1,-1,-1,-1,-1,-1,-1,-1,-1,-1,-1,-1,-1,-1,-1,-1,-1,-1,-1,-1,-1,-1,-1,-1,-1,-1,-1,-1,-1,-1,-1,-1,-1,-1,-1,-1,-1,-1,-1,-1,-1,-1,-1,-1,-1,-1,-1,-1,-1,-1],"loss_changes":[2.8629297E3,3.278828E2,7.500488E2,4.2765625E1,2.8590625E2,2.615E2,1.4165283E2,3.1035156E0,3.298047E1,4.7601562E1,7.772363E1,1.1892529E2,1.1238086E2,4.8507324E1,2.8404297E1,6.0302734E0,1.1816406E0,6.345703E0,1.1426758E1,1.3821289E1,8.844727E0,3.2490234E0,8.5427734E1,3.22948E1,9.431714E1,6.353186E1,6.3692688E1,1.8391113E1,6.895508E0,5.7333984E0,2.8031067E1,1.8720703E0,6.40409E0,1.11328125E-1,8.5668945E-1,8.90625E-1,6.8808594E0,3.4812012E0,1.1945496E1,1.4088867E1,1.711615E1,4.091797E0,5.1051025E0,1.8066406E-1,3.6999512E0,2.6013184E1,3.8962402E1,1.6936401E1,2.1620483E1,8.144122E1,4.6295654E1,1.4602081E1,3.8464264E1,7.044104E1,3.2065247E1,8.624878E0,2.4053589E1,6.848633E0,1.243042E0,2.866516E0,1.0555183E1,3.098285E1,2.5274574E1,0E0,0E0,0E0,0E0,0E0,0E0,0E0,0E0,0E0,0E0,0E0,0E0,0E0,0E0,0E0,0E0,0E0,0E0,0E0,0E0,0E0,0E0,0E0,0E0,0E0,0E0,0E0,0E0,0E0,0E0,0E0,0E0,0E0,0E0,0E0,0E0,0E0,0E0,0E0,0E0,0E0,0E0,0E0,0E0,0E0,0E0,0E0,0E0,0E0,0E0,0E0,0E0,0E0,0E0,0E0,0E0,0E0,0E0,0E0,0E0,0E0,0E0,0E0,0E0],"parents":[2147483647,0,0,1,1,2,2,3,3,4,4,5,5,6,6,7,7,8,8,9,9,10,10,11,11,12,12,13,13,14,14,15,15,16,16,17,17,18,18,19,19,20,20,21,21,22,22,23,23,24,24,25,25,26,26,27,27,28,28,29,29,30,30,31,31,32,32,33,33,34,34,35,35,36,36,37,37,38,38,39,39,40,40,41,41,42,42,43,43,44,44,45,45,46,46,47,47,48,48,49,49,50,50,51,51,52,52,53,53,54,54,55,55,56,56,57,57,58,58,59,59,60,60,61,61,62,62],"right_children":[2,4,6,8,10,12,14,16,18,20,22,24,26,28,30,32,34,36,38,40,42,44,46,48,50,52,54,56,58,60,62,64,66,68,70,72,74,76,78,80,82,84,86,88,90,92,94,96,98,100,102,104,106,108,110,112,114,116,118,120,122,124,126,-1,-1,-1,-1,-1,-1,-1,-1,-1,-1,-1,-1,-1,-1,-1,-1,-1,-1,-1,-1,-1,-1,-1,-1,-1,-1,-1,-1,-1,-1,-1,-1,-1,-1,-1,-1,-1,-1,-1,-1,-1,-1,-1,-1,-1,-1,-1,-1,-1,-1,-1,-1,-1,-1,-1,-1,-1,-1,-1,-1,-1,-1,-1,-1],"split_conditions":[8.418051E0,9.49509E-2,1.37E1,2.93E2,2.963E2,3.254E2,2.492E2,1.18E1,1.2982129E0,1.5400001E1,6.042857E-1,7E0,4.3266685E1,1.84E1,2.8621042E1,1.3900001E1,1.8608533E0,4.1125357E-1,1.17712E1,3.5083404E0,3.182E2,3.16E-1,9.107217E-1,5.4999924E-1,1.03E1,5E0,1.4099998E0,2.4792484E1,2E1,2.995E2,2.369999E0,2.033385E-1,2.813E2,2.5800001E1,4.8E0,3.457E2,1.0400001E1,2.894E2,1.26784E1,9.3E0,1.2974979E0,1.7300001E1,6.77E-3,1E0,1E0,4.2E1,3.2030002E2,3.1876528E1,9.8E0,2.2233894E0,1.0299991E0,8.107474E-1,3.041E2,9.900001E0,1.32E1,5.02E1,2.3233266E0,4.3266685E1,1.43372E1,1E0,3.8585372E0,1E0,1E0,-3.0505094E-1,-2.9403022E-1,-2.3427893E-1,3.5030758E-1,-1.3226277E-1,-3.0562294E-1,-7.8014825E-3,-2.9255423E-1,-2.989235E-1,-2.8586212E-1,-2.80203E-1,-2.9359862E-1,-2.8639582E-1,-2.5744E-1,-1.5792733E-1,-2.449557E-1,-2.3981199E-1,-2.7627796E-1,-2.5277555E-1,-1.5965769E-1,-2.8942403E-1,-3.012816E-1,-2.8157678E-1,-2.265362E-1,-2.9849455E-1,-2.0132649E-1,-2.7262732E-1,-1.6436514E-1,-2.478445E-1,-1.8205117E-1,-2.2081575E-1,-1.7549068E-1,-2.6562613E-1,-2.1499404E-1,-6.625916E-2,-1.9093275E-1,-1.623308E-1,-7.7693254E-2,-1.9182223E-1,-1.3165234E-1,-1.498746E-1,-2.3458628E-1,-1.5432142E-1,-7.778602E-2,-5.387153E-2,-1.4556476E-1,7.551118E-2,-4.9398653E-2,1.2562063E-1,-2.665942E-1,-2.2691114E-1,-4.8262384E-2,-2.8498185E-1,-2.5098467E-1,-2.9504573E-1,-2.4996935E-1,-2.4615246E-1,-4.5063615E-2,-2.0859525E-1,2.8254145E-3,-1.9465621E-1,-4.9803734E-2,-1.2850635E-1,8.285561E-2],"split_indices":[12,16,1,3,3,9,9,1,12,0,14,15,12,0,12,10,12,13,14,12,9,14,12,2,0,15,2,12,1,3,2,13,3,4,6,9,0,9,14,0,13,1,8,27,39,15,9,12,0,16,13,13,3,1,0,4,13,12,14,31,16,29,39,0,0,0,0,0,0,0,0,0,0,0,0,0,0,0,0,0,0,0,0,0,0,0,0,0,0,0,0,0,0,0,0,0,0,0,0,0,0,0,0,0,0,0,0,0,0,0,0,0,0,0,0,0,0,0,0,0,0,0,0,0,0,0,0],"split_type":[0,0,0,0,0,0,0,0,0,0,0,0,0,0,0,0,0,0,0,0,0,0,0,0,0,0,0,0,0,0,0,0,0,0,0,0,0,0,0,0,0,0,0,0,0,0,0,0,0,0,0,0,0,0,0,0,0,0,0,0,0,0,0,0,0,0,0,0,0,0,0,0,0,0,0,0,0,0,0,0,0,0,0,0,0,0,0,0,0,0,0,0,0,0,0,0,0,0,0,0,0,0,0,0,0,0,0,0,0,0,0,0,0,0,0,0,0,0,0,0,0,0,0,0,0,0,0],"sum_hessian":[1.3534358E5,1.0175591E5,3.3587676E4,5.82481E4,4.3507805E4,2.1030621E4,1.2557054E4,3.1202248E4,2.7045855E4,2.3261225E4,2.024658E4,1.3593228E4,7.437393E3,9.147979E3,3.409075E3,9.703182E3,2.1499066E4,2.4024604E4,3.0212522E3,9.305265E3,1.395596E4,3.2756577E3,1.6970924E4,3.3166367E3,1.0276591E4,3.2661501E3,4.1712427E3,4.729037E3,4.418942E3,9.18107E2,2.490968E3,9.698348E3,4.833945E0,2.0304594E4,1.1944719E3,8.158177E3,1.5866426E4,1.8500056E3,1.1712467E3,8.082985E3,1.2222794E3,1.3226028E4,7.299311E2,6.857032E2,2.5899546E3,9.987861E3,6.9830615E3,2.6655476E3,6.510892E2,4.1080205E3,6.16857E3,8.937604E2,2.3723896E3,3.4333337E3,7.379092E2,1.3625148E3,3.3665222E3,2.3802222E3,2.0387198E3,6.9152435E2,2.2658261E2,1.9852753E3,5.0569275E2,3.1167207E3,6.581627E3,2.7816286E0,2.0523162E0,2.435547E0,2.0302158E4,1.0074179E0,1.1934646E3,7.010097E3,1.1480797E3,8.909312E3,6.9571147E3,8.695901E2,9.8041547E2,1.7422755E2,9.9701917E2,1.1804182E3,6.902567E3,9.9762256E2,2.2465686E2,5.6991245E3,7.526904E3,4.4590393E2,2.8402716E2,6.754474E2,1.0255753E1,2.5557915E3,3.4163097E1,9.399492E3,5.883691E2,3.863214E3,3.1198477E3,9.6369885E2,1.7018488E3,1.7120142E2,4.798878E2,1.9555039E3,2.1525166E3,4.6218936E3,1.5466764E3,2.7053442E2,6.2322595E2,1.1573438E3,1.215046E3,2.3142756E3,1.119058E3,3.705198E2,3.6738934E2,4.5253396E0,1.3579895E3,3.29664E3,6.988233E1,1.1630538E3,1.2171682E3,1.9373077E3,1.0141221E2,6.8458075E2,6.943587E0,2.0288643E2,2.3696192E1,1.841168E3,1.4410728E2,4.48966E2,5.6726738E1],"tree_param":{"num_deleted":"0","num_feature":"42","num_nodes":"127","size_leaf_vector":"1"}},{"base_weights":[-7.946283E-1,-9.0944654E-1,-5.394701E-1,-9.654144E-1,-8.3224165E-1,-4.4964552E-1,-8.1028134E-1,-9.90098E-1,-9.2245626E-1,-9.197471E-1,-7.371714E-1,-6.03934E-1,-3.615822E-1,-8.508602E-1,-5.974559E-1,-9.430055E-1,-9.9803704E-1,-8.356884E-1,-9.6118057E-1,-9.361155E-1,-7.961677E-1,-9.039408E-1,-7.114655E-1,-8.3651936E-1,-5.455153E-1,-4.3665254E-1,-1.6618656E-1,-7.822359E-1,-9.2927116E-1,-7.5941676E-1,-5.2470183E-1,-9.7389203E-1,-8.7364984E-1,-1.0070279E0,-9.795128E-1,-7.472641E-1,-8.702666E-1,-9.688946E-1,-8.1082565E-1,-9.580886E-1,-9.0782654E-1,-8.117944E-1,-3.980628E-1,-9.1006696E-1,-5.381743E-1,-7.818723E-1,-6.4573556E-1,-8.9559066E-1,-7.349417E-1,-6.280609E-1,-3.8965547E-1,-4.6842158E-1,-1.1459103E-2,-2.0250748E-1,4.157155E-1,1.404311E0,-7.8688115E-1,-9.611613E-1,-8.8068193E-1,-8.04042E-1,-4.7505483E-1,-5.4067004E-1,7.708268E-1,-3.0170047E-1,-2.850088E-1,-2.6337877E-1,2.0053793E-2,-3.0214205E-1,-7.4990384E-2,-2.9522637E-1,-2.712743E-1,6.566258E-2,-2.2591515E-1,-2.7218637E-1,-2.3659357E-1,-2.7878216E-1,-2.9525834E-1,-2.5437132E-1,-8.771232E-2,-2.8935274E-1,-2.7080083E-1,-2.5957403E-1,-2.8232387E-1,-2.5259775E-1,-1.9426616E-1,1.3930976E0,-2.5058234E-1,-2.733083E-1,1.05460696E-1,3.1411767E-1,-2.0599744E-1,-2.159769E-1,-2.5611737E-1,-2.2980897E-1,-1.778457E-1,-2.7326512E-1,-2.233409E-1,-2.3404594E-1,-1.2735263E-1,-1.9214761E-1,-4.162329E-2,-1.3171597E-1,6.704259E-2,-1.5123703E-1,-3.0782035E-2,-4.4891454E-2,4.2129323E-1,-1.2632877E-1,-4.1947637E-2,5.7191085E-2,3.694756E-1,1.085432E0,-4.9175628E-2,-2.60472E-1,-2.1728049E-1,2.1506242E-2,-2.8864092E-1,-2.6734802E-1,-1.4312488E-1,-2.4651822E-1,-1.0203598E-1,3.382169E-2,-1.8604676E-1,-1.9927934E-1,-1.355307E-1,1.7835679E-2,7.2362727E-1],"categories":[],"categories_nodes":[],"categories_segments":[],"categories_sizes":[],"default_left":[0,0,0,0,0,0,0,0,1,0,0,0,0,0,0,1,0,1,0,1,1,0,0,0,0,0,0,0,0,0,0,1,0,1,0,0,0,0,0,0,0,0,0,0,0,0,0,0,0,0,0,0,0,0,0,0,0,0,0,0,0,1,0,0,0,0,0,0,0,0,0,0,0,0,0,0,0,0,0,0,0,0,0,0,0,0,0,0,0,0,0,0,0,0,0,0,0,0,0,0,0,0,0,0,0,0,0,0,0,0,0,0,0,0,0,0,0,0,0,0,0,0,0,0,0,0,0],"id":6,"left_children":[1,3,5,7,9,11,13,15,17,19,21,23,25,27,29,31,33,35,37,39,41,43,45,47,49,51,53,55,57,59,61,63,65,67,69,71,73,75,77,79,81,83,85,87,89,91,93,95,97,99,101,103,105,107,109,111,113,115,117,119,121,123,125,-1,-1,-1,-1,-1,-1,-1,-1,-1,-1,-1,-1,-1,-1,-1,-1,-1,-1,-1,-1,-1,-1,-1,-1,-1,-1,-1,-1,-1,-1,-1,-1,-1,-1,-1,-1,-1,-1,-1,-1,-1,-1,-1,-1,-1,-1,-1,-1,-1,-1,-1,-1,-1,-1,-1,-1,-1,-1,-1,-1,-1,-1,-1,-1],"loss_changes":[3.1202656E3,3.16625E2,8.038447E2,4.423828E1,2.562246E2,3.37125E2,7.059473E1,9.166016E0,5.1458008E1,3.177539E1,6.2828125E1,1.2210571E2,2.3181787E2,3.646826E1,1.5176422E1,7.54126E0,2.8632812E0,1.4047852E1,1.16796875E1,7.9501953E0,1.14157715E1,3.9327393E0,5.8884277E1,1.0196045E1,9.254639E1,1.542605E2,9.2857315E1,3.8610596E1,4.144287E0,4.788727E0,1.9351944E1,1.0932617E0,4.9559326E0,1.0664062E0,1.7231445E0,7.7593384E0,9.70874E0,5.279297E0,9.952545E0,1.9648438E0,7.9960938E0,8.455322E0,1.6530658E2,2.6711426E0,8.947747E0,2.6944336E1,4.1830566E1,1.9546509E0,9.082581E0,2.8582275E1,7.5811615E1,1.3873096E2,1.5573419E2,5.655995E1,4.718213E1,2.9016987E1,1.814502E1,2.0164795E0,5.022522E0,2.5983887E0,4.992428E0,9.640991E0,1.3349553E1,0E0,0E0,0E0,0E0,0E0,0E0,0E0,0E0,0E0,0E0,0E0,0E0,0E0,0E0,0E0,0E0,0E0,0E0,0E0,0E0,0E0,0E0,0E0,0E0,0E0,0E0,0E0,0E0,0E0,0E0,0E0,0E0,0E0,0E0,0E0,0E0,0E0,0E0,0E0,0E0,0E0,0E0,0E0,0E0,0E0,0E0,0E0,0E0,0E0,0E0,0E0,0E0,0E0,0E0,0E0,0E0,0E0,0E0,0E0,0E0,0E0,0E0,0E0,0E0],"parents":[2147483647,0,0,1,1,2,2,3,3,4,4,5,5,6,6,7,7,8,8,9,9,10,10,11,11,12,12,13,13,14,14,15,15,16,16,17,17,18,18,19,19,20,20,21,21,22,22,23,23,24,24,25,25,26,26,27,27,28,28,29,29,30,30,31,31,32,32,33,33,34,34,35,35,36,36,37,37,38,38,39,39,40,40,41,41,42,42,43,43,44,44,45,45,46,46,47,47,48,48,49,49,50,50,51,51,52,52,53,53,54,54,55,55,56,56,57,57,58,58,59,59,60,60,61,61,62,62],"right_children":[2,4,6,8,10,12,14,16,18,20,22,24,26,28,30,32,34,36,38,40,42,44,46,48,50,52,54,56,58,60,62,64,66,68,70,72,74,76,78,80,82,84,86,88,90,92,94,96,98,100,102,104,106,108,110,112,114,116,118,120,122,124,126,-1,-1,-1,-1,-1,-1,-1,-1,-1,-1,-1,-1,-1,-1,-1,-1,-1,-1,-1,-1,-1,-1,-1,-1,-1,-1,-1,-1,-1,-1,-1,-1,-1,-1,-1,-1,-1,-1,-1,-1,-1,-1,-1,-1,-1,-1,-1,-1,-1,-1,-1,-1,-1,-1,-1,-1,-1,-1,-1,-1,-1,-1,-1,-1],"split_conditions":[4.8492956E0,2.958E2,1.5400001E1,9.49509E-2,9.49509E-2,2.3709198E1,2.566E2,1.01E1,1.27E1,9.623848E-1,5.612E-1,7.036E-1,3.361E2,1.95E1,1.9094866E1,6.8688065E-1,2.888E2,1.05E1,3.182E2,8.510506E-1,3.4995866E0,1E0,3.072E2,3.264E2,3.035E2,1E0,3.7E1,5.28E1,4.3266685E1,3.484E2,5.1099987E0,1.5812446E-1,6.6E1,1.69E1,1.9320508E0,1E0,5.7822824E-1,1.61E1,1E0,4E1,1.44372E1,3.6159134E0,1.26076E1,1.03E1,1.8333405E-1,9.2E0,2.0590603E-2,3.4002912E0,2.8072264E0,2.13896E1,4.158756E0,1E0,1.39092E1,-3.5200005E0,1E0,1.5400001E1,2.8621042E1,4.75E1,1.38216E1,4E1,9.122195E-1,6.7335844E-1,3.615E2,-3.0170047E-1,-2.850088E-1,-2.6337877E-1,2.0053793E-2,-3.0214205E-1,-7.4990384E-2,-2.9522637E-1,-2.712743E-1,6.566258E-2,-2.2591515E-1,-2.7218637E-1,-2.3659357E-1,-2.7878216E-1,-2.9525834E-1,-2.5437132E-1,-8.771232E-2,-2.8935274E-1,-2.7080083E-1,-2.5957403E-1,-2.8232387E-1,-2.5259775E-1,-1.9426616E-1,1.3930976E0,-2.5058234E-1,-2.733083E-1,1.05460696E-1,3.1411767E-1,-2.0599744E-1,-2.159769E-1,-2.5611737E-1,-2.2980897E-1,-1.778457E-1,-2.7326512E-1,-2.233409E-1,-2.3404594E-1,-1.2735263E-1,-1.9214761E-1,-4.162329E-2,-1.3171597E-1,6.704259E-2,-1.5123703E-1,-3.0782035E-2,-4.4891454E-2,4.2129323E-1,-1.2632877E-1,-4.1947637E-2,5.7191085E-2,3.694756E-1,1.085432E0,-4.9175628E-2,-2.60472E-1,-2.1728049E-1,2.1506242E-2,-2.8864092E-1,-2.6734802E-1,-1.4312488E-1,-2.4651822E-1,-1.0203598E-1,3.382169E-2,-1.8604676E-1,-1.9927934E-1,-1.355307E-1,1.7835679E-2,7.2362727E-1],"split_indices":[12,3,1,16,16,12,9,0,1,12,14,14,9,0,12,13,3,0,9,13,13,39,9,9,3,33,15,4,12,9,2,13,15,10,12,15,12,0,36,15,14,12,14,10,13,1,12,16,16,14,16,30,14,2,33,0,12,4,14,15,13,13,9,0,0,0,0,0,0,0,0,0,0,0,0,0,0,0,0,0,0,0,0,0,0,0,0,0,0,0,0,0,0,0,0,0,0,0,0,0,0,0,0,0,0,0,0,0,0,0,0,0,0,0,0,0,0,0,0,0,0,0,0,0,0,0,0],"split_type":[0,0,0,0,0,0,0,0,0,0,0,0,0,0,0,0,0,0,0,0,0,0,0,0,0,0,0,0,0,0,0,0,0,0,0,0,0,0,0,0,0,0,0,0,0,0,0,0,0,0,0,0,0,0,0,0,0,0,0,0,0,0,0,0,0,0,0,0,0,0,0,0,0,0,0,0,0,0,0,0,0,0,0,0,0,0,0,0,0,0,0,0,0,0,0,0,0,0,0,0,0,0,0,0,0,0,0,0,0,0,0,0,0,0,0,0,0,0,0,0,0,0,0,0,0,0,0],"sum_hessian":[1.0652068E5,7.346137E4,3.3059312E4,4.258144E4,3.0879924E4,2.4827137E4,8.232174E3,2.7028756E4,1.55526875E4,1.6075181E4,1.4804743E4,9.019304E3,1.5807833E4,6.9113975E3,1.3207767E3,3.9165383E3,2.3112217E4,4.8062065E3,1.074648E4,1.4189212E4,1.8859681E3,1.9726749E3,1.2832068E4,1.807939E3,7.2113643E3,1.1419331E4,4.388503E3,3.6915625E3,3.219835E3,4.064728E2,9.143039E2,2.7007546E3,1.2157837E3,1.5524119E4,7.5880977E3,1.3574653E3,3.448741E3,1.0216856E4,5.2962396E2,7.967607E3,6.221605E3,1.813735E3,7.2233185E1,1.9387156E3,3.3959324E1,6.190359E3,6.64171E3,1.13821E3,6.697291E2,4.712518E3,2.4988462E3,1.0625339E4,7.939918E2,4.1312896E3,2.572132E2,7.1872225E0,3.6843752E3,1.9326272E3,1.2872078E3,3.4975748E2,5.671534E1,9.0374725E2,1.0556609E1,1.1406711E3,1.5600835E3,1.210343E3,5.44069E0,1.5521487E4,2.6322758E0,7.1418936E3,4.4620416E2,7.8624887E0,1.3496028E3,2.3656353E3,1.0831058E3,2.8634194E3,7.353437E3,4.936813E2,3.594265E1,7.125673E3,8.419339E2,2.7400432E3,3.4815618E3,1.5285598E3,2.8517514E2,4.9963636E0,6.7236824E1,1.9375182E3,1.1974189E0,2.3901446E0,3.1569181E1,3.3301782E3,2.8601804E3,2.0249498E3,4.61676E3,1.029046E3,1.0916394E2,5.832688E2,8.646033E1,4.595461E3,1.1705711E2,2.3127966E3,1.8604968E2,9.680218E3,9.4512103E2,7.2420386E2,6.978796E1,9.193973E2,3.2118923E3,2.025643E2,5.464888E1,2.438201E0,4.7490215E0,1.5967296E3,2.0876458E3,1.7544774E0,1.9308727E3,1.253458E3,3.3749767E1,3.3617084E2,1.3586633E1,1.1272855E1,4.5442486E1,3.753903E2,5.28357E2,8.087472E0,2.4691374E0],"tree_param":{"num_deleted":"0","num_feature":"42","num_nodes":"127","size_leaf_vector":"1"}},{"base_weights":[-7.3190093E-1,-8.783946E-1,-4.698018E-1,-9.5960563E-1,-8.028246E-1,-6.515151E-1,-3.2517236E-1,-9.8293644E-1,-9.1569513E-1,-8.9789E-1,-6.941798E-1,-5.581968E-1,-8.399152E-1,-6.0850304E-1,-2.682048E-1,-9.2686665E-1,-9.902481E-1,-7.9477686E-1,-9.4506556E-1,-9.119569E-1,-7.940651E-1,-7.638603E-1,-6.185875E-1,-6.910533E-1,-4.8246142E-1,-7.6694167E-1,-9.1516393E-1,-7.814685E-1,-4.694791E-1,-3.586156E-1,-1.1407881E-1,-9.60893E-1,-8.350376E-1,-1.0002186E0,-9.715362E-1,-3.9440903E-1,-8.1065893E-1,-9.1252625E-1,-9.8083436E-1,-9.387754E-1,-8.7798274E-1,-8.324621E-1,-5.862214E-1,-6.944462E-1,-8.574866E-1,-8.505392E-1,-5.9310234E-1,-7.436342E-1,-4.7737357E-1,-5.2161074E-1,-2.0801115E-1,-7.8665507E-1,-2.2983347E-1,-9.551952E-1,-8.4461755E-1,-7.9550225E-1,-2.357896E-1,-3.6802435E-1,-6.812058E-1,-4.8113492E-1,-2.8359488E-1,-2.8436828E-1,3.8697075E-2,-2.8846034E-1,-4.4190526E-2,-2.5236833E-1,3.6502294E-2,-3.0011922E-1,-5.126805E-2,-2.916643E-1,-1.5971388E-1,-1.3270105E-1,4.1275984E-1,-2.7136108E-1,-2.2724767E-1,-2.7441597E-1,1.7417502E-1,-2.9499462E-1,-2.226219E-1,-2.843784E-1,-2.622278E-1,-2.5378102E-1,-2.811976E-1,-2.6893365E-1,-2.3297608E-1,-2.0471005E-1,2.9723275E-2,-2.195639E-1,-1.4960177E-1,-2.4867539E-1,-2.7784973E-1,3.2409195E-2,-2.5599012E-1,-2.1153434E-1,-1.6154888E-1,-2.771505E-1,-2.1193789E-1,-1.5264344E-1,1.4418943E-1,-1.6551986E-1,-6.416295E-2,-6.691633E-2,8.5410124E-1,-2.588011E-1,-2.1454908E-1,-1.4637059E-1,1.1423978E-1,-1.66222E-1,-2.8748214E-1,-2.5857267E-1,-4.2377714E-2,-2.7185187E-1,-2.2350815E-1,1.1318097E-1,-2.8712264E-1,-1.2766373E-1,5.4240003E-2,-2.1350656E-1,-8.819505E-2,-1.5581734E-1,5.9062924E-4,-5.7148207E-2,-1.419061E-1,-9.771376E-2,1.823003E-1,-1.9674938E-2,1.1452476E-1],"categories":[],"categories_nodes":[],"categories_segments":[],"categories_sizes":[],"default_left":[0,0,0,0,0,0,0,0,1,0,0,0,0,0,0,1,0,1,0,1,0,0,0,0,0,1,0,0,0,0,0,0,0,1,0,1,1,0,0,0,0,0,1,0,0,0,0,0,1,0,0,0,0,0,0,0,0,0,0,0,0,0,0,0,0,0,0,0,0,0,0,0,0,0,0,0,0,0,0,0,0,0,0,0,0,0,0,0,0,0,0,0,0,0,0,0,0,0,0,0,0,0,0,0,0,0,0,0,0,0,0,0,0,0,0,0,0,0,0,0,0,0,0,0,0,0,0],"id":7,"left_children":[1,3,5,7,9,11,13,15,17,19,21,23,25,27,29,31,33,35,37,39,41,43,45,47,49,51,53,55,57,59,61,63,65,67,69,71,73,75,77,79,81,83,85,87,89,91,93,95,97,99,101,103,105,107,109,111,113,115,117,119,121,123,125,-1,-1,-1,-1,-1,-1,-1,-1,-1,-1,-1,-1,-1,-1,-1,-1,-1,-1,-1,-1,-1,-1,-1,-1,-1,-1,-1,-1,-1,-1,-1,-1,-1,-1,-1,-1,-1,-1,-1,-1,-1,-1,-1,-1,-1,-1,-1,-1,-1,-1,-1,-1,-1,-1,-1,-1,-1,-1,-1,-1,-1,-1,-1,-1],"loss_changes":[3.262293E3,3.3375E2,8.005371E2,2.6011719E1,2.9105664E2,2.3691504E2,2.7370264E2,6.107422E0,3.1669922E1,2.1269531E1,6.896924E1,9.0552246E1,2.3846191E1,6.791614E1,1.9683923E2,5.4245605E0,1.8554688E0,1.1064209E1,7.647461E0,1.125293E1,1.3912964E1,4.3960205E1,3.6906982E1,3.646643E1,6.1740845E1,2.3915527E1,5.394409E0,9.490906E0,3.3619812E1,8.170996E1,1.3595062E2,6.138916E-1,3.338501E0,1.2880859E0,1.0600586E0,6.5696354E0,7.9051514E0,1.3166016E1,1.3337402E0,3.5478516E0,1.0356445E1,4.7404785E0,1.8829926E1,2.8525269E1,4.9509277E0,1.7442627E0,3.4518555E1,1.6953613E1,1.9820404E1,4.6573853E1,3.3737225E1,1.1310547E1,1.310506E1,1.1896973E0,9.651123E0,6.2055054E0,1.5002027E1,3.379802E1,5.8061523E0,6.2474854E1,9.735214E1,9.133319E1,9.858523E1,0E0,0E0,0E0,0E0,0E0,0E0,0E0,0E0,0E0,0E0,0E0,0E0,0E0,0E0,0E0,0E0,0E0,0E0,0E0,0E0,0E0,0E0,0E0,0E0,0E0,0E0,0E0,0E0,0E0,0E0,0E0,0E0,0E0,0E0,0E0,0E0,0E0,0E0,0E0,0E0,0E0,0E0,0E0,0E0,0E0,0E0,0E0,0E0,0E0,0E0,0E0,0E0,0E0,0E0,0E0,0E0,0E0,0E0,0E0,0E0,0E0,0E0,0E0,0E0],"parents":[2147483647,0,0,1,1,2,2,3,3,4,4,5,5,6,6,7,7,8,8,9,9,10,10,11,11,12,12,13,13,14,14,15,15,16,16,17,17,18,18,19,19,20,20,21,21,22,22,23,23,24,24,25,25,26,26,27,27,28,28,29,29,30,30,31,31,32,32,33,33,34,34,35,35,36,36,37,37,38,38,39,39,40,40,41,41,42,42,43,43,44,44,45,45,46,46,47,47,48,48,49,49,50,50,51,51,52,52,53,53,54,54,55,55,56,56,57,57,58,58,59,59,60,60,61,61,62,62],"right_children":[2,4,6,8,10,12,14,16,18,20,22,24,26,28,30,32,34,36,38,40,42,44,46,48,50,52,54,56,58,60,62,64,66,68,70,72,74,76,78,80,82,84,86,88,90,92,94,96,98,100,102,104,106,108,110,112,114,116,118,120,122,124,126,-1,-1,-1,-1,-1,-1,-1,-1,-1,-1,-1,-1,-1,-1,-1,-1,-1,-1,-1,-1,-1,-1,-1,-1,-1,-1,-1,-1,-1,-1,-1,-1,-1,-1,-1,-1,-1,-1,-1,-1,-1,-1,-1,-1,-1,-1,-1,-1,-1,-1,-1,-1,-1,-1,-1,-1,-1,-1,-1,-1,-1,-1,-1,-1],"split_conditions":[3.6159134E0,2.93E2,2.971E2,9.49509E-2,9.49509E-2,1.7E1,6.42E-1,1.01E1,1.3E1,7.7702016E-1,3.072E2,1.821931E1,2.0300001E1,2.2592148E1,3.056E2,6.600062E-1,2.87E2,5.5E0,1.8800001E1,8.510506E-1,1E0,1.06E1,5.172E-1,1E0,1E0,2.7877688E0,4.3266685E1,1.0662492E1,6.2600164E0,2.5881025E1,2.2233894E0,3.625E2,6.6E1,1.69E1,6.4E1,1.7883112E0,2.891683E-1,1.2900001E1,3.3330002E2,4E1,1.16E1,2.894E2,3.4995866E0,1E0,1.66E1,2.933E2,2.0590603E-2,6.648E-1,3.2102795E0,1E0,9.900001E0,2.8621042E1,2.2739956E0,2.75E1,1.43372E1,3.792E-1,1.4179112E1,5.74491E2,1.1109999E-2,4.445809E0,1.0662492E1,1.8097103E1,1.8999958E-1,-2.8846034E-1,-4.4190526E-2,-2.5236833E-1,3.6502294E-2,-3.0011922E-1,-5.126805E-2,-2.916643E-1,-1.5971388E-1,-1.3270105E-1,4.1275984E-1,-2.7136108E-1,-2.2724767E-1,-2.7441597E-1,1.7417502E-1,-2.9499462E-1,-2.226219E-1,-2.843784E-1,-2.622278E-1,-2.5378102E-1,-2.811976E-1,-2.6893365E-1,-2.3297608E-1,-2.0471005E-1,2.9723275E-2,-2.195639E-1,-1.4960177E-1,-2.4867539E-1,-2.7784973E-1,3.2409195E-2,-2.5599012E-1,-2.1153434E-1,-1.6154888E-1,-2.771505E-1,-2.1193789E-1,-1.5264344E-1,1.4418943E-1,-1.6551986E-1,-6.416295E-2,-6.691633E-2,8.5410124E-1,-2.588011E-1,-2.1454908E-1,-1.4637059E-1,1.1423978E-1,-1.66222E-1,-2.8748214E-1,-2.5857267E-1,-4.2377714E-2,-2.7185187E-1,-2.2350815E-1,1.1318097E-1,-2.8712264E-1,-1.2766373E-1,5.4240003E-2,-2.1350656E-1,-8.819505E-2,-1.5581734E-1,5.9062924E-4,-5.7148207E-2,-1.419061E-1,-9.771376E-2,1.823003E-1,-1.9674938E-2,1.1452476E-1],"split_indices":[12,3,3,16,16,1,14,0,0,12,9,12,0,12,3,13,3,1,0,13,30,1,14,30,30,13,12,16,16,12,16,9,15,10,15,13,13,10,9,15,0,9,13,27,0,3,12,14,13,33,10,12,16,6,14,14,16,12,8,16,16,14,2,0,0,0,0,0,0,0,0,0,0,0,0,0,0,0,0,0,0,0,0,0,0,0,0,0,0,0,0,0,0,0,0,0,0,0,0,0,0,0,0,0,0,0,0,0,0,0,0,0,0,0,0,0,0,0,0,0,0,0,0,0,0,0,0],"split_type":[0,0,0,0,0,0,0,0,0,0,0,0,0,0,0,0,0,0,0,0,0,0,0,0,0,0,0,0,0,0,0,0,0,0,0,0,0,0,0,0,0,0,0,0,0,0,0,0,0,0,0,0,0,0,0,0,0,0,0,0,0,0,0,0,0,0,0,0,0,0,0,0,0,0,0,0,0,0,0,0,0,0,0,0,0,0,0,0,0,0,0,0,0,0,0,0,0,0,0,0,0,0,0,0,0,0,0,0,0,0,0,0,0,0,0,0,0,0,0,0,0,0,0,0,0,0,0],"sum_hessian":[8.497452E4,5.4506914E4,3.0467611E4,2.626722E4,2.8239693E4,1.3501164E4,1.6966447E4,1.7139283E4,9.1279375E3,1.505721E4,1.3182483E4,9.031597E3,4.469567E3,2.8386436E3,1.4127803E4,1.9919171E3,1.5147367E4,1.7893267E3,7.3386104E3,1.3253722E4,1.8034879E3,6.854734E3,6.3277495E3,3.2762356E3,5.7553613E3,2.274768E3,2.194799E3,1.2628538E3,1.5757898E3,8.903597E3,5.224206E3,1.4464763E3,5.454408E2,9.847606E3,5.2997603E3,6.925767E1,1.7200691E3,3.8566626E3,3.4819478E3,7.391993E3,5.8617285E3,1.5197285E3,2.837593E2,3.9411804E3,2.9135532E3,6.232147E2,5.7045347E3,2.6272566E3,6.48979E2,5.0360825E3,7.19279E2,2.1937854E3,8.098281E1,1.3922391E3,8.025599E2,1.2307438E3,3.2110004E1,1.0671658E3,5.0862405E2,3.3793062E3,5.524291E3,2.470092E3,2.754114E3,1.445155E3,1.3212075E0,5.4205426E2,3.3865256E0,9.845279E3,2.3265324E0,5.2903784E3,9.382203E0,6.81624E1,1.0952735E0,6.1613293E2,1.103936E3,3.8513918E3,5.2708707E0,3.4430508E3,3.889699E1,6.4637236E3,9.2826984E2,3.8161824E3,2.0455461E3,7.0144794E2,8.1828064E2,2.488506E2,3.490872E1,3.3062588E3,6.3492163E2,2.0668633E3,8.466898E2,1.6804591E0,6.215343E2,1.8656531E3,3.8388816E3,4.452238E2,2.182033E3,6.2881274E2,2.0166252E1,4.586361E3,4.4972168E2,7.16677E2,2.6020212E0,1.0578896E3,1.1358956E3,5.706621E1,2.3916603E1,1.1982431E1,1.3802567E3,7.8308325E2,1.9476656E1,3.8019153E2,8.5055225E2,1.761501E1,1.4494993E1,9.6613165E2,1.0103413E2,4.7072964E2,3.7894413E1,3.1312708E3,2.4803552E2,3.7052163E3,1.8190746E3,2.3612854E3,1.08806465E2,2.112707E3,6.4140704E2],"tree_param":{"num_deleted":"0","num_feature":"42","num_nodes":"127","size_leaf_vector":"1"}},{"base_weights":[-6.6178656E-1,-8.3439964E-1,-3.890059E-1,-9.376113E-1,-7.4281895E-1,-2.9573202E-1,-6.7544734E-1,-9.6830636E-1,-8.810193E-1,-8.5867065E-1,-6.1829716E-1,-3.8855585E-1,-1.6794798E-1,-7.5729406E-1,-4.7589162E-1,-8.9555067E-1,-9.7797877E-1,-7.608013E-1,-9.2749375E-1,-8.763811E-1,-7.3262256E-1,-6.945305E-1,-5.310804E-1,-5.4151005E-1,-3.0828702E-1,-2.2248995E-1,5.907869E-2,-5.872332E-1,-8.1537664E-1,-6.443843E-1,-3.3880478E-1,-9.393575E-1,-7.8170276E-1,-9.912377E-1,-9.5330924E-1,-6.212083E-1,-8.110995E-1,-9.367714E-1,-6.596549E-1,-9.105937E-1,-8.338211E-1,-7.778793E-1,-5.0525844E-1,-6.3742226E-1,-8.108997E-1,-7.4357504E-1,-4.7668907E-1,-8.0203116E-1,-4.8197874E-1,-1.8486701E-1,-4.5873722E-1,-4.2034933E-1,-1.3402553E-1,2.8142592E-1,-1.4103952E-1,-6.102045E-1,1.6977991E0,-8.851115E-1,-7.4031824E-1,-7.3810226E-1,-4.34344E-1,-3.688707E-1,6.566423E-1,-2.3902668E-1,-2.8528857E-1,-1.9591036E-1,-2.5501063E-1,-2.9748076E-1,-8.2769565E-2,-2.880856E-1,-2.605695E-1,-1.988496E-1,-6.3535646E-2,-2.626936E-1,-2.1072994E-1,-2.705938E-1,-2.9234642E-1,-2.1919605E-1,5.410039E-2,-2.7671117E-1,-2.4875586E-1,-2.3834322E-1,-2.7260306E-1,-2.569001E-1,-2.1352513E-1,-5.7836436E-2,-2.4132511E-1,-1.9213402E-1,6.4092475E-1,-2.5500208E-1,-2.1298479E-1,-2.3240988E-1,-1.10253125E-1,-1.5807346E-1,-7.388406E-2,-2.4768496E-1,-1.6982347E-1,-1.6262612E-1,-8.8321224E-2,-1.2167996E-1,-3.3975743E-2,-1.858394E-1,-7.729084E-2,-1.4617169E-1,-4.488188E-2,-1.1347057E-2,-9.497846E-2,1.4095977E-1,-2.4271875E-3,-5.346811E-2,3.3047867E-1,-2.2187124E-1,-1.2087902E-1,1.6115342E0,6.589301E-2,2.93018E-1,-2.660118E-1,-2.260394E-1,-4.734916E-2,-2.2567476E-1,3.163048E-2,-5.2869096E-2,-1.8490532E-1,-9.3617246E-2,-1.7790946E-1,-8.591319E-3,6.1809945E-1],"categories":[],"categories_nodes":[],"categories_segments":[],"categories_sizes":[],"default_left":[0,0,0,0,0,0,0,0,1,0,0,0,0,0,0,1,0,1,0,1,0,0,0,0,0,0,0,0,0,0,0,0,0,1,0,0,0,0,0,0,0,0,0,0,0,0,1,0,1,0,1,0,0,0,1,0,0,0,0,0,0,0,0,0,0,0,0,0,0,0,0,0,0,0,0,0,0,0,0,0,0,0,0,0,0,0,0,0,0,0,0,0,0,0,0,0,0,0,0,0,0,0,0,0,0,0,0,0,0,0,0,0,0,0,0,0,0,0,0,0,0,0,0,0,0,0,0],"id":8,"left_children":[1,3,5,7,9,11,13,15,17,19,21,23,25,27,29,31,33,35,37,39,41,43,45,47,49,51,53,55,57,59,61,63,65,67,69,71,73,75,77,79,81,83,85,87,89,91,93,95,97,99,101,103,105,107,109,111,113,115,117,119,121,123,125,-1,-1,-1,-1,-1,-1,-1,-1,-1,-1,-1,-1,-1,-1,-1,-1,-1,-1,-1,-1,-1,-1,-1,-1,-1,-1,-1,-1,-1,-1,-1,-1,-1,-1,-1,-1,-1,-1,-1,-1,-1,-1,-1,-1,-1,-1,-1,-1,-1,-1,-1,-1,-1,-1,-1,-1,-1,-1,-1,-1,-1,-1,-1,-1],"loss_changes":[3.2472852E3,3.9857617E2,7.1402124E2,3.363867E1,3.2241895E2,2.391499E2,1.0687842E2,8.176758E0,3.8367188E1,2.524121E1,7.139258E1,1.4324585E2,1.0510983E2,4.549536E1,4.3953827E1,6.8529053E0,2.7646484E0,1.3225342E1,1.1903809E1,1.4036133E1,1.4367432E1,3.7734863E1,5.7875854E1,6.194397E1,1.4220703E2,1.19731445E2,7.323022E1,6.3422363E1,1.749121E1,1.6545197E1,3.1864204E1,1.0519409E0,3.2138672E0,1.6455078E0,1.5256348E0,8.758957E0,9.444031E0,5.5092773E0,1.0394623E1,4.6245117E0,1.26484375E1,5.5877075E0,2.2371857E1,3.3799927E1,6.862793E0,1.17127075E1,4.6321167E1,3.6843262E0,3.675305E1,6.652591E1,1.1143982E2,3.8211212E1,8.307503E1,4.2530766E1,4.023243E1,3.1274261E1,6.44978E1,6.186035E0,1.2713867E1,7.1323547E0,1.2424213E1,1.2884277E1,3.0201736E1,0E0,0E0,0E0,0E0,0E0,0E0,0E0,0E0,0E0,0E0,0E0,0E0,0E0,0E0,0E0,0E0,0E0,0E0,0E0,0E0,0E0,0E0,0E0,0E0,0E0,0E0,0E0,0E0,0E0,0E0,0E0,0E0,0E0,0E0,0E0,0E0,0E0,0E0,0E0,0E0,0E0,0E0,0E0,0E0,0E0,0E0,0E0,0E0,0E0,0E0,0E0,0E0,0E0,0E0,0E0,0E0,0E0,0E0,0E0,0E0,0E0,0E0,0E0,0E0],"parents":[2147483647,0,0,1,1,2,2,3,3,4,4,5,5,6,6,7,7,8,8,9,9,10,10,11,11,12,12,13,13,14,14,15,15,16,16,17,17,18,18,19,19,20,20,21,21,22,22,23,23,24,24,25,25,26,26,27,27,28,28,29,29,30,30,31,31,32,32,33,33,34,34,35,35,36,36,37,37,38,38,39,39,40,40,41,41,42,42,43,43,44,44,45,45,46,46,47,47,48,48,49,49,50,50,51,51,52,52,53,53,54,54,55,55,56,56,57,57,58,58,59,59,60,60,61,61,62,62],"right_children":[2,4,6,8,10,12,14,16,18,20,22,24,26,28,30,32,34,36,38,40,42,44,46,48,50,52,54,56,58,60,62,64,66,68,70,72,74,76,78,80,82,84,86,88,90,92,94,96,98,100,102,104,106,108,110,112,114,116,118,120,122,124,126,-1,-1,-1,-1,-1,-1,-1,-1,-1,-1,-1,-1,-1,-1,-1,-1,-1,-1,-1,-1,-1,-1,-1,-1,-1,-1,-1,-1,-1,-1,-1,-1,-1,-1,-1,-1,-1,-1,-1,-1,-1,-1,-1,-1,-1,-1,-1,-1,-1,-1,-1,-1,-1,-1,-1,-1,-1,-1,-1,-1,-1,-1,-1,-1],"split_conditions":[3.6159134E0,2.93E2,1.6E1,9.49509E-2,9.49509E-2,3.161E2,2.327E2,1.01E1,1.27E1,7.7702016E-1,3.02E2,1.9094866E1,1.3199997E0,1.55E1,2.8621042E1,6.600062E-1,2.87E2,1.06E1,3.182E2,8.510506E-1,1E0,1.27E1,8.012E-1,5E0,2.59E1,9E0,8.4277964E-1,8.900001E0,2.8621042E1,2.0033555E0,4E1,7.8E0,1.34716E1,1.58E1,1.0983074E0,3.4430002E2,2.1719602E-1,1.91E1,1E0,4E1,1.16E1,2.894E2,1.46424E1,6.8E1,3.061E2,1E0,9.499998E-1,3.4002912E0,1.2387476E0,9E0,4.9750128E-1,1E0,7.8E1,3.4408E0,3.9007723E0,6.0014717E1,4.6600002E1,1.17E1,1.43372E1,3.625E2,1.8E1,1.97E1,1.4513593E2,-2.3902668E-1,-2.8528857E-1,-1.9591036E-1,-2.5501063E-1,-2.9748076E-1,-8.2769565E-2,-2.880856E-1,-2.605695E-1,-1.988496E-1,-6.3535646E-2,-2.626936E-1,-2.1072994E-1,-2.705938E-1,-2.9234642E-1,-2.1919605E-1,5.410039E-2,-2.7671117E-1,-2.4875586E-1,-2.3834322E-1,-2.7260306E-1,-2.569001E-1,-2.1352513E-1,-5.7836436E-2,-2.4132511E-1,-1.9213402E-1,6.4092475E-1,-2.5500208E-1,-2.1298479E-1,-2.3240988E-1,-1.10253125E-1,-1.5807346E-1,-7.388406E-2,-2.4768496E-1,-1.6982347E-1,-1.6262612E-1,-8.8321224E-2,-1.2167996E-1,-3.3975743E-2,-1.858394E-1,-7.729084E-2,-1.4617169E-1,-4.488188E-2,-1.1347057E-2,-9.497846E-2,1.4095977E-1,-2.4271875E-3,-5.346811E-2,3.3047867E-1,-2.2187124E-1,-1.2087902E-1,1.6115342E0,6.589301E-2,2.93018E-1,-2.660118E-1,-2.260394E-1,-4.734916E-2,-2.2567476E-1,3.163048E-2,-5.2869096E-2,-1.8490532E-1,-9.3617246E-2,-1.7790946E-1,-8.591319E-3,6.1809945E-1],"split_indices":[12,3,0,16,16,9,9,0,1,12,3,12,2,1,12,13,3,0,9,13,30,1,14,15,6,15,13,10,12,13,15,6,14,10,12,9,12,0,36,15,0,9,14,15,9,36,2,16,13,15,13,24,4,14,13,12,4,6,14,9,0,0,12,0,0,0,0,0,0,0,0,0,0,0,0,0,0,0,0,0,0,0,0,0,0,0,0,0,0,0,0,0,0,0,0,0,0,0,0,0,0,0,0,0,0,0,0,0,0,0,0,0,0,0,0,0,0,0,0,0,0,0,0,0,0,0,0],"split_type":[0,0,0,0,0,0,0,0,0,0,0,0,0,0,0,0,0,0,0,0,0,0,0,0,0,0,0,0,0,0,0,0,0,0,0,0,0,0,0,0,0,0,0,0,0,0,0,0,0,0,0,0,0,0,0,0,0,0,0,0,0,0,0,0,0,0,0,0,0,0,0,0,0,0,0,0,0,0,0,0,0,0,0,0,0,0,0,0,0,0,0,0,0,0,0,0,0,0,0,0,0,0,0,0,0,0,0,0,0,0,0,0,0,0,0,0,0,0,0,0,0,0,0,0,0,0,0],"sum_hessian":[6.897161E4,4.224029E4,2.673132E4,1.9854734E4,2.2385557E4,2.016653E4,6.5647896E3,1.286223E4,6.9925034E3,1.1593437E4,1.079212E4,1.168E4,8.48653E3,4.65342E3,1.9113695E3,1.5202812E3,1.1341949E4,1.9543778E3,5.0381255E3,1.0159956E4,1.4334805E3,5.7549463E3,5.0371733E3,4.0179512E3,7.662049E3,6.842641E3,1.6438888E3,1.1875332E3,3.465887E3,8.558044E2,1.0555652E3,1.0926112E3,4.2766998E2,7.3515835E3,3.990366E3,5.212101E2,1.4331677E3,4.86704E3,1.7108578E2,5.621009E3,4.538947E3,1.1934945E3,2.3998596E2,3.8647808E3,1.8901656E3,1.0239936E3,4.01318E3,7.4503827E2,3.2729128E3,4.21036E3,3.451689E3,2.1129868E3,4.7296543E3,7.7850336E2,8.653854E2,1.1764396E3,1.10937395E1,1.7910624E3,1.6748245E3,5.900264E2,2.6577798E2,1.0252291E3,3.0336012E1,8.746337E1,1.0051479E3,1.5200534E2,2.7566464E2,7.347449E3,4.13402E0,3.677319E3,3.1304684E2,4.7254974E2,4.8660343E1,8.94684E2,5.3848376E2,2.5446306E3,2.3224094E3,1.578721E2,1.3213682E1,4.901591E3,7.1941833E2,2.9828145E3,1.5561326E3,5.4041046E2,6.53084E2,1.1818572E2,1.2180023E2,3.8613396E3,3.4411333E0,1.3570414E3,5.3312427E2,9.447431E2,7.925051E1,3.293915E3,7.192648E2,6.750617E2,6.997657E1,2.477204E3,7.95709E2,1.0302437E3,3.1801165E3,1.9172621E3,1.534427E3,1.6937341E3,4.1925266E2,3.0982747E3,1.6313798E3,4.7119196E2,3.073114E2,8.410718E2,2.4313612E1,7.227692E2,4.5367032E2,2.4270802E0,8.666659E0,1.0092194E0,1.7900531E3,1.637572E3,3.7252434E1,5.8040076E2,9.625679E0,1.1072349E2,1.5505449E2,8.198352E2,2.0539394E2,2.1042618E1,9.293394E0],"tree_param":{"num_deleted":"0","num_feature":"42","num_nodes":"127","size_leaf_vector":"1"}},{"base_weights":[-5.8596575E-1,-7.835859E-1,-3.1577566E-1,-9.1171557E-1,-6.7619956E-1,-2.4104E-1,-6.412364E-1,-9.513069E-1,-8.4029776E-1,-8.1252164E-1,-5.391013E-1,-3.5951382E-1,-1.4594097E-1,-5.3451186E-1,-8.071564E-1,-8.578566E-1,-9.640655E-1,-6.621538E-1,-8.8773805E-1,-8.3371794E-1,-6.6568255E-1,-5.828569E-1,-3.336766E-1,-6.246188E-1,-2.9795492E-1,-8.5555114E-2,-4.0463912E-1,-7.2223955E-1,-4.4846046E-1,-6.838495E-1,-8.81288E-1,-9.135785E-1,-7.1970636E-1,-9.815682E-1,-9.3182814E-1,-8.1902444E-1,-5.900641E-1,-8.4902847E-1,-9.695274E-1,-8.766557E-1,-7.815212E-1,-7.194831E-1,-4.2115593E-1,-6.539643E-1,-4.5675585E-1,-4.362969E-1,-5.5326626E-2,-8.569442E-1,-5.6093574E-1,-3.3564648E-1,1.09626845E-1,2.4386851E-2,-2.1265127E-1,-4.3631807E-1,9.54129E-1,-7.3523855E-1,4.8608896E-1,1.1760994E0,-4.5864356E-1,-8.4278744E-1,-5.6669813E-1,-9.359493E-1,-8.198126E-1,-2.913145E-1,-2.5940445E-1,-2.1873052E-1,9.620522E-2,-2.9471564E-1,-1.3194783E-1,-2.8222746E-1,-2.4698873E-1,2.4285825E-1,-2.4881999E-1,-1.3912858E-1,-2.094162E-1,-2.5555086E-1,1.5545118E-1,-2.912902E-1,8.612402E-2,-2.6800203E-1,-2.3563558E-1,-2.1173827E-1,-2.525915E-1,-1.5788999E-1,-2.2762726E-1,-4.196495E-2,-2.230949E-1,-1.8034244E-1,-2.355891E-1,-1.8258286E-1,-1.1686857E-1,-1.3657393E-1,2.1054591E-1,5.248983E-1,-3.6086474E-2,-2.6153004E-1,2.3837468E-2,-1.7796955E-1,9.731021E-3,-1.1206759E-1,-4.2670774E-3,1.0357206E0,7.7429945E-3,2.7990112E-2,-5.180435E-2,-8.810373E-2,1.3013058E-2,2.4428345E-1,-1.4144842E-1,-1.1643278E-1,6.06792E-1,-2.591004E-1,-1.8818156E-1,4.124462E-1,-1.4528252E-1,7.9962224E-2,6.6130793E-1,-1.5395421E-1,-4.8123978E-2,-2.6657873E-1,-1.9674E-1,-1.99019E-1,-7.6349154E-2,-2.812661E-1,-1.5570558E-2,-2.5161928E-1,-1.17418386E-1],"categories":[],"categories_nodes":[],"categories_segments":[],"categories_sizes":[],"default_left":[0,0,0,0,0,0,0,0,1,0,0,0,0,0,0,1,0,0,0,1,0,0,0,0,0,0,0,0,0,0,0,1,0,1,0,0,1,0,0,0,0,0,0,0,0,1,0,0,0,0,0,0,0,0,0,0,0,0,1,0,0,1,0,0,0,0,0,0,0,0,0,0,0,0,0,0,0,0,0,0,0,0,0,0,0,0,0,0,0,0,0,0,0,0,0,0,0,0,0,0,0,0,0,0,0,0,0,0,0,0,0,0,0,0,0,0,0,0,0,0,0,0,0,0,0,0,0],"id":9,"left_children":[1,3,5,7,9,11,13,15,17,19,21,23,25,27,29,31,33,35,37,39,41,43,45,47,49,51,53,55,57,59,61,63,65,67,69,71,73,75,77,79,81,83,85,87,89,91,93,95,97,99,101,103,105,107,109,111,113,115,117,119,121,123,125,-1,-1,-1,-1,-1,-1,-1,-1,-1,-1,-1,-1,-1,-1,-1,-1,-1,-1,-1,-1,-1,-1,-1,-1,-1,-1,-1,-1,-1,-1,-1,-1,-1,-1,-1,-1,-1,-1,-1,-1,-1,-1,-1,-1,-1,-1,-1,-1,-1,-1,-1,-1,-1,-1,-1,-1,-1,-1,-1,-1,-1,-1,-1,-1],"loss_changes":[3.0487422E3,4.531621E2,5.866233E2,4.1710938E1,3.3496484E2,2.2100562E2,7.933252E1,1.0696289E1,4.480127E1,2.744629E1,8.025781E1,1.423789E2,1.7001675E2,4.400641E1,1.549707E1,8.349976E0,3.8789062E0,1.2333862E1,1.2595215E1,1.6925781E1,1.4691925E1,6.585278E1,4.4937195E1,2.3862244E1,1.08979126E2,1.2334351E2,8.907901E1,1.3879425E1,3.1711517E1,1.1918823E1,2.9174194E0,1.4929199E0,3.5671844E0,1.9975586E0,2.1420898E0,6.6576385E0,1.0316406E1,1.1515381E1,2.72937E0,5.8461914E0,1.5682617E1,6.678253E0,1.8760166E1,3.223828E1,2.6939514E1,2.5119125E1,5.0059822E1,4.9561157E0,2.4821747E1,7.909857E1,1.683097E2,6.4302536E1,8.494647E1,8.896402E1,6.854042E1,1.1273865E1,9.086835E0,1.0652639E1,3.0385986E1,1.8194733E0,1.1493843E1,7.6452637E-1,3.9199219E0,0E0,0E0,0E0,0E0,0E0,0E0,0E0,0E0,0E0,0E0,0E0,0E0,0E0,0E0,0E0,0E0,0E0,0E0,0E0,0E0,0E0,0E0,0E0,0E0,0E0,0E0,0E0,0E0,0E0,0E0,0E0,0E0,0E0,0E0,0E0,0E0,0E0,0E0,0E0,0E0,0E0,0E0,0E0,0E0,0E0,0E0,0E0,0E0,0E0,0E0,0E0,0E0,0E0,0E0,0E0,0E0,0E0,0E0,0E0,0E0,0E0,0E0,0E0,0E0],"parents":[2147483647,0,0,1,1,2,2,3,3,4,4,5,5,6,6,7,7,8,8,9,9,10,10,11,11,12,12,13,13,14,14,15,15,16,16,17,17,18,18,19,19,20,20,21,21,22,22,23,23,24,24,25,25,26,26,27,27,28,28,29,29,30,30,31,31,32,32,33,33,34,34,35,35,36,36,37,37,38,38,39,39,40,40,41,41,42,42,43,43,44,44,45,45,46,46,47,47,48,48,49,49,50,50,51,51,52,52,53,53,54,54,55,55,56,56,57,57,58,58,59,59,60,60,61,61,62,62],"right_children":[2,4,6,8,10,12,14,16,18,20,22,24,26,28,30,32,34,36,38,40,42,44,46,48,50,52,54,56,58,60,62,64,66,68,70,72,74,76,78,80,82,84,86,88,90,92,94,96,98,100,102,104,106,108,110,112,114,116,118,120,122,124,126,-1,-1,-1,-1,-1,-1,-1,-1,-1,-1,-1,-1,-1,-1,-1,-1,-1,-1,-1,-1,-1,-1,-1,-1,-1,-1,-1,-1,-1,-1,-1,-1,-1,-1,-1,-1,-1,-1,-1,-1,-1,-1,-1,-1,-1,-1,-1,-1,-1,-1,-1,-1,-1,-1,-1,-1,-1,-1,-1,-1,-1,-1,-1,-1],"split_conditions":[3.5083404E0,2.93E2,1.56E1,9.49509E-2,9.49509E-2,3.3562626E1,1.97E1,1.01E1,1.3E1,7.7702016E-1,3.6E1,5E0,1.5022347E1,9E0,1.92E1,6.600062E-1,2.87E2,2.891683E-1,2.07E1,8.510506E-1,1E0,3.294E2,1E0,3.792E-1,4.2579365E0,1.01E1,1E0,3.615E2,5.9100002E1,1.821931E1,2.4792484E1,1.5812446E-1,6.6E1,1.3900001E1,1.0983074E0,4.4E0,9.7E0,1.2900001E1,1.7062634E1,3.9E1,1.44372E1,4.9100002E1,1.46424E1,1.33E1,2.2874204E-2,4.0908294E0,9.696E0,1E0,1E0,3.554E2,4.445809E0,1E0,1.6199989E0,8.673113E1,1.5616E0,2.8621042E1,8.7666523E-1,3.018444E0,1.7883112E0,2.1933453E0,4.5E0,3.9007723E0,1.39092E1,-2.913145E-1,-2.5940445E-1,-2.1873052E-1,9.620522E-2,-2.9471564E-1,-1.3194783E-1,-2.8222746E-1,-2.4698873E-1,2.4285825E-1,-2.4881999E-1,-1.3912858E-1,-2.094162E-1,-2.5555086E-1,1.5545118E-1,-2.912902E-1,8.612402E-2,-2.6800203E-1,-2.3563558E-1,-2.1173827E-1,-2.525915E-1,-1.5788999E-1,-2.2762726E-1,-4.196495E-2,-2.230949E-1,-1.8034244E-1,-2.355891E-1,-1.8258286E-1,-1.1686857E-1,-1.3657393E-1,2.1054591E-1,5.248983E-1,-3.6086474E-2,-2.6153004E-1,2.3837468E-2,-1.7796955E-1,9.731021E-3,-1.1206759E-1,-4.2670774E-3,1.0357206E0,7.7429945E-3,2.7990112E-2,-5.180435E-2,-8.810373E-2,1.3013058E-2,2.4428345E-1,-1.4144842E-1,-1.1643278E-1,6.06792E-1,-2.591004E-1,-1.8818156E-1,4.124462E-1,-1.4528252E-1,7.9962224E-2,6.6130793E-1,-1.5395421E-1,-4.8123978E-2,-2.6657873E-1,-1.9674E-1,-1.99019E-1,-7.6349154E-2,-2.812661E-1,-1.5570558E-2,-2.5161928E-1,-1.17418386E-1],"split_indices":[12,3,1,16,16,12,0,0,0,12,15,15,16,15,1,13,3,13,0,13,30,9,27,14,16,1,37,9,4,12,12,13,15,10,12,1,1,10,16,15,14,4,14,0,12,13,14,39,17,9,16,25,2,12,14,12,13,16,13,13,10,13,14,0,0,0,0,0,0,0,0,0,0,0,0,0,0,0,0,0,0,0,0,0,0,0,0,0,0,0,0,0,0,0,0,0,0,0,0,0,0,0,0,0,0,0,0,0,0,0,0,0,0,0,0,0,0,0,0,0,0,0,0,0,0,0,0],"split_type":[0,0,0,0,0,0,0,0,0,0,0,0,0,0,0,0,0,0,0,0,0,0,0,0,0,0,0,0,0,0,0,0,0,0,0,0,0,0,0,0,0,0,0,0,0,0,0,0,0,0,0,0,0,0,0,0,0,0,0,0,0,0,0,0,0,0,0,0,0,0,0,0,0,0,0,0,0,0,0,0,0,0,0,0,0,0,0,0,0,0,0,0,0,0,0,0,0,0,0,0,0,0,0,0,0,0,0,0,0,0,0,0,0,0,0,0,0,0,0,0,0,0,0,0,0,0,0],"sum_hessian":[5.7101547E4,3.297867E4,2.4122877E4,1.5033609E4,1.794506E4,1.9619406E4,4.5034707E3,9.663957E3,5.369653E3,8.995532E3,8.949529E3,8.734828E3,1.0884578E4,2.7431917E3,1.7602792E3,1.1691039E3,8.494853E3,1.1323824E3,4.23727E3,7.85673E3,1.1388026E3,7.376492E3,1.5730366E3,1.6443301E3,7.090498E3,8.825777E3,2.0588008E3,8.5988794E2,1.8833037E3,6.6476575E2,1.0955134E3,8.290849E2,3.4001895E2,5.4865693E3,3.0082837E3,3.5327594E2,7.791065E2,2.8837954E3,1.3534747E3,4.3020264E3,3.5547034E3,9.31838E2,2.0696452E2,4.714077E3,2.6624153E3,1.1489E3,4.2413663E2,3.5108047E2,1.2932496E3,6.4904624E3,6.00036E2,4.732678E3,4.0930996E3,2.012558E3,4.624279E1,8.511232E2,8.764737E0,1.1018213E1,1.8722855E3,2.79448E2,3.8531772E2,5.723652E2,5.2314825E2,3.7246204E2,4.5662286E2,3.372724E2,2.7465568E0,5.477493E3,9.075867E0,2.772497E3,2.3578654E2,1.7488687E0,3.515271E2,3.6154602E2,4.175605E2,2.8782615E3,5.533947E0,1.3521528E3,1.3219832E0,3.6293042E3,6.7272217E2,1.583593E3,1.9711104E3,1.5987E2,7.71968E2,1.1131312E2,9.56514E1,3.3658774E3,1.3481995E3,8.142378E2,1.8481775E3,1.1306744E3,1.8225605E1,1.3833478E1,4.1030316E2,3.4567767E2,5.4028144E0,1.2264941E3,6.675544E1,5.8055317E3,6.8493036E2,1.3694235E1,5.8634174E2,3.506872E3,1.225806E3,3.109012E3,9.840876E2,5.4454395E1,1.9581035E3,2.0778324E1,2.5464468E1,3.855279E2,4.6559534E2,4.3572416E0,4.407496E0,6.5147433E0,4.5034704E0,1.5822246E3,2.9006088E2,2.2144583E2,5.800217E1,2.9333707E2,9.198067E1,5.7126794E2,1.097229E0,5.0010648E2,2.304177E1],"tree_param":{"num_deleted":"0","num_feature":"42","num_nodes":"127","size_leaf_vector":"1"}},{"base_weights":[-5.0694764E-1,-7.448735E-1,-2.703119E-1,-8.975361E-1,-6.3342017E-1,-4.8414865E-1,-1.6095166E-1,-9.40443E-1,-8.1379E-1,-7.722102E-1,-4.874959E-1,-3.8658926E-1,-7.201257E-1,-2.9984102E-1,-8.304502E-2,-8.726911E-1,-9.709733E-1,-6.4433265E-1,-8.837069E-1,-8.5263515E-1,-7.339975E-1,-5.411875E-1,-2.6785758E-1,-5.492813E-1,-2.967156E-1,-8.118555E-1,-5.578812E-1,-2.2389203E-1,-4.9678132E-1,-4.080493E-1,-5.3870812E-2,-8.7656444E-1,5.972082E-1,-1.2579706E-1,-9.713875E-1,-6.687061E-1,1.9061854E-2,-8.974234E-1,-3.9362043E-1,-8.6729926E-1,-5.529492E-1,-6.568214E-1,-8.1563497E-1,-7.594517E-1,-5.0110143E-1,-1.2625252E-1,-5.017101E-1,-2.8148177E-1,-6.025919E-1,-3.5259598E-1,7.245375E-2,-7.143717E-1,-8.748669E-1,-7.693087E-1,-4.2658925E-1,-4.3258104E-1,-1.4100635E-1,-8.1918263E-1,-4.3852144E-1,-4.8996446E-1,-9.882012E-2,-1.3097717E-1,8.951269E-2,-2.8751802E-1,-2.484301E-1,-1.3545905E-1,8.880145E-1,-1.7676869E-1,1.4868596E-1,-2.777331E-1,-2.9434353E-1,-2.2659896E-1,-1.5254973E-1,-5.0361376E-2,8.61904E-1,-2.7022058E-1,-3.8540512E-2,-2.2460507E-1,5.399534E-2,-2.6082495E-1,1.8250863E-1,-2.2133355E-1,2.3118937E-2,-1.770802E-1,-2.1902652E-1,-2.3214321E-1,-2.766305E-1,-2.2880456E-1,2.7433354E-1,-1.7814079E-1,-1.1128515E-1,-4.1648656E-2,1.1284633E0,-1.7256832E-1,-8.196401E-2,-9.4185345E-2,6.296237E-1,-2.5907478E-1,-1.6658616E-1,-7.390342E-2,-1.4709648E-1,1.5060385E-3,2.4665196E-1,-2.28424E-1,-6.7979425E-2,-2.7320358E-1,-2.3751168E-1,-2.3908068E-1,8.811242E-2,-2.5403226E-2,-1.4817214E-1,-1.578377E-1,-9.905258E-3,-5.3235453E-2,2.698923E-1,-2.6116988E-1,-1.2569159E-2,-1.4619356E-1,-4.2928204E-2,-8.3682865E-2,-1.7718412E-1,5.580678E-1,-1.1182035E-1,-8.9729704E-2,-2.0742733E-2,2.0446891E-2,2.6686022E-1],"categories":[],"categories_nodes":[],"categories_segments":[],"categories_sizes":[],"default_left":[0,0,0,0,0,0,0,0,1,1,0,0,0,0,0,0,0,0,0,0,0,0,0,0,1,0,0,0,0,0,0,1,1,0,0,0,1,0,0,0,0,0,0,0,0,0,0,0,0,0,0,0,0,0,0,0,0,0,0,0,0,0,0,0,0,0,0,0,0,0,0,0,0,0,0,0,0,0,0,0,0,0,0,0,0,0,0,0,0,0,0,0,0,0,0,0,0,0,0,0,0,0,0,0,0,0,0,0,0,0,0,0,0,0,0,0,0,0,0,0,0,0,0,0,0,0,0],"id":10,"left_children":[1,3,5,7,9,11,13,15,17,19,21,23,25,27,29,31,33,35,37,39,41,43,45,47,49,51,53,55,57,59,61,63,65,67,69,71,73,75,77,79,81,83,85,87,89,91,93,95,97,99,101,103,105,107,109,111,113,115,117,119,121,123,125,-1,-1,-1,-1,-1,-1,-1,-1,-1,-1,-1,-1,-1,-1,-1,-1,-1,-1,-1,-1,-1,-1,-1,-1,-1,-1,-1,-1,-1,-1,-1,-1,-1,-1,-1,-1,-1,-1,-1,-1,-1,-1,-1,-1,-1,-1,-1,-1,-1,-1,-1,-1,-1,-1,-1,-1,-1,-1,-1,-1,-1,-1,-1,-1],"loss_changes":[2.7210986E3,4.0950195E2,5.666487E2,3.577002E1,2.8182666E2,1.884928E2,1.7348761E2,1.3045898E1,4.033008E1,2.1316406E1,7.998816E1,8.469336E1,3.5224487E1,8.607501E1,9.739879E1,1.24592285E1,1.4960938E0,1.6375488E1,1.605603E1,9.599609E0,3.0004883E1,4.7385376E1,4.4203873E1,2.9296326E1,7.7189606E1,8.768433E0,2.3794952E1,7.19003E1,2.9747314E1,2.1385773E1,1.0426094E2,7.499756E0,1.6463482E1,1.2747288E0,1.1474609E0,1.3162415E1,2.0133633E1,5.9294434E0,1.4033163E1,7.3548584E0,1.2836666E1,1.1744507E1,9.75708E0,5.26709E0,5.546289E1,4.129742E1,8.306564E0,2.728577E1,2.0760742E1,4.7422333E1,2.4899181E1,1.3728668E1,2.0320435E0,9.974533E0,1.234948E1,4.41678E1,1.1314689E2,9.715378E0,1.9528961E1,1.4038223E1,9.645865E1,6.372918E1,5.62892E1,0E0,0E0,0E0,0E0,0E0,0E0,0E0,0E0,0E0,0E0,0E0,0E0,0E0,0E0,0E0,0E0,0E0,0E0,0E0,0E0,0E0,0E0,0E0,0E0,0E0,0E0,0E0,0E0,0E0,0E0,0E0,0E0,0E0,0E0,0E0,0E0,0E0,0E0,0E0,0E0,0E0,0E0,0E0,0E0,0E0,0E0,0E0,0E0,0E0,0E0,0E0,0E0,0E0,0E0,0E0,0E0,0E0,0E0,0E0,0E0,0E0,0E0,0E0,0E0],"parents":[2147483647,0,0,1,1,2,2,3,3,4,4,5,5,6,6,7,7,8,8,9,9,10,10,11,11,12,12,13,13,14,14,15,15,16,16,17,17,18,18,19,19,20,20,21,21,22,22,23,23,24,24,25,25,26,26,27,27,28,28,29,29,30,30,31,31,32,32,33,33,34,34,35,35,36,36,37,37,38,38,39,39,40,40,41,41,42,42,43,43,44,44,45,45,46,46,47,47,48,48,49,49,50,50,51,51,52,52,53,53,54,54,55,55,56,56,57,57,58,58,59,59,60,60,61,61,62,62],"right_children":[2,4,6,8,10,12,14,16,18,20,22,24,26,28,30,32,34,36,38,40,42,44,46,48,50,52,54,56,58,60,62,64,66,68,70,72,74,76,78,80,82,84,86,88,90,92,94,96,98,100,102,104,106,108,110,112,114,116,118,120,122,124,126,-1,-1,-1,-1,-1,-1,-1,-1,-1,-1,-1,-1,-1,-1,-1,-1,-1,-1,-1,-1,-1,-1,-1,-1,-1,-1,-1,-1,-1,-1,-1,-1,-1,-1,-1,-1,-1,-1,-1,-1,-1,-1,-1,-1,-1,-1,-1,-1,-1,-1,-1,-1,-1,-1,-1,-1,-1,-1,-1,-1,-1,-1,-1,-1],"split_conditions":[1.9320508E0,2.921E2,2.158E2,9.49509E-2,9.49509E-2,1.7800001E1,1.4332579E0,1.18E1,1.27E1,4.1125357E-1,3.6E1,1.6029696E1,4.3266685E1,1E0,5.612E-1,1.08E1,3.1800001E1,8.5E0,3.234E2,9.623848E-1,1E1,6.42E-1,1.06E1,5.08E1,1.0743797E0,2.0300001E1,1.11700005E2,2.119942E-1,3.908E-1,5.74491E2,3.056E2,2.4916147E-1,1.6116568E0,2.736E2,1.42E1,1.08823344E-1,3.5900002E0,1.26E1,6.6E-3,3.721E2,1E0,1.47468E1,1.55E1,1.01E1,2.853E2,1.0662492E1,4.2E1,9.2E0,5.752E-1,2.92E1,2.8491838E0,2.1133347E0,3.1E1,4E1,2.9300001E1,1E0,2.13896E1,3.791738E1,5.5670002E1,7.215323E-1,3.464209E0,-3.17E0,5.3E0,-2.8751802E-1,-2.484301E-1,-1.3545905E-1,8.880145E-1,-1.7676869E-1,1.4868596E-1,-2.777331E-1,-2.9434353E-1,-2.2659896E-1,-1.5254973E-1,-5.0361376E-2,8.61904E-1,-2.7022058E-1,-3.8540512E-2,-2.2460507E-1,5.399534E-2,-2.6082495E-1,1.8250863E-1,-2.2133355E-1,2.3118937E-2,-1.770802E-1,-2.1902652E-1,-2.3214321E-1,-2.766305E-1,-2.2880456E-1,2.7433354E-1,-1.7814079E-1,-1.1128515E-1,-4.1648656E-2,1.1284633E0,-1.7256832E-1,-8.196401E-2,-9.4185345E-2,6.296237E-1,-2.5907478E-1,-1.6658616E-1,-7.390342E-2,-1.4709648E-1,1.5060385E-3,2.4665196E-1,-2.28424E-1,-6.7979425E-2,-2.7320358E-1,-2.3751168E-1,-2.3908068E-1,8.811242E-2,-2.5403226E-2,-1.4817214E-1,-1.578377E-1,-9.905258E-3,-5.3235453E-2,2.698923E-1,-2.6116988E-1,-1.2569159E-2,-1.4619356E-1,-4.2928204E-2,-8.3682865E-2,-1.7718412E-1,5.580678E-1,-1.1182035E-1,-8.9729704E-2,-2.0742733E-2,2.0446891E-2,2.6686022E-1],"split_indices":[12,3,9,16,16,0,16,1,1,13,15,12,12,25,14,10,4,10,9,12,0,14,0,4,13,0,9,16,14,12,3,13,13,5,0,12,2,10,8,9,36,14,0,10,5,16,15,10,14,6,13,13,15,15,6,33,14,12,12,13,16,2,10,0,0,0,0,0,0,0,0,0,0,0,0,0,0,0,0,0,0,0,0,0,0,0,0,0,0,0,0,0,0,0,0,0,0,0,0,0,0,0,0,0,0,0,0,0,0,0,0,0,0,0,0,0,0,0,0,0,0,0,0,0,0,0,0],"split_type":[0,0,0,0,0,0,0,0,0,0,0,0,0,0,0,0,0,0,0,0,0,0,0,0,0,0,0,0,0,0,0,0,0,0,0,0,0,0,0,0,0,0,0,0,0,0,0,0,0,0,0,0,0,0,0,0,0,0,0,0,0,0,0,0,0,0,0,0,0,0,0,0,0,0,0,0,0,0,0,0,0,0,0,0,0,0,0,0,0,0,0,0,0,0,0,0,0,0,0,0,0,0,0,0,0,0,0,0,0,0,0,0,0,0,0,0,0,0,0,0,0,0,0,0,0,0,0],"sum_hessian":[4.8333195E4,2.409983E4,2.4233367E4,1.0166823E4,1.3933007E4,8.198689E3,1.6034677E4,6.7157935E3,3.4510298E3,7.1388677E3,6.7941387E3,5.802439E3,2.3962505E3,5.7611113E3,1.0273565E4,2.0953809E3,4.6204126E3,1.0109669E3,2.4400627E3,2.2925344E3,4.8463335E3,5.4583545E3,1.3357843E3,2.0629365E3,3.7395024E3,1.5282207E3,8.6802985E2,4.159254E3,1.6018577E3,8.4517914E2,9.428387E3,2.0902764E3,5.104489E0,2.4123209E0,4.618E3,9.75132E2,3.583488E1,2.3728215E3,6.724123E1,2.1837844E3,1.0875006E2,2.4958887E3,2.3504448E3,8.441435E2,4.614211E3,8.32948E2,5.0283633E2,3.435305E2,1.7194061E3,3.2479167E3,4.915857E2,6.048326E2,9.2338806E2,3.3067075E2,5.3735913E2,1.1811481E3,2.9781057E3,2.4316399E2,1.3586936E3,6.6771594E2,1.7746317E2,6.131291E3,3.2970955E3,7.705209E2,1.3197556E3,4.0955825E0,1.0089065E0,1.4114825E0,1.0008384E0,8.307292E2,3.787271E3,6.305043E2,3.4462778E2,3.4515316E1,1.3195655E0,2.3624753E3,1.03463335E1,4.1343967E1,2.589726E1,2.181066E3,2.7185035E0,8.39502E1,2.4799864E1,1.3126034E3,1.1832852E3,1.6934557E3,6.569892E2,8.43061E2,1.0825267E0,2.6927288E3,1.9214822E3,8.312234E2,1.7245674E0,3.7928577E2,1.2355057E2,3.3976376E2,3.766717E0,2.611772E2,1.4582289E3,1.8350317E3,1.4128851E3,4.5194235E2,3.964333E1,5.511207E2,5.3711872E1,6.3848676E2,2.8490134E2,3.2253854E2,8.1321945E0,8.876645E1,4.4859268E2,9.568229E2,2.2432524E2,2.8781382E3,9.996761E1,2.2797345E2,1.51905365E1,1.1655511E3,1.931425E2,2.1684647E2,4.508695E2,2.1058771E1,1.5640439E2,1.6476567E3,4.4836343E3,3.2124258E3,8.466977E1],"tree_param":{"num_deleted":"0","num_feature":"42","num_nodes":"127","size_leaf_vector":"1"}},{"base_weights":[-4.280632E-1,-6.804823E-1,-2.1197858E-1,-8.694319E-1,-5.61089E-1,-1.5008077E-1,-5.269475E-1,-9.219686E-1,-7.6918685E-1,-7.138226E-1,-4.1197366E-1,-2.4766278E-1,-5.984846E-2,-4.4849437E-1,-8.0254936E-1,-8.3899695E-1,-9.5906585E-1,-5.770663E-1,-8.562601E-1,-6.8723065E-1,-8.9257395E-1,-3.6293224E-1,-6.6981524E-1,-1.0992883E-1,-3.3261412E-1,-1.4021055E-1,4.262414E-2,-5.919476E-1,-3.0408448E-1,-3.8704917E-1,-8.150411E-1,-8.477877E-1,6.829885E-2,-8.641144E-2,-9.5962626E-1,-3.2445624E-1,-6.522294E-1,-8.7498647E-1,-4.2270988E-1,-7.600918E-1,-5.951465E-1,-8.985665E-1,7.768379E-2,-4.1146198E-1,-1.0473261E-1,-7.973183E-1,-5.462884E-1,-1.7291035E-1,1.8699135E-1,-4.910841E-1,-2.5663486E-1,-6.7814356E-1,-1.1745652E-1,-2.3587455E-1,1.0287054E-1,-6.602906E-1,-3.5501736E-1,-3.3400714E-1,5.0599694E-1,-8.015045E-1,1.467256E-1,-8.4135103E-1,-5.883948E-1,-2.8622413E-1,-2.385651E-1,5.7745373E-1,-1.8023379E-1,1.4821444E-1,-1.6855502E-1,-2.7146554E-1,-2.91703E-1,-1.4044578E-1,1.4162032E-2,-1.7951246E-1,-2.8294244E-1,-2.638608E-1,-2.5540926E-2,-1.8711779E-1,1.5940619E-1,-2.3386557E-1,-1.4271499E-1,-1.4040752E-1,-2.1369863E-1,-2.725738E-1,-1.1941336E-1,-2.2898003E-1,4.5149136E-1,-2.0667474E-1,-1.1157495E-1,7.729837E-2,-6.1109107E-2,-2.4416073E-1,-1.3275883E-1,-1.7371018E-1,5.2810077E-2,-1.1808651E-1,-3.2253794E-2,-6.0726874E-2,1.055141E-1,-1.6353221E-1,-5.28533E-2,-1.071967E-1,-1.4335322E-2,-2.094574E-1,5.0669245E-2,-4.9190853E-2,2.4552079E-2,-1.5874104E-1,-1.6064503E-3,2.5913494E-2,2.7271932E-1,-2.6506802E-1,-1.823486E-1,2.4688827E-1,-1.16462596E-1,-1.212803E-1,-3.7573524E-2,4.245673E-1,-1.3784789E-1,8.770026E-2,-2.792872E-1,-9.259806E-2,4.709767E-1,-2.5453126E-1,-6.8780347E-3,-2.0867856E-1,2.3925883E-1],"categories":[],"categories_nodes":[],"categories_segments":[],"categories_sizes":[],"default_left":[0,0,0,0,0,0,0,0,1,0,0,0,0,0,0,0,0,1,0,1,0,0,0,0,0,0,0,0,0,0,0,1,0,0,0,0,0,0,0,0,0,0,0,0,0,0,0,0,0,0,1,0,0,1,0,0,0,0,0,0,0,0,0,0,0,0,0,0,0,0,0,0,0,0,0,0,0,0,0,0,0,0,0,0,0,0,0,0,0,0,0,0,0,0,0,0,0,0,0,0,0,0,0,0,0,0,0,0,0,0,0,0,0,0,0,0,0,0,0,0,0,0,0,0,0,0,0],"id":11,"left_children":[1,3,5,7,9,11,13,15,17,19,21,23,25,27,29,31,33,35,37,39,41,43,45,47,49,51,53,55,57,59,61,63,65,67,69,71,73,75,77,79,81,83,85,87,89,91,93,95,97,99,101,103,105,107,109,111,113,115,117,119,121,123,125,-1,-1,-1,-1,-1,-1,-1,-1,-1,-1,-1,-1,-1,-1,-1,-1,-1,-1,-1,-1,-1,-1,-1,-1,-1,-1,-1,-1,-1,-1,-1,-1,-1,-1,-1,-1,-1,-1,-1,-1,-1,-1,-1,-1,-1,-1,-1,-1,-1,-1,-1,-1,-1,-1,-1,-1,-1,-1,-1,-1,-1,-1,-1,-1],"loss_changes":[2.282524E3,4.349463E2,4.3954022E2,3.8643555E1,2.6915088E2,1.659354E2,7.970947E1,1.4269531E1,4.2588867E1,2.7160645E1,7.548303E1,1.05907104E2,8.065599E1,5.9583313E1,3.9370117E0,1.2190552E1,1.5683594E0,1.5097046E1,1.4001587E1,3.370337E1,4.44989E0,6.303247E1,1.4618835E1,6.4654755E1,6.729846E1,6.71096E1,7.226293E1,2.318283E1,3.5067078E1,5.829034E0,4.2425537E0,7.6604004E0,2.0438293E1,1.1790254E0,1.4699707E0,1.000271E1,9.155304E0,6.019165E0,1.4758579E1,1.5337036E1,3.32334E1,3.3910522E0,7.80376E0,4.623291E1,2.8664011E1,2.3890076E0,1.1660187E1,4.1115524E1,3.889238E1,3.0758698E1,7.962169E1,3.8972244E0,4.8844345E1,5.1782867E1,4.699427E1,1.2596313E1,1.3062714E1,2.0323105E1,4.6019966E1,2.3519316E0,8.345762E0,4.0955505E0,1.3325972E1,0E0,0E0,0E0,0E0,0E0,0E0,0E0,0E0,0E0,0E0,0E0,0E0,0E0,0E0,0E0,0E0,0E0,0E0,0E0,0E0,0E0,0E0,0E0,0E0,0E0,0E0,0E0,0E0,0E0,0E0,0E0,0E0,0E0,0E0,0E0,0E0,0E0,0E0,0E0,0E0,0E0,0E0,0E0,0E0,0E0,0E0,0E0,0E0,0E0,0E0,0E0,0E0,0E0,0E0,0E0,0E0,0E0,0E0,0E0,0E0,0E0,0E0,0E0,0E0],"parents":[2147483647,0,0,1,1,2,2,3,3,4,4,5,5,6,6,7,7,8,8,9,9,10,10,11,11,12,12,13,13,14,14,15,15,16,16,17,17,18,18,19,19,20,20,21,21,22,22,23,23,24,24,25,25,26,26,27,27,28,28,29,29,30,30,31,31,32,32,33,33,34,34,35,35,36,36,37,37,38,38,39,39,40,40,41,41,42,42,43,43,44,44,45,45,46,46,47,47,48,48,49,49,50,50,51,51,52,52,53,53,54,54,55,55,56,56,57,57,58,58,59,59,60,60,61,61,62,62],"right_children":[2,4,6,8,10,12,14,16,18,20,22,24,26,28,30,32,34,36,38,40,42,44,46,48,50,52,54,56,58,60,62,64,66,68,70,72,74,76,78,80,82,84,86,88,90,92,94,96,98,100,102,104,106,108,110,112,114,116,118,120,122,124,126,-1,-1,-1,-1,-1,-1,-1,-1,-1,-1,-1,-1,-1,-1,-1,-1,-1,-1,-1,-1,-1,-1,-1,-1,-1,-1,-1,-1,-1,-1,-1,-1,-1,-1,-1,-1,-1,-1,-1,-1,-1,-1,-1,-1,-1,-1,-1,-1,-1,-1,-1,-1,-1,-1,-1,-1,-1,-1,-1,-1,-1,-1,-1,-1],"split_conditions":[1.8608533E0,2.916E2,1.6800001E1,9.49509E-2,9.49509E-2,2.981E2,2E1,1.18E1,1.2900001E1,1.51E1,1.4900001E1,1.05E1,5.5670002E1,2.8621042E1,-3.9400005E0,9E0,3.1800001E1,1.02E1,3.039E2,8.510506E-1,1.01E1,1E0,2.581E2,5.4999924E-1,1.6029696E1,4.016E-1,-3.6900005E0,1.9055367E0,4E1,3.0145885E1,3.6E1,2.033385E-1,1.75E1,-2.17E0,1.4400001E1,1.13976456E-1,9E0,1.26E1,2.831E2,9.107217E-1,1.47468E1,3.038E2,3.464E2,6.42E-1,4.25E1,6.4E0,6.810857E0,9E0,1.0255852E0,1E0,6.677086E-1,1E0,1E0,4.6999907E-1,3.687E2,5.612E-1,1.9997956E0,1E0,4.1E1,3.294417E-1,1.5254226E0,4.3899994E0,1.292337E2,-2.8622413E-1,-2.385651E-1,5.7745373E-1,-1.8023379E-1,1.4821444E-1,-1.6855502E-1,-2.7146554E-1,-2.91703E-1,-1.4044578E-1,1.4162032E-2,-1.7951246E-1,-2.8294244E-1,-2.638608E-1,-2.5540926E-2,-1.8711779E-1,1.5940619E-1,-2.3386557E-1,-1.4271499E-1,-1.4040752E-1,-2.1369863E-1,-2.725738E-1,-1.1941336E-1,-2.2898003E-1,4.5149136E-1,-2.0667474E-1,-1.1157495E-1,7.729837E-2,-6.1109107E-2,-2.4416073E-1,-1.3275883E-1,-1.7371018E-1,5.2810077E-2,-1.1808651E-1,-3.2253794E-2,-6.0726874E-2,1.055141E-1,-1.6353221E-1,-5.28533E-2,-1.071967E-1,-1.4335322E-2,-2.094574E-1,5.0669245E-2,-4.9190853E-2,2.4552079E-2,-1.5874104E-1,-1.6064503E-3,2.5913494E-2,2.7271932E-1,-2.6506802E-1,-1.823486E-1,2.4688827E-1,-1.16462596E-1,-1.212803E-1,-3.7573524E-2,4.245673E-1,-1.3784789E-1,8.770026E-2,-2.792872E-1,-9.259806E-2,4.709767E-1,-2.5453126E-1,-6.8780347E-3,-2.0867856E-1,2.3925883E-1],"split_indices":[12,3,0,16,16,9,1,1,1,0,0,0,12,12,2,10,4,0,9,13,10,27,9,2,12,14,2,13,15,12,15,13,6,2,0,12,11,10,5,12,14,3,9,14,4,10,16,15,16,30,13,36,24,13,9,14,12,24,15,13,13,2,12,0,0,0,0,0,0,0,0,0,0,0,0,0,0,0,0,0,0,0,0,0,0,0,0,0,0,0,0,0,0,0,0,0,0,0,0,0,0,0,0,0,0,0,0,0,0,0,0,0,0,0,0,0,0,0,0,0,0,0,0,0,0,0,0],"split_type":[0,0,0,0,0,0,0,0,0,0,0,0,0,0,0,0,0,0,0,0,0,0,0,0,0,0,0,0,0,0,0,0,0,0,0,0,0,0,0,0,0,0,0,0,0,0,0,0,0,0,0,0,0,0,0,0,0,0,0,0,0,0,0,0,0,0,0,0,0,0,0,0,0,0,0,0,0,0,0,0,0,0,0,0,0,0,0,0,0,0,0,0,0,0,0,0,0,0,0,0,0,0,0,0,0,0,0,0,0,0,0,0,0,0,0,0,0,0,0,0,0,0,0,0,0,0,0],"sum_hessian":[4.1849113E4,1.9300777E4,2.2548338E4,7.471012E3,1.1829766E4,1.884616E4,3.7021777E3,4.8965957E3,2.574416E3,5.842111E3,5.987655E3,9.05349E3,9.79267E3,2.8838774E3,8.183003E2,1.5201794E3,3.3764165E3,8.052719E2,1.7691442E3,5.089776E3,7.5233527E2,5.032821E3,9.5483356E2,3.4546558E3,5.5988345E3,5.4882505E3,4.3044194E3,1.4451761E3,1.4387012E3,2.4817205E1,7.934831E2,1.5056567E3,1.4522682E1,2.266424E0,3.3741501E3,1.8587965E2,6.193922E2,1.6949174E3,7.4226814E1,2.8374243E3,2.2523516E3,7.4779065E2,4.544604E0,4.2360444E3,7.967764E2,4.6717056E2,4.87663E2,2.850448E3,6.042078E2,1.8126749E3,3.7861594E3,2.2155759E2,5.266693E3,7.6502997E2,3.5393894E3,1.1202507E3,3.249254E2,1.3880184E3,5.0682735E1,1.3687678E1,1.1129528E1,7.08523E2,8.4960045E1,4.925739E2,1.0130828E3,3.3500783E0,1.1172605E1,1.002877E0,1.263547E0,6.4968445E2,2.7244656E3,1.3386407E2,5.201558E1,5.252189E2,9.4173386E1,1.6850977E3,9.819685E0,6.1595264E1,1.2631546E1,2.654063E3,1.8336125E2,1.0827537E3,1.1695978E3,7.323254E2,1.5465253E1,3.1524365E0,1.3921671E0,5.2639606E2,3.7096484E3,1.7056985E2,6.262066E2,4.4511227E2,2.2058306E1,4.6670395E2,2.095904E1,6.503972E2,2.2000508E3,1.7953842E2,4.2466937E2,1.5466166E3,2.6605835E2,2.5541057E3,1.2320537E3,2.1660667E2,4.9509144E0,4.2702544E3,9.964385E2,3.361244E2,4.289056E2,3.4695208E3,6.986854E1,2.1013008E2,9.1012067E2,8.252291E0,3.166731E2,1.0378018E3,3.5021667E2,2.5861998E1,2.4820736E1,1.3153251E0,1.2372354E1,9.024913E0,2.1046145E0,7.024045E2,6.118575E0,7.932259E1,5.6374493E0],"tree_param":{"num_deleted":"0","num_feature":"42","num_nodes":"127","size_leaf_vector":"1"}},{"base_weights":[-3.527173E-1,-6.34996E-1,-1.7821021E-1,-8.3868325E-1,-5.1027596E-1,-1.3178067E-1,-5.460564E-1,-8.966476E-1,-7.2067493E-1,-6.618654E-1,-3.5789552E-1,-4.3912908E-1,-1.0233579E-1,-7.1458286E-1,-3.7679145E-1,-7.972377E-1,-9.44833E-1,-5.237926E-1,-8.222703E-1,-5.973198E-1,-7.5981677E-1,-5.5265915E-1,-2.8463548E-1,-6.7114323E-1,-3.2790697E-1,-3.5571894E-1,-6.847644E-2,-6.103209E-1,-8.566837E-1,-2.9564604E-1,-7.4312574E-1,-7.362617E-1,-9.5987064E-1,-8.7386304E-1,-9.607549E-1,5.0740246E-2,-5.7856035E-1,-8.507736E-1,-3.5691407E-1,-7.5025064E-1,-5.1271987E-1,-8.2274836E-1,-6.54033E-1,-4.0366042E-1,-6.3705933E-1,-3.1636742E-1,1.15644164E-1,-8.2655054E-1,-5.749907E-1,-4.5166048E-1,-1.5375167E-1,-2.2603299E-1,-4.8799455E-1,-1.2375003E-2,-2.0272447E-1,6.5281135E-1,-6.176803E-1,-8.650841E-1,-3.8738033E-1,-3.8639358E-1,-3.0342873E-2,4.193118E-1,-7.5921017E-1,-2.2598581E-1,9.22073E-3,-2.8886008E-1,-1.1055422E-2,-2.655864E-1,-3.191548E-2,-2.8938365E-1,-2.2060591E-1,3.6475915E-1,-1.9693958E-2,-1.9840108E-1,-1.2243508E-1,-2.4083619E-1,-2.8629476E-1,-1.9781528E-1,7.229669E-2,-2.2777958E-1,2.227154E-2,-1.5482603E-1,3.8553414E-1,-2.2259898E-1,-2.72612E-1,-2.1881895E-1,-1.388944E-1,-1.2639363E-1,3.6723617E-1,-1.9526121E-1,9.961581E-3,-1.3202633E-1,-6.903132E-2,1.5479848E-2,2.992148E-1,1.610626E-1,-2.5297442E-1,-1.8013017E-1,9.8777406E-2,-2.3602998E-1,-1.10264845E-1,-7.5907614E-3,-2.5254655E-1,-9.104948E-2,4.1263983E-2,-1.5904306E-1,-7.472053E-2,-2.815572E-2,2.7361983E-2,-7.813969E-2,-3.4799187E-3,-1.9832993E-1,-6.0854252E-2,-1.2543358E-1,-2.612114E-1,2.8673244E-1,-1.8489236E-1,-6.4088136E-2,-1.4966847E-1,-4.992336E-2,2.2462289E-1,-3.2265726E-3,-2.3794197E-1],"categories":[],"categories_nodes":[],"categories_segments":[],"categories_sizes":[],"default_left":[0,0,0,0,0,0,0,0,1,0,0,0,0,0,0,0,0,1,0,1,0,0,0,0,0,0,0,0,0,1,0,0,0,0,1,0,0,0,0,1,0,0,0,0,1,0,0,0,0,0,0,0,1,0,0,0,1,0,0,0,0,0,0,0,0,0,0,0,0,0,0,0,0,0,0,0,0,0,0,0,0,0,0,0,0,0,0,0,0,0,0,0,0,0,0,0,0,0,0,0,0,0,0,0,0,0,0,0,0,0,0,0,0,0,0,0,0,0,0,0,0,0,0],"id":12,"left_children":[1,3,5,7,9,11,13,15,17,19,21,23,25,27,29,31,33,35,37,39,41,43,45,47,49,51,53,55,57,59,61,63,65,67,69,71,73,75,77,79,81,83,85,87,89,91,93,95,97,99,101,103,105,107,109,-1,111,113,115,117,119,-1,121,-1,-1,-1,-1,-1,-1,-1,-1,-1,-1,-1,-1,-1,-1,-1,-1,-1,-1,-1,-1,-1,-1,-1,-1,-1,-1,-1,-1,-1,-1,-1,-1,-1,-1,-1,-1,-1,-1,-1,-1,-1,-1,-1,-1,-1,-1,-1,-1,-1,-1,-1,-1,-1,-1,-1,-1,-1,-1,-1,-1],"loss_changes":[1.8261982E3,3.5938184E2,3.9125208E2,3.6136475E1,2.0274072E2,1.8408377E2,7.297302E1,1.6500732E1,3.510083E1,2.7388672E1,6.2400085E1,4.5674194E1,1.5928267E2,1.8522644E1,3.792241E1,1.1018311E1,1.8955078E0,1.914151E1,1.5215149E1,3.4020813E1,1.1082397E1,1.4799896E1,4.052957E1,8.12207E0,2.5882736E1,3.7433167E1,1.2337118E2,1.6619812E1,1.7998962E0,2.5318008E1,9.05043E0,1.1307831E1,8.470764E-1,3.8920593E0,1.0010986E0,7.3727293E0,7.5549774E0,4.707947E0,1.2682327E1,7.079834E0,1.1046051E1,6.895935E0,9.107391E0,1.3034721E1,7.081421E0,3.1426483E1,1.3213305E1,5.4071503E0,8.450783E0,1.9537521E1,4.432244E1,3.1219261E1,1.0770294E1,9.752025E1,5.3276398E1,0E0,1.3262299E1,9.70459E-1,4.0741186E0,1.5128822E1,2.866584E1,0E0,5.856018E0,0E0,0E0,0E0,0E0,0E0,0E0,0E0,0E0,0E0,0E0,0E0,0E0,0E0,0E0,0E0,0E0,0E0,0E0,0E0,0E0,0E0,0E0,0E0,0E0,0E0,0E0,0E0,0E0,0E0,0E0,0E0,0E0,0E0,0E0,0E0,0E0,0E0,0E0,0E0,0E0,0E0,0E0,0E0,0E0,0E0,0E0,0E0,0E0,0E0,0E0,0E0,0E0,0E0,0E0,0E0,0E0,0E0,0E0,0E0,0E0],"parents":[2147483647,0,0,1,1,2,2,3,3,4,4,5,5,6,6,7,7,8,8,9,9,10,10,11,11,12,12,13,13,14,14,15,15,16,16,17,17,18,18,19,19,20,20,21,21,22,22,23,23,24,24,25,25,26,26,27,27,28,28,29,29,30,30,31,31,32,32,33,33,34,34,35,35,36,36,37,37,38,38,39,39,40,40,41,41,42,42,43,43,44,44,45,45,46,46,47,47,48,48,49,49,50,50,51,51,52,52,53,53,54,54,56,56,57,57,58,58,59,59,60,60,62,62],"right_children":[2,4,6,8,10,12,14,16,18,20,22,24,26,28,30,32,34,36,38,40,42,44,46,48,50,52,54,56,58,60,62,64,66,68,70,72,74,76,78,80,82,84,86,88,90,92,94,96,98,100,102,104,106,108,110,-1,112,114,116,118,120,-1,122,-1,-1,-1,-1,-1,-1,-1,-1,-1,-1,-1,-1,-1,-1,-1,-1,-1,-1,-1,-1,-1,-1,-1,-1,-1,-1,-1,-1,-1,